49	2	1
15	15	
1	1006
  0.0509849176755110	  0.1347083427327912	  0.0990346470846311	  0.0884894995957294	  0.0117280658603007	  0.0090713113815392	  0.0402164343074136	  0.0526651000903969	  0.0372143147152041	  0.0526667738673440	  0.0127765962603333	  0.0349449139509635	  0.0768519245525230	  0.0051989238707248	  0.0215461437688581	  0.0744512562921099	  0.0426754876723493	  0.0007897724340237	  0.0045851633958909	  0.0079642700953389	  0.0045853091193522	  0.0070930887234533	  0.0205903913657787	  0.0029067998333590	  0.0022483235280475	  0.0101251196010524	  0.0139687479760860	  0.0177688492114597	  0.0139810357102885	  0.0010210765270091	  0.0017686151807916	  0.0024439626819638	  0.0040818040002138	  0.0082370974927155	  0.0082371254938503	  0.0159419360315471	  0.0205897877688264	  0.0422028000713560	  0.0205910965375247	  0.0012967723897481	  0.0047254985808384	  0.0355373440919335	  0.0034185379165549	  0.0097496335920266	  0.0348741187248468	  0.0005301334218055	  0.0042037414896802	  0.0422225081144981	  0.0161286138380750	  0.0630667822639864
  0.0509849197346254	  0.1347083467810807	  0.7516555574499668	  0.2411330602349169	  0.0117280658603007	  0.0090713113815392	  0.0402164358862376	  0.0526651016424080	  0.1436916676930239	  0.0526667754193551	  0.0127765967126398	  0.0349449148402136	  0.1869368026280068	  0.0051989238707248	  0.0215461437688581	  0.2874106029825498	  0.0659755442769587	  0.0007897724340237	  0.0045851633958909	  0.0079642703979793	  0.0045853091193522	  0.0070930887234533	  0.0205903919607803	  0.0029067998333590	  0.0022483235280475	  0.0101251199478579	  0.0139687483170019	  0.0357295768470512	  0.0139810360512043	  0.0010210765270091	  0.0017686151807916	  0.0024439626819638	  0.0040818040002138	  0.0082370974927155	  0.0082371254938503	  0.0159419366368280	  0.0205897883638279	  0.1116921471050319	  0.0205910971325262	  0.0012967723897481	  0.0047254985808384	  0.0714595821678298	  0.0034185380159089	  0.0097496337873599	  0.0520765967828675	  0.0005301334218055	  0.0042037414896802	  0.1117148837887441	  0.0196852174412972	 -0.0056117905800538
                 -0.01529346714928158345
                 -0.07724375774638546355
                  0.24468004328107587075
                 -0.17934651924162214875
                 -0.33698108682564825722
                  0.44049461266443606933
                  0.41647873423482112409
                  0.18896282139589554161
                  0.28781731468920918049
                 -0.04203781559641916327
                 -0.00502253223636405562
                  0.22039562827395189903
                  0.09885972881337010132
                 -0.31755331823315141593
                  0.38580254324086621365
                 -0.25647071473205890202
                  0.04980962703575080724
                  0.49176886978602429856
                  0.27034036607824807330
                  0.11835323467742354941
                  0.40065649400493674737
                  0.49498429565653162543
                 -0.34732966218889377297
                  0.08516594893163036140
                  0.46802638126425505360
                 -0.29844482400738170380
                 -0.19096002355493252312
                  0.07269981736842440201
                 -0.36880163552976219510
                  0.01727353516355390958
                 -0.72813061939300616210
                 -0.05166330404710532676
                 -0.06675401397507910173
                  0.02589161219806179748
                 -0.05483302755415193908
                  0.13206188035968435823
                 -0.01880556084566627553
                 -0.22101046846553712433
                 -0.16341223283433814473
                 -0.49117311432107724212
                  0.36779594371658036467
                  0.11066473627259218460
                  0.32383299297992301780
                  0.03863262604319714355
                 -0.10764338637593591497
                  0.16090160583243484638
                  0.06175375262088757256
                 -0.25157599919172107805
                  0.01294073180449786115
                  0.61894512494588438400
                 -0.17778244140328711143
                  0.03667640202845110636
                 -0.32379535884273907831
                  0.27063065945391101552
                 -0.16002571827029232754
                 -0.11027175816332460134
                 -0.36867929530263215954
                  0.14492416820871906191
                 -0.03758132626161547751
                  0.19837199880764377902
                 -0.30910424100217381849
                 -0.11680036653115501155
                  0.11133820221544525608
                 -0.20771677940005614516
                 -0.21497239420826211309
                  0.20143176522484615432
                 -0.45149647584922797394
                  0.08990551484387673820
                  0.05477018821270303317
                  0.27211881982678837177
                  0.00124742404890634535
                  0.22065249601025899162
                  0.03025658984929570708
                 -0.10415992453188441247
                 -0.00997873026683188460
                  0.19949614358678466330
                  0.32904004616201476541
                 -0.26076477252596969025
                 -0.16425711778263343832
                  0.18753080267718971741
                 -0.19819318606844313346
                 -0.00485062911182025398
                 -0.27586705515319737136
                 -0.61334197687457225889
                 -0.28951740992852970091
                  0.06540335274531926257
                 -0.03568596751369703529
                  0.13925381890109245209
                 -0.34987276261475325212
                 -0.43302864969734133904
                 -0.13892184293922560379
                  0.16608070002965119594
                  0.24137725007941832067
                  0.11465917688207766245
                  0.02214448258542427161
                  0.61287861248566355421
                  0.14925461290454136720
                 -0.10417545150931951936
                  0.11117572863025373953
                  0.18449080849623147871
                  0.00370382266274449368
                 -0.89080064276466730533
                 -0.18180495545816213743
                 -0.15180348013567615539
                  0.26161976992187579993
                  0.01531201782114098055
                  0.54744754893682823216
                 -0.00201771264488497491
                  0.16576433145560742766
                  0.13699985319001864448
                 -0.35750478611778369054
                  0.12992494522800637768
                  0.05580604925482440110
                  0.33673295970418293255
                 -0.25400248960975202461
                  0.27760358475344043550
                  0.10027457426393381057
                  0.30624333191615349392
                 -0.33815954439222123407
                 -0.01599710691212253427
                 -0.16509286247813126369
                  0.27741987272572937728
                 -0.10972678864170305746
                 -0.00747847407599341700
                  0.36518538978014120078
                 -0.56361101640204502861
                  0.23754903897263132673
                 -0.18034905279596066818
                 -0.02352942264146774473
                  0.03513333432896492692
                 -0.37421774765251059058
                 -0.02476435196682046092
                  0.12142212147458288085
                 -0.38206878794147158818
                 -0.47158055421516642536
                  0.37058018629313443926
                 -0.24399376871670430678
                  0.06551318937339176141
                  0.00171413080585013197
                 -0.32421757660647831933
                 -0.17709823637027560794
                 -0.01064650457889134393
                  0.15809506062015130090
                  0.11688935278431558662
                  0.23171898752840394686
                  0.13882436997580044347
                  0.34797110389307478462
                 -0.00762845131646217381
                 -0.32026553986467143353
                  0.46440298337233404391
                  0.29267444355946037327
                  0.30623271693155285078
                 -0.17137447249708359642
                 -0.07239421440543986064
                 -0.25796320287941221228
                 -0.14518814796523374366
                  0.32860944557081972484
                  0.30298061094989331421
                 -0.25159775312618087861
                 -0.15750055154944314628
                 -0.00661911259967813866
                 -0.02526152182576444152
                 -0.03390909451309150058
                  0.00421154868034854298
                  0.11387314754928912208
                 -0.12299281666048636485
                  0.11816984688605762510
                  0.42689171484263432887
                 -0.09420887206545799919
                 -0.19381251437398069881
                 -0.22494659964465946178
                  0.35237952693472907040
                  0.29075669142603094430
                  0.10214557871545279499
                 -0.08318002367259275109
                 -0.08100858175982994513
                  0.18098462327578895836
                 -0.12024705467141805215
                 -0.08067448750329112017
                  0.04836991516036120292
                 -0.16179668603087990486
                 -0.07867719305367870675
                 -0.05559519345006345287
                 -0.28077370164642506678
                  0.24105884735376326145
                  0.03408602125491977386
                  0.17660729932507204798
                 -0.16850491245618987035
                  0.24157461271836472294
                 -0.22592762009734138062
                 -0.17988982116100210584
                  0.00416489785061893193
                 -0.42650661570650827414
                  0.30835861940818726223
                  0.12659798280595410680
                 -0.08427402987933232947
                  0.18806771044055642372
                  0.15704834148327806442
                 -0.06698670262756546701
                  0.11530261071538543127
                  0.22669589847724225251
                  0.38836266437011418562
                 -0.07634904876375091243
                 -0.06267418028854740419
                 -0.59430112853274030815
                 -0.29837411528089319290
                  0.02725340342166865729
                 -0.21930790357703194848
                  0.27450537230201954575
                  0.32373567442022582741
                  0.16068767677117046233
                 -0.10149603468580004062
                 -0.01429117171830928366
                 -0.08185264878801865041
                 -0.44586718012068260464
                 -0.24680763762777824244
                 -0.15479898117388696255
                  0.02724654793346811127
                 -0.47418837721548628972
                  0.08873767782700602014
                 -0.02319181084429296907
                  0.11647866896699275718
                 -0.27961236718467047391
                 -0.25067996309911277919
                  0.15735215889972059555
                 -0.06285087122988250452
                 -0.18677981591311912379
                  0.14675393918834328533
                 -0.22665989753790799499
                  0.06884432070446243335
                 -0.03410459165305610579
                  0.11623726604410367091
                 -0.36288551966261656245
                 -0.10618624197235616846
                  0.25905557679926471959
                  0.02640842388703366558
                 -0.08013935182646210464
                  0.39132382139529242604
                 -0.03049895549904791878
                 -0.06755201108867005255
                  0.22184842523187603414
                  0.32480110106316156804
                 -0.02260682187802970020
                  0.65155706626482390309
                 -0.25176204529960177769
                  0.10284960037305061753
                  0.38053651551943362685
                 -0.05033061061605567654
                  0.32577603421418666052
                 -0.38295759651858601869
                  0.54961593645402428976
                  0.18767742286867561408
                  0.44258640215736383405
                 -0.01568511959255953353
                 -0.00348544093444637642
                  0.11628165268197442062
                  0.23633959222674111311
                 -0.26333893345642667150
                 -0.25663856358303699379
                 -0.79336092883581277313
                 -0.00126842158071879666
                  0.12175439148892204522
                  0.10723017927582172149
                 -0.17334488209916204537
                 -0.06162320877230124949
                 -0.13933320211789718135
                  0.61654208886508266030
                  0.29075653478628610271
                  0.11390612769049193731
                  0.01697650589127787726
                  0.16534459972337434142
                  0.34067834245402700555
                 -0.07192101267949412013
                  0.02951861647763361768
                 -0.12387580330564100517
                 -0.05906385454607747387
                  0.31492491257713001174
                 -0.17750722485207626189
                 -0.13890657769038067260
                 -0.21614059983128636189
                 -0.15094739447218985529
                  0.00569764814288743759
                 -0.13859133845904819671
                  0.59204187062592716906
                 -0.51766579826610259474
                 -0.68705746119262978144
                 -0.00947764333431502966
                 -0.20197535654855167109
                  0.03420510515693944015
                 -0.23601166273157070385
                  0.32990368012108661766
                 -0.05793834717002644547
                  0.36463802791407440296
                  0.01813469224898688059
                  0.04473214803128425232
                  0.07175265650496981396
                  0.03317469038280805582
                  0.29440050557268793163
                  0.06473928667352280009
                 -0.12828417928856639119
                 -0.28098079869635417261
                 -0.10040245832666257197
                  0.33628102229529355238
                  0.00972755127107759361
                 -0.24943808718661616974
                 -0.05187060748723880399
                  0.22532673645119330463
                  0.21937422769389144928
                 -0.12214723607443549180
                  0.14672571251574992313
                  0.09053126675244499433
                  0.34291149374834323238
                 -0.18424043016507490877
                  0.30276921977380222284
                 -0.10487363502995172837
                  0.13078369214546209376
                 -0.04269361282270803248
                 -0.13597478184948663671
                 -0.24837325833150747378
                  0.20136095845982779351
                 -0.33695045741085144497
                  0.32465732684220888205
                  0.23078251359572909962
                  0.18675595120338825406
                 -0.17674454739099199063
                  0.24005244172263967561
                  0.25683217442798877972
                 -0.00199944898002377700
                  0.45217907755904468425
                 -0.26067325265977997484
                  0.07310029008693366692
                  0.08169145766145785581
                 -0.46596492258481575499
                 -0.09596403176470906515
                 -0.07411761762136466480
                 -0.00701546311266247266
                  0.09197479778845533971
                 -0.25946110238756558974
                 -0.05426782645028120633
                 -0.07035049168539413145
                 -0.28835958090329566472
                 -0.18008809373219125671
                 -0.19423619175925230240
                 -0.04311532163684676788
                  0.07666695928926027526
                  0.11486497804636361386
                 -0.22185495651474107515
                 -0.23702863510133115321
                 -0.13743324447725344117
                 -0.09894393810192414485
                 -0.20838332177152796287
                  0.32311046933685305671
                  0.08284588271417861471
                 -0.08316302530426829265
                  0.42652642183445604873
                  0.03816167336564384172
                 -0.05804388804915342620
                 -0.43630289450563702891
                 -0.32180243591825780092
                  0.50863619610070209820
                  0.54934582962713607301
                  0.05760487837563835894
                 -0.13937371798732567374
                  0.35512032875347088190
                  0.42786346271794739593
                 -0.27644272463904817627
                 -0.22543481728239411765
                  0.21612347445385890476
                  0.14224746731845744341
                  0.02335765619412868629
                  0.08525411707529700900
                 -0.31328588051343381204
                 -0.14588097834276680942
                 -0.16667879182693917661
                 -0.46434338010735304314
                  0.53184580486967025781
                  0.40539641903112877408
                 -0.36915298263603973927
                 -0.21284932912952236883
                 -0.08021036308494441935
                  0.46370839286419246461
                  0.28455251681168175493
                 -0.21842412507964142909
                  0.57672565568979772266
                 -0.44124219438930645243
                  0.02342261418279727517
                 -0.19970499391123464061
                  0.05032951464338072251
                 -0.06484049864780451478
                  0.03156833147668977602
                 -0.11245485510301819754
                 -0.06470605902890375072
                  0.32776718034021640191
                 -0.12232397676387082863
                 -0.13225095490124846864
                  0.17166841175799790742
                 -0.21942433506012992694
                 -0.30116678158929255371
                  0.25965970576215169352
                  0.17780131591501188715
                  0.19689040271077123956
                  0.19794098240377600018
                  0.17626490560908519845
                  0.24920937424876027366
                  0.33125882210422369356
                  0.21845227472660952439
                 -0.05557933822252431738
                  0.32281423984788343295
                 -0.35742286100755610301
                 -0.21619585145650427327
                 -0.14807473955583871916
                  0.15470329777897051660
                  0.17889476686635430447
                 -0.35274518231431661874
                 -0.23561028890902177557
                 -0.06387310303953573631
                 -0.19148228459623201081
                 -0.13852766422584705808
                  0.03286548914153102768
                  0.20233267410788602358
                  0.29713255746072142482
                 -0.09105851865061205530
                 -0.06273626495290857141
                  0.35401823462725301450
                  0.55204268246939536269
                 -0.26945541469134776102
                 -0.12142414968980642931
                 -0.44411528364299335259
                  0.17801629619091302592
                 -0.07950247926914057184
                  0.23770533081123160213
                  0.18413824088628064080
                 -0.17479221863490346234
                 -0.22031951243500891291
                  0.03810140719810643783
                  0.00711310280442676787
                 -0.10125437079196569767
                 -0.07027535271542864614
                  0.26446879086726798880
                 -0.28382276736524930660
                 -0.11494641260935281601
                 -0.11508546298714257550
                  0.32710127931659305212
                 -0.24724116151344349701
                 -0.02803208553333665781
                 -0.13736183093268811151
                 -0.46795787312026321247
                  0.22496526237991404384
                  0.04915579990548561012
                 -0.24902897621594582978
                  0.16303760244970158522
                 -0.19146121309869901239
                 -0.12945716905132503838
                  0.01807282568793748198
                 -0.39675729603103487841
                 -0.09720575624211445775
                  0.11479384406190412671
                  0.25010765367660570124
                 -0.14682909924558382175
                 -0.29586002486905438325
                  0.15683258624137474957
                 -0.58288550175619591176
                 -0.40161576563099027348
                  0.26052163527375360452
                 -0.29180420017971953062
                 -0.00049494147556878362
                 -0.00044273164757284607
                  0.28156469765972569341
                 -0.04600548323473258039
                 -0.12092249665629917210
                  0.31662094368932353072
                  0.29166940123087303771
                  0.02200762607071355542
                  0.13073610876868560493
                 -0.09263454106961147017
                  0.12037837782565616318
                  0.03073501665716702955
                  0.76226762446266727036
                  0.14863899406980268791
                 -0.03129216701979538329
                  0.14497677542495523983
                  0.36837355174432845351
                 -0.43906604466333432057
                 -0.10166543633080545039
                  0.32719709818657832789
                  0.17562850820662104234
                 -0.01927664864653744897
                  0.34507286310050688805
                  0.29735669561627325885
                 -0.11128429716668357397
                  0.07545753450085523895
                 -0.01814879234056561430
                 -0.09590700976831517677
                 -0.07288719882266145311
                 -0.07016273668404220121
                 -0.07912210324651475224
                 -0.10689436592060755360
                 -0.04267177074767689038
                 -0.28782066283492596659
                  0.36502571622639529147
                  0.32743586040804112391
                  0.35140063593085263394
                  0.11531199978957021313
                 -0.03491703624058926925
                  0.00231810666314809710
                  0.28689522196243005814
                  0.04711430171776784248
                  0.03731503559671484754
                 -0.14579265025756243945
                  0.25162693780892864126
                 -0.38796193973096609886
                  0.16109924183866536351
                  0.33183652315312922587
                  0.03601749497965923974
                 -0.01675094108762355261
                 -0.30357834225202118272
                  0.10487677020990891774
                 -0.41808471783290857005
                 -0.24516351651207124451
                  0.18331033689459533265
                 -0.50997471581216058389
                  0.25059551532086904446
                  0.14147027071539150511
                  0.25900436616976874049
                 -0.15895920594055654163
                 -0.23376146826161722792
                  0.00378234146337543334
                  0.04092732133129437649
                  0.14873705142547002933
                  0.11712627802615326045
                  0.08642551046079222088
                  0.20737776990762957219
                  0.35381737379350364225
                  0.12629542513693076122
                 -0.25443042403378629546
                 -0.04777967423644791101
                 -0.08086410939071585202
                 -0.02157760674069776272
                 -0.15882866640877454922
                  0.05083540588139754540
                 -0.38681306946191779117
                 -0.10137739376537804881
                 -0.22904138267548282415
                 -0.14043621889418594906
                  0.04648859836094326042
                  0.09901389241865704571
                 -0.15140376662575036337
                 -0.07741970393180701293
                 -0.18447617019971823682
                 -0.17191274645542936605
                  0.16193869176469524729
                  0.01570900646092364059
                 -0.25455152339938164063
                 -0.15145799618638358663
                  0.26921984066696713622
                 -0.00358520869487314459
                  0.17549520276663835294
                  0.28509534760878335602
                 -0.06120302187958254897
                 -0.22782690036706676473
                  0.12628126647625714796
                 -0.19157524027700964520
                 -0.15296013186577830933
                 -0.26578963323292104093
                  0.38090923847486585219
                  0.09165992725500912708
                 -0.27579520633631032789
                 -0.14167595857260331660
                  0.16716080506399258465
                 -0.03927740635451427292
                 -0.14846442096652448517
                  0.12352442121580010925
                 -0.13122247506772807824
                 -0.12240153175423060250
                 -0.17458828628309461251
                  0.22221525738610364842
                 -0.19169618783458261535
                 -0.14782927082918592698
                  0.18343038550903428829
                  0.33373756060124498690
                  0.31251961859598637039
                 -0.13646395885134376957
                 -0.09755796626711732422
                  0.11004520653474782199
                  0.20645073742468081357
                 -0.00090318834995248374
                  0.14175350557649649130
                 -0.00969484343018613484
                  0.19788520238941906260
                 -0.20503656583797910673
                  0.29137366490035787603
                  0.03971303845858775022
                 -0.27217447121370008656
                  0.10578687051869466174
                 -0.24280378250120013273
                  0.54823210716643433482
                 -0.03869399241382449200
                  0.07397720054453055250
                  0.22298870673415588373
                 -0.21445239109874592032
                  0.50086286131673585231
                 -0.01353779493621835341
                 -0.15218685452475044784
                 -0.40606319616659120042
                  0.22679532464677515380
                 -0.09107278332719406788
                  0.11356003528208084841
                 -0.21598645308616862271
                 -0.10141073540693022748
                 -0.09322987749961667014
                 -0.06813190570844654403
                 -0.19319090828549276284
                 -0.23702450129029387083
                  0.04374053765058707327
                  0.11294427468635021006
                  0.38924427194693284049
                  0.28954069652619290887
                 -0.35315200475666719271
                  0.22793605765231853000
                  0.32639358880994778778
                  0.31731812397328296171
                  0.04758229528163983313
                 -0.02365987387933302100
                  0.30294270973363418564
                 -0.16393754380959943417
                 -0.41929802284925521416
                  0.16059948427813877658
                  0.19097099363735267619
                  0.07725741981340034092
                  0.16569337929674149423
                 -0.13556776435124789915
                  0.26452858401413259504
                 -0.13485766375757568536
                 -0.21791222059807735523
                 -0.16770713355548608203
                 -0.21970295659873764760
                 -0.15502565602226453523
                 -0.17029756076800470210
                 -0.06779929212805248240
                  0.04629757043594869698
                 -0.14432884980226848293
                  0.14095726973203159815
                 -0.40449443199221468692
                 -0.02506912579340580052
                  0.19049527876536706539
                 -0.28531277075556549239
                 -0.24931821117628186202
                 -0.23261853540944496532
                  0.25980256139132484883
                  0.09196842249476669395
                  0.51542745263007250234
                  0.14372596381718280578
                  0.12490984421810161220
                  0.30024908044530979057
                 -0.11248794557737096245
                  0.14929012292774981874
                 -0.38019000562983656932
                  0.25575709515763284108
                 -0.23868210190973207507
                  0.03424984294808833957
                  0.35836432382457994450
                 -0.32718651170465340439
                 -0.28459304843432092769
                 -0.26259259343151564181
                 -0.13250487831877508227
                 -0.15124235048244427659
                  0.05192651488739993826
                 -0.28719474604553857366
                  0.32830339426482657572
                  0.22138943236416866456
                  0.46247280677822111272
                  0.08503266680759152818
                 -0.40234117394845120286
                 -0.27138475774005055285
                 -0.06805837650521329163
                  0.16283147959084362522
                  0.36464692961783684577
                 -0.11100180455506178379
                 -0.14936394306196634774
                 -0.39097842914792929614
                 -0.23552381560209015299
                  0.16275115104415213696
                 -0.12692671636491345555
                  0.07759320267908527413
                  0.28104374211976729248
                 -0.16833288581603098044
                 -0.12686838432074878935
                 -0.25189835767363261132
                 -0.19864948837874912835
                 -0.17399992072799719267
                 -0.02959365226192279402
                  0.21317820985333038597
                  0.23950699037288980531
                  0.10389911657842508530
                 -0.51343227925353029928
                 -0.07067448073374683892
                 -0.11826108373558825992
                  0.08731718827111056846
                  0.23124578709863841119
                  0.08210525221281989028
                 -0.23641785644202070737
                  0.02014691472671687605
                 -0.03921671798112355556
                  0.26171298523040698036
                  0.03009935364962072757
                  0.34153028397788354198
                  0.11641549579038282247
                  0.26096455002160168224
                 -0.27503108195495146182
                 -0.18013486761207347930
                  0.14935597719063634092
                  0.23397568864799223043
                  0.19035911850771217169
                 -0.22285592169929771544
                 -0.42902613641877507256
                 -0.28124513951780016896
                 -0.07645420773234176681
                 -0.07240341141606693176
                 -0.26616759811714224560
                  0.01847480794003434484
                 -0.36975867869614026384
                  0.10581365153091661091
                 -0.12260555040493681389
                  0.08289332349996163252
                 -0.13831685086348985414
                 -0.27831232874937683608
                 -0.33725996367513516594
                  0.10852091234344268811
                  0.32376982199419224173
                  0.10947889941977557993
                  0.20513262273688656623
                 -0.41007977859514382901
                  0.10118835903520982666
                  0.31847684594633474120
                 -0.24120652916356655204
                  0.23598194631671978727
                 -0.48252718923777798699
                 -0.08833771083432907789
                  0.15691910648091036973
                  0.27107754422690888418
                 -0.43881791535611525124
                 -0.92143756497010342876
                  0.21693864166067711174
                 -0.04301266458969656842
                  0.27683893791137198503
                 -0.69945741185401011375
                  0.42932492717365949852
                  0.83538958223063575215
                  0.34420061008938335201
                 -0.42863457578459257524
                 -0.11066952986750126786
                 -0.01242634786840342460
                 -0.74301555043105194098
                 -0.64919852479268913559
                 -0.63661144012205750364
                 -0.95260532711456169519
                 -0.60967775732809181832
                  0.39409068383965101257
                 -0.04118845367128844831
                  0.10640433106233672389
                  0.70780249308813492082
                 -0.09015872305370836726
                  0.49170297390668321613
                  0.51034050164106903313
                  0.37612132091475675155
                  0.44405184478076259458
                  0.34295020731315845053
                 -0.34483348758511966903
                  0.02603128108788392570
                 -0.20967247184718551534
                 -0.33604703423831233655
                  0.23764541113046813714
                  0.79557454215598299996
                  0.09756990202684694136
                  0.24544858193360116760
                 -0.55839936916895460683
                  0.74011421261148002682
                  0.08295910134743167408
                  0.71320105552822199435
                  0.16986146618512473760
                  1.00266125964565833151
                 -0.42576393271023965648
                 -0.59332330719076542547
                 -0.32291587730191839700
                  0.70500558251023492939
                  0.33180165200206801490
                 -0.08424845632477821755
                  0.52398355098241111705
                 -0.21026158191297492084
                 -0.37249027160971631689
                 -0.21348406266688599309
                 -0.32750745054383723076
                 -0.52826686387800447786
                  0.00119977944372735889
                  0.87493714761222951548
                 -0.72551441045088904680
                 -0.08392030273111572569
                  0.67191414446924002668
                 -0.64407144396837523459
                  0.71982980677985664020
                 -0.29961279932042650387
                 -0.27895684127539943642
                 -0.39284998882087585059
                  0.77403254615265781879
                  0.49357808778990658327
                 -0.43305897197562931433
                  0.17267663706962535497
                  0.24985781581370880566
                  0.64423164329458193489
                  0.62475636973498693827
                  0.52361171087924696099
                  1.03917364338985795946
                  0.29391735291122772500
                 -0.53855985898223446284
                 -0.68845480151216442710
                  0.65786771338757377148
                  0.02386731639868051869
                 -0.30365825841170096533
                 -0.65446968908131697429
                 -0.00224559789529077489
                  0.24421277716508452138
                  0.14543850805514735303
                  0.70072104924917155699
                 -0.02897931312816593233
                  0.75011466175630436837
                  0.52002764058376038658
                  0.52482230242043959034
                  0.77262149859024553678
                 -0.72447291036711813916
                 -0.37437784502574661394
                 -0.02802912106615562324
                  0.11076714344193257233
                  0.75119380888031539456
                  0.09237920201861250791
                  0.31274292230085187771
                 -0.12424143258281820923
                  0.13750738567342990493
                 -0.48111442365463630289
                 -0.31277445786681484785
                 -0.52780821042030867662
                 -0.27964013318527564111
                 -0.77937511770860989913
                  0.27604167559560438550
                  0.48164908559249647313
                 -0.34507978453114634965
                  0.67868843113566990066
                  0.03057073273734659327
                  1.04813103474402047333
                  0.21327309747594808131
                  0.58458106947252042040
                  0.43248685143526965913
                  0.46418840805831396157
                  0.33728513573920299029
                  0.04927568687786317708
                 -0.18988455038531787400
                  0.25879539508184978835
                  0.37891451431070022338
                  0.28691409934308409468
                 -0.64651450385260667009
                 -0.65347055131467923772
                 -0.25441956271337884399
                 -0.30299114005234462077
                 -0.52486751936094255822
                 -0.14493238791457913051
                  0.15413792269757115028
                 -0.68186461759144523231
                 -0.16344047598066008264
                 -0.40925311456400476073
                  0.64355552458504139413
                 -0.42058509827787488033
                  1.14991198996737864491
                  0.92239151000206587305
                  0.35918358606628475460
                  0.11775123999068459746
                  0.61955479083050402078
                  0.52004815676420312887
                  0.02734987227313974076
                  0.63745298688116402985
                  0.20506864668650667816
                  0.71905485226349707961
                 -0.12244899636781525487
                 -0.12496348251341958535
                  0.21506424207513369362
                 -0.18620987003387906578
                  0.16030761959430031571
                 -0.31003136633012301493
                  0.57886796149288699542
                  0.12442377490182625344
                 -0.63339288918378866544
                 -0.14337317778370586852
                  0.22836633690513677419
                  0.33282076817656330858
                  0.75605910732776604455
                  0.27211236555449275221
                 -0.28596279959651066394
                  0.18975336253490160399
                 -0.55076887894951354063
                  0.78682846151282559433
                 -0.06264308431020323975
                  0.14093262801561606823
                 -0.35190054219244121247
                 -0.20989364920462585951
                  0.53089983676424257197
                  0.50598382655770413052
                 -0.41325959025084457732
                 -0.64840277501844045815
                  0.25551826901024565775
                 -0.41171654337466340179
                  0.79420096813219653864
                 -0.03985584927606429517
                  0.37990915649581280533
                 -0.22884427132764625923
                  0.83792054918261971164
                  0.69335129679157558868
                 -0.14576121678368095247
                  0.37499053441672952625
                 -0.77082365832384647231
                 -0.29616156785598113377
                  0.04366406601456561398
                 -0.10457049518715275105
                 -0.95364933082699454570
                  0.53675642214490493220
                  0.26344245511287117667
                 -0.76735231370817114094
                  0.44526865783283603450
                  0.52741841184367699302
                 -0.01874448208809913197
                 -0.12175609914926173449
                 -0.01397512656935202824
                 -0.50933130901076151265
                 -0.22322436492588892953
                  0.63458147636909911782
                  0.28096982236731443683
                 -0.12031978747488820958
                  0.26882113499560950087
                  0.09235020976017951910
                 -0.50501910668117910852
                  0.65553488547947358356
                  0.38931067819109993478
                  0.50928603412843920228
                  0.58723686590574852850
                  0.66290659690968001261
                  0.05264937821884508456
                  0.51024525599377801299
                 -0.20851835534918225501
                 -0.69877960959859231060
                 -0.01254325468279920454
                  1.38993457640288120558
                  0.46130831605566907649
                 -0.45342654111050323396
                 -0.31506770120924970646
                 -1.19447819581248815268
                  0.31737019117587794703
                 -0.06606883712233407868
                  0.07505110348451074498
                 -0.42425302118224267334
                  0.26900348653451033876
                 -0.94715369418698014403
                 -0.07044729236229257952
                 -0.49979912326393183264
                  0.50848283686895934252
                 -0.44519632737548192614
                 -1.09684131000334939010
                 -1.26451255596920564273
                 -1.06730632247518286704
                  1.03617077775359089920
                  0.50691362989647903436
                 -0.87550842040865550775
                  0.48185848355108940044
                 -1.23314602700469699847
                 -0.95868945751701328817
                 -0.72721127078772962449
                 -1.37233658008201908629
                 -0.74043872116178799381
                  1.01412940000625018122
