49	2	1
15	15	
1	1006
  0.0506991038174596	  0.1346465419535583	  0.0990346470846311	  0.0831638741461670	  0.0117280596704378	  0.0090713096834258	  0.0401789753099137	  0.0526414071771774	  0.0372143147152041	  0.0526430809538946	  0.0127668238475271	  0.0349313387364444	  0.0755886020589717	  0.0051507059151382	  0.0215461395259119	  0.0744512562921099	  0.0392213196584394	  0.0007897724338536	  0.0045851610228482	  0.0079570896617558	  0.0045853067463095	  0.0070930874214227	  0.0205813080799490	  0.0029067984736881	  0.0022483231550384	  0.0101179855542687	  0.0139635435695473	  0.0177688492114597	  0.0139758313036992	  0.0010210765263891	  0.0017686151803667	  0.0024439626817539	  0.0040818003400031	  0.0082370958660733	  0.0082371238672081	  0.0159275751643809	  0.0205807044830848	  0.0422028000713560	  0.0205820132516068	  0.0012967713411614	  0.0047254976488291	  0.0355373440919335	  0.0034168931598526	  0.0097466516482465	  0.0330663151366958	  0.0005227761094216	  0.0042037414893656	  0.0422225081144981	  0.0144481986445384	  0.0630667822639864
  0.0507968142167084	  0.1347701475603136	  0.7516555574499668	  0.2358074347853546	  0.0117280720501637	  0.0090713130796527	  0.0402538948837375	  0.0526887945556274	  0.1436916676930239	  0.0526904683328045	  0.0127863691254460	  0.0349584900547327	  0.1856734801344554	  0.0051507154624603	  0.0215461480118042	  0.2874106029825498	  0.0625213762630488	  0.0007897724341938	  0.0045851657689335	  0.0079714508315624	  0.0045853114923949	  0.0070930900254840	  0.0205994752466100	  0.0029068011930298	  0.0022483239010567	  0.0101322539946416	  0.0139739527235406	  0.0357295768470512	  0.0139862404577935	  0.0010210765276290	  0.0017686151812166	  0.0024439626821737	  0.0040818076604246	  0.0082370991193576	  0.0082371271204925	  0.0159562975039942	  0.0205988716495695	  0.1116921471050319	  0.0206001804184441	  0.0012967734383347	  0.0047254995128478	  0.0714595821678298	  0.0034201827726112	  0.0097526157311400	  0.0502687931947165	  0.0005227761103545	  0.0042037414899947	  0.1117148837887441	  0.0180048022477605	 -0.0056117905800538
                  0.37330292489829186575
                 -0.03483123371029808041
                  0.14082162995145777740
                 -0.19264567647638769499
                 -0.36687305738736641914
                 -0.02214309866890906697
                 -0.22874586044364855764
                  0.05691954370480286490
                  0.16666517004340727914
                 -0.06668221692443915272
                 -0.03742928690113440232
                  0.44383092000758234130
                 -0.20458190940587162032
                 -0.00970343062049394689
                  0.01690342655348180817
                  0.50370785361615477704
                  0.00586495523404305386
                  0.51132863453849564106
                 -0.22074258960007475672
                 -0.13693554596169971171
                  0.19165504727267043683
                 -0.21423245351771638689
                 -0.18750738827669613529
                 -0.31466325644792547678
                  0.00785638931335346652
                 -0.18383492322071168235
                  0.01516548769983463475
                 -0.32571106340760991316
                 -0.12729035552313716639
                  0.05556798003590371349
                 -0.05975541713541740463
                 -0.21237501789409155006
                  0.01232761452149485834
                 -0.23331012330213315997
                  0.17886487028572714553
                  0.19338956035681673096
                 -0.18399284578047567229
                  0.37753860360410862462
                  0.49863959414057512642
                 -0.08740285268070573099
                 -0.08709525631834107162
                 -0.57622256968132301580
                 -0.15002179478778665533
                  0.29029470602515428101
                 -0.22103006535490596352
                 -0.14132664108923681523
                  0.14424790183763008811
                  0.28516517654983025709
                  0.33360085813185885728
                  0.17545739470538329607
                  0.19173630552518217129
                  0.12225353757182549908
                 -0.20705048671753681355
                 -0.20083862868601778939
                 -0.19311277516388775100
                 -0.26053269331044875967
                 -0.28067507981604816747
                 -0.24532496664414008003
                 -0.12923067056765499827
                  0.15974688136100778646
                 -0.25198163650280386294
                  0.02392543880335301285
                 -0.27507475016576393712
                  0.20602104459381709312
                 -0.08550629054826495989
                 -0.25239759237684267212
                  0.01078697113964628695
                 -0.14678349950921887324
                  0.03896281492070934049
                 -0.35766838817524904126
                  0.04037850069959830063
                 -0.23884300098994210027
                  0.32385021593130153272
                 -0.08187419397186286585
                  0.17935043756905449941
                  0.33636355712146209784
                 -0.17447049474553805171
                 -0.11854021780816909049
                  0.01836348927237675330
                  0.10436791789821084353
                  0.24611893679129298595
                 -0.00263098280416337524
                 -0.06176408665923296959
                  0.00680243670184318711
                 -0.20290006551473521723
                  0.36622717927844983254
                  0.38330856309604438570
                  0.20585294894486910744
                 -0.06539177591997398509
                  0.18698349408788567105
                 -0.10975812494225652138
                 -0.34538924123730857518
                 -0.18840407957243870962
                 -0.11561657183494725154
                  0.18634713343185790868
                  0.04401571484487454972
                 -0.21323218222622569717
                 -0.01903139487372981428
                 -0.14787061556887182157
                  0.25445256945069094634
                  0.38701676307572668856
                 -0.31080996476051053756
                 -0.12506671616912540257
                 -0.03601680207298462583
                  0.40772009105907486282
                 -0.28036149185703124198
                  0.06710312207911532656
                  0.15060678412868838683
                 -0.12759767287472018049
                 -0.35286145054450435143
                 -0.17342287941270342899
                 -0.11544285632803831521
                 -0.25793286078254090699
                 -0.29193598367330902965
                 -0.10511462939158972008
                 -0.07556439446469724597
                 -0.24050104234771890743
                  0.11042422858833730870
                 -0.22866350613250299717
                 -0.33428610271832914780
                  0.35629222095377138801
                  0.24182847262637358066
                  0.13353904635681981827
                 -0.03578208828522488893
                 -0.20085712930365970386
                 -0.04147341102931266510
                 -0.08883433286511306648
                  0.18976801952357827408
                  0.22591082963415920482
                  0.26844542371928198365
                 -0.02651956585510268846
                  0.03317949315285175643
                  0.03449647204416834978
                 -0.17775003127085492460
                  0.32077622201867478369
                  0.08208643268786018632
                  0.10895944860790143793
                  0.25656442425955577891
                  0.14273380302047214419
                 -0.33048680388188839130
                  0.13077129341843607424
                 -0.02022248834901051520
                 -0.26344960075186618642
                 -0.29302162954803884221
                 -0.30089993285628141573
                  0.01565260699415277346
                 -0.13547355872583741188
                  0.11332837166212102187
                  0.08360244652492783424
                  0.05002517983204424895
                  0.35154371809466261611
                 -0.43479542316260344492
                 -0.32836702074659962491
                  0.08114405617176731478
                  0.03782571721153495103
                 -0.08933951287049626822
                 -0.07292609373950760532
                  0.20850345891509983187
                 -0.25221362599640495539
                  0.29745846392684788251
                 -0.00119769407020562518
                  0.30479609233889820574
                 -0.06760263340560114520
                 -0.31968808263370140921
                 -0.67865362356297243007
                  0.19170860730264313587
                 -0.24681241579453119805
                 -0.40708841640950871321
                 -0.15183150968157632654
                  0.17496755583407336276
                  0.10015928076729699314
                 -0.40922317258600354739
                 -0.26781251860435562051
                  0.21409836242743662815
                  0.12369639123080000687
                  0.30678776881016367462
                 -0.07015555320414454399
                  0.33520824992550851684
                 -0.06036465012369447714
                 -0.06786257899573722163
                  0.48685260857734569129
                  0.24653515298365083486
                  0.28661957129037163305
                 -0.22606695832784454159
                 -0.07947219439629885085
                  0.17378034678330703255
                 -0.15956342189119579467
                  0.09714517659881724554
                  0.12035397891459845288
                 -0.12315360779052925144
                 -0.04670560034594416904
                 -0.24257953432280052186
                  0.05034265933115004976
                  0.08474998697489867505
                 -0.02613606726166410946
                 -0.17789257988988113612
                 -0.36200915933455446449
                  0.38369271088753392762
                 -0.49089282511163861988
                  0.09626197620794250953
                  0.33594785519147879471
                  0.23524211406306172467
                 -0.12637682590166929297
                 -0.26925234702664924136
                  0.33465586549999271071
                  0.03224727652470965600
                  0.20078534809879750034
                  0.11280932435476158371
                  0.24329498881976019398
                  0.15354989009330799465
                 -0.18168182756039322201
                  0.15024454539018333721
                 -0.37898103250586617774
                  0.35740915702587922054
                  0.13968539010758382335
                 -0.24384666821842940210
                 -0.13429183716253653702
                  0.02831853975251482150
                 -0.12401152814281987680
                 -0.24572316852632644646
                 -0.21918522305854759580
                  0.01742768702367442080
                 -0.26371990387581040194
                 -0.13907345957933878178
                  0.04118402838063264793
                  0.36454495832346567319
                 -0.25037027004744139003
                  0.01753021727871004534
                 -0.20184250322978231074
                 -0.02169232389512623996
                  0.26323665073173024842
                 -0.25184807380686313749
                  0.06391999948710185009
                 -0.16233980388702870523
                  0.29343996007120337621
                 -0.37309547175798840613
                 -0.11096469458601249114
                  0.12059193770671930435
                  0.25965374441392879978
                  0.17656289095400462541
                  0.07180710653562799584
                 -0.04869817142361362872
                  0.24156735736642626078
                  0.01716916946073052466
                 -0.19906550624808089234
                 -0.10777332840708356287
                  0.18341910510832623582
                 -0.41579229114682564328
                  0.22398062087848338853
                  0.24418859955899793746
                 -0.14929849876433934353
                  0.04420268411233528594
                 -0.33971015578288960013
                 -0.01110630758152245622
                 -0.22276317841199932968
                  0.25716048478546421618
                 -0.00684403282149828075
                  0.51619947279232081261
                  0.23116706837839931521
                 -0.35472452687009398131
                 -0.12559204568930504298
                  0.13856404539271305332
                  0.25235092719806273553
                  0.36286920627890045798
                 -0.41090012151147020658
                  0.14351252092882255118
                 -0.13141211128851343348
                 -0.01898209245533764508
                  0.11467085163820614491
                  0.12882838017857514701
                 -0.06475286886193426517
                  0.02221482138514723273
                  0.38914647972222560224
                 -0.30134854133132765730
                  0.26302136137259229942
                  0.00543049778842086966
                  0.02304587350228903125
                 -0.30715502076189366010
                  0.13099361838854023388
                  0.16660251248566271265
                 -0.15962795721691241946
                  0.33102643621245736449
                 -0.21458622073347455306
                  0.13744083726669695245
                  0.32575451664837834498
                 -0.08355437111212096757
                  0.15735060829431499196
                 -0.28055290516752873220
                  0.14934356873728879544
                 -0.14186947890060444544
                 -0.22891204235667605982
                 -0.31168178637383453511
                 -0.08958459003664751008
                 -0.23623356089038644035
                  0.41523210860401438271
                 -0.02198733840729007183
                 -0.02872997286962951369
                 -0.44945726973654676062
                  0.18875905791195349281
                  0.07063450213681389533
                 -0.00497120422630828798
                 -0.06069354077140857312
                  0.04924910094726610288
                  0.32391916159627870408
                  0.13539868525329501470
                  0.20749077702222004649
                 -0.13136677915972741482
                  0.09518864573965525600
                 -0.15187870125382652020
                  0.38072280647973172352
                 -0.25239387559240650249
                 -0.30055016549944385540
                  0.09904055213501967991
                 -0.17483914918480958356
                  0.24820717699037234127
                  0.18175202333603940330
                 -0.25832597178545513295
                  0.13131527288825614597
                  0.15077299983720782173
                  0.01231594110082158237
                 -0.23908505395437368302
                 -0.19500082499003959513
                 -0.28337200803097262192
                 -0.42730481289075261664
                 -0.03601088494663740730
                  0.17013954446896187300
                 -0.35356083757153217162
                  0.22187191839684100580
                 -0.35322094412028881560
                  0.24199982997785818295
                  0.40719835278763810704
                 -0.14838348865899456119
                 -0.17184996278353525945
                 -0.06632640070200532256
                  0.18688011466191384313
                 -0.27449818017659788350
                  0.17852579938914492352
                  0.08865694637720170079
                  0.05187496752565785157
                  0.21398909074681551901
                  0.29714594402159444364
                 -0.14048065721688440810
                 -0.16218146616631570756
                 -0.22359355716771278644
                  0.17431964720856071849
                  0.21249776225993058376
                  0.06927517306096381278
                 -0.27890538435507328252
                  0.17300533076676666289
                  0.28207256254057827549
                  0.11234147021164329894
                 -0.11395782847880199518
                 -0.22237793856632073752
                  0.27752688708583617139
                  0.18061840910871176935
                  0.27782616986006675175
                 -0.22215011262121273083
                 -0.38958110746356805487
                 -0.37679916273406521832
                 -0.03158100325938665437
                  0.23184606088185003014
                  0.20338257093511799556
                 -0.14491127565856318227
                  0.21965217440742215715
                  0.27451207288674123186
                  0.32570486248890534453
                 -0.06971204507710510034
                  0.13326541597689137153
                 -0.25984335727928675741
                  0.15216216310303748438
                  0.32455216881931142625
                 -0.11609049425900111463
                 -0.20725024316283358061
                  0.08680150341126260938
                 -0.07551725285512067565
                  0.19783724760198073689
                 -0.18040619924418441200
                 -0.07992788312296669750
                 -0.23518345514978192257
                 -0.41374464387827242229
                 -0.21098942517068472458
                  0.01647951014686311472
                  0.27804600484229502477
                 -0.24298747643509302496
                  0.04713140645343450591
                 -0.45405293698191134810
                  0.30578392909636764596
                  0.21504713053157509250
                 -0.15603370341333278049
                  0.21130069865212211533
                 -0.05198794760054924885
                 -0.14462198277707954963
                 -0.04990159839505766554
                 -0.02526738338998734193
                  0.06866336526809731222
                  0.23000787849702961085
                  0.25928789767991289317
                 -0.03390149117349025576
                 -0.01468027506488640485
                  0.48149207453953546398
                 -0.30071134034486457498
                  0.31328110379244633599
                  0.07753157270647192956
                  0.49469381511165749776
                  0.05069330290594071392
                 -0.18756773720053021570
                  0.07381774249422337619
                 -0.13437987432308232116
                 -0.05306544647177706409
                  0.33963143146164870290
                 -0.09276742450522103278
                  0.20176849997671353343
                  0.23398409758674146297
                 -0.02028822258795768413
                  0.21831686047483997437
                  0.19086930735629412115
                 -0.33096716463260261731
                 -0.11400412370640267135
                 -0.20314040276892647574
                 -0.08781411097695079881
                  0.21800087581330204745
                  0.24675672622607966455
                 -0.29969055073975026104
                  0.06317293708835647337
                 -0.47302826496204630757
                 -0.02294965599959275168
                 -0.09313618901580775211
                  0.18739621037859013897
                  0.18512647829495421092
                  0.19808393070541324699
                 -0.13127945517795286401
                 -0.26535959485561216864
                  0.03237725616831110126
                 -0.25403483387069730748
                  0.23652980591430974866
                  0.07091204577747070581
                  0.27829608625341722972
                 -0.37308268062069055437
                 -0.10036671427575662163
                  0.26204904525549760352
                 -0.36529280070151448623
                  0.21313241928197074193
                  0.10614344338222932163
                  0.26103539475924397717
                  0.27290730426019965682
                 -0.21879865500471804007
                 -0.30501395823424021225
                  0.11214629853479612942
                 -0.30979549902761110980
                  0.15482279712388474779
                 -0.30911732069354203034
                 -0.25727138032185431493
                  0.19170877228914984247
                  0.33450075667274009605
                  0.12425284536288085102
                  0.36476036135619194223
                 -0.32224557832402050961
                 -0.35143543653421027706
                  0.13595952497834398742
                 -0.10794631901076989777
                  0.16136774524577360279
                  0.09056663566951898836
                 -0.23636717887965841278
                  0.06996154787067743186
                 -0.04738351963962718350
                 -0.45120493392137156485
                  0.15353814938300372472
                  0.18586446265627637464
                 -0.30715888551030978704
                  0.22683912570541536757
                 -0.24259087927375522220
                 -0.14706168954681439476
                  0.04307263419572607277
                  0.26427856439490265972
                  0.31327920478373982860
                 -0.29035218513936877915
                  0.25802661139065702356
                 -0.07889684081740140631
                 -0.24812439138650360659
                 -0.24685491149634947172
                 -0.43695357497733516849
                  0.25664796375472181955
                  0.24599885818329167431
                  0.08483885838199595186
                 -0.05395714701825134185
                  0.08527696662424880114
                  0.45586407884243657085
                  0.11995081460734793866
                 -0.08814861910033598702
                  0.06524079854354118690
                 -0.05148046786044379458
                 -0.23688070357508625441
                  0.30033228080954116335
                  0.21538706094282089598
                  0.27358065147367532921
                  0.22593471567589665239
                  0.27923656122447976236
                 -0.04730850282168678339
                  0.28633025590093852397
                  0.16857753239518832866
                  0.22566960231893684607
                  0.31815684801735771847
                  0.22281840857537174583
                  0.03142412291170423172
                 -0.11681244615434741019
                 -0.04875466543457413621
                  0.28608979787124777516
                  0.13647335786058709117
                 -0.02656807577508147472
                 -0.24328450474253610070
                  0.37131197295369688938
                 -0.21822363469791195012
                 -0.10437852499404562390
                 -0.00096611044791648564
                  0.23291475656570059805
                 -0.13859433850553007361
                 -0.32359027431620740467
                  0.03400367413904294145
                 -0.07676915859441603429
                  0.05253052205307672667
                  0.08160352775937125547
                 -0.49588668275650621409
                 -0.27273021943226860575
                  0.07509540305708276020
                  0.23074416182202170389
                 -0.03471781280160465138
                  0.15674880477522418198
                  0.36796319951961264927
                  0.06912644389753135055
                 -0.07676367036849829351
                 -0.02041376267370376488
                  0.10416220051203814445
                  0.16605216191000243819
                 -0.18014965709439603736
                 -0.28285105743771910003
                 -0.14054630260845243916
                 -0.08951869793944940146
                 -0.54576754883921274608
                 -0.16828686218377147954
                 -0.21301513122353404883
                 -0.20321914076096381230
                  0.31155897514904906664
                 -0.26958875926060665851
                 -0.04523427808169717262
                 -0.22743908439383078712
                 -0.03311362799155991021
                  0.47005926043482498811
                 -0.02230969272823560973
                  0.07564569663449789705
                  0.24499774472570140516
                  0.11271967412990344104
                 -0.30822234635525314062
                 -0.17674378603391865949
                  0.17542697252068673031
                 -0.35528240964311380568
                 -0.08595338902616229959
                  0.01394618230497472744
                 -0.02203944031504402601
                  0.12442164033059863182
                  0.01454151943584584827
                  0.28881273988391586993
                 -0.05106616035344254539
                  0.10450143882270131190
                  0.16855628378492273911
                 -0.02404424545572297553
                  0.33491675486242178383
                 -0.01345269716505321719
                  0.17961536700759650476
                  0.06250763296338975039
                 -0.06975893675374433833
                 -0.42075318801998501383
                  0.06380462586423908677
                  0.09060230434818061784
                 -0.47014720518895519730
                 -0.17545309414473797549
                 -0.03435781189505091732
                  0.21373466519692019272
                  0.06392941025606850569
                 -0.37968677243285192668
                  0.26689778922791901339
                 -0.21617381238431152002
                 -0.13281647351849545924
                  0.33904778100078369896
                 -0.08911181700517677162
                 -0.16529850154040182098
                  0.07433645032294225463
                  0.06993717070010489756
                 -0.10584096261319533849
                 -0.38249695815957091005
                  0.13778845641953582635
                 -0.29731434892012109650
                  0.25607349841997373296
                  0.11580839384964415617
                 -0.03846311284288801702
                 -0.35226867064453409872
                 -0.28122994801564471512
                 -0.15348497972182609250
                  0.14681205287355705846
                  0.20319491147610532766
                 -0.31019278142074441229
                  0.29262459999693313240
                  0.23859744947971814333
                 -0.34062576626745932895
                  0.09990144051482467702
                  0.31251083309343641314
                 -0.07224760479666843260
                  0.10013222610349506447
                  0.16977986157466490313
                  0.06273912984213260435
                  0.33971693725430474053
                 -0.12806338285292584445
                 -0.01373696512753850088
                  0.26456440593612612355
                  0.00621668302642357489
                  0.15581213696141618663
                  0.22820481879075860121
                 -0.11600548870855506567
                  0.15130335994537499889
                 -0.13516079455751897620
                 -0.01784544897462476964
                  0.07932419414582871087
                  0.19999258150323837024
                  0.08648269084108838045
                 -0.31657135398121938330
                  0.07492260365538987166
                  0.30186341494844476374
                  0.19997928675178258673
                  0.31449841546834572670
                  0.22612141873539237658
                  0.09369515983444277885
                 -0.27679825542380581682
                 -0.09360925061128415325
                  0.27021413072431194058
                  0.17775816730460200499
                 -0.25054485252533692519
                  0.17859857438887433156
                 -0.21675401686770842669
                 -0.44606717456897876373
                 -0.39305899902968005621
                  0.12997823832462288007
                 -0.22583114000099793750
                  0.06578407258142483782
                 -0.21795659300852043838
                  0.05352809802460415517
                 -0.45517620995007168627
                  0.33474080733368938301
                 -0.16219450275144287055
                 -0.05144965750410746691
                 -0.03514806786888547557
                  0.22393231789072287619
                 -0.22746468851417447898
                 -0.06340972713179118814
                 -0.15363037859509082184
                 -0.18265254006444051060
                  0.03732337807330506074
                 -0.14420202495761819117
                 -0.35175028998632001942
                  0.28341410421129886732
                 -0.27949942597400301292
                 -0.29858717230529541187
                  0.37723380750988400045
                  0.07213159268442556615
                 -0.10833171941797055393
                 -0.40474764207108704372
                  0.19975924587239218821
                  0.07472249591024440751
                  0.36308107027626035368
                  0.10118492226168980530
                  0.30810831769373087097
                 -0.12721677099226105789
                 -0.12518672241135944678
                  0.16254056323774826454
                 -0.01682536921711538791
                 -0.25586102607891947347
                 -0.17649361286276876726
                  0.13894484342836832536
                 -0.28922222910364475679
                  0.43881403165976001768
                 -0.32289461260502250184
                  0.30343604495145548583
                 -0.15600791879796313544
                  0.18349683566711505467
                  0.00793497569011290468
                 -0.02251638718780406626
                  0.07722915832008384052
                  0.06388707228252281378
                  0.34140255084676446318
                  0.10733397189335444621
                  0.05158553336189813238
                  0.32617302450874424702
                  0.07932892737782530623
                 -0.01803901282430347280
                 -0.17049582819409142553
                 -0.21802465765318032598
                  0.16712746260617913907
                 -0.02826355601799042730
                 -0.02933253669044734793
                  0.00966184491750842790
                 -0.29857530056277942210
                 -0.00202216068201043972
                  0.28758773982417801252
                 -0.19293977586089047782
                 -0.30879084823347946465
                 -0.39712324496636725035
                  0.18128266546487628585
                 -0.09086387969176225321
                  0.11027347971035011964
                  0.10489470715119353361
                  0.32990261518651731176
                 -0.28637018186273077713
                  0.16775421044705035589
                 -0.31758615320415461980
                  0.34326668057183029603
                  0.21233376434757636475
                 -0.12506978012923863908
                 -0.32629936688657690258
                  0.01655109857360645073
                  0.19176072351751982659
                 -0.07387203838776368325
                 -0.05141690669709424177
                 -0.25506680276696308551
                 -0.26906042798160118013
                  0.24516454253299538313
                 -0.16858127710676715227
                 -0.16420396703301989860
                 -0.19672054035925132243
                 -0.08910130305242122684
                 -0.21021418189539411991
                  0.01125079406232925086
                  0.21474602243456816786
                 -0.10940846378381866022
                  0.17713738655057983951
                 -0.19777871535924471114
                  0.31471934457342887193
                  0.01545005421813163207
                  0.45507967181480490915
                  0.77105428264596120869
                 -0.53605311609442596321
                  0.33857475450703128361
                  0.45306985883868877707
                 -0.35333191311031453274
                 -0.04914671462221001375
                 -0.00500272206200119088
                 -0.14323969655412688295
                 -0.40249425936890925737
                  0.34412774690943620515
                 -0.74426153348528734099
                  0.60217382047542411527
                  0.20364492115477492162
                  0.12198157304848403215
                  0.21488712337386633999
                 -0.09680138654548248178
                 -0.46751301638763109736
                  0.44241866290930115246
                  0.39273442455161089448
                 -0.60688035036094556407
                 -0.66210720784238430436
                 -0.29278690654426348106
                 -0.52676041618180446946
                 -0.62570394243425708769
                  0.02476678807673247246
                  0.12993862443900863757
                 -0.61135128535118832271
                 -0.21797303282792762635
                 -0.50698553408253310693
                 -0.40830814043508034672
                  0.48301685858633536252
                 -0.40149675003533025208
                  0.41592249615211185354
                  0.50516104549576135163
                  0.30147147739463864280
                 -0.33533164780837598773
                  0.37109528947705927582
                 -0.49107455612335892958
                 -0.03786467681242591810
                  0.34099214704404673393
                  0.06742668798488622717
                  0.01929550602879317317
                  0.22032033855315724669
                 -0.57250454887865898090
                  0.47058562549645155393
                 -0.34124777028985209260
                  0.10962429264909787086
                  0.21620484019756108784
                  0.71083788973980233106
                 -0.87565556109870645862
                 -0.09500891526827906497
                  0.52761432109461181561
                 -0.17613700042639782173
                  0.04600642426832007859
                 -0.00779546698604547880
                 -0.74428148220112388955
                 -0.47103617698978106354
                 -0.43319882967647316274
                 -0.55973237053767177507
                 -0.24255599361494689648
                  0.36259203766805137015
                 -0.08252668470459859074
                 -0.93861996607867503872
                 -0.48600807447583643794
                  0.22958082117983458215
                 -0.49863153093179823916
                 -0.19995156403460889738
                  0.22940618757489866786
                  0.31665529156506228015
                 -0.44757032405458818669
                  0.71600526912563067228
                 -0.31753434638080274555
                  0.27094252369833060623
                 -0.66464403409730898886
                  0.26853193712633866008
                  0.03076531276446535512
                 -0.12574392054780567096
                  0.43345520383741570347
                  0.58071024538970650308
                  0.63682352474732661918
                 -0.67959535917185731613
                 -0.38102697226041432055
                 -0.12942877699310548212
                  0.07293316676169564472
                 -0.26450072928505807823
                  0.30352651848876321949
                  0.48804031628439553669
                  1.10208604829369893885
                  0.27886659250954703992
                 -0.04401922826482355250
                  0.16295970557797062606
                  0.19214163098587719314
                  0.41391250519264893848
                 -0.02977856603453873235
                  0.67527774895480863204
                  0.03198723619353695258
                 -0.63446159651580025240
                  0.74584219115434613467
                  0.09525153555901659519
                 -0.45961701196237997324
                  0.75005498513116364290
                 -0.20663458440745738343
                  0.73802131763084444227
                 -0.41346962751447197126
                  1.16272822828910049608
                  0.76643279447848244867
                  0.02903245541127712909
                 -0.27003083259513566139
                 -0.26731211847791735980
                  0.71053644493501089130
                  0.89733119279349560227
                 -0.48032182609068013734
                  0.31759657486824288686
                  0.13198792143175275271
                 -0.37273793614940858854
                  0.60482733660345766591
                 -0.37857635385763221958
                  0.67948996932693783712
                  0.11110656799592011357
                  0.41160421356394744086
                 -0.75175167966552969290
                  0.61064873239285011319
                 -0.12062488992119391185
                 -0.51396527253482904296
                  0.81506670616221910119
                  0.24535061647104428051
                  0.10258791366546328450
                 -0.29251050920459875648
                 -0.57436788482153766644
                  0.56985125924868040848
                  0.48921632074370824395
                 -0.37964789858861985872
                 -0.26921228500050808918
                  0.44433659299022815192
                 -0.52533463129025936844
                  0.07757178069159888223
                  0.32242823088450472957
                 -0.55599475524698760420
                 -0.24169525196988261850
                 -0.65517843148266452502
                 -0.01923359209209745541
                 -0.33026282430278008917
                  0.18108869920428374845
                 -0.53245346932992732025
                  0.44200691915885947925
                 -0.75721837866959962327
                  0.13170513826532492807
                  0.34511768831871109109
                 -0.49062223144406230668
                  0.41100054192088963934
                 -0.57222304784475819250
                  0.33676299683889870940
                 -1.01392675316822500342
                  0.62233196881697272485
                 -0.29384317909669127600
                  0.37670689876783852723
                  0.68786462662429459503
                  0.60155625121865718974
                  0.46715870512504992229
                  0.11209849059679072303
                  0.19237888035034816925
                 -0.28900760822232418601
                  0.66986798995075880203
                 -0.20384623367723889165
                  0.51569452468519272337
                  0.53862496576909180135
                  0.26338912352798743433
                 -0.05988696221750052645
                  0.14561291040692275756
                 -0.35385083482510160113
                  0.07762088860127061563
                  0.91824029499522963338
                 -0.63182912343925701215
                  0.59505083845627759764
                 -0.26969649096059350457
                  0.38220164769378334180
                  0.41679103751282131629
                 -0.71170622183134202299
                 -0.96305735830811445286
                 -0.07545893399604347573
                  0.50877691584300510641
                  0.44937916345183459566
                  0.17150948387358858072
                 -0.19342609569099936118
                 -0.13794688442296823561
                 -0.68936504759187899882
                  0.55221890643010862476
                  0.27239570738105389758
                 -0.56700349249712367339
                 -0.45286527300520801331
                  0.52273616747439810570
                  0.04773695196294413384
                 -0.62065308230818572177
                 -0.24504510793495623555
                 -0.73242141848201680610
                  0.66020546679630720543
                  0.06192629438243200252
                  0.33640637787075367005
                 -0.55485148895851821305
                 -0.01001122591191176345
                  0.19402968059511560561
                 -0.31670475372706724526
                 -0.17970818476058467161
                 -0.56453750226710719406
                 -0.02607527013346640568
                 -0.69473542427006984568
                  0.09324818183583209741
                 -0.69325076978959410123
                 -0.11968410328283189681
                 -0.30429611677991486030
                  0.38070648569027998320
                 -0.30663039678587361569
                 -0.62879351320985399365
                  0.00953352640181073796
                 -0.73008777475419461833
                 -0.49157236313799756999
                 -0.42462266538221593581
                 -0.19435541177109261213
                 -0.08128782555127293807
                 -0.52279550187064183220
                 -0.17068995335001072022
                 -0.73959206781096231698
                  0.51926381961155820832
                  0.63565462186280796697
                 -0.19209501998434189152
                 -0.42530916170717913971
                 -0.33757638610694679082
                  0.49266504105779651557
                  0.40989669767631825570
                  0.41996276153796147090
                  0.53915984739154709793
                  1.08515497863861365424
                 -1.05722393664203440089
                 -0.48717069820865099850
                  1.12366647826490284601
                  1.39449549537533168397
                 -0.30777594101510991065
                 -0.67308316972429094172
                  0.18627775814532965271
