49	2	1
15	15	
1	1006
  0.0541809631474849	  0.1350028028743179	  0.1009364928437518	  0.0931962801806644	  0.0117280451946236	  0.0090713026159049	  0.0408391478179756	  0.0526118715173350	  0.0379842073505440	  0.0526134885998191	  0.0128659847729998	  0.0349129539349532	  0.0825621678476344	  0.0058852976934151	  0.0203860418256658	  0.0758779771393806	  0.0440680996006637	  0.0007897724327095	  0.0045851554252880	  0.0079545833900597	  0.0045853011665022	  0.0070930819106420	  0.0205697330956954	  0.0029067946150517	  0.0022483212685346	  0.0102086664641072	  0.0139561211776694	  0.0183609800691860	  0.0139684043933779	  0.0010210765243116	  0.0016708903674318	  0.0024439626793811	  0.0044361885623617	  0.0078155116658871	  0.0078155118472001	  0.0159225623761220	  0.0205691297660476	  0.0431028618665974	  0.0205703945282406	  0.0013025081019590	  0.0044984839831357	  0.0366508387676925	  0.0034150382289968	  0.0097431015471225	  0.0363341644234265	  0.0006385113082860	  0.0037951311731091	  0.0430452724340958	  0.0164377458978829	  0.0644996250176064
  0.0543114901574829	  0.1352772547050991	  0.7521877745223650	  0.2364262796499819	  0.0117280865259778	  0.0090713201471735	  0.0409397223443181	  0.0527183302154699	  0.1439678065205846	  0.0527200606868800	  0.0128989442564909	  0.0349768748562239	  0.1812265593328955	  0.0058853147307155	  0.0203860795078622	  0.2880390106873356	  0.0645829323486444	  0.0007897724353379	  0.0045851713664937	  0.0079739571032584	  0.0045853170722022	  0.0070930955362647	  0.0206110502308636	  0.0029068050516662	  0.0022483257875605	  0.0102340626211222	  0.0139813751154185	  0.0351374459893249	  0.0139936673681149	  0.0010210765297065	  0.0016708903744696	  0.0024439626845465	  0.0044362016900539	  0.0078155262748751	  0.0078155264873079	  0.0159613102922531	  0.0206104463666066	  0.1121248166629988	  0.0206117991418104	  0.0013025124040618	  0.0044984935591917	  0.0703460874920708	  0.0034220377034671	  0.0097561658322640	  0.0506165510842878	  0.0006385113105098	  0.0037951311782856	  0.1121934626580594	  0.0193760853814893	 -0.0041789478264338
                 -0.11265125066976688917
                  0.03156129166974622202
                 -0.22762272494722979310
                  0.02605724655652720545
                  0.14419412918011154101
                  0.16882416416897341738
                 -0.15950650054588663695
                 -0.11281589628021898575
                 -0.38190025981503411545
                  0.26642108480156401207
                  0.18321639665914885020
                 -0.31787359121244590510
                 -0.19411979115634461768
                  0.10056827869430294553
                 -0.02271078823303707139
                  0.20988105521177122248
                  0.28319299924192914419
                 -0.16822555885664874920
                  0.19146817851469793981
                  0.06649411127069761174
                 -0.23274175868049917781
                 -0.22831451567895438837
                  0.05322132763798993055
                 -0.08898993057379520066
                 -0.01037552172103684001
                 -0.09744088821059394834
                  0.13032036643528452369
                  0.22189304350806629551
                  0.05174541354747196759
                 -0.00860281872744052441
                 -0.01341998507657801015
                  0.20350355355733026896
                 -0.23574626539747911558
                  0.30849530551847842430
                  0.36505842310727731892
                 -0.28913687998555193115
                  0.38248527197993148485
                  0.36526789255245178945
                 -0.03649061049554649244
                  0.06534304667265397604
                 -0.08520275356259196520
                 -0.08902061413011723434
                 -0.21004530292672957126
                  0.21900805234161307977
                 -0.13451583444363085507
                 -0.05694533020093780346
                 -0.38488440160813525148
                  0.65594957211322579838
                 -0.22342210756156744011
                  0.06529585812847589488
                 -0.19945166018316257128
                 -0.08426607903163729762
                 -0.36839985560465121628
                 -0.16125660199636540626
                 -0.65646031365883650288
                 -0.04638395615826790969
                 -0.36756709057900310844
                 -0.09126581690691215609
                 -0.09669048313985208198
                  0.24933566019452343965
                 -0.04385858896937792212
                  0.06722883073699895129
                  0.03680435023113960008
                  0.21036491988377389872
                  0.23013902177893441614
                 -0.14752907307084683897
                  0.28728145052096382139
                  0.21567924588979126010
                  0.40141885338551441809
                 -0.41757979165299358160
                 -0.52267047990000770064
                 -0.17180812046596868892
                  0.28688700261515176493
                 -0.47194959107718215119
                  0.04016896606224368976
                  0.11489594933287874956
                 -0.00544700413544830196
                 -0.32055764607148273804
                 -0.14828400742593225714
                  0.41416136660975200190
                  0.30141392038123965280
                  0.01796709282054292228
                  0.46884879398461853928
                  0.04683594630604892561
                 -0.08191160075343996427
                 -0.06882914752502641842
                  0.28663980610666439652
                 -0.03964034428304515773
                 -0.00297495252643065981
                  0.51070939641710033641
                 -0.00005620621008785081
                  0.15431522533818753384
                 -0.21512227069603587215
                 -0.13162256693826765441
                  0.07524123774041326096
                 -0.62489085880146100216
                 -0.22895361556839829986
                  0.05268990574355442852
                 -0.04996391727094676161
                 -0.26993817930448427145
                  0.51856727675126834676
                  0.02357641267638031085
                 -0.21854330085731349387
                  0.06469964018956583796
                  0.19733460837045213587
                  0.09878406894146937733
                  0.68024176130068558788
                  0.28957491594175843730
                  0.37223930674170568889
                  0.15770756821023210192
                 -0.04450509029574482855
                 -0.19774874614962967279
                 -0.01722976694129943823
                 -0.17039534964639196923
                  0.03842172827648874384
                  0.09881450173766942457
                 -0.20741568347421729390
                 -0.08876529260327586934
                  0.03408740357379830971
                 -0.23583362042950778426
                  0.16042369705823472659
                  0.09434800641109915287
                  0.09792851247239589552
                 -0.07856421627617835024
                 -0.17741068376525634398
                 -0.21576600014943586592
                 -0.26717848992446391332
                 -0.06843396296218935693
                  0.11791506379964707130
                  0.19658861508997607648
                 -0.15123624912134445153
                  0.08949862955222361027
                  0.26999836982313624167
                 -0.11310233816542589191
                  0.01071144895016279928
                  0.40490853152065142684
                 -0.24769044251361924114
                  0.00353973502251427475
                 -0.20567214584701754010
                 -0.34569969950403667269
                  0.44498952593919993692
                 -0.09693421361688239757
                  0.15774087965431715652
                 -0.06726769265858160984
                 -0.21439710512972584566
                 -0.34564408110279698505
                  0.02459845501350784933
                  0.31236929212207120710
                 -0.16190944874266582909
                  0.14619210467160026479
                  0.31394326901800595486
                  0.00665622836629394237
                  0.10492828370579757036
                  0.02236402254618762367
                  0.23661966667843950529
                 -0.22761181099814931095
                 -0.01452462355024717461
                 -0.08832196536791352137
                 -0.07119093282210944840
                  0.25069433078077618671
                  0.22103590475234882740
                 -0.17911638129206947090
                 -0.28262559834233902389
                  0.18028786746730204871
                 -0.09843299550297776590
                  0.05902028511467042465
                  0.44385386398272086428
                  0.20377903463732513489
                 -0.12953479683759061558
                 -0.08029583040054806553
                  0.21301861261436150219
                  0.19936338894031696567
                  0.18867487565936133520
                  0.28727010955065984676
                  0.03775846795585845184
                  0.22210524698892875062
                  0.03857138458198991482
                 -0.08758402794786029899
                  0.09526853536580363879
                  0.16564448173594281677
                 -0.38749094531087036053
                  0.30565446892576786375
                 -0.36298497512773247875
                  0.34454409316671935626
                  0.11459259106148127205
                  0.19191696438651018042
                 -0.33501458346732199134
                 -0.32310450399463819249
                 -0.34924342021629667387
                 -0.20450980213073793879
                 -0.10155876740413088966
                 -0.08061030688295740820
                 -0.19402238802776247684
                 -0.17604661225140580405
                  0.02197668717997500534
                 -0.23795989768773631590
                  0.20235060399821117039
                  0.08361103662679260362
                 -0.42194218725227011779
                  0.23640538513364667272
                  0.26078822911529736528
                 -0.28458188455755095703
                 -0.25239102270954155705
                 -0.37744380327993004576
                 -0.31810528931533332830
                  0.26318490205678596316
                  0.06652683981392920609
                 -0.01873152625037282498
                  0.34131974797619318851
                 -0.42794128751033144731
                 -0.21421303588124923634
                  0.17393218597130130632
                  0.15339260439724988760
                 -0.35939991288039052630
                  0.54638028685840989152
                 -0.24408119044826404043
                 -0.04790259229685810138
                 -0.28542171255085513337
                  0.13543581825830330878
                 -0.14728925352109653590
                 -0.26344219472764363044
                  0.11669821024508303386
                 -0.29851059311513383765
                  0.09007418777858759718
                 -0.09268084969421830355
                 -0.04251650752842836556
                  0.41327216118106130383
                  0.31089869421972482488
                 -0.02394072991660635766
                 -0.13634505957302203716
                  0.35443034779172416515
                  0.09929374702617697890
                  0.32552086874945418415
                  0.54968873273558738202
                 -0.08020128698923129074
                 -0.28997443704572073431
                 -0.01924359218432110386
                 -0.18524986295189999064
                  0.09671519271889379710
                  0.26960401180726706327
                 -0.18209500710689371927
                  0.19163335170952330855
                 -0.29013944520040624298
                 -0.04158998910424520357
                 -0.16287182255688767429
                  0.35925088345192063288
                  0.30926870688372126716
                  0.01336102143364672167
                 -0.24675989222543634471
                  0.10604991791217809050
                 -0.06423656241840840220
                  0.18154355538476160681
                  0.52385376327809851649
                  0.34921465131994827713
                  0.10307597390975466178
                  0.07609784148756788824
                  0.26314234006710524039
                 -0.15183225706687664136
                  0.31757221708696825591
                 -0.04709509682622919219
                 -0.05625146584617712886
                  0.06811504103275356492
                 -0.12876646216924761412
                  0.00138135241683114206
                 -0.23633387331705685286
                 -0.34646084222683448672
                  0.14025887323467836620
                 -0.24482338781749976575
                 -0.40897470753889125783
                 -0.29043814823520763824
                  0.14158346201278732002
                  0.17082615325412084384
                  0.11490470139207095701
                 -0.03526541614428901211
                  0.03721946431047475079
                 -0.10118117872636560317
                 -0.20712199344475210050
                  0.06682025271211329553
                 -0.37624907406936825005
                 -0.13227812367843527763
                  0.39269012159441124554
                  0.31859672711892073060
                 -0.38012086783816845248
                  0.19010373448774522953
                 -0.30699186708196096740
                 -0.42220421132857222091
                  0.26036690927398059570
                 -0.11980699162774494093
                  0.16396205404705860298
                 -0.04886775182734171691
                 -0.06522456086560736443
                  0.37143785344960245087
                  0.05796451139536409891
                 -0.17222301546337304146
                  0.33545042123044088722
                  0.17812281324623491230
                 -0.02150816673338856733
                 -0.11561995560676370520
                  0.03172156843882140143
                  0.21449357300953320049
                 -0.31026557000936194619
                 -0.44683010652677201957
                 -0.16978181859375315876
                 -0.20449323112238146360
                  0.02311291012449340904
                  0.05100510714518125682
                  0.01570349013713936981
                 -0.23187690049143913629
                 -0.17480905965452503414
                 -0.13556545257560598250
                 -0.38051004324246789912
                  0.01914310013328467813
                 -0.29365219524239788429
                  0.04914725565236865296
                  0.00203173519033419828
                  0.25483852972543685755
                  0.07763256392556712460
                 -0.18710385098105358770
                  0.28960142348614453800
                 -0.02218680796450223786
                 -0.23226229044615423480
                  0.10696153438606260944
                 -0.25811654707858444624
                 -0.19059682751944842516
                  0.04190391796882559500
                 -0.21979693941128455870
                  0.08006370423029164629
                 -0.01333172393882287206
                  0.18349033384152019233
                  0.00619051991955829519
                 -0.42384407122424466730
                  0.22929883085971641821
                  0.19673743799399889820
                  0.54139197072962408352
                 -0.00767145257867440228
                  0.25125062299620853912
                  0.09091112578053205107
                  0.20709256543548615337
                 -0.23523067796049837441
                 -0.03267297830546889853
                 -0.17863144046758316907
                  0.19278574678189702718
                 -0.22718771185143252223
                  0.13569906173243251324
                 -0.21123214321628686063
                 -0.16525944906337364237
                 -0.06844879383792314143
                 -0.12054971023006910702
                 -0.03752810544667896375
                  0.55402822538662532814
                 -0.44875014867651652484
                 -0.31504889165805344264
                  0.09017884518569446728
                  0.11325664808134605632
                 -0.28516599847626983300
                 -0.06028075079512863754
                  0.21848800179948857370
                 -0.33558011505414797604
                  0.28925692292242488612
                  0.08601588998656456431
                 -0.01725839411481173979
                  0.14759773091263686529
                 -0.12302117002419160618
                  0.14360210330432690573
                  0.04746212695597262776
                  0.12770168757463815079
                 -0.26104600903078550855
                  0.44010489601886521038
                  0.09742008875069813056
                 -0.30595424464569703771
                  0.09719534691630009327
                  0.03895229413934365309
                 -0.21103538264870400076
                 -0.02950391344441564978
                  0.31885185204650534629
                  0.03403930969673790718
                 -0.08707059894297067282
                 -0.20114241090825901725
                  0.18201858375557095071
                  0.09316247398684075753
                 -0.20185282943715729398
                 -0.32711399018212933276
                  0.14011424415884052297
                 -0.21226202225355531028
                 -0.39031371586036883725
                  0.29916996353902186589
                  0.25958898397340690600
                  0.18607368706733548591
                 -0.23498435548008725360
                 -0.00741589463332231920
                  0.55183341313974620945
                  0.12417345466410972810
                  0.29004794990022964019
                  0.09447004645935910827
                 -0.00436981332386096166
                  0.11830851130020338113
                 -0.04839388079085620714
                 -0.30209053211167741226
                  0.07897656059582576493
                  0.12043422372971998580
                 -0.06658301714791425852
                  0.18755486423069275825
                 -0.16947155131182436993
                  0.15424342014290778891
                  0.35432680297780611012
                  0.27000877815365564860
                  0.12460343495268522140
                  0.47292713163269772814
                 -0.27299601315352417519
                  0.02349758794861250485
                 -0.35977298659041967444
                  0.06564586476450011421
                 -0.18818277043721959307
                  0.16010187846620876906
                 -0.03165191645397401332
                 -0.07151845449177285374
                 -0.29876660852657177525
                 -0.01281384757178035891
                  0.18629167715477529255
                 -0.01083077383663901515
                  0.00771446236411361778
                 -0.28313103205974821108
                  0.07958291042502176060
                  0.12338172770813765622
                 -0.07519262962891713753
                 -0.36797230926756929748
                  0.02046215794409071004
                 -0.06370904860604535702
                  0.05670090522968413566
                  0.14547623544262966444
                 -0.00426533631477613376
                  0.41538150410815111169
                  0.03861512685454429605
                 -0.15942396726940696872
                  0.29223485445543556649
                 -0.04111495751001566917
                  0.16417266062631866164
                  0.28513793210070315087
                  0.34956146138600002748
                 -0.21776852225583492872
                 -0.29196348745459005380
                  0.24365225500513590373
                  0.20852249574719619596
                 -0.11888461559095130082
                 -0.16558263325076064132
                  0.09135101564154310405
                 -0.12878992848569262297
                 -0.08405670146503642359
                 -0.21614222003279801032
                 -0.42265454113338490894
                  0.10839438937551661157
                 -0.14963710571231139679
                 -0.11021876863795473933
                  0.10388810019011181229
                  0.15853568586348903979
                 -0.27088662741713154247
                 -0.29831964053710874341
                  0.03253041992174104252
                  0.30945030289794017708
                  0.07296650322772067765
                  0.19698216049569330921
                 -0.48936840611417042890
                 -0.16978888345035419993
                 -0.30178849934447582459
                 -0.11298765009551145488
                 -0.00610702928136462857
                  0.15938246358925300949
                 -0.21716793735824793665
                 -0.25298857572104682667
                 -0.34451853643987312426
                  0.11392705611145237388
                  0.03604301431666514371
                  0.19764341429057291633
                  0.05080831842523098746
                 -0.23568855896477122758
                  0.24812975488228780629
                 -0.38537499792363433260
                  0.25057089929453191246
                 -0.36942936282660615577
                  0.32268002709281023987
                 -0.08762819140821595520
                  0.11971384345351725187
                  0.34081639874251706823
                 -0.01240826239160161201
                  0.26475949280903759986
                  0.18429612505447010018
                  0.16667238227467739975
                 -0.01903289780788869692
                  0.50818730559035396599
                  0.35708773269805210715
                 -0.30885807587094066262
                  0.09557639715910397349
                  0.29262499111768908167
                 -0.10308922559760236304
                 -0.13219281738497429268
                 -0.15098326673329393044
                  0.19665040292261878885
                  0.07692267067245764367
                 -0.06641773488926584756
                  0.20756981872806354317
                 -0.17660412611898493318
                 -0.10875055447563439226
                 -0.04952067128339191632
                 -0.33420082360044112146
                  0.05749876407323878391
                  0.09154665366180243791
                  0.05466365822897862464
                  0.38376630943168998922
                 -0.27760489946874911116
                  0.06221399420042430378
                  0.28389945395684407226
                 -0.02018197458391071675
                  0.06302143221941322593
                  0.33289196842287477329
                  0.01210426751169064834
                 -0.07800809549201387361
                  0.06956751075181909216
                  0.16227020460202579155
                  0.01619702550221714665
                  0.32616110646422674657
                 -0.18736750917613914647
                 -0.01007632344906872479
                  0.20972760520406305562
                 -0.43526368049997532506
                  0.04203609585883392313
                 -0.46619966793741079991
                  0.67749512341995943299
                  0.16731323149525695326
                  0.03745238780278407897
                 -0.20853947729330712946
                  0.00617820028342099328
                 -0.39052076993500944857
                 -0.14766015575583096853
                 -0.26173719136826262277
                  0.26434994686068524761
                 -0.12634185514094814495
                 -0.06246665595962707512
                 -0.52427228345765752859
                  0.12847416163294431146
                 -0.22819393819054509254
                 -0.20623431589935870001
                 -0.15587793762248861040
                 -0.30217619086231367609
                  0.02941354604132309300
                 -0.01459876347930950946
                  0.16016350333856377297
                  0.14450665145139388046
                  0.27593041777833721140
                 -0.42226027579871489026
                 -0.38898510912999917366
                 -0.17362274074853772943
                  0.22967552350660683236
                  0.49291439773355422149
                  0.36511563440260530466
                  0.17027789294094713979
                 -0.16142569744256221598
                  0.30865523654214704896
                 -0.15307053420018687517
                 -0.34331103104046939434
                  0.10820172927527824114
                 -0.46324014648950562201
                 -0.13885735431863244216
                  0.15081102285537104080
                  0.00006556395591871250
                 -0.29783537584896696560
                  0.07057179768821662813
                  0.22551144712498624734
                 -0.26784914047949198723
                  0.09558390301895813845
                 -0.39712779415356030954
                  0.25471223407595949828
                  0.28561732166364800500
                  0.39272410630525017572
                  0.27276125387995026061
                 -0.00140444596888944658
                 -0.02095542129616296753
                  0.03230304557488098555
                 -0.14288746327007545434
                  0.37820883201526805939
                  0.08889038812698113468
                  0.20110456551136737802
                 -0.38020136236943247177
                 -0.28892442546728075436
                  0.16655742655484384596
                 -0.25536498783930128287
                  0.07587634169427315278
                 -0.32861370416783985959
                 -0.13900045527709975479
                 -0.30014334060198161191
                  0.01186845920857008616
                 -0.15872795589261504134
                 -0.16934297503701825627
                  0.21226886172948220000
                  0.31809507805141590264
                  0.28643808424576555627
                 -0.10992316804255193585
                  0.30229060050641287649
                 -0.09250714319555709830
                 -0.20446108532137047264
                 -0.25633838137246228728
                 -0.05555991306331606316
                  0.28949118479689833761
                  0.10767947182932337269
                 -0.28292136633574432869
                 -0.01626373368555438653
                  0.09475043846644849721
                  0.29071461603490061920
                  0.08410100044476091774
                 -0.33527279897021672328
                  0.04648286640133425518
                 -0.36713930177628062435
                  0.42445772343325821607
                 -0.21153325462076902341
                  0.27083359920799043863
                 -0.14223929561165613022
                 -0.10252974924725007100
                 -0.22580745247231770456
                 -0.04138694959938760826
                 -0.18348028437533464574
                 -0.38146790509547207071
                  0.30912274503680592375
                  0.29470540696121105828
                  0.10868810815072951770
                 -0.27240848054604738238
                 -0.04645197271882026829
                  0.05444659677875982734
                 -0.19538352463191518971
                  0.30692758472754694266
                 -0.45772568987701017784
                  0.13199722191559626339
                  0.37660687589959712662
                  0.14831514372370288579
                  0.26841160592884766301
                 -0.40340586682808066143
                  0.16839943976835269890
                 -0.17507156106945262475
                 -0.14923647283353053128
                  0.01381215681419191779
                  0.17635388316514927221
                 -0.51256830073930137459
                  1.07190803258663036601
                  0.09226561439151512167
                 -0.15919591654854214902
                  0.02020791160009932641
                 -0.00277826603835188216
                 -0.54118013834353562164
                  0.44255636628544514632
                  0.19290059738017001356
                 -0.21395923771109354172
                  0.40357400381285463142
                  0.20944923375575008606
                 -0.03380443713683123352
                 -0.49557006211386189776
                  0.25559988890989410182
                  0.04479052014413247018
                 -0.53326974776642865894
                 -0.02405117343029754273
                 -0.11610002466909735697
                  0.02603345514404736827
                 -0.22749516526818566731
                  0.14104441689992211484
                 -0.13020512914898538237
                  0.08088579948660518104
                  0.21879742402334229068
                  0.03888947511813809627
                  0.20143859974637134957
                  0.01605713579672572375
                  0.26960556826715381673
                 -0.03823003239263630254
                 -0.16253716427855349758
                 -0.07030820601565321293
                 -0.33746222322508201419
                 -0.23844827671165857996
                  0.08640674347050958382
                 -0.33039031638483107312
                  0.04833354676481513290
                  0.01214217757023097408
                  0.22379182967849500785
                  0.84234158623149957279
                 -0.26122571118070092577
                 -0.06202836746719643524
                  0.41832275649051914312
                 -0.12241709836416692081
                 -0.01182297203733380202
                 -0.02056412597236053491
                 -0.39646227239492959349
                 -0.25380919608327973114
                  0.45495563671924776905
                 -0.08948408339228559882
                 -0.12746736745237310928
                  0.06140168805548112951
                  0.02062263075348807692
                  0.24806715300832102300
                 -0.07952571861634760708
                 -0.39863277491569315547
                 -0.06034512919233066264
                 -0.15723782747406919724
                  0.36550893355406705032
                 -0.08150858089290001496
                 -0.27252335090004087270
                  0.07957683863209902286
                 -0.19819836950790040153
                  0.02482472479683707142
                 -0.03739074936045583969
                 -0.15970704179711023296
                 -0.26695320732161276212
                 -0.32592113106047260196
                  0.19804834648504204830
                 -0.27497821057778587539
                 -0.06889383749058687612
                 -0.24919228572668086774
                 -0.16999591877707967424
                  0.29143782402453799474
                 -0.35777167859166325581
                  0.32331672800710176130
                 -0.09933157203731916851
                 -0.01910644963204606930
                 -0.18840751689090468046
                  0.14515227785432455176
                  0.05124136916990822826
                  0.15643030678371730446
                 -0.12642626650982527470
                  0.03917148107520274786
                  0.01229298452794196604
                  0.11077786185269124231
                 -0.19973917626255968671
                  0.02882370563488370618
                  0.28688448750474854210
                  0.22463717037554695177
                  0.39852288894727400104
                  0.13599227521080206604
                  0.03801100110164581936
                 -0.10919681622628379936
                 -0.54593168955854287638
                  0.33882587296468452687
                 -0.31193007335634714838
                  0.70982174438120504423
                 -0.67709035257795124885
                  0.30962236396593989518
                  0.09361462152009028537
                 -0.39811300443324471043
                 -0.33836983881966670173
                 -0.52876844145803281183
                  0.33396705983078112112
                 -0.17618564890808682821
                 -0.00876607235700748930
                 -0.93411203659448505121
                 -0.72483459619291323861
                  0.28857552157932675474
                  0.29199088938487449685
                 -0.51875923779660115809
                 -0.44339711322868674559
                 -0.55517108415090499207
                  0.15489247583135373754
                  0.54611145140353867244
                  0.40591313511888799104
                 -0.48601359996310911082
                  0.06568047226606803235
                  0.38170286292244354209
                 -0.54416213423380499492
                  0.27752624056814123588
                 -0.46668065616384507566
                  0.13558766024762011759
                  0.53238469770565066685
                 -0.53631797908212475168
                 -0.24840669914794974438
                  0.12819103945027010560
                  0.84430236456846396997
                  0.07563794992056094291
                  0.11144051681452299407
                  0.14485157025402514708
                 -0.26141812057265534364
                  0.60008900182975910553
                 -0.32461336291180908908
                  0.44632828509684535634
                 -0.55018249691926945921
                 -0.60533333009825374127
                  0.18897055151987432464
                 -0.09073089407059244105
                 -0.67799316998612446650
                  0.13877068890066651674
                 -0.82775458822776559753
                 -0.38284055052456889001
                 -0.74455466152456251105
                  0.15897794233865178426
                 -0.45537365733857909644
                 -0.42839772842947004827
                  0.23712707433973187476
                  0.03270453386499395931
                 -0.49992721642355092415
                  0.25452471310313096176
                  0.55775514206355492064
                  0.77644344805521514630
                  0.15603412924414242213
                 -0.34137118618903466993
                  0.72043181575299264363
                 -0.98730432208344598433
                 -0.81149363615796654692
                  0.28503893996349732864
                 -0.15367851629817871895
                 -0.52136836591364321691
                  0.28914338972793857119
                  0.09795223641781403146
                  0.30595311811782144318
                 -0.44196796694574375097
                  0.52662849232491637519
                  0.01290991212971328433
                  0.03324393223786561297
                  0.10644946426780427240
                 -0.14195490294511489693
                 -0.85971808828042639572
                 -0.80835823158815889311
                  0.00142967683644648364
                 -0.26858336295429163787
                 -0.53517031225711930720
                 -0.43049187561834584281
                 -0.05729074576723285767
                  0.00213852955854175898
                 -0.58015285670860083922
                 -0.75646839995765580156
                 -0.77657039621987800082
                  0.29163291028791882287
                  0.09170974866858261354
                 -0.02565974305230117256
                 -0.32324389638738326713
                  0.91222631183090563400
                  0.48125902672627957068
                  0.05601493112153406451
                 -0.09295375248759289721
                  0.97289882230367485949
                 -0.18561714538865323187
                  0.46444528531771422930
                  0.53084479344468393780
                 -0.38630862390100778603
                 -0.47480806178091489178
                  0.34728096021730370246
                  0.57864751468300723580
                 -0.14903713292649134470
                  0.49198650836172974632
                  0.39052822692555816397
                 -0.86121060620800038432
                  0.53769855940946897910
                  0.39645050816174587371
                 -0.52501718875799929798
                 -0.38462066302931430251
                  0.68098338137833958061
                 -0.02305674101097034828
                 -0.55685249360961874832
                 -0.76227164032714067599
                  0.95148468607233627203
                  0.19201756493671698345
                 -0.17302263149316493562
                  0.26752414823877024297
                 -1.51036881294333191761
                  0.30767589867521211167
                 -0.38343219751869034306
                 -0.18807297704396086502
                 -0.26194941793865789137
                 -0.56299227006172247734
                  0.05013053710940198332
                  0.41750792476439368972
                  0.41048036843151025632
                 -0.81242591780227912945
                 -0.64319434051299462229
                 -0.20187059505981067020
                  0.42165258552101159140
                  0.94716281646597466626
                 -0.56755634404068011634
                  0.03399003686179382505
                  0.53695057456439376775
                  0.31186632299477323738
                 -0.71618060606559652559
                 -0.25681776363212355241
                 -0.56163138210908625236
                 -0.56961285943623640726
                  0.35126743164101520422
                  0.25690686838607418307
                  0.06090607408054046767
                  0.38321743011108616583
                  0.59415797398512604222
                  0.82367479961361844687
                  0.84453767546001934363
                 -0.51672611449627925406
                  0.09409996611859539062
                  0.35906679610313707585
                 -0.75720145070054623027
                  0.50211334469933177616
                 -0.20842403381324992040
                  0.33579229945170169236
                  0.35357903409022894969
                 -0.06882596983434634275
                  0.57246554806203986399
                 -0.48394370959827015533
                  0.42093279410866696333
                  0.38901900657092475244
                 -0.25825851835914648280
                  0.55037487140269680808
                  0.11552823175529858268
                  0.13577460872395352709
                  0.69045300407499410333
                 -0.45287527384009779174
                  0.05047124514704002390
                 -0.65973612141869442116
                  0.19783007986793249566
                 -0.45640617289647678056
                  0.03213579806689102758
                 -0.68222602121032116518
                 -0.67264372400570504595
                 -0.12555903266431600596
                  0.62542032809387471115
                 -0.03161610901544686936
                  0.45225794973076882677
                 -0.13199781081127778815
                  0.23728081768514619476
                  0.00412577403995360165
                 -0.00691865013739684578
                  0.25961395161670042242
                  0.77196493791353071323
                 -0.18312139077807923493
                  0.61084416578732814163
                  0.67874357773290749929
                 -0.39804702678567854823
                  0.26198692756548647154
                 -0.23067029452158577252
                 -0.73666832026193040939
                  0.19997161989695452777
                  0.61275012856701260855
                 -0.39821280343044057615
                  0.17644690233365437071
                 -0.04216723498809905185
                  0.07305029113847572031
                 -0.08118125218061449100
                  0.74586825789030308798
                 -0.11671090906595647796
                  0.69840909850805787951
                  0.00689276460426981475
                  0.21228074527444276698
                 -0.34015877735911359547
                  0.14331955695570494647
                  0.40023882539002553216
                  0.81287344965973373778
                  0.17556490540677671675
                  0.14840805481327945525
                  0.05083315402220042745
                 -0.79225138349036128282
                 -0.70297186371387809789
                 -0.49206658114399959292
                 -0.48798682490536265943
                 -0.14519428111698989836
                 -0.43760761262509095815
                 -0.51130366776819036190
                  0.06836782206929661876
                 -0.06952662671703915831
                  0.29198413565898501121
                  0.58315945534145119389
                 -0.69289395410623833005
                 -0.39119625109887212755
                 -0.72635569108372910474
                 -0.14267432299130308748
                  0.39884052333988928574
                  0.54995969885234841090
                 -0.21181669629198210392
                 -0.88255817398788993788
                 -1.25017010302227116192
                 -1.36919031334023677537
                  1.75639752424257311603
                 -0.59962447628808046574
                  1.16564316074651364019
                  0.48393495140942083266
                  1.34826841762131022229
                  0.65510539995048433504
                  1.04952078360678768831
                  0.19416148266336913375
                  0.52045266570528014860
                 -0.31877086381128277859
