49	2	1
15	15	
1	1006
  0.0541809631474849	  0.1350028028743179	  0.1031445882651125	  0.0931962801806644	  0.0117280451946236	  0.0090713034915811	  0.0408391478179756	  0.0526118715173350	  0.0386771863143586	  0.0526134885998191	  0.0128677746414680	  0.0349156349035102	  0.0825621678476344	  0.0058852976934151	  0.0203860418256658	  0.0773583177874313	  0.0440680996006637	  0.0007897724328790	  0.0045851555500330	  0.0079545833900597	  0.0045853013686906	  0.0070930828568457	  0.0205704108065052	  0.0029067955855648	  0.0022483219302461	  0.0102104418328643	  0.0139577962678397	  0.0183609800691860	  0.0139702168845376	  0.0010210765243116	  0.0016708903674318	  0.0024439626796823	  0.0044361885623617	  0.0078155116658871	  0.0078155118472001	  0.0159225623761220	  0.0205695571844991	  0.0437851268776705	  0.0205713538545261	  0.0013025081218410	  0.0044984839831357	  0.0366508387676925	  0.0034155631087285	  0.0097437042772973	  0.0363341644234265	  0.0006385113082860	  0.0037951311731091	  0.0437890155073410	  0.0164377458978829	  0.0644996250176064
  0.0543114901574829	  0.1352772547050991	  0.7499796791010043	  0.2364262796499819	  0.0117280865259778	  0.0090713192714974	  0.0409397223443181	  0.0527183302154699	  0.1432748275567700	  0.0527200606868800	  0.0128971543880228	  0.0349741938876669	  0.1812265593328955	  0.0058853147307155	  0.0203860795078622	  0.2865586700392850	  0.0645829323486444	  0.0007897724351683	  0.0045851712417487	  0.0079739571032584	  0.0045853168700138	  0.0070930945900610	  0.0206103725200538	  0.0029068040811531	  0.0022483251258490	  0.0102322872523651	  0.0139797000252482	  0.0351374459893249	  0.0139918548769552	  0.0010210765297065	  0.0016708903744696	  0.0024439626842453	  0.0044362016900539	  0.0078155262748751	  0.0078155264873079	  0.0159613102922531	  0.0206100189481552	  0.1114425516519257	  0.0206108398155248	  0.0013025123841798	  0.0044984935591917	  0.0703460874920708	  0.0034215128237354	  0.0097555631020892	  0.0506165510842878	  0.0006385113105098	  0.0037951311782856	  0.1114497195848142	  0.0193760853814893	 -0.0041789478264338
                 -0.44664453032373846453
                  0.28116541331340899612
                  0.16736337768677600479
                 -0.12374372312342679647
                  0.11319894595887837474
                  0.60497922828492800562
                 -0.39230016925198074595
                  0.15088698219424184765
                  0.14192112580746626960
                  0.30830698053013388948
                 -0.20872630386127610791
                 -0.04508660230671533015
                  0.15608875714225337039
                  0.03614946799066876687
                 -0.06439029244428960685
                  0.17921155841523209173
                 -0.05045346959194645098
                  0.09267081609471887471
                  0.31101873245332029017
                 -0.72559120196061377417
                  0.31581002964012000467
                  0.60158401005909900583
                  0.02740059104718279084
                 -0.00894049156555157092
                  0.26572821477095270870
                 -0.30231902477452232691
                  0.09854744566392649452
                  0.21061263123881240888
                  0.36137003425378583232
                 -0.00060298097943921845
                 -0.32156225614862238293
                 -0.41299230648681700684
                  0.36719640609893761107
                 -0.44751663412410530585
                  0.00952080129690168961
                 -0.17084901951796113706
                 -0.05873806892368772098
                 -0.17125149446135423670
                 -0.01692604133327066732
                  0.21974856466973094471
                 -0.59477539813702318128
                 -0.37091310458774351400
                  0.03196888405595372379
                 -0.32046559987323514074
                  0.07636088593472373232
                 -0.04207917769434828953
                  0.24104285848399839565
                 -0.01088546496236683127
                  0.08719260390560144847
                  0.07025163775001634636
                  0.09240422829065055021
                 -0.23717369169105032012
                  1.13082739985202640476
                  0.10590947112907535266
                  0.39765918206318079386
                  0.38542438331409567542
                 -0.01112926516035283794
                 -0.47153652251203903578
                 -0.45998520388577696094
                  0.17325394028087873211
                  0.21660637873709315260
                  0.78202118947790244530
                 -0.01685284474039708963
                 -0.22897604004464652827
                  0.05003555386368473135
                  0.37228956054709921863
                  0.00750502868137557788
                 -0.20037336595788096671
                 -0.31196644515496196881
                  0.00698473429497461530
                 -0.22211937768929698733
                 -0.18633472861440514290
                 -0.13302184411773307349
                 -0.35405965174177228549
                  0.02217140369478471165
                 -0.00590784963197469280
                  0.20086433902998637735
                  0.15974195438393004598
                  0.17051973771075989994
                 -0.08315667548686429822
                  0.24572793234237524929
                 -0.22468916163844446232
                 -0.07847920430633195665
                 -0.08828186826206042837
                  0.22397583330993151018
                 -0.10497159579815552866
                 -0.81123480647738288596
                 -0.15001254546180528560
                 -0.37488732938360991298
                  0.21968049600986122583
                  0.38102401163743193635
                  0.20926432100310632389
                 -0.56675007661419229965
                 -0.12217895974930360892
                  0.06837193762210350134
                  0.15860375326419037800
                 -0.02202661607558339604
                  0.03432987615966986289
                 -0.16609479408686031454
                 -0.04667790952331154347
                  0.25134488495293205723
                  0.01323618176557446284
                 -0.08015147440154897496
                  0.10066682277426573788
                  0.19072251964792952261
                 -0.08872191849489267923
                  0.30963398254947804844
                  0.32205521396968306291
                  0.11092431160295657122
                  0.15338009276792524682
                 -0.35739581485364402269
                 -0.03484310572915137044
                  0.41559614079582379853
                 -0.21175421735110691590
                 -0.11566695660110443145
                 -0.12793996979833530125
                 -0.39707396318429077908
                  0.06657520004522911317
                 -0.10070026478650068169
                  0.07820436116515538938
                 -0.01049849403929097556
                 -0.08013797510704692706
                 -0.18981649021166438485
                  0.25170933325247712986
                 -0.34837067059086002097
                 -0.12341754617754023549
                 -0.24780929459609965515
                 -0.25183713555827097474
                  0.00889496449303151145
                  0.11600633440351425241
                 -0.20387526362783306433
                  0.61184673649702181475
                  0.07114337714389522282
                 -0.29750599425891494088
                 -0.39496962363579396493
                  0.07315629540704438050
                 -0.03353978127355521088
                  0.22352668198866418314
                  0.04133360379761834985
                  0.18990400182577787946
                 -0.21886403110857341470
                 -0.02653449165547143093
                  0.10696132639118854923
                  0.00615208389964118189
                  0.12618273724908007916
                 -0.16804136916779574551
                  0.44775069275251061507
                  0.14941896237097990197
                 -0.13528723891802185708
                  0.07665989454070448739
                  0.06941056311721004179
                 -0.11808540566149935969
                  0.24647161359110619783
                  0.00868308113332806261
                  0.30974319942333178313
                  0.18885968744203171510
                 -0.16113368994270585444
                 -0.11764549084350790775
                 -0.32117636534769461454
                  0.08271273237370728448
                  0.04404621123077715611
                 -0.22464978669626153862
                  0.09935002703836355586
                 -0.24437993044064118542
                 -0.13780487030642316060
                 -0.43958259684059269867
                 -0.21969280394712048521
                 -0.16593104945547118567
                  0.28550487146582509412
                  0.27921456586097503916
                 -0.46284223611939234733
                 -0.02177237462946094923
                  0.33659447314338614143
                 -0.31125265979439148412
                  0.27776569321175903493
                  0.07204717274619881762
                  0.28737916717593203764
                 -0.20935249648994877503
                  0.00803685768015351826
                 -0.13702388510751059569
                  0.53838486661268492028
                  0.26263011461755825238
                  0.21775159963962259502
                 -0.00204160336999955651
                 -0.25048341458451955921
                  0.02238257140580143800
                 -0.15630302907792698042
                  0.15695615182968161716
                 -0.13360068604858574282
                  0.08234169465497241658
                  0.24099913297062963702
                  0.07274684029631656168
                  0.40882662839921446452
                  0.41283051501950102091
                 -0.00832528957645086755
                 -0.14573869857357638069
                  0.25817774312069030618
                 -0.05931768357650620688
                  0.13688056205869231219
                  0.10388048918100967200
                  0.02050857182689614158
                 -0.30553586235931418091
                 -0.22743579442399078361
                 -0.33844138379086519119
                  0.03099353513657024731
                  0.02590843050705597325
                 -0.18464545577548541200
                 -0.12213182478880685311
                 -0.33391424552635579071
                 -0.20208721059170905998
                 -0.39939477048658800218
                 -0.36047236013465799864
                 -0.09266214281431831012
                  0.10965468822160602536
                  0.22994135686971442500
                  0.12490991762650743846
                  0.12498616427355477287
                 -0.23332519359042061535
                  0.19969782392177568009
                  0.45868983266791291120
                  0.26595145676698306314
                  0.09456508741135211116
                 -0.46079706498036981932
                  0.25624461116024432883
                  0.09095554276698045171
                  0.03260643924845679081
                 -0.00130255134088853256
                 -0.35829268975764050342
                  0.25748646528380497722
                  0.09997801902899280946
                  0.15795175644642012180
                 -0.24007548629816499730
                 -0.05769468316381001077
                  0.11176509644761609130
                 -0.01189397340699062562
                 -0.09120744267894105584
                  0.11670012476523165812
                 -0.27024394326324624460
                  0.15700991828849530929
                  0.22138426830227700415
                 -0.23269650436177125030
                 -0.03338795291099352219
                  0.04207485029145138777
                  0.05544989586455646713
                  0.20555377417365955361
                  0.05264838327277492069
                  0.04904076486194198364
                 -0.06572768227319618350
                 -0.34715217053635588629
                  0.19101854901757908678
                  0.21137534791936032907
                  0.05055015777871469523
                  0.01595364173112633413
                  0.66400619895777557300
                 -0.00619474957311920253
                 -0.01071823823332335862
                  0.30111683938206729172
                 -0.08255625383748030344
                 -0.27379080222511342768
                  0.17852158650546509633
                 -0.38150601414449658577
                  0.06552354567971536980
                  0.02854061453420455446
                 -0.01861676684562749845
                 -0.05005293520450261602
                 -0.07386141353149301703
                 -0.20728381804875042893
                 -0.21236930472619028332
                 -0.05041819456718169695
                 -0.18514229285196173724
                  0.11970352036750513125
                  0.14277236484530597682
                  0.07267619528355026559
                 -0.14899469160860615013
                 -0.27589286958584069431
                 -0.47543725036620976265
                  0.06373653056235999148
                  0.09467853865026601423
                  0.09034328938823044108
                 -0.02669758018482229489
                  0.42067446621712289989
                 -0.04269607180024449777
                  0.02890361123816038297
                 -0.35061193610194379966
                  0.04505832277580947010
                 -0.26506875743547392288
                  0.26198035053924895177
                  0.00220657390279541642
                  0.10850244034564125728
                 -0.23411792659047614418
                  0.04629935996158323491
                  0.45212394670381467199
                 -0.36362297572080570784
                  0.06756228037296631295
                  0.00112033831532936832
                 -0.28889362612358077120
                  0.12525343425155566202
                 -0.17208978164345331563
                  0.26199649958184850762
                 -0.21201706255748201113
                 -0.11276471523503994732
                 -0.10075091628941221233
                 -0.22951328139624074809
                 -0.16325216563947300696
                 -0.04043832181146374966
                 -0.27390656221159742634
                  0.47240738942086363261
                 -0.09049633288512835827
                  0.21821917594355599856
                  0.38754857854166052666
                 -0.17328960698643172678
                 -0.07282650228689527272
                  0.17632936707260160603
                 -0.04205375019039022527
                 -0.07573302778112740719
                 -0.38260049014751396079
                 -0.08442487077025533082
                  0.25829984838472830333
                  0.13242434275292871981
                  0.16904841824750579948
                 -0.18969014490703323128
                 -0.05641012627193317530
                 -0.24497123879553353576
                  0.18152315283431241788
                  0.05689138909604343070
                  0.23984783745921423037
                  0.44345679803751641979
                  0.21116996142906990785
                 -0.05028277178806930814
                 -0.24175961329742448602
                 -0.36884330194481940168
                 -0.17758084205371629793
                 -0.24753854740561712089
                 -0.03955518953016375072
                  0.30688390256539976875
                  0.07388856555247638735
                  0.23911315317548634263
                  0.12533369566627550196
                  0.21126324101837257174
                  0.07331591494945560727
                 -0.44639333826491955914
                 -0.15149133879204623732
                 -0.27941520312470574661
                  0.00663486587156890233
                 -0.28780723531526875014
                  0.23469795680881094802
                  0.05519686988867687771
                  0.52181430871862455323
                 -0.06536437549687529325
                 -0.48385135182985394842
                 -0.25015707791783281522
                  0.20035726945160473034
                 -0.04763081361333772190
                 -0.03688822857594027671
                 -0.27118376469297311715
                  0.35636247994105613168
                  0.01197625443876186233
                  0.28639091290344492746
                 -0.14507999193816537020
                  0.18697311403211100411
                 -0.37323762882011884967
                  0.46949008980928835788
                 -0.45576343211457470694
                  0.39219543781335192145
                 -0.01243821790519056975
                 -0.06239798325027850340
                 -0.18748557422471057166
                 -0.18569383948201112489
                  0.16817322789526992222
                  0.07640180229316564930
                 -0.20307523048031053681
                  0.40632387744631398574
                  0.05710647891056847003
                 -0.23099646255482436663
                  0.30102972322689136586
                 -0.05024771152726610624
                  0.48837036964356955737
                  0.30076297896910442198
                 -0.47690762359381827507
                 -0.03376117286708409104
                 -0.03389245101989153686
                  0.14124663222766473125
                  0.25413064733544810103
                  0.18993457392214629920
                  0.01216438613963005677
                 -0.30575051801195091139
                 -0.09401753874611974704
                 -0.23252576580665929029
                  0.12336633156853413218
                 -0.59247825617637084328
                 -0.16117033127788255031
                 -0.30154061434844559031
                 -0.11705166339721738422
                 -0.23692499922052448480
                 -0.10639845858861889105
                 -0.01476030352386218519
                  0.03154087016954833927
                 -0.05949169473712465073
                  0.09667769937536728475
                  0.14589268072999941883
                  0.04111331575231856605
                  0.21486464657096565611
                  0.31837388015505829753
                  0.10581195387570799249
                  0.16968598857835676119
                 -0.01549750268506966053
                 -0.49637743542669870989
                 -0.09740410034832810982
                 -0.01730617065547864972
                  0.09286295569253344429
                  0.08656523725904234634
                 -0.14795182321192454356
                  0.18366797022132710926
                  0.36021565209436900989
                 -0.31069980344822084595
                  0.03540260838707155050
                  0.08431095542539072951
                 -0.12362965347155470408
                  0.25286845280649733470
                 -0.29251274325985604507
                 -0.42853713610042648563
                  0.17490232266072247569
                 -0.15052520330731139486
                 -0.18123844684465523214
                  0.33774221236709017768
                  0.05591713303772111870
                 -0.54944450394092270162
                 -0.07005849223016313854
                 -0.06169830821496802287
                 -0.23039300636017673307
                 -0.12622786994148882389
                 -0.12025592294954390304
                  0.09905642255316661482
                  0.03470643796290298622
                  0.03588609386601591261
                 -0.18841577325088587624
                 -0.06445223452895626481
                  0.14486887666315034773
                  0.31769339462104423388
                  0.49278459261359841559
                  0.23989406552256864469
                  0.04163868804624890063
                  0.10763389468597966969
                 -0.35076456585077431249
                 -0.22140798225670124677
                 -0.01729078316742253471
                 -0.26306111628093659105
                 -0.13215794543689426965
                  0.16963757908664456320
                 -0.12927057210592274306
                 -0.36110559550742704626
                  0.12124688984739218078
                  0.26404170380366553950
                  0.02987785911592888421
                 -0.08744896272914681745
                 -0.07198814762178694371
                  0.30739581491135120617
                  0.31239741831544154405
                 -0.22426331784023514904
                  0.15122422370607610520
                  0.44121867269267434075
                 -0.24772572288550512298
                  0.12170129458764909758
                 -0.04610617705779515574
                  0.31474144172725193602
                 -0.04401664980878844391
                 -0.17042201524477568197
                 -0.13147047857950905358
                 -0.08601360912462346908
                 -0.11893077031241190700
                  0.01922169263132671169
                 -0.07342806982213008482
                  0.02190220386046228332
                 -0.08749805273990038379
                 -0.30479817252799146221
                  0.62255962181595314586
                 -0.07712907710121297278
                 -0.05992369913084578253
                  0.02276417505674020736
                 -0.01271745692882368488
                 -0.22385538971890212023
                 -0.12592028404468227909
                 -0.21998820341820735091
                  0.09640455187558318040
                 -0.23021674863563601487
                 -0.14930259526649991564
                 -0.08568272755736655588
                 -0.41087742509884306319
                  0.16431680071086199324
                  0.31584820038986699542
                 -0.23874764659240385600
                 -0.14317963129653574206
                 -0.00206360800092196019
                 -0.10950641247877407336
                  0.17483833754046912423
                  0.15314170577963837072
                 -0.29722805343381986098
                 -0.26684680323661252865
                 -0.13280993488923839574
                  0.11542147395838293911
                 -0.21434335235663176666
                  0.17164529533386846394
                 -0.30116751104829242447
                  0.11572536045907420854
                 -0.02234854459672754382
                 -0.10915706658161059006
                  0.30358490135383059405
                 -0.47687701137528720752
                  0.45187239068273954423
                  0.16909020262406879165
                  0.26914982658142150296
                  0.08447364335351731368
                  0.11107697707834331136
                  0.03581489463731293843
                  0.30950783931961073359
                 -0.05611928807876241654
                 -0.27339524352128508067
                 -0.10182448695149609597
                 -0.22432233669049625457
                 -0.09184485768676195483
                  0.11173085157969002423
                 -0.39713812158680145137
                 -0.25774656275688767604
                 -0.07143522309164490602
                  0.14392135508805087296
                 -0.11966239510960956227
                 -0.21451618915106640539
                  0.40535889075290332251
                  0.27039659244751734768
                 -0.08404139088397727386
                  0.55853289394276239843
                 -0.18738402924446814768
                 -0.03039042912302894126
                 -0.36283055128756663832
                  0.03441530524389362078
                  0.03559119043363681567
                 -0.17484227635795035471
                 -0.22728493830328602709
                 -0.04769350903959691107
                  0.04796199761124315952
                  0.23919483442149877539
                 -0.63264763730528039698
                 -0.05590341173636200617
                  0.06822472892836588254
                  0.43034548968312652528
                 -0.41167521093054210146
                 -0.20559419581452548220
                 -0.39259863346121015582
                  0.18929997856287184010
                  0.31153746552452815655
                 -0.27386468885158449238
                  0.09152626287034119901
                 -0.10947132650711170754
                 -0.01487522438581172397
                  0.01671493664216385996
                 -0.16467623519618623806
                 -0.03625495694597292290
                 -0.27377974874697863505
                  0.24967277430831560925
                 -0.15783116997730492481
                 -0.20949298508509364702
                  0.05345074892983786574
                  0.18835229585494625559
                 -0.11205668280889768962
                  0.27558976910710902830
                 -0.08306565849976194071
                 -0.13802027727725965645
                  0.21804822512330909734
                  0.13453159723277977045
                 -0.10108563548559477974
                 -0.04566511045875079611
                 -0.14019753770689735717
                 -0.26413520063864631693
                  0.05992684230055350669
                 -0.16426722104201260666
                  0.20468620546232127455
                 -0.59590357239659752508
                  0.41596162181952123227
                  0.06086745107395700322
                  0.07882309090673175755
                  0.28914700275307769761
                 -0.32724843401841408053
                 -0.08068124804248405502
                 -0.11490795121942526391
                 -0.00646956624491300172
                  0.16858259792583646375
                  0.90257711146131613944
                  0.30967383821583704950
                 -0.03368709206540280998
                 -0.31444182446954677124
                 -0.03848060075852104134
                 -0.01860388408297320231
                 -0.23274258727165381133
                  0.07138546745900288537
                 -0.14941082790016177451
                 -0.38871920542857291148
                 -0.05377806716509216101
                 -0.15994245208039950534
                 -0.06118703197258030385
                 -0.19577158922753326586
                  0.20515052096345809396
                  0.11024811132657398594
                 -0.27328526385547763367
                 -0.09438242589700544805
                 -0.16794874420525504610
                  0.14210337196468361687
                  0.13807665928341822381
                 -0.21000366912498183436
                 -0.09472014912392220931
                  0.70406820847019402354
                 -0.10636128939830491458
                  0.00577498610457364333
                  0.60180132669934494061
                 -0.02965302245997659958
                 -0.11579929020283007135
                  0.05009766068967624192
                 -0.24120605189488639186
                 -0.26103978324923332588
                  0.21484662844040289253
                 -0.40758658907688288808
                  0.01580748081016119383
                 -0.14889944644904609672
                 -0.35143062332910673939
                  0.33771138001952499819
                 -0.13762700466393998355
                  0.00630237227527917238
                  0.67506903733963585790
                 -0.04258369480345579328
                 -0.07538729050099216011
                  0.28727219638959328174
                  0.05910554647954807672
                  0.03242324386092168553
                  0.07169787137226719953
                 -0.05662389276986963538
                  0.20791623791296137691
                  0.03309852178239116455
                 -0.28006552038046222952
                 -0.05301123732188732507
                 -0.03657787005518160772
                 -0.13250687952456685625
                  0.15592852932174616765
                  0.17339622779288180188
                 -0.01743941979097893627
                  0.11859281750156455693
                  0.03643813478170822989
                  0.26211642271784801883
                  0.39372218985839840810
                  0.19197885566591163520
                 -0.45168908002073770991
                  0.32465568779338821459
                  0.21896143169644571858
                  0.18319110080331238444
                  0.14511727476119806735
                 -0.38418632915104017345
                  0.06921954392692462876
                  0.13353287228205493187
                 -0.33828764627406793242
                 -0.01944385129701296094
                 -0.38930705723013270259
                 -0.01752065959347568619
                 -0.10015265614107396464
                 -0.36955798360687241999
                  0.24266424091213334435
                  0.02296683077954000951
                  0.28574108543287773943
                  0.15822729759309966946
                  0.08178280187505097831
                 -0.20309329187414584816
                  0.09075545611349472575
                  0.22166818211526442828
                 -0.05341994060631474056
                  0.10872101022987706864
                 -0.25760229757744207424
                  0.03441302486948307621
                  0.16698165343704363117
                  0.01735787413484452327
                  0.12206667268461759979
                 -0.17921576291285726268
                 -0.01379760262675915755
                  0.17891267402438232326
                  0.23443267369139350609
                 -0.00400355851204886592
                 -0.48995960898047780097
                 -0.11177090499639806553
                 -0.47332441592675267295
                  0.13789681394717298590
                 -0.05880301020980307353
                  0.07774802803070213209
                  0.31615615857350060081
                  0.17714486294587289406
                 -0.27827480258688003234
                  0.20442756607439985239
                 -0.12490291076953402571
                 -0.23434746600045311404
                  0.24025350818857371671
                 -0.19312722245367269780
                 -0.42707556219739423176
                  0.32730305023147104881
                 -0.31309482200337018787
                 -0.00346488766480177422
                 -0.17102091776191666317
                 -0.34485653947599342883
                 -0.17162013093266650920
                 -0.12201109870342939645
                  0.31039052806809597218
                 -0.08121441229012163476
                  0.17742068252688875107
                  0.04426736182892048593
                 -0.17241360415886702873
                 -0.30794455888073463123
                  0.23567073929256740494
                 -0.23704388175372009817
                 -0.00019357030461867133
                  0.08568526354670395750
                 -0.30850766956424774401
                  0.01191667716631910311
                 -0.11975163932768846664
                  0.28633980993809055038
                  0.19823519426676794453
                  0.35979689885655158355
                  0.39437536255511806971
                 -0.27313043676849690922
                 -0.12305526168638107609
                 -0.19364705670250645375
                 -0.23585958046321120474
                  0.25091395513638292680
                  0.10298047228538541320
                 -0.35994159077806475722
                 -0.25199358770723345735
                  0.42866239627046370808
                 -0.15137089920920926422
                  0.26315611818037448755
                 -0.11652002351828169568
                  0.18430831758186921876
                 -0.06172684831847147918
                  0.85729192314850011236
                 -1.33648008354985847745
                  0.16993432418354517677
                 -0.15700763747474380527
                  0.61926555129156068968
                  0.49451608927894785683
                  0.41576017416480426370
                 -0.26517324849515244711
                  0.41819103366714399650
                  0.18260803797584415631
                 -0.37606879966245720937
                  0.29604740490768455263
                 -0.72830948737880951693
                 -0.72871335198246500742
                 -0.05647494447041656596
                 -0.64305401210356849528
                 -1.00504803925050212321
                 -0.47344561748974811621
                 -0.87593633343029053684
                 -0.30786770810312619195
                  0.17278677966087394036
                  0.23963195009510318556
                 -0.42557455332838273199
                  0.28338391276358171345
                  0.20606081106975815409
                  0.44706467264066612755
                 -0.04461099711279648689
                 -0.09524765852029756785
                  0.69889314807968117016
                  0.61955462809679406888
                 -0.23859770776800007241
                 -0.52380969658821718848
                 -0.44911586549767062992
                  0.59530763208312353907
                 -0.35011046774017451355
                 -0.19352105004894240570
                 -0.17778220964724170128
                  0.41811230403640203823
                 -0.84002664837633600481
                  0.53518634199893666548
                 -0.21693759643306637086
                  0.28824339753050809421
                 -1.24403544645612740283
                 -0.17080091877506620168
                  0.15556391532219335239
                  0.08601269424021609766
                  0.13354628579432531454
                 -0.82888977312163403255
                  0.28029091498524333348
                 -0.07547138310226435276
                 -0.82017028824010562715
                 -0.29779176179349697851
                  0.04622336685088294927
                  0.29549223255669249122
                 -0.43509313118897818828
                 -0.07011417092926588990
                  0.17236493516579146079
                  0.33679912783408627597
                  0.03563591196800895006
                  0.04705706985595704828
                  0.20369692481095277858
                 -0.19909559954335870335
                  0.79748777350718214052
                  0.40296980677206256649
                 -0.84678054944533642789
                 -0.56794550199796400847
                 -0.04296037716773178083
                 -0.34023791149791304811
                  0.26548988525632510882
                 -0.39068532937422489892
                 -0.34093131566516621245
                 -0.14575576475176113544
                  0.45980101317087240798
                 -0.61599376933062155448
                  0.99931268895737379587
                  0.81754898751909022003
                  0.12220674694469219057
                  0.56115930686861059673
                 -0.05301421830920219347
                 -0.30883255395290359901
                 -0.07982497410177930020
                  0.67701845658271508910
                 -0.21170590749740722525
                  0.26632961594976584108
                  0.52929165934796162940
                  0.42404569287625842877
                  0.67557580986453813487
                  0.16064936383821162846
                  0.13444827791453875521
                 -0.74486254414985364480
                  0.07340889303646629116
                  0.67279837192412450531
                  0.18469293583686807736
                  0.32896471826303802510
                 -0.24149336351747976992
                  0.78753375753319665442
                 -0.03870071914697408022
                  0.30339425105110778835
                  0.12328351631796782839
                 -0.53052386012515584390
                  0.34532331359007301108
                 -0.47590693854810778296
                  0.81560805219904042307
                 -0.53358400867560196179
                 -0.47353077622040112837
                  0.16993601806210542615
                  0.05816468231120447419
                  0.58325351472634701100
                  0.50488637581355755302
                  0.71747297551382727132
                  0.00085265789577352712
                 -0.44168287021936247783
                  0.44860023699877249470
                  0.29571772053185063633
                  0.78679299837605831680
                  0.27219516992206577166
                  0.04844898771370317880
                  0.15068463450989402763
                 -0.08852218416558202407
                 -0.02087200584182439395
                  0.25147859415040491049
                 -0.11683800665593756241
                  0.21168973910797925231
                  0.15759510877783616811
                  0.86304557677288551432
                 -0.86878854578662090269
                  0.81304537204080773449
                  0.64504027313504419539
                 -0.52466625204629724344
                 -0.51150202418149948169
                  0.85279874272921263323
                 -0.12110344244344223297
                 -0.13102510623029076098
                  0.39380857007089542510
                  0.04223269309587432407
                  0.09193678996523668712
                  0.31293654445354662785
                  0.38538232988802678669
                 -0.57650943458803682873
                  0.04759021587382507995
                 -0.87130563698387331062
                  0.35662672169499032293
                 -0.69574667296107151060
                  0.19979493836275097340
                  0.18618640390186236289
                  0.10634543629984688495
                 -0.15467388950856289509
                  0.55734096156863255356
                  0.39508108102711692045
                 -0.23208011320647417564
                  0.24251941443630709028
                 -0.23441019362824505601
                  0.64389108596764210724
                 -0.29392158742227370016
                  0.58958651092095171187
                  0.38690922460625654100
                 -0.27726525054995382336
                  0.50001278542601312882
                  0.40671622400834833710
                  0.50135349378377935814
                 -0.38007180338942725406
                 -0.00356618952099167774
                  0.67336934013041327418
                  0.44864455775492934064
                 -0.00256807977852214001
                  0.50621088375304179596
                 -0.46423777692093187719
                 -0.36811448685550463011
                 -0.62157359818424107178
                  0.59900345489353312711
                 -0.32894054686231505302
                  0.09151822393587252802
                  0.94932112518598676942
                 -0.01927861705634136003
                  0.42444371116486945272
                  0.03490690291198718376
                  0.38805396725316959605
                  0.55378067127245977908
                  0.20609597512858432444
                 -0.61221723605682287772
                  0.10979518172940222476
                 -0.98697270639391831981
                  0.26716243089697000457
                  0.53001043042191742227
                  0.11949515797720917931
                 -0.20955847664234902861
                  0.29149172039387666322
                 -0.83682372718041864168
                 -0.12977132395982310387
                 -0.32671900366694950346
                 -0.29472957027417900910
                  0.02793441183834171476
                 -0.59531727862038641419
                 -0.62138152489433717829
                  0.45021779005075923674
                  0.02426818896376855064
                 -0.17701013858844372173
                 -0.23240729717929539677
                 -0.35601349932113707242
                 -0.44058120171788994757
                 -1.14681582900141565418
                  0.50120371948993924782
                  0.15267878471726339940
                 -1.11374915961101672579
                  0.69100062235416603862
                  0.45982457181292762938
                 -0.75356673381941274847
                 -0.02647985827633800304
                  0.13650073227828832256
                 -0.13674636448169757985
                 -0.12059404844755494679
                 -0.34958917636315128830
                  0.71468467075407471345
                 -0.20478236764300780659
                 -0.04064350623471011531
                  0.02409493553748201858
                  0.48173901457906398438
                 -0.80084495228751551021
                  0.52918126467177317718
                  0.25364926434819384804
                 -0.60410856635565157724
                  0.38697231811529148038
                  0.27087185421780612948
                 -0.57444499874299026487
                  0.45368497356966719369
                  1.40776799872838132011
                 -1.00777749249736237047
                  0.96821002512721132671
                  0.13250406606248416042
                 -0.68203286189184930688
                  0.86832992035802669673
                  0.85470522850302710349
                  1.07355395290839239486
                 -0.19929979619228271881
                 -1.12096516700767256935
                  1.01723700703081587626
                  0.23330315602247114759
                  0.60187337332187496042
                 -1.12073681481470166510
                  0.22569075611209735155
