49	2	1
15	15	
1	1006
  0.0542223932564288	  0.1350892126924690	  0.1066401510587419	  0.0916407696101708	  0.0117280622359771	  0.0090713102024883	  0.0408711780469540	  0.0526456192124833	  0.0401755096201938	  0.0526472929895978	  0.0128772518734194	  0.0349337520861550	  0.0818351236466505	  0.0058853050760038	  0.0215461409624084	  0.0803504079889441	  0.0436176688180212	  0.0007897724339362	  0.0045851620069163	  0.0079607739028485	  0.0045853077319956	  0.0070930878194145	  0.0205829228717591	  0.0029067990406772	  0.0022483232690562	  0.0102173715165808	  0.0139644687889952	  0.0185033837921706	  0.0139767565232344	  0.0010210765268363	  0.0017686151805532	  0.0024439626818440	  0.0044361942559536	  0.0082370964167910	  0.0082371244179259	  0.0159349436335430	  0.0205823192747425	  0.0457098825065539	  0.0205836280435692	  0.0013025100045405	  0.0047254979643712	  0.0369966666687744	  0.0034173979008577	  0.0097471817668055	  0.0358783258297474	  0.0006385113093438	  0.0042037414895148	  0.0457098974005005	  0.0163399183582453	  0.0651476641831463
  0.0542700600485389	  0.1351908448869480	  0.7534752418946337	  0.2379817902204755	  0.0117280694846243	  0.0090713125605901	  0.0409076921153398	  0.0526845825203215	  0.1447731508626051	  0.0526862562971013	  0.0128876771560713	  0.0349560767050221	  0.1819536035338794	  0.0058853073481268	  0.0215461465753077	  0.2895507602407977	  0.0650333631312868	  0.0007897724341112	  0.0045851647848654	  0.0079677665904696	  0.0045853105067088	  0.0070930896274921	  0.0205978604547999	  0.0029068006260407	  0.0022483237870389	  0.0102253575686486	  0.0139730275040927	  0.0349950422663402	  0.0139853152382584	  0.0010210765271818	  0.0017686151810300	  0.0024439626820836	  0.0044361959964621	  0.0082370985686399	  0.0082371265697747	  0.0159489290348321	  0.0205972568579117	  0.1133673072808091	  0.0205985656264817	  0.0013025105014803	  0.0047254991973057	  0.0700002595909889	  0.0034196780316062	  0.0097520856125810	  0.0510723896779669	  0.0006385113094521	  0.0042037414898456	  0.1133706014779736	  0.0194739129211269	 -0.0043465155434602
                  0.08099452338521020978
                  0.03632664872664229105
                 -0.32208844226726135451
                 -0.02431606656539028744
                 -0.10998833831119353421
                 -0.11519328913897970701
                  0.02247405902418612642
                  0.17239840126262151454
                 -0.19466835798114434652
                  0.05790300346318117547
                 -0.25207763830163704144
                  0.15992144310225905879
                  0.07914468027054970267
                  0.18000947554435720033
                  0.42929881064799835233
                 -0.05454116314203947408
                  0.20914183138852301957
                 -0.13511095420315064053
                 -0.27568326595050063332
                 -0.25990510318780646326
                  0.01496013293402870432
                  0.20749580027353883849
                  0.29536856912308917522
                  0.05488915328286522732
                 -0.29815761433690879390
                 -0.28259571277415862500
                 -0.37452683943321962712
                  0.31928714880097858186
                  0.21418589962167619567
                  0.31346891712301144794
                  0.03424307837660622855
                 -0.08624362046861637487
                  0.25098572065961805011
                  0.42054169485429737652
                 -0.19549024635318257292
                 -0.08488200850164538680
                  0.05820705349499787767
                  0.22644345831196180385
                  0.32420320585362566446
                 -0.09677195135744982857
                 -0.02005920501538211581
                  0.31207601098591131183
                  0.20984110811733186486
                 -0.19490990832144597378
                 -0.11420923086040697669
                 -0.09540771328309916033
                  0.19698311395115852829
                 -0.28177367963916866156
                  0.13379480098123988641
                  0.15862599838032598321
                  0.44665282988135945885
                  0.10231453394187424444
                 -0.74184800452200583276
                  0.10399554794812593261
                  0.33870176202077828531
                  0.18549924881006629729
                  0.00218364063605109389
                  0.51402840623000267684
                 -0.31082180105430817774
                 -0.06889654777387842211
                 -0.16181675987972196640
                 -0.83056835285986208017
                 -0.03238103317958756361
                  0.24128368569117727982
                  0.11381179630696154625
                 -0.45439533481531274584
                 -0.06503454958996332524
                 -0.14455748790397571213
                 -0.20430556122056806045
                  0.13051669859844153287
                  0.18481730443375976591
                 -0.41852260892694248540
                 -0.03836712125534266077
                 -0.11465420746821493314
                  0.37037868230205123199
                  0.15223801225784805435
                 -0.22999031538301861755
                 -0.05023201333425895282
                 -0.06555293748487267536
                 -0.15888905356114443879
                  0.18554509127613630359
                 -0.32418993242811167121
                 -0.08150356331312567926
                 -0.03953817842991536741
                 -0.29475471224896815370
                  0.18688498501662106910
                  0.31250774671798786652
                 -0.12242111535787540688
                 -0.09219978729145478225
                  0.39279540741571794538
                 -0.64051737541882491911
                 -0.07253877746829683060
                  0.44778754471751180954
                  0.16164640485568326778
                  0.22173819579131745505
                  0.36738698672085684516
                  0.29283855328445096422
                  0.09040893145632940275
                 -0.00338055653135381539
                 -0.06616035656988625280
                  0.13330942609467416604
                  0.24889995663299502304
                  0.23705226165038098540
                  0.03511562880324273217
                 -0.00086065240817468800
                 -0.06173530311753975403
                 -0.40931858012715016670
                 -0.17736664020594375413
                  0.04839754511341123888
                  0.31136742935691030798
                 -0.12616142872964539179
                  0.12011143109983959953
                  0.07574133019320569704
                  0.27135138386849405601
                 -0.39676098355233108128
                 -0.61767693777449472758
                  0.09198935861883128506
                 -0.15270921496833728126
                  0.20670995302033587371
                 -0.00778953807870069650
                 -0.23828414958499627430
                 -0.32505616782256258057
                  0.28404854183971484094
                  0.37366880374727839964
                 -0.11415204615864979476
                  0.40458544047200695193
                  0.29716219620063588636
                 -0.08631951780438917865
                  0.25063647119483617454
                  0.35979491531806229165
                  0.09876004578329312944
                  0.13513802353711387716
                  0.09574925100467950034
                  0.09857397454896606181
                  0.07577083069770519652
                 -0.35205861664915077958
                 -0.14278499993544821467
                 -0.43848220473034521527
                  0.16444153672721764647
                  0.30143873718357611091
                  0.09535419266917219416
                 -0.04338842392487489430
                 -0.14905432341296581678
                 -0.08245419330770124844
                 -0.08039249801044177912
                 -0.35055897212987852107
                  0.02830396828837457995
                 -0.20131661906431722042
                 -0.48820393754730601055
                  0.13835582019885656058
                  0.31956746674477765069
                 -0.11726248325939982176
                 -0.10318590173909114593
                  0.19264325717368868673
                 -0.00695524295035061194
                 -0.16989670892856797990
                  0.03497484823954880029
                  0.07726957501778389248
                 -0.18556093873630094548
                  0.05940680426145173582
                  0.38290651179045687158
                  0.14032752216054689143
                  0.05059538201852198380
                 -0.08288776028907257620
                 -0.40041990952866635123
                  0.22790126491644674411
                 -0.15317793806964646874
                 -0.36401079438495820284
                  0.01998858434953659086
                  0.12479239457813232073
                 -0.00957501455162407950
                  0.29648569560914811438
                 -0.32556508742171957893
                 -0.25785382021993780155
                  0.15763987465986631364
                 -0.09157492156466640054
                 -0.35448019523341567361
                  0.38738379683347740068
                  0.29651441760208990805
                  0.47643184148716860582
                 -0.07693712494747903530
                 -0.03093620139427174370
                  0.18775439334665727786
                 -0.09343163893975600653
                 -0.12604589876532942827
                  0.04394326248331592577
                  0.25835165563740603023
                  0.20519185379704227290
                  0.38842540224770921720
                  0.05033123728773638422
                 -0.09788220272513402376
                 -0.01156141578974123098
                 -0.33754807135195386003
                  0.37385337662190865071
                 -0.10555387116175442286
                  0.03546816410072466119
                 -0.31062420319767369836
                  0.18302014994251020186
                  0.10110089355458322380
                  0.33742564733255164811
                  0.15904472594251103934
                 -0.11260507106295059021
                 -0.38468802987850769792
                 -0.27304565613056408502
                 -0.25422396472223202091
                 -0.03632541818201527606
                  0.05231886613679018888
                 -0.26883851900829436321
                  0.11788073877000372625
                 -0.04496126631659271011
                  0.24343559776234405256
                 -0.10483348639195880225
                 -0.10852601155342116168
                 -0.33121277988942532389
                 -0.12451813157210786520
                 -0.07081208359721902212
                 -0.05445944849194848253
                  0.23638276652629239272
                 -0.57344806830206107584
                  0.08713203893778649622
                  0.18690123867102015343
                 -0.31519702222737555619
                  0.15149751338655659261
                 -0.13746620064141334971
                  0.32745020755923248679
                  0.27963418561108172034
                 -0.02703944232100341169
                  0.34303201713999414979
                  0.02952087404008407398
                  0.34809585153887317999
                  0.01124156645905266191
                  0.23774539120623075505
                 -0.28631367442485922137
                 -0.18247602260151904452
                 -0.39078891685750982710
                  0.04086483383879919995
                  0.06213706068457048454
                  0.19145019447591921091
                 -0.03659531369240920373
                 -0.18515719558561705149
                 -0.30632334608426314837
                 -0.07103868092319053085
                 -0.27452065149236015706
                  0.28884957326844218350
                  0.18126083303133355695
                  0.08005917798733656887
                 -0.19773562170127936821
                  0.24575086314526270459
                 -0.19445966942684722589
                  0.14166126744978452257
                 -0.02082538883658329940
                  0.18415166754093709178
                 -0.08615931176074058395
                  0.60655027619888479684
                  0.14079478313911819587
                 -0.26101720659660904156
                  0.09544817259886882732
                  0.12209469683636711701
                 -0.13514279202379236855
                 -0.16078417788634064012
                 -0.33926135485575936723
                 -0.28107088608322283729
                 -0.46470698987486369624
                  0.16265248789995709333
                 -0.10640655395258726001
                 -0.43989489534204895271
                 -0.04986563039976371625
                  0.07029375344504669443
                  0.16003952759704384579
                 -0.24979910110907882492
                 -0.02657588062731281245
                  0.20835852572750088174
                 -0.17637856229075693504
                 -0.11102055591916099031
                  0.02383797119369305065
                  0.37608839578072467136
                  0.32238933450997869778
                  0.34005310559084228617
                 -0.06379869762449984216
                 -0.68743551975673478083
                 -0.05866564896004387852
                 -0.16894334608260550001
                  0.53708048761199322918
                  0.18397847797281879911
                 -0.35799498249242861503
                 -0.07625854489401770464
                 -0.26975319608723241638
                  0.24970190649614260048
                 -0.00307366574055663137
                  0.20835268459699909926
                  0.08981495127183729277
                  0.27780606024942078314
                 -0.32961088180586411989
                  0.03959389458831976544
                  0.06391849775489895358
                  0.48345804269186126723
                 -0.28946136789059268013
                 -0.12034312100425460790
                  0.27410729090093172156
                  0.54980638927162417406
                  0.24769858565715435761
                  0.08217997218016402650
                  0.07619355965805381381
                 -0.07110648519512444143
                  0.13113552033082070958
                  0.37407225165071639195
                  0.04584855914756467282
                 -0.10046670589843675891
                 -0.35014025654232050488
                 -0.27710252959614156687
                  0.27748677245278624559
                  0.40866454128725926420
                  0.15883798647766925183
                  0.02461851197651293219
                 -0.07044260266901528067
                 -0.07847824339495464152
                  0.12515258535681292318
                 -0.07684066283662970009
                 -0.09763605800175732818
                 -0.08635920773286413776
                  0.22921310128632435554
                  0.30341583376097386315
                  0.03963689415891968881
                 -0.15391099170626987291
                 -0.41172771706605654218
                 -0.20993631916079483202
                 -0.15968396936360140792
                 -0.09612393148362925743
                  0.01888585306887439336
                  0.33440031768269862233
                 -0.28559179857031502525
                  0.16306094516012320517
                 -0.25785714867027426100
                  0.23032631754365731624
                 -0.34455254599615414701
                 -0.30201094677884404716
                 -0.42376235991566568728
                 -0.06107823454284368875
                 -0.20762760279640762873
                  0.22474424742463480764
                 -0.31226378074185234812
                 -0.01394460260896647139
                 -0.15636612354759879540
                 -0.27161786264262766100
                  0.02611017607851930100
                 -0.18021555537145467207
                  0.22782389713600162406
                  0.18288928379576144256
                 -0.05703742536853957656
                 -0.08818509909290349336
                 -0.46863229884659240998
                  0.08562354129176874551
                 -0.04676955904476240433
                 -0.19022432855014331787
                 -0.29477201505398203940
                  0.26645483829023447475
                 -0.18731770369927991382
                 -0.12923939349701948909
                  0.34638601285475906222
                 -0.04665552939402670823
                 -0.00504631492853458395
                 -0.33295336141515458062
                  0.17619527065053861015
                  0.02919339790753892536
                  0.20569212086978028164
                 -0.44463501245304110077
                  0.00818449186031573565
                 -0.02928885658108817264
                  0.21985507706962220675
                 -0.34137831386559280844
                 -0.25991644890952747549
                 -0.08903712358377582903
                  0.02068796023218160210
                  0.21999238525442391112
                  0.05360398926823168458
                  0.08653186601649523468
                 -0.29485548527461030721
                 -0.02978805880195243769
                 -0.11593169722826950074
                 -0.00396722608429346535
                  0.13789795095842985462
                  0.14468568420291172405
                  0.06257919583749965708
                 -0.25237113287013873686
                 -0.19103281429841625916
                  0.28390404769161836640
                 -0.15768787154182103971
                 -0.23516181341353245560
                 -0.12701213897565341582
                  0.12943439446503887669
                 -0.09867483921187497620
                  0.13599539817019518084
                  0.14201223151010194945
                  0.01804593342315363724
                  0.25413491674020360911
                 -0.14011041151168635022
                 -0.12304692366124767022
                 -0.20194097563742385848
                 -0.26368445172652810182
                 -0.24896325159311424868
                  0.60815712156108314712
                  0.37867161445854047308
                  0.01302172004233543949
                 -0.17121986925237828170
                 -0.30431501813729555650
                 -0.08537597685887667043
                 -0.19393264798467388377
                  0.01883436989957219462
                 -0.25141549092852821801
                  0.32772977761376448358
                 -0.38179110598732018955
                  0.25660775703236587963
                  0.20235933629672114842
                  0.30438029701539009997
                  0.05906008382705946191
                 -0.18162267307738469424
                 -0.13137226722487685415
                 -0.07903452145114440996
                 -0.23618369855701482063
                 -0.02112166763762921007
                 -0.16661077991937742193
                  0.10187743999812570728
                 -0.23555326608911641983
                 -0.05318040350998706756
                 -0.13657724750751898402
                 -0.24752289784180456222
                  0.18126631140730739555
                 -0.09363101788699738914
                  0.13874899649577984717
                  0.49167969957332241515
                  0.28462715787705045178
                  0.00030018488155940035
                  0.02165652185857846329
                 -0.06467596685313821425
                  0.06798176858209581397
                  0.27418092857399806173
                 -0.21406675184806112089
                  0.15640442974076670946
                  0.10504730737448551847
                 -0.55368413858791898363
                  0.33125788197197220120
                  0.23518913165886901062
                 -0.23969090240488521992
                 -0.22935091909940555355
                 -0.27411511789750070411
                 -0.14320804019694152731
                 -0.24209685735415067964
                  0.36060393911328486594
                  0.00579113171884192927
                 -0.22322880174673703779
                  0.02452516942262751576
                  0.16071112963809555674
                  0.41977112679585770749
                  0.03574148206299504471
                  0.04090607475995843706
                 -0.18759460619123938252
                 -0.11394387040867452743
                  0.22805471970917989832
                 -0.09977473436416550712
                 -0.01467229434049283771
                 -0.21716943888009962449
                 -0.35021541318596177694
                 -0.19722074758475283129
                  0.04358959090732937580
                  0.07077320936249507921
                  0.48195355065269507300
                  0.00610483178477905231
                 -0.04048376738112426793
                 -0.20929046012863783410
                 -0.12305726597590709026
                  0.05922887869497456964
                  0.27240760676208775060
                  0.13247400788770366531
                  0.22569744079370807066
                 -0.49059485967040461496
                  0.27339601060108825736
                  0.29057893347948082763
                 -0.10360356610107776532
                  0.14997742871274366561
                  0.30962406657267244059
                 -0.23433802644513762603
                 -0.40197429066649920104
                 -0.01889329821691213690
                  0.06633787711122968167
                  0.30064294880120251419
                 -0.03235398312689298506
                 -0.10604970023069910934
                  0.12727790774786396089
                  0.35706117553852156909
                 -0.15577892889853800495
                  0.05389958391205820071
                 -0.20306462606873937338
                 -0.01531491211345627212
                 -0.05043530131479249251
                 -0.33595740608921070836
                  0.00715632070935350289
                  0.33619505065344951200
                  0.13482095494927168189
                  0.24565204302411883241
                 -0.07816963694843497013
                  0.10744127312328818902
                 -0.09292355104924394926
                 -0.12349326995029531739
                  0.24812789017565642369
                 -0.00184613473366927001
                 -0.08975302012724688250
                  0.14735725652908396310
                 -0.24684868061488415836
                 -0.14994004742862782065
                  0.27862994443664101940
                  0.05762277964708259481
                 -0.36471235965504528176
                 -0.10985776135043279211
                 -0.22751895396506804925
                 -0.21717620204069801315
                 -0.09631386556498158780
                  0.25073699539644755951
                 -0.12400091723253578446
                  0.20653885674982280785
                 -0.25738167598988498375
                  0.43301769700661846274
                  0.06958889628986809905
                  0.14235528076282569221
                  0.55004541435505693858
                 -0.20650507045093738356
                 -0.08168556125186732242
                  0.32322884643170202157
                 -0.15197142112718559082
                  0.26811268218691791665
                  0.07343273985114684432
                  0.00904660863594102665
                 -0.09931196933224605006
                 -0.05003110491980316404
                  0.22224064026246234671
                 -0.17383254037719814145
                 -0.18859445152280654434
                  0.16395090957036706492
                 -0.25857500552356560419
                 -0.06135557577469993168
                  0.38889514316310103137
                  0.13637295829149398418
                 -0.18123514727616119036
                  0.02998501124030754708
                 -0.10094526992770541662
                  0.03706956964985785169
                  0.41035735065593220705
                 -0.02929475304148887460
                 -0.13424902958418155619
                  0.32550587244578427226
                  0.01366253478819001027
                  0.16651224073019885163
                  0.02068644122742784724
                  0.17226874352768328791
                  0.28707348382524267016
                 -0.23997339382169960431
                 -0.08844979251730389347
                 -0.52442022973159374555
                 -0.12343252468424188717
                  0.19530768552858340792
                  0.15301723189052773844
                 -0.44798509259831026386
                  0.41597478126447356983
                 -0.49476982978953515380
                 -0.19457313003326706657
                  0.06605685009928456697
                  0.07219678288078679174
                  0.10602537416233992484
                  0.05087529636241987230
                  0.01561340311474299254
                  0.04084085217382672772
                  0.16178314827417483723
                 -0.17613592673312841730
                  0.01362490723949960972
                  0.02201624184047860228
                  0.16150099894333674877
                  0.00373096049341686831
                  0.01966284714125181993
                 -0.24237735974253415971
                 -0.07982496625114654520
                  0.29100776096588193420
                  0.22858511701967879071
                 -0.07332863918693768857
                  0.04920262437258631633
                 -0.12003933615147398262
                 -0.29563995376500074030
                 -0.35907028780158972703
                 -0.09644331333664432626
                 -0.26276895092543417487
                  0.09269318368023482524
                  0.39442491122647299617
                 -0.24121347206248097694
                  0.26957528652168455396
                  0.31783526189692828945
                 -0.35741645271758920588
                 -0.12256026274390612041
                  0.44588762620645766566
                 -0.21704358258908920676
                  0.17457483202976553649
                 -0.14044712932034603137
                  0.33049760064202554632
                 -0.21178589268332695394
                 -0.25383731244102319957
                  0.21170943086952029311
                 -0.09504285651713302585
                 -0.20312118740715154330
                  0.19864625466978103052
                  0.15132918807788023341
                 -0.29568593204213261538
                  0.00292267434756591539
                 -0.15468852572410513035
                  0.15399393116493806377
                 -0.47204292304425921056
                 -0.19261969822735283686
                  0.10131743656973660195
                 -0.38691846997095391547
                  0.08220716686816385843
                 -0.13863552742695700593
                 -0.10382152659003826556
                  0.08833972341335218081
                 -0.02332898185354876849
                  0.01762228831478737309
                 -0.05671400185273644395
                  0.10001108564148841751
                 -0.11679880718488459823
                  0.06622303282957274495
                  0.50920923082139957216
                  0.18451031042801793736
                  0.28528670549088180897
                  0.17966330612276618095
                  0.32572486637317188407
                 -0.19432572790270033480
                  0.00719434135036715015
                 -0.25102849947919697593
                  0.05904677289512243188
                  0.08039864820877808127
                  0.16363792582081068683
                 -0.14637493531337125718
                 -0.32030576908093122412
                 -0.25844836412273697324
                  0.03605600220122391619
                 -0.34922711402240835810
                  0.20605845540309433717
                 -0.08606509279540856816
                 -0.23015316457746723411
                 -0.14671071332166893408
                  0.05964295321581195714
                 -0.19050443362299990246
                 -0.19113887739262505616
                 -0.06809823593349013937
                 -0.11456790695934804258
                 -0.13938377247229113975
                  0.11789341298879774111
                 -0.01053430444734167540
                  0.08200767471508056683
                 -0.21394672850670160003
                  0.39821714485916070991
                  0.18883948005293346717
                  0.32998860255022738341
                 -0.22866137323493590516
                  0.01786387977007762584
                 -0.08880312595696177036
                 -0.24314387410129306710
                 -0.41469587823621278933
                 -0.52365300951152626840
                 -0.14612726208084542145
                  0.09198652984272334687
                  0.10509596269652991818
                  0.32124156108321838543
                  0.17088880127219580052
                  0.42616591107804413507
                  0.21182985708934568003
                  0.01755191767793840354
                  0.15371791192429795636
                 -0.50189999373870353150
                 -0.19488808282703093400
                 -0.29626348744519059863
                 -0.28789895517935926161
                  0.20372639145236515201
                  0.23227732696969638493
                  0.03824589036256492713
                 -0.04445191246552403219
                  0.20010540600645584930
                 -0.06063738525904641130
                  0.21457979137822713600
                 -0.05566290040067665285
                  0.04431343594081938592
                 -0.19245480492287797558
                 -0.40508347362635160893
                 -0.10635976362449904575
                 -0.12232678489670702204
                  0.05922032433577211624
                  0.30384702890185083524
                  0.09655712987013573279
                  0.36277556645704733818
                 -0.12153369840391113621
                  0.15624501789082020919
                  0.27848195658512980843
                 -0.05408214153195690238
                  0.40015887212784173599
                 -0.15291601428786932848
                  0.25723507065150247319
                  0.23346833843939479580
                  0.01390342501205678663
                  0.17925066771119671505
                 -0.11613047710322180195
                 -0.21174709006980158010
                  0.11665045140954943825
                 -0.18563673606549169204
                 -0.31931995586457545544
                  0.24824879156448548256
                 -0.19711229431029378412
                 -0.01299014652563191749
                 -0.08508472454045867828
                 -0.20963239991429033493
                 -0.39678573598078181739
                  0.03082775945036255599
                 -0.17334454318664108130
                  0.41515047748895989033
                 -0.17913041673312640745
                 -0.09134579118233815409
                 -0.31989910843733526669
                  0.19890979601276248534
                  0.09544991794834011001
                 -0.15645181336985691800
                  0.04529690737544021101
                  0.14124722612134574251
                  0.05708916615753574508
                  0.35181157889123682025
                 -0.13513889460438643919
                  0.15225558594067503670
                 -0.20106083981557992812
                 -0.06431866660301041594
                 -0.40017858411996937162
                  0.37200893338029344948
                  0.15222843105881839199
                  0.56896095599531770759
                  0.52847726550331342033
                  0.59656394608261775758
                  0.50363228718491392932
                  0.32446638231430385835
                 -0.56225158314783685309
                  0.30495931291546085617
                 -0.12132734071347353599
                 -0.30578823935150090119
                 -0.03163845808789564340
                 -0.09664005992968757730
                 -0.53750695773102596942
                  0.07975449166988103633
                  0.57169617963844210351
                  0.58908770115325981287
                 -0.18278001503983803966
                 -0.33638252330570922455
                  0.93265580606905218453
                  0.29575041253005412978
                  0.17162807748604352875
                 -0.10775297682894187379
                  0.38176894906447145228
                 -0.23401484588329227177
                  0.01723136417348361885
                  0.17842622786459341744
                 -0.47334798397376393053
                 -0.03139778775878804967
                 -0.72454111282774191771
                 -0.32590263828818982761
                  0.77022674668498114503
                 -0.44627041069006606611
                  0.17075591619248153830
                  0.54498766845491497524
                 -0.60063167706408049362
                 -0.13873027185416536566
                  0.08643729345961857768
                  0.61563111173764617501
                  0.73054749664646034812
                  0.55939782478279798106
                 -0.20291741624147752177
                 -0.41660511641284780904
                 -0.54265767690391197853
                 -0.52445939281326303671
                  0.30059117700427340214
                  0.26886421526237952451
                  0.25020326173060142283
                 -0.19534168796453610373
                  0.71840040635143453951
                 -0.59959320151404960075
                  0.54999190360892746821
                 -0.05489096908999809010
                  0.81006349962654367047
                  0.13225096511025169477
                  0.26540694017961879991
                 -0.82223793651375698399
                  0.84281166518291139589
                 -0.19127528585780989578
                 -0.61367523004949675602
                  0.50920988988070592374
                 -0.01317104799053064358
                 -0.67498414275832041564
                  0.09824061391349467320
                  0.18735782081687038514
                 -0.81464638331864180909
                  0.48226551945854689851
                  0.19037690652570812833
                 -0.64129805949535123588
                  0.09844987484746905992
                  0.10384829942553029658
                 -0.43038277828617038656
                 -0.03931303706618453214
                 -0.05086560571997910535
                  0.22343852495411373194
                  0.55091243787243027175
                 -0.74322871038055715598
                 -0.28177209616417503435
                  0.43470911217819790950
                  0.34450788488362293904
                 -0.28772089515747301114
                  0.04851034369586152556
                 -0.30660489257944645303
                 -0.59058550967407485999
                  0.63948983517436486235
                  0.11170512769618531901
                 -0.52608687380831686831
                  0.46885289828592252581
                 -0.61802525474587699517
                 -0.37014780993635354456
                  0.76013025581576743051
                 -0.04896496300714403560
                 -0.38933154777101058874
                 -0.00180597146569067457
                  0.46387755186047346934
                  0.14347102094068259204
                 -0.53700579576153351091
                 -0.12418053884364489703
                 -0.26334319099750214122
                 -0.45207489573703485419
                  0.15391558174844796603
                 -0.32813130928707390233
                  0.39413448840958215103
                  0.59184495809370263331
                  0.37370926817414401588
                  0.66374339622429234797
                  0.65522939682711056619
                  0.38878047944635424349
                  0.03437399636577435913
                  0.52793557504112575973
                  0.57359753485183995192
                 -0.24730637380984152318
                  0.58372485077523006414
                  0.20116983735568599867
                 -0.50154990604352545081
                  0.19158172179202170859
                 -0.61125854602154483519
                 -0.40826031104517751524
                 -0.26272358407784424106
                 -0.02391879660174383096
                 -0.47072377030604861670
                 -0.15805298696292027771
                 -0.31372706443557191180
                  0.02392055089757767761
                 -0.70904334902155530251
                  0.53090587562861590865
                  0.50762418303548051401
                 -0.43978574083629645708
                  0.48787102887798533546
                  0.36426782100039817314
                  0.74038659293658470872
                  0.06923854815900692961
                  0.23960594578663535481
                  0.19746585138433953022
                 -0.79421254692705955947
                  0.42721780339341863808
                  0.07109789572124321222
                 -0.03626776454300803532
                  0.27980433300070867153
                  0.18638049400670686495
                 -0.20710548301306191954
                 -0.81009094614084475872
                 -0.63100199392061284698
                  0.62686131040093640010
                  0.79787571902300713500
                 -0.03508463261765195490
                 -0.80282638065330902410
                 -0.89955900090938989422
                 -0.05474602016766359769
                 -0.43803486293947535568
                  0.28739666588882029075
                 -0.46765179993580474616
                  0.09253927142273286888
                 -0.03170094856200263850
                  0.61245331664789859349
                  0.60475387130203406283
                  0.32905557705254129264
                 -0.25122366842243548657
                  0.61195855503116369789
                  0.00351017003871496392
                 -0.14756563484171536516
                  0.50439391409037315217
                  0.00423731196464096661
                 -0.25104822511649932393
                  0.74700470879884162123
                  0.32891645320681434095
                 -0.58011146466476215533
                  0.68989961893947737703
                  0.31224931564749242030
                  0.70038976492066706836
                 -0.16628735806491193316
                 -0.60798757258923263880
                 -0.12454252278653031583
                  0.42609090251887954404
                  0.10986987213085119830
                 -0.21166637177937694392
                  0.19169820670163761900
                 -0.71007419830454210352
                 -0.66937490592574855341
                  0.39234052767823640595
                  0.43150885651619608208
                  0.01107508396079333671
                  0.42014703615985143914
                 -1.52698403205525234938
                  0.89902139748180331935
                 -0.07063178681946785664
                  0.19593564473925578762
                 -0.51108226358878339202
                 -0.40069955094230047532
                 -0.26473948287039683613
                 -0.54156755064233796926
                 -0.48840122925627815764
                  0.10023128165609815343
                 -0.61061715495250079577
                 -0.38370360936607339486
                 -0.73819285410647572654
                 -0.22396774557047799403
                  0.86942158913416234256
                  0.27270826705443690363
                 -0.68138812113264701775
                 -0.53748444297809727654
                  0.51686530077086911827
                  0.43118518380669557111
                 -0.27395496419192860715
                 -0.77118072984792063185
                 -0.45462163089974905184
                  0.33193800857278554783
                  0.25978046328920761932
                 -0.40242833521446841338
                 -0.06457299830990573253
                 -0.04852624894690765744
                  0.49959406258972688386
                 -0.86030432952408786296
                 -0.38258788849487157524
                 -0.04595873939783489542
                  0.67114228245679186102
                  0.16468700709265038373
                  0.93915208346878820134
                 -0.31624838437357766230
                  0.20951042923109747251
                 -0.68290677187713533236
                  0.61689004641794398243
                  0.79512903450859062637
                 -0.13763337964429667171
                 -0.18723699660412343460
                  0.32227239269574153857
                 -0.54445471749687301966
                  0.61873173484531018840
                 -1.02733750114026989309
                 -0.20099021273854955627
                  1.07903735451870952389
                  0.45230735476981015486
                 -0.55960260826159313741
                  0.78188504786088774967
                 -0.87896684616616882479
                  0.97768040575664438840
                  0.95933951621287472111
                  1.10977529034468958002
                 -1.31825504304728124971
                 -0.97831067370645241610
                  1.05740326753291769002
                 -1.61214316844615224156
