49	2	1
15	15	
1	1006
  0.0487528288817763	  0.1346465419535583	  0.0990346470846311	  0.0831638741461670	  0.0117280596704378	  0.0090713096834258	  0.0367480166643926	  0.0526414071771774	  0.0372143147152041	  0.0526430809538946	  0.0122931650198351	  0.0349313387364444	  0.0755886020589717	  0.0047632039647006	  0.0215461395259119	  0.0744512562921099	  0.0392213196584394	  0.0007897724338536	  0.0045851610228482	  0.0070949430303087	  0.0045853067463095	  0.0070930874214227	  0.0205813080799490	  0.0029067984736881	  0.0022483231550384	  0.0098329251235257	  0.0139635435695473	  0.0177688492114597	  0.0139758313036992	  0.0010210765263891	  0.0017686151803667	  0.0024439626817539	  0.0035903827409100	  0.0082370958660733	  0.0082371238672081	  0.0141912780015452	  0.0205807044830848	  0.0422028000713560	  0.0205820132516068	  0.0010897256866969	  0.0047254976488291	  0.0355373440919335	  0.0034161806584367	  0.0097466516482465	  0.0330663151366958	  0.0004649052156602	  0.0042037414893656	  0.0422225081144981	  0.0144481986445384	  0.0589895233891171
  0.0488505392810251	  0.1347701475603136	  0.7516555574499668	  0.2358074347853546	  0.0117280720501637	  0.0090713130796527	  0.0368229362382165	  0.0526887945556274	  0.1436916676930239	  0.0526904683328045	  0.0123146281736493	  0.0349584900547327	  0.1856734801344554	  0.0047632135120227	  0.0215461480118042	  0.2874106029825498	  0.0625213762630488	  0.0007897724341938	  0.0045851657689335	  0.0071093042001154	  0.0045853114923949	  0.0070930900254840	  0.0205994752466100	  0.0029068011930298	  0.0022483239010567	  0.0098493820242143	  0.0139739527235406	  0.0357295768470512	  0.0139862404577935	  0.0010210765276290	  0.0017686151812166	  0.0024439626821737	  0.0035903900613315	  0.0082370991193576	  0.0082371271204925	  0.0142200003411585	  0.0205988716495695	  0.1116921471050319	  0.0206001804184441	  0.0010897277838703	  0.0047254995128478	  0.0714595821678298	  0.0034208952740272	  0.0097526157311400	  0.0502687931947165	  0.0004649052165930	  0.0042037414899947	  0.1117148837887441	  0.0180048022477605	 -0.0015345317051845
                  0.19839339288100471537
                 -0.37658234549328289953
                  0.14759980564211860887
                  0.23273611839237456911
                  0.30575514124920627479
                  0.14350598960578248020
                  0.09623716498044154743
                  0.24684994031891252519
                  0.36941153377804175628
                 -0.08146368179877898352
                  0.18585832324530190962
                  0.19988721459500097266
                  0.08345623063566696975
                 -0.06366725433830368319
                  0.25149785290304338403
                  0.07293586647530381217
                 -0.21639438113099507266
                 -0.04546084853691723798
                 -0.24224176260328308952
                 -0.24776705230356393939
                  0.00931967238445590221
                 -0.22037731812763097783
                  0.14932954789678606899
                 -0.07154684427323192153
                 -0.11048210371162807408
                  0.04604572111315289457
                  0.21685531715202238656
                 -0.09166527160552810638
                 -0.17186799769241314917
                  0.01799761478672724097
                  0.16551747709950839771
                  0.28035288356246712560
                  0.00232905068202330333
                 -0.02129108034658904955
                 -0.41765352002464134484
                 -0.33890123667940658114
                  0.07738729959601149677
                 -0.33384847924472388359
                 -0.46490171277551345375
                 -0.20186554436654730038
                 -0.14606582340728405112
                 -0.01775492250888921486
                 -0.30082377912284630206
                  0.01437530249266285275
                  0.31617399870507700843
                 -0.18380087149116836054
                  0.01204572506408197775
                 -0.35093112449214902693
                 -0.32124620270865095195
                 -0.27523921064974521400
                 -0.24188916535452434364
                 -0.26114652571881358245
                 -0.15537112966352742416
                  0.16399774597949326460
                  0.06572660607811167677
                  0.04607231016796571599
                 -0.02467040466543153274
                 -0.24649364309761917502
                 -0.26280000369463929477
                  0.29715023953936087198
                 -0.25798843445497743332
                  0.06689551602379771589
                  0.02817936535232328302
                  0.19707315707866654431
                 -0.08986018565161314753
                  0.25558633914133749299
                 -0.11997324256054076042
                 -0.15364874311246135008
                  0.22780155588008133005
                 -0.06324545260513432521
                  0.20072574166457826661
                  0.18404452713765900862
                  0.36324127526736094129
                 -0.08615542105388369898
                  0.19056125533265286243
                 -0.27744349724675404500
                 -0.33355988757412169399
                 -0.01041282073480269410
                  0.11615456658811165735
                 -0.27708051491212087880
                 -0.33011997466107600996
                  0.05356548684031179480
                 -0.08681256015375882207
                  0.05090572919308603700
                 -0.16717279183820887845
                 -0.34459390910303344668
                  0.37958028213083472302
                  0.04415626512150247485
                  0.19252630669670037222
                  0.03068962497580268386
                  0.08146147450171467574
                 -0.32211508633529062351
                 -0.27922176063622822229
                  0.26909077847876211598
                 -0.16467474691495825878
                  0.22226646556118478948
                  0.32272458016732008534
                 -0.08804290015926757862
                  0.16467256826593354435
                 -0.11919487101245979099
                  0.31760055605105630416
                 -0.29229623803205068144
                 -0.25800712395745978300
                 -0.38129352086186585336
                 -0.21700209535943379424
                  0.32330533011572848423
                 -0.21105851013681667383
                  0.09025660425375013618
                 -0.28727720909429277363
                  0.13980391780383116807
                 -0.30161696262967963023
                  0.05959460267670305816
                 -0.00079216659572207764
                 -0.02224913034706986481
                 -0.18244294271126096363
                  0.28585664950933548090
                  0.33063100486856683569
                 -0.07824154809180566827
                 -0.14015360958090300469
                 -0.28949208809204296511
                 -0.16504560610806165433
                  0.17175168668898208035
                  0.23079868450648530209
                 -0.17770332342857009245
                  0.29823769409186628998
                 -0.09298562362093081013
                  0.03704817749873399318
                 -0.08655787584866933559
                  0.03862038627375041083
                 -0.07280176479612059104
                 -0.16665939085862335745
                  0.45955532406197124873
                  0.11705503739406743213
                 -0.01108097875387059096
                 -0.23293145888553493106
                  0.11631211742060389158
                 -0.21612751918833217335
                  0.16296134858339045293
                  0.07820441302711124421
                 -0.27741728838106161081
                 -0.28815920846282006007
                 -0.06673606032656227705
                  0.33598597797446655422
                 -0.00773615309623102831
                  0.22221789145885029182
                 -0.32872779999290835384
                  0.18946359268595966419
                  0.27489290547700734324
                 -0.18792423971404553784
                  0.17630298895978885332
                 -0.30316722632294407225
                  0.32049093092164149255
                 -0.06541126701491215001
                 -0.27880520859215479623
                  0.04173399058809508511
                  0.35841764014235211189
                  0.05987007977451347385
                  0.04675745358043822270
                 -0.08921304824428298585
                 -0.05214826037160263245
                 -0.40767465396420748958
                  0.05350159032378516005
                  0.45668905111951113573
                 -0.30437330124594347280
                 -0.36292115764440979753
                  0.25505876587923165255
                 -0.22792925772746244761
                  0.10290689746403761107
                  0.13251220066527125141
                 -0.19412132617110561261
                  0.32403617167782716724
                  0.34578964792899974379
                  0.26202743914011966675
                 -0.26900514005374476234
                 -0.34294909464284784040
                  0.12152837895029849902
                 -0.00462226424279946375
                 -0.06022445268883085817
                 -0.00251547335251099593
                  0.29804513818550032456
                 -0.25412706184112848762
                  0.18048726063578721113
                 -0.11362896004586266197
                 -0.08070995660641563929
                  0.08534432784565766650
                  0.11794584126106112676
                 -0.18736156021653574411
                 -0.10170915791613412138
                 -0.57639942656894282980
                  0.32570879744808339806
                  0.10940847900447972507
                 -0.15514870175265860208
                  0.25136635187391792590
                 -0.09569868369607330283
                  0.10185692487572024778
                 -0.12539646532214859809
                  0.17636156498302069107
                 -0.06555283611065965133
                 -0.30261454616093252934
                  0.18070609242281901463
                  0.27253212368933232845
                 -0.14317907235022500623
                 -0.30177921527336909469
                 -0.27026781332158494875
                  0.10053403919659906207
                 -0.07388848471385832395
                  0.03414187812752026568
                 -0.12242322016888529390
                 -0.08986643174547701007
                  0.45617580140648333886
                 -0.21977676922564751139
                  0.20768288452216546180
                 -0.30385772612532990777
                  0.30516635130588032343
                 -0.35169844955440482392
                  0.31565322162294234820
                 -0.20573268246351678057
                 -0.23705357694146333980
                  0.33178549894466480286
                  0.03022821477547583263
                  0.38873758693340276782
                 -0.11865194475190790624
                  0.17130348651545493355
                  0.20632061793305031538
                 -0.09380562500639613721
                 -0.07144663526257076513
                 -0.37147494473492875811
                 -0.25252866149950048413
                  0.04923301589399706885
                 -0.17304599493966066337
                 -0.24056240426687966472
                 -0.07526611605192720655
                 -0.04190750664582481438
                  0.30906236623135008301
                  0.34210039241298018098
                 -0.02407884495465227592
                 -0.39732398203877133946
                 -0.27063259305574682845
                 -0.23189100523557704125
                  0.01101147305486976230
                 -0.03539923517187992807
                 -0.08001475349646039459
                  0.58872146072105102643
                 -0.15922359354699414102
                  0.13516299678978843657
                  0.20530128251011708906
                  0.38663686450733963929
                  0.07662961994055673964
                 -0.29136755641598321986
                  0.19371104585029716438
                  0.20588696235682657498
                 -0.24081265523758058067
                 -0.27897225839864048247
                  0.50254234133915876015
                 -0.14801705775795012676
                 -0.09407664170476547072
                  0.18821178727983189916
                 -0.15954062933356252807
                  0.01957786894581845308
                 -0.18960705637779851074
                 -0.00363296363880446626
                 -0.23942897231574836181
                 -0.19078542935092002164
                  0.25398334697173680086
                  0.30885343982735602442
                 -0.22141372434775927203
                 -0.27875715436397702218
                 -0.24783990076746836850
                 -0.15285542517862807377
                  0.20695327361679463629
                 -0.13067933387868330142
                  0.13767196647331969572
                 -0.39181112396733341896
                  0.16816773330474271697
                 -0.20332717021120638723
                  0.00331229202214533818
                  0.26180071646957325804
                 -0.08172694260747769002
                 -0.01657343692332281099
                 -0.04948065977014230732
                  0.09218176308192742308
                  0.07369510953791211239
                  0.06838917887280894503
                 -0.15970145376774563806
                 -0.00732157217641707034
                  0.24747895502848266114
                  0.01845715936637101068
                  0.06722278891254787614
                  0.19324759320340004209
                 -0.20023835557763167148
                 -0.35213473018874924536
                  0.16548689317569298396
                 -0.12001609899496042122
                  0.53593459768867535153
                  0.25821742559353033641
                 -0.28941631758810543174
                  0.20472044470330696964
                 -0.24944309410156595419
                 -0.12263233297043713010
                  0.21115599861172343332
                  0.15909583427588050442
                  0.01104846805711754386
                 -0.09858445923225690743
                 -0.18225664714514772102
                 -0.09903880804392396764
                  0.28075598034143306458
                 -0.02222023742941403590
                 -0.28856065838343647467
                  0.04368761018769275195
                 -0.10588190731156188473
                  0.22965620260039792955
                  0.33001076247192800972
                  0.19827989179936139630
                 -0.08791037574831145340
                 -0.23643308187850961555
                 -0.05874531557827426809
                 -0.26487124825085772706
                  0.04005124687082749213
                 -0.06983066189538024437
                  0.26406164375738527816
                  0.07213387361405107501
                 -0.15535191871773512684
                 -0.03927974296549116562
                 -0.06419270634738863390
                 -0.48020318942544926166
                  0.07542388730392564355
                 -0.42302608106088090967
                 -0.05977375373535549763
                 -0.00708137929987526400
                 -0.36613638050565189275
                 -0.14243858018974236979
                 -0.31847275224075211053
                  0.32802201212398185426
                 -0.25276210936908322102
                 -0.04556817595983130020
                 -0.12450815388189048760
                  0.26441101631208357992
                  0.02898007656767979945
                  0.33157602097222849125
                  0.23706516988187686934
                  0.07229070996124041526
                  0.17895654155752177550
                 -0.26604747327059502515
                  0.14128717567213083806
                 -0.06304412666692300882
                  0.16183276752998138059
                 -0.02846737646792743548
                 -0.10304850989017350082
                  0.02301854835469919341
                  0.22156029280171801732
                 -0.07175886760354781291
                  0.02387820255622975091
                 -0.27448176740234664361
                 -0.35784498091777022788
                 -0.19261060369236596146
                 -0.01130093659133829358
                 -0.16961383364296267473
                 -0.29738314035534146873
                 -0.26146736437935313990
                 -0.18638657876811307035
                  0.35640070985493799149
                 -0.18230522372503130124
                  0.28700108637727766991
                 -0.01748147910871855268
                  0.05302609965397457603
                  0.06042323251786654165
                 -0.26136280457544597278
                  0.29809307660249717564
                  0.28219582822500161035
                 -0.39494259530694625360
                  0.08592235850029711353
                 -0.18259499562578138110
                 -0.17032436544396414857
                 -0.19248210030513174251
                 -0.05409772360333851837
                 -0.18017828256481671634
                 -0.41054232577418331429
                 -0.12830933219879936402
                  0.28749529690313396779
                 -0.29922656096376853974
                  0.23855228403100067758
                  0.26833248761675204674
                  0.23514113496984079266
                 -0.01845113517193313138
                  0.12951572063340918706
                 -0.21732569865905204676
                 -0.28413487185248725853
                  0.11217429768366132814
                 -0.27015035511522828005
                  0.28686170902586977105
                 -0.05848029173572587974
                 -0.06032890665810541203
                  0.31185783457357746373
                  0.46807259681061819112
                 -0.31566293406094858565
                 -0.03533320708999160981
                 -0.11088906452761464194
                  0.16087901506291457654
                  0.32007831178478768352
                  0.05979992869353605023
                 -0.24426654689841056922
                  0.28463511757580944872
                 -0.01653859772244786058
                  0.36954068237998249913
                 -0.20041915197784318514
                 -0.11427760613092970143
                  0.12785335313080056774
                 -0.01989898747183613606
                  0.16680416700108804950
                  0.37920004837424742261
                  0.32782258077045517419
                 -0.22719760699979316132
                  0.40460251302089556003
                  0.35690074120444031935
                  0.07613611821743276886
                 -0.21597792522503897472
                  0.26068198256839236748
                 -0.08124399519826297489
                 -0.12230340706373313275
                  0.10014184767547594512
                  0.41061375911219777368
                  0.27182419443039407270
                 -0.16175768314565008854
                 -0.16390074450869385192
                 -0.18734771087769977460
                 -0.37795726309745536486
                 -0.45528648196093279843
                  0.08144267853231311471
                  0.18557992324776245718
                  0.19474738793987367291
                  0.07314769201371908169
                  0.01924192290823589432
                 -0.39561634723246769108
                  0.31634725655760864704
                  0.13769255070843042232
                  0.03327652717976373187
                 -0.16538480456689305664
                 -0.19559478641302407986
                 -0.12092065149381894806
                 -0.00091199599751011452
                 -0.26265587537999229850
                  0.11314158228701300113
                 -0.28103512721244461314
                 -0.29174768386630722805
                 -0.05806031623126853974
                  0.20443575476750364128
                 -0.06779174148378021292
                  0.25682086170111501078
                 -0.00253432778696772391
                 -0.01476713783524769702
                 -0.00505943549164547014
                 -0.11835585839356313476
                 -0.01127463190072226090
                 -0.00575615431890223218
                 -0.23464663201275148818
                  0.18958363734969432834
                  0.15400244882383370970
                 -0.06305977220697611685
                  0.16391254354489570577
                  0.23470833241936367441
                 -0.41089727626952865513
                  0.17856559891602766244
                 -0.39680345608085526576
                 -0.28579649024433645410
                 -0.16786561079861239687
                 -0.28930670380019668508
                 -0.35932903059203263885
                  0.03382370367109059639
                 -0.22826397445859028523
                  0.11726154357409013240
                 -0.11627281734490867160
                  0.01015781204435113605
                 -0.18327919980804713296
                  0.28517738425291505600
                  0.44245248803968045825
                 -0.17542037340372634846
                  0.14550835317272078906
                  0.25026155637644814655
                 -0.20561673715316550193
                  0.06374058212100260079
                  0.24996675841580129340
                 -0.18905156349926846571
                 -0.31029164018243454715
                  0.08033913600543007849
                  0.04137728002004560646
                  0.21349857920085335561
                  0.12698841039997288416
                  0.06319465890619523074
                  0.31945820346140135770
                  0.21520530304117047038
                 -0.00621782022228712771
                 -0.52475048097644128031
                  0.16100281364002924644
                  0.05688983880140473237
                 -0.12209163401761846668
                 -0.18789081963041776024
                  0.31256724222443804662
                 -0.26154509812376397493
                 -0.05605832408143750223
                 -0.08820301949096057137
                 -0.08674549826290160748
                  0.23626527604504482527
                  0.34106378110514273816
                 -0.23968483666985765379
                  0.27412931503887333351
                 -0.14568775055028593268
                  0.15416943113730896542
                  0.17353815597424090966
                  0.20222115946252544605
                  0.32475643152011840487
                  0.27910263122957951198
                  0.03816499585659225563
                  0.12312122920292717376
                 -0.29966889694264031707
                 -0.33048819950986096927
                  0.07802679680441759746
                 -0.19802242486486559825
                 -0.07243637794037709188
                  0.14567302966052805835
                  0.02900903169883777694
                 -0.18822377779050553093
                  0.40891164447494915413
                  0.10038745315470251618
                 -0.25256831807637258880
                 -0.20036744481999557710
                  0.34776944884904709143
                 -0.20941931559546606012
                 -0.26899587825767573568
                 -0.16857813504120627845
                 -0.15607144953290785772
                 -0.33153055308466294893
                  0.28494974468370670717
                  0.15213329896446670109
                 -0.15679846457522378378
                 -0.23939896972097141070
                  0.02305760642447374567
                 -0.10606499173761578525
                  0.20713888263716656590
                 -0.11307350433641483178
                 -0.11548151008609844337
                 -0.01096385917848305240
                 -0.18018716231022186003
                 -0.19596486493199455348
                  0.25823783497010877053
                  0.36182248595664906476
                  0.26870300632633659088
                  0.26182374894776738738
                  0.04962318555593318165
                 -0.31513851391614705610
                  0.00838981342202844635
                 -0.37536592951323211054
                  0.06737588060112545407
                 -0.10438617303710706619
                 -0.06064706274286218307
                 -0.01896295981039966896
                  0.07688261465556785190
                 -0.24530734987357180610
                  0.22893206131264806635
                  0.30979258897670808315
                  0.30643680104259751751
                 -0.12427028110886205459
                  0.10567508067188181864
                 -0.17617352651312082057
                 -0.30662527976100162341
                 -0.02525846637981257747
                 -0.28313566930962208446
                 -0.12188696110853643184
                  0.16859142242413768797
                 -0.05844587621802348198
                 -0.23730306909979820285
                  0.40466432539189256534
                 -0.05672738790610989956
                  0.32652934746659884047
                  0.06707920986083805437
                  0.00328485705961884065
                  0.25699161990794328059
                  0.14780703014764093317
                  0.00415692474179987781
                  0.10630382859668278950
                  0.32848824367371143307
                  0.26085594689942381841
                 -0.09382290555869596260
                 -0.41773065698702949167
                 -0.08143527705625368263
                  0.05497505298147484232
                  0.15818366705594044674
                 -0.18403518023550954896
                  0.00726394883841870523
                  0.11874329497462905725
                  0.25114248043967851709
                 -0.22437956901904212992
                  0.39658822631473494846
                  0.28709509584264225612
                  0.12785364818662722786
                  0.21531882809554475644
                  0.04040413062022564505
                 -0.16663054657390422020
                 -0.28148373727335440631
                 -0.04297862346603082556
                  0.35184190170224927119
                 -0.16120068407031160063
                 -0.15396090993770966682
                  0.27537090940764252789
                 -0.05447295962159978688
                  0.04515318849861743589
                  0.03393513433498113185
                  0.00912362386677415330
                  0.11069082134449372001
                  0.32286514399684479448
                  0.08344696159447115291
                  0.01153851442699725671
                  0.24489857578135898475
                 -0.03345694095801506757
                  0.27238186270504488595
                 -0.09814124047359380765
                 -0.24156534947690258552
                 -0.05397451807584566219
                  0.23844575487481978193
                 -0.07281508810887762917
                  0.05617754613729988161
                 -0.04889456716936187858
                  0.05464888466063042016
                  0.12313126983200149700
                 -0.06589736610355172164
                 -0.30996353021014066975
                  0.41585489048711554716
                  0.13318023802398290534
                 -0.33908562918953710774
                 -0.13888813679069891838
                 -0.18781977670018357163
                  0.10709327051918585139
                  0.18497810929956906567
                 -0.12366118145830842789
                  0.22513502909101079652
                 -0.19616704517001420927
                 -0.30951166647939382104
                 -0.22216554334443819330
                  0.11474081886015238818
                 -0.14728297953016702970
                  0.32792813472146636888
                  0.20647180037041226730
                  0.30959623241743822186
                  0.01783932261546329959
                 -0.20663623566319752611
                 -0.18894401225697143865
                  0.24555451220446017357
                  0.12905506874610250811
                  0.13344223612074221363
                 -0.05616157890871151942
                  0.20664676430463427281
                 -0.31649992981100755207
                  0.37280806555537149283
                  0.13706400886425088026
                 -0.40042670294987736668
                  0.06366585003906363727
                  0.05015575590723758692
                 -0.03210513920017109279
                  0.20257329656664943562
                  0.31172050259531230987
                  0.07457500067211185468
                 -0.36096285033923558583
                 -0.16060865310645677795
                  0.13286768104300195059
                 -0.12903037054450461341
                  0.34306643906440731362
                 -0.04437998671744756984
                 -0.10047402976429510579
                 -0.31802109356930352568
                 -0.24155502260385575131
                 -0.26910076173640301578
                  0.14767596216575304413
                  0.29970030857384660772
                 -0.13626910397671099240
                 -0.26825994709331058008
                 -0.02226695938159762439
                 -0.15637414673008936949
                 -0.08286669966996797199
                  0.08617543698383170470
                 -0.26711225230146723453
                  0.11560395854019596407
                 -0.36233910816244996322
                 -0.00409888159815349588
                  0.35982340497787346223
                  0.35049948640346806350
                 -0.07864844412494695347
                  0.08067037512405436650
                 -0.10193210553288523101
                  0.22740952255283269912
                  0.02221380897272424992
                  0.18275269156193554854
                  0.21114587698787218306
                 -0.24043555383812018067
                 -0.01265310385827812280
                 -0.12595983160127466327
                  0.09693946098298168723
                 -0.14362949107403363835
                 -0.32685702058780180534
                  0.12028161611328282155
                 -0.19991739894025190027
                 -0.16624191508215324653
                  0.02979698130099979816
                  0.08508779896043371094
                  0.23363254410575784448
                  0.32349369844950737196
                  0.32413182375577220817
                 -0.05848198135418297694
                  0.13282802279733726958
                 -0.12976243602896558871
                  0.33852053406217119669
                  0.12088761396414762772
                  0.37052296829806447009
                 -0.29225597210157633343
                 -0.29052994448489510848
                  0.03011978926790160119
                  0.28973735470958850158
                  0.03167400354984404448
                  0.01767900577285631131
                 -0.02876607581798364122
                 -0.21088447401566579043
                 -0.09092961692761354631
                  0.07702600704513368202
                 -0.32311441450964600852
                  0.14797329482128446232
                 -0.05830574212805796075
                  0.27985012250170737680
                 -0.36025984235718899740
                  0.08167574333600488568
                  0.00454492168501388887
                  0.29363548239809267315
                 -0.09812621360080658883
                  0.12056260521842160349
                 -0.36161370055231689680
                  0.23159688294476496462
                 -0.32895494597220314992
                 -0.30028473792972687484
                 -0.21814555996011555927
                  0.46539946561832262750
                 -0.25847358337034154196
                  0.34125879756393490139
                 -0.39143164869561486441
                  0.54600932294964343860
                  0.49927915388215909909
                  0.29762538496660884135
                 -0.51976341996446528970
                  0.65430875783197750550
                  0.46564709851721597378
                  0.13455728120354246147
                  0.70796630777197799844
                 -0.36429864700444575254
                  0.09430414515964291589
                 -0.34185433508437046424
                 -0.33614823763411472157
                  0.38242053316388546769
                  0.94660196525586193239
                  0.43061788908098552753
                  1.01201247740620892124
                 -0.29843839314000103480
                 -0.49875179745259934361
                 -0.35769214901884349711
                  0.48012314215247720028
                  0.07578540385081432296
                 -0.24374238508849832563
                 -0.08561450187514640930
                 -0.82178138365383102126
                  0.22577171767722126194
                 -0.19495946031670796650
                 -0.13950810707160557489
                 -0.56952665988924056073
                 -0.19124178522990353812
                  0.70365673176975174208
                  0.21927796200900595558
                  0.47377117955982206432
                 -0.12673123217140958019
                 -0.23503578248474341073
                 -0.65794310232649322323
                 -0.05235697549132493217
                 -0.72848844575540883106
                 -0.60803157703621135699
                  0.51633202775031927789
                  0.07738465460290547271
                  0.83872851895253164312
                  0.45124050641752355695
                 -0.01581780172082015989
                 -0.14396621899641395825
                  0.47095315896514833298
                 -0.12399109943630477748
                 -0.15072094455385878775
                  0.14599242485077534859
                 -0.64951511712564757861
                 -0.41292864287074360075
                 -0.23540082189896574527
                 -0.44098323700854219487
                 -0.32257968157842970003
                 -0.11000715038206207441
                  0.74562842411212304494
                 -0.64159604390979330102
                  0.52703727792017118770
                 -0.01738828706514215089
                 -0.32583295242356485888
                 -0.05129131137830108406
                  0.15629627814757313109
                 -0.05491585067941478354
                 -0.37688103199191413939
                 -0.15937044306781303349
                 -0.76653716616766920389
                  0.33688868460014226303
                  0.41863713371317978762
                  0.03902808959177780923
                 -0.68289599611657436640
                  0.52063243095737310462
                 -0.54211565848749698748
                 -0.02892410248558834052
                  0.23143293040450865772
                  0.05129513257457177233
                  0.19639860869403985566
                 -0.51181202141372394987
                 -0.03595233746393990820
                 -0.66378409866509435755
                 -0.42266320000676416146
                  0.41845810592312504550
                 -0.31373939483067847522
                 -0.70223291300367762791
                  0.07011884133647007522
                  0.52907196820306967577
                  0.69162549563738617842
                  0.48601346874000483922
                 -0.04171107399384726966
                 -0.47014352746319171272
                  0.33042966638302967430
                  0.00520910199917927301
                 -0.24739072436583608994
                  0.40962745639514253071
                  0.25604614117327068046
                  0.50201512542980508691
                 -0.33267227976488739083
                 -0.46137269563209598600
                 -0.62463129182301413422
                 -0.68224041292253900792
                  0.51894079423466288326
                 -0.22434995005545568802
                  0.45001391971022625116
                  0.31576391060337871686
                  0.41647166768670901282
                  0.64326517267483362961
                 -0.15322621526399696212
                  0.72858399036521104275
                  0.59665933239342006100
                  0.33164276627579708512
                 -0.24071327550470897338
                 -0.65380262050523718642
                 -0.43318929302121095271
                  0.34430899208768656061
                  0.56381933714113352529
                  0.19084292353785231589
                  0.12371454725700792299
                 -0.14285288489796957312
                 -0.46588929060781986147
                  0.04894260829866615981
                  0.34862530839037059183
                  0.55244250907038072729
                  0.63467116718508775897
                  0.55303293935153319261
                 -0.21947143915502101419
                  0.49172994521523366585
                 -0.42324132678484066572
                  0.55320669698609881149
                  0.06350411014191505166
                 -0.57582153931024815385
                  0.35454509269767831015
                  0.25190184312443408832
                  0.57475924551088020120
                  0.48186174527658204303
                  0.06474105772548320592
                  0.39916637047087799584
                 -0.11373068152131407538
                 -0.23654431632895134285
                 -0.49204633661098645669
                 -0.48709447182664544762
                 -0.91111981076669157353
                 -0.07169027335243205457
                  0.63945742758606849421
                  0.65945931339438590424
                  0.45097660636807801460
                 -0.62922153527389079741
                  0.14637203320953970365
                  0.48628108864972702241
                 -0.76789917549757480408
                 -0.56312764735960529894
                  0.32305775382517837313
                  0.25167402963064550159
                 -0.03296043986263613723
                  0.14801642537224132812
                  0.09411348099519052657
                  0.03726420977006617008
                  0.23349003640657514658
                 -0.66989993611048170852
                  0.57492618631564162968
                 -0.49450311904388255524
                  0.09240083371983970340
                 -0.60135142688968301616
                 -0.40622878057707195731
                 -0.30619026769202706273
                  0.55262425500239875653
                 -0.61673015211566839522
                  0.83225822911796243364
                 -0.35147789293198011817
                  0.80119077245394254572
                 -0.07414474944218846231
                 -0.30128600652830439532
                 -0.17242208128245428700
                  0.82323283199582564240
                  0.14720625726361410979
                  0.30902850702333994892
                  0.34536498064014786724
                  0.12901963422636150702
                 -0.54444125848203883677
                 -0.15714008754694303027
                 -0.25069648201758032435
                 -0.07914127174368766615
                  0.84807487412048598863
                 -0.11693494141386676088
                  0.25983018326974904877
                  0.56222841352542130000
                  0.49036862947575288185
                 -0.44732293855319760212
                  0.81106290185886620314
                  0.16416049038658900305
                  0.52278321746420042260
                 -0.03546579230810657790
                  0.13702163504068479161
                 -0.51699666956150625019
                  0.42738651337714389511
                 -0.47774464172880254376
                  0.60125279700415024120
                 -0.86119614576340330903
                 -0.32367798659930785421
                 -0.16035233572556276127
                  0.43456845307400659983
                 -0.27388232781493149215
                 -0.57601282012404642074
                 -0.37823270014385529381
                 -0.64041948067095688657
                 -0.33654570176208514765
                  0.06281480668642627774
                 -0.38431355428716346134
                  0.58687522456539009674
                  0.43474325560964877102
                 -0.15279618763748240018
                  0.38430564487102764071
                  0.65105492969164924233
                  0.51782967733456430892
                  0.43682836118591544805
                  0.28912117788458641110
                  0.12062102564460543130
                  0.66098588395890411906
                 -0.16094461545089588927
                 -0.07469670379264163607
                  0.11998156908473514570
                 -0.03970237173269208081
                 -0.88911488941228877803
                  0.21803101012763734246
                  1.19687747673830835460
                 -0.08997848579985540107
                 -0.50349431843755421134
                 -0.96625350395130227277
                  0.99618035914212954562
                  0.70549853421485297922
                  0.37422070816931196635
                  0.58238936080277814433
                 -0.95259794643592021757
                 -0.03708160397333538222
                  0.43539437254770979591
                  0.15360778818967832371
                 -1.10649206782516884573
                  1.06067477041426005968
