49	2	1
15	15	
1	1006
  0.0509849176755110	  0.1347083427327912	  0.0990346470846311	  0.0831638741461670	  0.0117280658603007	  0.0090713113815392	  0.0402164343074136	  0.0526651000903969	  0.0372143147152041	  0.0526667738673440	  0.0127765962603333	  0.0349449139509635	  0.0755886020589717	  0.0051989238707248	  0.0215461437688581	  0.0744512562921099	  0.0392213196584394	  0.0007897724340237	  0.0045851633958909	  0.0079642700953389	  0.0045853091193522	  0.0070930887234533	  0.0205903913657787	  0.0029067998333590	  0.0022483235280475	  0.0101251196010524	  0.0139687479760860	  0.0177688492114597	  0.0139810357102885	  0.0010210765270091	  0.0017686151807916	  0.0024439626819638	  0.0040818040002138	  0.0082370974927155	  0.0082371254938503	  0.0159419360315471	  0.0205897877688264	  0.0422028000713560	  0.0205910965375247	  0.0012967723897481	  0.0047254985808384	  0.0355373440919335	  0.0034185379165549	  0.0097496335920266	  0.0330663151366958	  0.0005301334218055	  0.0042037414896802	  0.0422225081144981	  0.0144481986445384	  0.0630667822639864
  0.0509849197346254	  0.1347083467810807	  0.7516555574499668	  0.2358074347853546	  0.0117280658603007	  0.0090713113815392	  0.0402164358862376	  0.0526651016424080	  0.1436916676930239	  0.0526667754193551	  0.0127765967126398	  0.0349449148402136	  0.1856734801344554	  0.0051989238707248	  0.0215461437688581	  0.2874106029825498	  0.0625213762630488	  0.0007897724340237	  0.0045851633958909	  0.0079642703979793	  0.0045853091193522	  0.0070930887234533	  0.0205903919607803	  0.0029067998333590	  0.0022483235280475	  0.0101251199478579	  0.0139687483170019	  0.0357295768470512	  0.0139810360512043	  0.0010210765270091	  0.0017686151807916	  0.0024439626819638	  0.0040818040002138	  0.0082370974927155	  0.0082371254938503	  0.0159419366368280	  0.0205897883638279	  0.1116921471050319	  0.0205910971325262	  0.0012967723897481	  0.0047254985808384	  0.0714595821678298	  0.0034185380159089	  0.0097496337873599	  0.0502687931947165	  0.0005301334218055	  0.0042037414896802	  0.1117148837887441	  0.0180048022477605	 -0.0056117905800538
                 -0.27646395348570657058
                  0.25717287103513775115
                  0.22485653800956939552
                  0.15127470965122530311
                 -0.14051329481012153622
                  0.12264962589853931063
                  0.20648635598503392585
                 -0.20843045348242136838
                 -0.21356688287853328734
                 -0.21629819288576060399
                  0.06319672904687165249
                 -0.25273514550025794057
                  0.06756546433082773195
                 -0.16828399291006684857
                  0.16846601883532918986
                 -0.10259938508818962355
                  0.16165060176568230021
                  0.02141603188749913525
                 -0.04901685721472841262
                 -0.21726151482003863702
                  0.10246336643823558687
                 -0.02966940322667740298
                 -0.12169931071264383782
                 -0.17868837850651100863
                  0.35409090058442810323
                  0.13323974198622554055
                 -0.13911881334645845310
                  0.15558947881771373334
                  0.18403088551998911249
                  0.32823970874799396347
                  0.20383284858106545667
                  0.04216892533904140206
                  0.03934446182949041804
                 -0.23721019787347016883
                 -0.10419555404576390234
                 -0.31450289595201441628
                  0.19555698764648710153
                  0.01065203705762726369
                 -0.16424474341462447224
                 -0.30707397061404118066
                  0.34236872169623289164
                 -0.19108963011781393559
                 -0.27114092900952679877
                 -0.17681197226969963543
                 -0.18364241536185080261
                 -0.24733807883343691958
                  0.28638105116695966590
                  0.30483139097300004927
                  0.10648329229461567236
                 -0.15917151595679288056
                 -0.01650720260682432550
                 -0.12157070794907490208
                 -0.01972167307420485266
                 -0.23239593829123572633
                 -0.14457904276129782128
                 -0.33088573417198191562
                 -0.19855927999789302341
                 -0.06915032465002225737
                  0.23834453706721972499
                 -0.26504626618302301599
                 -0.22414017153882156985
                  0.02024321608540675596
                  0.14248015015319540066
                 -0.18355544128843162555
                 -0.08282050392756845625
                  0.08834184081588603021
                 -0.17332555363519047686
                 -0.10981038797167548549
                  0.13744461084257830752
                  0.06830345168821493063
                 -0.18901911445310753956
                  0.21111425060100713624
                  0.23035934001210872646
                 -0.02831663360679471247
                 -0.24408262960647017503
                  0.13379542429094434808
                  0.18591308743493117905
                  0.11344019404322548683
                  0.22498215281607583660
                  0.31922695292232888820
                  0.16933117143638493074
                 -0.15186350278969557026
                  0.19809458621815295709
                  0.04584853478691405110
                  0.22800633691526545066
                  0.01334045660384130041
                 -0.08479043287209302171
                  0.20918017961191856524
                  0.12969259891895948411
                 -0.02677825676096952726
                  0.09247198116572066806
                  0.31197695669096792148
                  0.18179688692302717334
                 -0.12600569994123186901
                  0.19488416303632938309
                  0.10436736381770628235
                  0.49361525820439383638
                 -0.00370539911019881520
                 -0.10819347972631100652
                  0.40239745395148562856
                 -0.25989546729755885757
                 -0.06432815563963030503
                  0.21241271339207493107
                  0.05338333579258250361
                 -0.04642237110713817727
                 -0.01800399440631218761
                  0.37977335281666568800
                  0.03754161474157324818
                  0.03896405885346413550
                  0.20734120527737162631
                  0.38288263877402500812
                 -0.31255920405786441485
                  0.25487690035593230098
                 -0.15303715000192102957
                  0.08097440754747531333
                 -0.21351060107239028252
                 -0.13162265351613167130
                 -0.00858589843501246508
                 -0.18269240459687011158
                  0.13705688238832988701
                  0.16791913732954327765
                 -0.18550297566599657784
                  0.39146634243526862162
                 -0.12750003502601164884
                 -0.43086298190887289961
                 -0.12720600739656423572
                  0.24523506393097388445
                  0.27029546507651425191
                 -0.07622088580598194996
                 -0.15565386074913492576
                 -0.06280049053301724193
                 -0.06378527914161498391
                  0.20341558232457976341
                 -0.35342920918720488466
                 -0.26029209432271749325
                 -0.23609235220262611565
                  0.02466903208696904007
                 -0.16221624894382438709
                 -0.41033395848078652035
                  0.12783613897533901982
                 -0.00489272807952553703
                 -0.23462445658089720046
                  0.28633489677678719554
                 -0.00255406277562407382
                 -0.13265746793232996437
                 -0.03027292419528131162
                 -0.35206254719243390561
                 -0.19457807037264171490
                  0.30478821953452639448
                 -0.24826884013022840203
                  0.04693847217386801218
                  0.12953277286407521851
                  0.21951252174974428266
                  0.19720735897093560895
                 -0.33855512560638251207
                  0.29625616294808704287
                 -0.03864520273841147435
                  0.11002989562597828566
                 -0.03485763116249287336
                  0.24705643825745451925
                 -0.21366279602768542545
                  0.22675778990613279507
                  0.12960782457151390212
                 -0.09284140641089524970
                  0.03360178407487904306
                  0.26946011255259827433
                  0.24070097395899439641
                  0.28619657228681216754
                  0.55847898499869241817
                  0.15340878873724958509
                  0.16347040277996749413
                 -0.22094739283575803857
                 -0.13169207995259138433
                 -0.06392856794520475339
                  0.13928663074257746635
                 -0.28134625260073231612
                  0.06020564955203289159
                 -0.42657228472271568886
                 -0.17494996657405900709
                  0.08350442724207036982
                 -0.27308915507235376197
                 -0.27232221529942779448
                 -0.06522135427772138283
                  0.21156165246982422401
                 -0.05049342509208368246
                 -0.00008868395561297850
                 -0.14324151630470421948
                 -0.31790764514376562699
                 -0.32494778283074488012
                  0.12136967735365172816
                  0.45598368036639064238
                 -0.09091313816628195099
                  0.15566619798095393534
                  0.25699750455643161073
                  0.04621698679556842521
                 -0.28557681932408279790
                 -0.38210293743273165967
                 -0.41014381518007081429
                 -0.26912166425856115515
                  0.00335208629272689199
                 -0.36708382492968694155
                 -0.44426683538628403136
                 -0.15839610576672052966
                  0.21825572581693522545
                 -0.13657226711750022896
                 -0.07978343848619998124
                  0.15033087732474659237
                 -0.00283713532033261912
                 -0.18535875108870186745
                  0.18792880509855608429
                 -0.07522824937683533775
                  0.39400502344366111762
                  0.01370769245207014049
                  0.34533999196438769363
                  0.04475811738114954946
                  0.28241852503454345502
                  0.23854293366794390718
                 -0.00846356510699676837
                 -0.17364163909459548463
                 -0.01697833769509138682
                 -0.03322743272955314825
                 -0.15764434379126285313
                 -0.08163017374815037530
                 -0.54512521675164948842
                 -0.22410290550682906985
                  0.07477197108944624859
                  0.12637865808396053779
                 -0.35232441619667792532
                  0.26725754176742955170
                 -0.16217998803657335261
                  0.13874366377720845356
                  0.11521087868225997342
                  0.30084191179511188263
                 -0.22812397327128458580
                 -0.25067152386275842746
                  0.06762714903606628636
                  0.26194734606673625299
                 -0.23820170460312442562
                  0.17124469660571556284
                  0.07828281457689935385
                  0.22684034177880549321
                 -0.27803876911701580488
                  0.10862878211068072165
                  0.38750676516939985827
                  0.28675296147410012093
                 -0.21663564713394081740
                  0.07141190304568761915
                  0.15410587344095144635
                  0.09254078432621191952
                  0.10009580597494584231
                  0.49062833624542157018
                  0.24090363501928879764
                 -0.06278209903459497365
                 -0.05222658403950907607
                 -0.09217767878324753528
                 -0.18103493985234048180
                  0.19538054014892322630
                 -0.22848215169751678877
                 -0.19986189444768184820
                 -0.10119056793178912712
                  0.30238154016080143194
                  0.03758849076133389394
                  0.08007090536794117530
                 -0.27550641623781157996
                  0.39171251238193183219
                  0.04430142437534354688
                 -0.12341035185944024266
                  0.01651277906284281255
                 -0.10454895557193115418
                  0.14292872510737267278
                 -0.29867738194864879020
                  0.36755604418687215507
                  0.33110058758371246901
                 -0.02061790222605203171
                 -0.18318694027968399074
                  0.10559153518736522082
                 -0.01624753672626359086
                  0.03442800847994559321
                 -0.39738673721737183264
                 -0.17833774258584175754
                  0.12663638084022943442
                  0.44148937147966849093
                  0.02837798527760209896
                 -0.05227020986426082760
                 -0.12841946224695505174
                  0.04654964865235784038
                 -0.11108542448333270924
                 -0.17090259595592696695
                 -0.22561669383029689384
                 -0.22855484606288198335
                  0.34161205241982467440
                 -0.01002817912974669767
                  0.40817555845198361109
                 -0.17857979891005515416
                  0.43087075695738669134
                  0.51097519743399522074
                 -0.28967888390213553107
                  0.04340966331563341635
                  0.53233770871020746895
                  0.22447837977463330761
                 -0.03636709969068663284
                  0.31908382848250010921
                 -0.03450024416950022571
                  0.09992560157314353542
                  0.19414773734358048429
                  0.65344586891112133031
                  0.07024628706324730076
                 -0.42527501275475365627
                 -0.27933036701545854719
                 -0.03510295773412556997
                 -0.14941798550128768119
                  0.61676947165160100894
                 -0.26516154853394097168
                  0.25176601447033430947
                  0.09383671419558911597
                  0.26154823122039488892
                  0.21895613867733396130
                  0.15182726263309345716
                 -0.12808334850937411198
                 -0.08563719619492143886
                  0.05033705420603063613
                  0.10696671286493640574
                 -0.01817621245934997534
                  0.10136002053495869746
                 -0.53751904532989724927
                 -0.17463796147431631667
                  0.01169721560495119023
                 -0.31312954282901739322
                  0.00724905344509735924
                 -0.19051858630611492873
                 -0.13185682092338515958
                  0.07375435233290900117
                 -0.15150384685205878221
                 -0.29141683722295375070
                 -0.43173516297653841134
                  0.00743460688204886175
                  0.14334084771614086229
                 -0.13174106475707952901
                 -0.32400694189141376889
                 -0.27493539217632678717
                 -0.13573750993177027824
                  0.18046576207625086852
                  0.10702371567734016156
                 -0.29209978555169707759
                  0.05453647075142627892
                  0.24485582539873862462
                 -0.28073256637258775514
                  0.25769502267474375667
                 -0.29668522793102319879
                  0.07568214974856019017
                 -0.04696353421471188838
                  0.25772185409334391615
                 -0.25132093394457594160
                  0.06037982951181929819
                  0.06648178729617665317
                  0.30878412513707437226
                 -0.06055903248956909929
                  0.32142098902898375012
                 -0.08744748026488965986
                  0.43109985031898717667
                 -0.11161954362118138573
                 -0.05087824827874982969
                 -0.09393002848285406103
                 -0.17240453546812242736
                  0.04253095036508064419
                 -0.04306718167664182889
                  0.15541200255762163684
                  0.13808181441587577543
                 -0.01959908470906353978
                 -0.19279173906372565339
                 -0.40019710757619902930
                  0.11804695887983900071
                  0.38490416253852000050
                  0.07353096263592240334
                 -0.32866983488796053248
                 -0.16514209821311062742
                  0.16122405327930949825
                  0.23554594535202150185
                  0.01310806711388604745
                  0.29127096769989679892
                  0.14638780975967236042
                 -0.19462020282144937289
                 -0.14905609423644436418
                  0.24074337324344430300
                 -0.03213064487863256241
                 -0.04806301366147516102
                  0.18871291859847597050
                 -0.31705752542888721024
                 -0.20269355511682504711
                  0.05210538539472677616
                 -0.10753005874991417024
                 -0.21058482482608958941
                  0.22294063238158420837
                  0.21845333698301577785
                 -0.12257776435196014730
                  0.30384702492575804689
                 -0.24625000584075695809
                 -0.16088163667985944105
                  0.10976023979220980720
                 -0.10895776324283373837
                  0.00110805758455413596
                 -0.39045235208968531726
                  0.14592341887163037817
                 -0.09436585391965283953
                 -0.00031507497043145637
                 -0.32825540959540788766
                 -0.36265555473105037798
                 -0.07871867926103237600
                 -0.14691848724194236930
                  0.34610899921052168393
                  0.02602779812467025458
                 -0.06879204565280741535
                 -0.32094420441156684687
                 -0.14489543275914881781
                 -0.15511002238149343424
                  0.05389660711768073237
                  0.05380436700214431128
                  0.10943018739772407411
                 -0.17284008160803368548
                 -0.01325851743584828026
                  0.09305673268732571335
                 -0.19329856061984723725
                  0.12314452989658292159
                  0.22349451368291906039
                 -0.24316471577463899534
                 -0.02734412941423432913
                  0.24573999249714900683
                 -0.13327122254362491760
                  0.07939886098980483697
                  0.16393498190808236670
                 -0.25219697454770084732
                 -0.05502437668618480326
                  0.05980351871997453828
                 -0.09628301137855467540
                  0.01783048058259088797
                  0.35919240619419295912
                 -0.04176717221681517517
                 -0.17571242129360117867
                 -0.05077299417203375020
                 -0.16375992812970652235
                 -0.28003610158916303341
                 -0.09045748896034529196
                 -0.00091282917214674389
                  0.32352029451828806517
                 -0.07431174442970379934
                  0.10993622969278214752
                 -0.24416531657724788174
                  0.34947462800873524413
                 -0.41700577303551950026
                  0.16128024622235087593
                  0.09767242943466111771
                  0.01642269452101047245
                  0.01372642351391636061
                 -0.14503431579102285531
                 -0.18308041689469584101
                 -0.40463483005445588514
                  0.16176364800916101516
                  0.23695280506772870011
                  0.47897585180640761537
                 -0.27142568229202040930
                 -0.22929357507056702392
                  0.03003938632520185281
                 -0.16629581013628916275
                 -0.32216781719566378595
                 -0.19100285344815393085
                  0.16230386052313588996
                  0.04586296151885987243
                 -0.13266466714389316128
                 -0.19058942145076604446
                  0.35826079752084488694
                  0.31540637705910490318
                 -0.18066269597829420768
                 -0.15707994730833110819
                  0.37399358343515365366
                  0.11652653606520427254
                 -0.40993834050470590036
                 -0.21657083379920749611
                 -0.47960120169583297933
                 -0.06385357916160201708
                  0.07000168789377110568
                 -0.06919150576086323390
                 -0.05969969855328684932
                 -0.28012407679099587954
                 -0.07737403077933713291
                 -0.08194689687485072482
                  0.08430790386516932855
                  0.06907371982096680019
                  0.41328172795749301693
                 -0.14434819738217691265
                  0.35287011904209419910
                  0.33668859873628559365
                  0.24115998971544572171
                  0.23014868023935350361
                  0.20269188590412751116
                 -0.15257588667867960641
                  0.21011140860352189863
                  0.23979874899741882022
                 -0.00451585199558807247
                 -0.21192503391734240914
                  0.05499693901002153384
                  0.28316349696516796008
                 -0.12960580472487875925
                 -0.13088044864481251928
                  0.03705939256121594527
                 -0.13364218268040228832
                 -0.24358108899021713167
                  0.16347803722405029880
                 -0.29382456429771741657
                 -0.15663989348288817616
                 -0.07234390445885356680
                 -0.16200386888006626518
                  0.05684148688123699666
                  0.15614952413448304758
                  0.03222351132560056369
                  0.10460680392538371231
                 -0.16827303618048167211
                 -0.44669293186706010568
                 -0.13506517932265646453
                  0.22510840855767036417
                 -0.15023796354344021164
                  0.33258458916321648191
                 -0.24030060937014177669
                  0.39990835429880711160
                 -0.17634774674815129059
                  0.17271752684018343293
                 -0.19493888386811802915
                 -0.29822352946001251528
                  0.10111744393811993026
                 -0.26998542239315426183
                  0.11926942993472251786
                 -0.03653824506618606749
                  0.13608003819842789950
                  0.03763139078687047223
                  0.16748767475943546201
                  0.19837201518409491863
                 -0.14134436162178959373
                 -0.23668383952232208145
                  0.32007343635412910388
                  0.10398435359565279257
                 -0.07045045772138917861
                 -0.16589983239738759213
                  0.32588602554281292933
                  0.23097840312582268441
                  0.22843423961015291157
                 -0.17203522062561740769
                  0.29870151249028065177
                  0.24433140546946754967
                 -0.15506766399515853339
                  0.12087829633425867248
                  0.34057414335790980875
                 -0.19935435947429072656
                 -0.25110273889833245597
                  0.32804862679723917340
                 -0.02851080260919429399
                 -0.15072963017618215553
                 -0.30908364453585640552
                  0.16678044054994409229
                  0.23880058516907023969
                  0.06590540032498409806
                 -0.05177049033976017373
                 -0.25534810150286663122
                 -0.05006907423505575772
                 -0.09155578072306798376
                  0.08819927063380197940
                 -0.06371139132979125597
                  0.17977293698430185653
                  0.14116800047703420562
                  0.04790914297928702825
                 -0.33251947385976521332
                 -0.19126248206159743304
                  0.26258541543376623384
                 -0.10666191163126359509
                 -0.44331470166457570548
                  0.30241567259497403874
                 -0.09705216582233755496
                 -0.12809911130288847980
                  0.03962007985551500855
                 -0.05057130658160732817
                  0.09040282075284734875
                 -0.25987147230854384938
                 -0.13251057269737043232
                 -0.22323993588933069288
                  0.10620695408238180202
                  0.15342874317163623932
                  0.09440638268124448840
                 -0.04700784382131611983
                  0.41764478353815193135
                  0.05545301073837802242
                 -0.41012925520898224629
                 -0.31542859144484125533
                  0.03088644694601625634
                 -0.03120820743702298200
                  0.18286931371739734153
                  0.00729185067302521965
                 -0.17266962644626956958
                 -0.05065966350996031764
                  0.30712860446733897257
                 -0.22129261147149162370
                 -0.18977295811570996098
                 -0.23996357734491802205
                  0.00707890176198438907
                  0.25398966845660658764
                 -0.22549741828189648341
                  0.08940839635212563530
                 -0.07114308025423989046
                  0.20977374172677559772
                  0.41430128934426230236
                  0.02424356773468185761
                  0.14825174464801790797
                 -0.20099579080914567464
                 -0.28831780209037710661
                  0.23426137167073252110
                  0.04438797552661845336
                  0.32594496913531179061
                  0.12841002956038177762
                  0.42158998149777388020
                 -0.26123736477879844209
                 -0.32235816493071106636
                  0.11765559122327035046
                 -0.21319423764466882698
                 -0.27835184299341036995
                  0.18698216008589527148
                 -0.32686132255681227265
                 -0.33830938946500260789
                 -0.00485807470133501392
                 -0.16793503921091448849
                  0.18564311116710027760
                  0.39985868051253870004
                 -0.23350297944792616778
                 -0.41322236306027293473
                  0.00690131422864684492
                  0.22853084525981229302
                  0.10985417905518671255
                  0.20830423225425570566
                  0.34567838104641673835
                 -0.14550711255478851469
                  0.06487263087330122358
                 -0.20364937569054072930
                  0.06266016733495914648
                 -0.46749226075838862249
                 -0.18650392871174584219
                  0.20023427419804759597
                 -0.07171419831637046438
                  0.16754370925309275409
                  0.09727353883641451371
                  0.23034040393897708965
                  0.05319627409196860113
                 -0.26859509682062865377
                  0.15521747695554910518
                  0.12797560079187822457
                  0.26314022073134007984
                 -0.30601215995515701485
                 -0.01689662339428895863
                 -0.11577855592624952674
                  0.08852533875139677322
                  0.17610921432464224368
                 -0.20146596496899155104
                  0.17261115587410841288
                  0.02081813684493406813
                  0.06743939972521671711
                 -0.22052950614923291783
                 -0.16072872768451360037
                 -0.02861895169114445428
                  0.09180920244433905808
                  0.16999060635051302381
                  0.02198459486676261967
                 -0.10994448860267874712
                 -0.26682454904435648491
                  0.08850506614263028982
                 -0.22191158516027972847
                  0.06033636985100148536
                 -0.10546380620392824257
                  0.08414902973612678472
                  0.02222455457941018009
                 -0.22932213481025556789
                  0.32930886937725817321
                  0.11404553540923456634
                  0.09668118907693795672
                  0.27491805785112233274
                  0.08820896379242749996
                 -0.00187085432399816849
                 -0.39506371425517483598
                  0.32212855339954943323
                 -0.56325492884598915566
                  0.32443354415765712773
                  0.23221900665447722800
                 -0.27365195765711886056
                  0.08899628883488500120
                  0.08878992464346219249
                 -0.79412456381600815547
                 -0.23203098875267388901
                  0.23482529024205062163
                  0.22930698362751086861
                 -0.01966985819131526064
                  0.39505383230733726041
                 -0.23378169707081111750
                  0.12240604740966681829
                  0.13678785445720673120
                 -0.54083599088342948491
                 -0.22691684447358242971
                  0.36536565000359721989
                  0.07213724582675856700
                 -0.36046523009241399071
                  0.06118797059195316135
                  0.00084255368404523561
                 -0.15064075694575343456
                 -0.18439208584404465086
                 -0.17627387907967356773
                 -0.16936808032013775382
                 -0.22410595997529661472
                  0.01563603480929447870
                 -0.41161170125025209332
                  0.03759640814687899291
                 -0.25793338265247489627
                  0.08177284723796078569
                  0.17910799121257864330
                  0.21475571934261991625
                  0.14334633727643480983
                  0.06686648316072998921
                  0.33405838344460164757
                  0.27943630009127817804
                 -0.02812148877832894300
                  0.24657322232258541139
                  0.68465404166096310856
                 -0.27156159036073485025
                  0.16828562296222035477
                  0.30537294957475230595
                 -0.37552164695991568921
                  0.39391883192951687720
                 -0.03432333376519135226
                 -0.18036778235440298346
                  0.10727548204538564502
                 -0.09914847308734837938
                  0.07876034008436796907
                 -0.05272721160905801535
                 -0.09391633539673997777
                  0.49508950435744564222
                  0.46684216221031415994
                 -0.12679335884429326908
                 -0.81585476460924932773
                  0.15419561119513727765
                 -0.71745566999448884271
                  0.13905033463259597326
                 -0.15295830330170465117
                 -0.58624750577338102797
                 -0.72730105022420166172
                 -0.50455297946624622085
                  0.37112141226557565643
                  0.72791854357597796099
                 -1.12106809105982430097
                 -0.63902408649850828137
                 -0.10602463773962077231
                  0.38014973578543181931
                  0.34553224138480509442
                 -0.99353833784100742399
                 -0.18975497420363679479
                 -0.54717639575878251890
                 -0.53777550320575562282
                  0.22680292968683030130
                 -0.03443740263871179069
                 -0.44346584934050942151
                 -0.29539624677458087287
                 -0.41923418845151616541
                  0.27788286932187228340
                 -0.37740602890668401015
                  0.00739350740806975389
                 -0.43439453872164252024
                 -0.11855679473704670845
                  0.52793333837560618704
                 -0.48592283620162946001
                  0.48823663747512474620
                 -0.80612707250633741651
                  0.49831770792218482713
                 -0.12428488480449506604
                 -0.52983249419160882709
                 -0.11008585154260096262
                  0.53760158025820170558
                  0.43177051144898059842
                 -0.62052331080520284345
                 -0.30239499128419933260
                  0.55858682184440067164
                 -0.23287593341018969495
                 -0.65067671964451512245
                  0.73435960269961697566
                  0.27111345298219102773
                 -0.02265762611975155605
                 -0.08660646734417601356
                 -0.54950599902004659825
                 -0.48640464972435709656
                  0.22544911840114650881
                  0.72437400039624355585
                  0.34424620876461597963
                 -0.55106656363094030926
                 -0.22173293326785270541
                  0.40090333018922763575
                  0.46703622650553494600
                 -0.44439067253729885865
                  0.31839765571795974886
                 -0.74655336512237069346
                  0.58421896912270354640
                  0.59611049430198193022
                 -0.16755309027525863708
                 -0.77190336632317768650
                  0.13312719203222622699
                  0.35165754506676394353
                  0.02114313018496350935
                  0.18785935424291733131
                  0.07632812726121494806
                  0.69025248341813638664
                 -0.65455918608758967281
                  0.17754507674595260136
                  0.57659144137069651137
                 -0.48386289683708638698
                 -0.44977321895742561342
                 -0.17579814932348011847
                 -0.58417180518384681509
                 -0.20250372060232427196
                 -0.26462885050931572728
                  0.44639609276705982666
                 -0.75383402463908044666
                  0.53850069176838344376
                  0.20479273521391203050
                  0.84501925523449683553
                 -0.42686481519904001525
                 -0.11284453156475086899
                  0.61133706775653184895
                 -0.11809479579192461163
                  0.12757420110689121628
                 -0.46824962051473684177
                  0.16675686331307923438
                  0.02382132677210567831
                 -0.75398025189110928768
                  0.78905216424769042405
                 -0.76173331895849771822
                 -0.01538952756667105043
                  0.37073072741302565136
                 -0.48036786115858004509
                  0.29677920564998416797
                  0.53127720421459101452
                 -0.14641768806819005500
                 -0.47268495434282337131
                  0.35560007772223173328
                 -0.28161240787640928751
                 -0.62035496748025820146
                 -0.48770254663574497123
                 -0.55167293454218491178
                  0.43774645150595531407
                 -0.42479559878717387811
                 -0.43591810392019170184
                 -0.37451308255200871367
                  0.03285487006776649510
                  0.60904399491578209425
                  0.22660361964441208538
                  0.00928788744870042565
                  0.17919842205542449443
                  0.55871999509086978097
                 -0.17834971416502548580
                  0.53227051975212513746
                  0.55791198481889692218
                 -0.03464724377372196962
                  0.60208735965907600463
                 -0.12373827251732373578
                 -0.06898319931476479261
                 -0.56577903385192152008
                  0.45275108998663537996
                  0.65964031502193365419
                  0.24775198411854323921
                 -0.31316778293297226066
                  0.42368860056627249966
                  0.52657790170220530879
                  0.41138938187725171414
                  0.43891307005445828748
                 -0.13209242009863550460
                 -0.28090866830721827885
                 -0.33031660874480145429
                  0.65533956778589619319
                  0.31685946253399810413
                 -0.28229330178082390201
                  0.66516041257445501778
                 -0.47178827843892817695
                 -0.16488025917701643053
                  0.12700456449981920026
                  0.59520852399697676827
                 -0.50165475661464131729
                  0.52634456687589303847
                  0.05071825699994494951
                  0.43080972759802033112
                  0.03472460091556878875
                  0.55271223427853832799
                 -0.00732945501476995644
                 -0.18663955077218952194
                 -0.31041627604436022869
                 -0.02079982362204765151
                  0.58919533253098721470
                 -0.61096901096704725465
                 -0.12576797363722425072
                 -0.85512908633764583843
                 -0.02550600382729822577
                 -0.70736303548524526175
                  0.47531560609884848656
                  0.39713506631042222450
                  0.57422611152593860950
                 -0.11634869674368431003
                  0.34238216067190097025
                  0.53384399544950911221
                 -0.30010341014736635623
                  0.55196093952746816402
                  0.06597492744513296092
                  0.42842368864912860893
                 -0.41401378500733460042
                 -0.70218522071476552338
                 -0.06987992673554795087
                  0.02156684041895198800
                  0.78294483813004589479
                 -0.15531928576407513787
                  0.22054669320061215387
                 -0.54830410401231655104
                  0.21947992782359729280
                  0.41501590445951824782
                  0.63938851390552731146
                  0.41779307770632284624
                 -0.32339082431923393823
                 -0.44123564721078095685
                 -0.54677414350133046739
                 -0.62184485950220391715
                  0.59784183718397287954
                 -0.28921929271698870734
                 -0.44693328380711777603
                  0.11202934819755870632
                  0.12588850445704097281
                 -0.56771469992695777762
                 -0.30505587362563202358
                  0.20847680095882387130
                 -0.07781586351757470432
                 -0.73320477328758038027
                  0.37014681943096383598
                 -0.24785300308311963846
                  0.42316201048441448584
                  0.19067810072460822379
                  0.71542363000801900697
                 -0.22501021892294836846
                 -0.41283975641496062359
                 -0.45004392178052665674
                  0.33634052781231682516
                  0.58718808988172133123
                 -0.13832978379733140706
                 -0.46736488349447685708
                 -0.32941779376733909546
                 -0.34283511366203123227
                 -0.73933301620581903801
                  0.02743406952484705660
                 -0.54451503902613029862
                 -0.71933327467868890537
                  0.59877543970410462837
                  0.34610897363225590073
                 -0.51931632833533381000
                 -0.33765916943062862510
                  0.06411385802530429612
                 -0.30239193801292640895
                 -0.13897859004363843916
                 -1.27288221361389153330
                 -0.68536278448647958150
                 -1.14119996168538717640
                 -0.90245226743880402331
                 -0.53585534071494622665
                 -1.26883000337960294424
                  0.55282615171407623045
                 -0.59545381815033360251
                 -0.20345990876983896523
                 -0.69991476849776557145
                  0.14640260762222742641
                  0.15319600207506847700
                 -0.68579548964140524259
                 -0.58712097225667625455
                 -0.40930511989678602935
