49	2	1
15	15	
1	1006
  0.0541809631474849	  0.1345711188415454	  0.0975888965426801	  0.0931962801806644	  0.0117280451946236	  0.0090713026159049	  0.0408391478179756	  0.0526118715173350	  0.0365634344949215	  0.0526134885998191	  0.0128659847729998	  0.0349129539349532	  0.0810554859590976	  0.0058852976934151	  0.0203860418256658	  0.0730301043690369	  0.0440680996006637	  0.0007897724327095	  0.0045851554252880	  0.0079545833900597	  0.0045853011665022	  0.0070930819106420	  0.0205697330956954	  0.0029067946150517	  0.0022483212685346	  0.0102086664641072	  0.0139561211776694	  0.0177267167021610	  0.0139684043933779	  0.0010210765243116	  0.0015877212227064	  0.0024439626793811	  0.0044361885623617	  0.0078155116658871	  0.0078155118472001	  0.0159225623761220	  0.0205691297660476	  0.0412911765243555	  0.0205703945282406	  0.0013025081019590	  0.0044984839831357	  0.0354533700705609	  0.0032793099747830	  0.0097431015471225	  0.0361937053377243	  0.0006385113082860	  0.0037951311731091	  0.0412281882999443	  0.0164377458978829	  0.0638703753181926
  0.0543114901574829	  0.1348455706723265	  0.7488401782212932	  0.2364262796499819	  0.0117280865259778	  0.0090713201471735	  0.0409397223443181	  0.0527183302154699	  0.1425470336649621	  0.0527200606868800	  0.0128989442564909	  0.0349768748562239	  0.1827332412214323	  0.0058853147307155	  0.0203860795078622	  0.2851911379169919	  0.0645829323486444	  0.0007897724353379	  0.0045851713664937	  0.0079739571032584	  0.0045853170722022	  0.0070930955362647	  0.0206110502308636	  0.0029068050516662	  0.0022483257875605	  0.0102340626211222	  0.0139813751154185	  0.0357717093563499	  0.0139936673681149	  0.0010210765297065	  0.0015877212297443	  0.0024439626845465	  0.0044362016900539	  0.0078155262748751	  0.0078155264873079	  0.0159613102922531	  0.0206104463666066	  0.1103131313207568	  0.0206117991418104	  0.0013025124040618	  0.0044984935591917	  0.0715435561892024	  0.0032863094492533	  0.0097561658322640	  0.0507570101699899	  0.0006385113105098	  0.0037951311782856	  0.1103763785239078	  0.0193760853814893	 -0.0048081975258476
                 -0.27852592714834306653
                  0.15592362747208723950
                 -0.17138322955266260816
                  0.18873784989765210462
                 -0.08071301614710586769
                 -0.01036431485880832948
                 -0.02269096734701466986
                 -0.28133107196759055135
                 -0.17206445383122140336
                  0.13745243257865866204
                 -0.00617123049742766480
                 -0.04503810618881290417
                  0.25215796941844914603
                 -0.15984932418451328062
                  0.10611921697551965349
                  0.19360920732546371692
                 -0.14184526973953054396
                 -0.13514764272282089874
                  0.01670110671191008672
                 -0.02954086117452247792
                  0.18061077079386386735
                  0.08461314704316323654
                  0.12995991012235585949
                 -0.30333273059135518190
                 -0.21150399253888871320
                 -0.17976617435131372891
                  0.16475258227170302971
                 -0.21922586828604140319
                 -0.31714857630364451380
                 -0.10764946084994402031
                 -0.00047332228574368043
                 -0.14968206697685998430
                  0.39781142060191365672
                 -0.00175856944615502848
                  0.34355362641385311928
                  0.14563968322123935217
                 -0.40978286878658259917
                 -0.01791404578445838711
                 -0.24211044120162550364
                  0.06413075385100798498
                  0.12001154645206843496
                 -0.28715175294015687912
                 -0.13504422244499655892
                  0.35088594588759880466
                  0.10711041882751268228
                 -0.22211369759600851914
                 -0.23192655955475502405
                  0.21945430205810070867
                 -0.27777702983318713903
                  0.09984218140020398313
                  0.32015327777764318595
                  0.13714628326848607442
                  0.14252400312400062554
                  0.27063008821705236695
                 -0.00239090556239634306
                  0.16842785955677008758
                  0.06898984774715576085
                 -0.02500216478270896048
                 -0.17301042577251582455
                  0.21685918406657136992
                  0.00892126630174353702
                  0.19910133617918371329
                  0.27042956692975139710
                 -0.06299898501844032606
                  0.26932952734011850193
                  0.08879653521575169017
                 -0.00826833720570935987
                  0.00884591141296305061
                  0.23505044722139795121
                 -0.09338997517748903743
                 -0.32269604169973437058
                 -0.35781192925423332962
                  0.16552852812790316839
                  0.28130460403839929739
                 -0.00106242737680813408
                  0.23445343155923895062
                  0.14701105293140620534
                  0.09306775718282772614
                  0.30386892084373123835
                 -0.19911147132747364363
                 -0.17951844334387898061
                 -0.05266258536320857220
                 -0.18750266201165910473
                 -0.38619028583823050704
                  0.12218100643699998653
                  0.09533024428469483169
                 -0.34387159619831247914
                 -0.03332448544761883180
                 -0.40849869917057418656
                  0.33285128850039713555
                 -0.13623407432103359915
                 -0.26399723402407404560
                  0.13817398200177097300
                 -0.15235486930384883886
                  0.14818992334181879666
                 -0.08910027157576601298
                 -0.22516010456892190938
                 -0.14382325092981124159
                 -0.08199867824561322960
                  0.38675077815655228841
                 -0.32113837388772004111
                 -0.20008920210844360899
                 -0.14403092667131844884
                  0.33571867403807548191
                  0.17468492241470578996
                 -0.25032998012525553566
                  0.26152665198169394722
                 -0.11657403092110972531
                 -0.25504536290615997807
                 -0.26654255981923641317
                  0.31452118812416596239
                  0.11417044532310585692
                  0.14809144025177609083
                 -0.01051076780664381496
                  0.15213379311907920810
                  0.32590623126693307743
                  0.36128520809007619308
                 -0.15811874440019502153
                 -0.21151036969865349979
                  0.18988173857034743031
                  0.10056780249809914307
                  0.21856767127118950644
                  0.23466757133618668107
                  0.11155226147385018109
                  0.30074077395909226684
                  0.24599205659448805661
                 -0.23205676841893116413
                  0.07231630850557796419
                  0.06479863715158096227
                  0.35730605423873218474
                 -0.19266865121283560658
                 -0.33947769342230571521
                 -0.21040236503401515966
                 -0.35135184735033891945
                  0.22643665479618130254
                 -0.32278477924429815893
                 -0.04147484377137563433
                 -0.29391882420704340539
                  0.18373690738878847850
                  0.12688909375342727337
                 -0.38453769667085352379
                  0.16903754917594068785
                  0.06664729711819063207
                 -0.12678625615481464717
                  0.09157457990065534514
                 -0.07204333349835972955
                 -0.27068333995976928685
                 -0.24248327979315115188
                  0.28761273230530320921
                 -0.10925476704465202082
                  0.03651884506828195764
                 -0.20286238319608126957
                  0.37359967429229079539
                  0.18347440937666367744
                 -0.11073615792540393576
                  0.18740306556372413049
                  0.23815720779745300217
                  0.12484136209254134697
                  0.00753005197624546149
                 -0.00941294050889796355
                 -0.30671530011096620472
                 -0.19359864796286038735
                 -0.00312558600154000821
                  0.25995454913750004611
                  0.09609563572017087996
                 -0.19274718152123590520
                  0.17135598578390992541
                  0.28591592300843937657
                  0.29270843552659925324
                 -0.15622845788928382826
                 -0.20926234961459994066
                 -0.16663540933727324922
                  0.24967817475298581531
                  0.31931792592328467340
                 -0.23939706850641631619
                 -0.21189200058939047788
                  0.20851508445529301494
                  0.23797861444260556829
                 -0.23752580428258324163
                 -0.02762243618099360573
                 -0.32319252057566716374
                  0.36943989262503440507
                  0.33324862175887454141
                 -0.27202307089651672767
                  0.07879619963699006913
                  0.22323215697971424132
                 -0.26674632842311923886
                  0.17822778995331181595
                 -0.06059954924430459300
                 -0.08860306424348692034
                  0.37515102881881512431
                  0.39382413052345055515
                  0.14988569895301318002
                  0.01101773451701285739
                  0.17086617246856977692
                 -0.16872132213731638739
                  0.08788906994014204777
                 -0.26186270932538191492
                 -0.28979311027789705912
                 -0.02067215918134286678
                 -0.03113060704689919050
                 -0.04715227797931234588
                  0.25275513643450148171
                  0.28707711028861621072
                 -0.14489279938742807841
                 -0.06262835606894441576
                  0.26487540919077706691
                 -0.26521363143807913376
                  0.02514342347216674822
                  0.25709780109145785598
                  0.49217241334842620759
                 -0.08786343538786868523
                  0.25230836307623932813
                 -0.18069859951519168240
                 -0.11676404267726256392
                 -0.24548053991422130737
                 -0.25717562457389619990
                 -0.34054727346154406442
                  0.28756706970754214447
                 -0.29105793402157525973
                 -0.29108954444511359050
                 -0.20785457740240578794
                 -0.08658955903192457060
                 -0.34882113682634091623
                  0.32104603449955859684
                  0.11931377744160225063
                 -0.27447631161204610883
                  0.04768646263058697737
                 -0.11459460561813133994
                 -0.01868331599177322500
                 -0.04653343574400468918
                  0.13321481251262806689
                  0.04855755396958037068
                  0.20690490959818674810
                 -0.19885135702551653969
                  0.18687334614732048488
                  0.48180542444599760987
                  0.10963341219533496995
                  0.31828621465308365446
                 -0.23173818196051121365
                 -0.16161121484848534058
                  0.15337178917547769630
                 -0.07653384290881339036
                  0.23616990901305881523
                  0.10816868125479570106
                 -0.16432719432880565913
                  0.23478536074860295590
                  0.02213713612625850882
                  0.24377844167406137466
                  0.17080700840901208437
                  0.01324919097197162221
                 -0.07890815521766049445
                  0.03708150610203519992
                 -0.01096848515534809033
                  0.05287616282807211521
                 -0.21427511960082187836
                  0.03638916314791362794
                  0.18842712218668508650
                  0.55268498628461582012
                 -0.13769496038529974169
                  0.04278153441036097737
                 -0.35220657371709190864
                  0.01728932345658077546
                  0.09873826776018856943
                  0.33542483048962951075
                  0.37476965274804041606
                  0.00418625699811062384
                 -0.36239118463713509977
                  0.00234467495014879096
                 -0.12483622512053552112
                 -0.22351600929324155764
                 -0.15528739391622184418
                  0.24280589607098929106
                  0.33452190194922531985
                 -0.35807878332265302701
                 -0.11916842611877458136
                  0.26374025135432771494
                  0.20079162302693068232
                 -0.19302691230950738688
                 -0.17317817665883694644
                 -0.50879297118511490616
                 -0.05566385395836007804
                  0.63768449513107927640
                  0.08639259268226925914
                 -0.02335753103367413028
                  0.45176102685928831715
                 -0.29776582876758000973
                  0.23986932987193068656
                 -0.24569381327176240126
                  0.12245494322434824497
                 -0.05717002940147390688
                 -0.10624596000278956065
                 -0.41457297455407426945
                  0.17329396144765399357
                 -0.09047412542280025560
                 -0.28036634308081936906
                  0.22025316825575161350
                  0.09569581334996195288
                  0.25397737601235037541
                  0.15735075037897522376
                  0.04448471648076519902
                 -0.30959981141358944301
                  0.13972173531218823328
                 -0.21254563640467896701
                 -0.05910029368362531427
                 -0.42817066526470798360
                  0.12914449526659566025
                 -0.12348632269068038347
                 -0.12208382484274175883
                 -0.05285132058315436532
                  0.06928084989118746262
                  0.01630563978057165617
                 -0.02076788388307554759
                 -0.22199425232655173312
                  0.06678750608498171260
                  0.11881412539691671437
                  0.16529922936324087379
                 -0.19596669556427120940
                  0.32861332352732214312
                 -0.18183522952327607625
                 -0.39225714050856874682
                  0.27295433401168495147
                  0.22666235011726515447
                  0.34283388016826227274
                 -0.22356523086026897085
                 -0.21895051982985802574
                  0.02857490576925173636
                  0.17861806812300440317
                 -0.29959618596845455363
                  0.11751054964764917621
                 -0.31934007050428270258
                 -0.12553449029526456138
                  0.23225976402349973737
                  0.21063891590349956284
                 -0.09349611210817018736
                  0.20820753549845175123
                 -0.37275896111806955391
                  0.25121148475898080754
                  0.08888003301602538653
                 -0.12321117696518898987
                  0.24678540341118723744
                 -0.24125876468072446346
                 -0.28469009884533275079
                  0.10810092371515478415
                  0.57342706160014678129
                 -0.15578652978213430869
                 -0.19257108179812765236
                  0.18237687069999111711
                  0.13009205756123309872
                 -0.07843067901816171139
                  0.10240396635403400949
                 -0.08705975430389344127
                  0.19032149643142309836
                  0.42390270099841470541
                  0.13348810602206059861
                  0.23924367913258809404
                  0.06203438327670448421
                  0.12780355921113153994
                  0.11163515482710098525
                 -0.14023669879395034288
                  0.55759346948067367578
                  0.22838034387679909121
                  0.28904562975026110161
                  0.36654912885859514127
                  0.17425367911163872070
                 -0.13814604052037104953
                  0.17179411046221995663
                  0.16082926585446249979
                 -0.15531292397904272740
                  0.14966126270663168696
                 -0.38118806882862954488
                  0.15516862103173628684
                  0.12073836378657194779
                 -0.74163580482429225516
                 -0.31539276103770091941
                 -0.30788778789724496887
                 -0.63403599420253986541
                 -0.45305680953937554900
                 -0.19259916361092349613
                 -0.16046636605547873189
                  0.21043279013000876221
                  0.15107280944339912532
                 -0.10157355086501738961
                 -0.34890370848199470100
                  0.01976402813699444302
                  0.14481092764698205722
                  0.25135173824606421578
                 -0.26917687057647315951
                 -0.19992144242567749801
                  0.01815598365467457204
                  0.04024696576494488781
                 -0.00601742844589986739
                 -0.01001588177874571106
                 -0.00722942288758582786
                 -0.06581109563495464443
                 -0.23951832457730742876
                  0.22333874849716567335
                  0.29254198668721625998
                 -0.31536433530940610748
                  0.15276468559971684291
                  0.23985974966050588320
                 -0.13526284952534672890
                  0.19110967821148855394
                  0.35860702627161744616
                 -0.28915028764680456019
                  0.09384449865559800485
                 -0.29934547740970618435
                  0.16238227728296353303
                  0.09188878950209400376
                 -0.43107968334881013872
                  0.22313468089507981773
                  0.08021194492634904638
                 -0.35069988765138676579
                 -0.07887342981250800023
                  0.16902717192438476701
                  0.08959806031618600120
                 -0.06642200248628982173
                 -0.33021762368141827082
                  0.25763296255698264758
                  0.13730729241086625514
                  0.01192741770475875748
                  0.05449610137376274810
                  0.16906786737121690112
                 -0.42339681279148461135
                 -0.11498521326389836428
                 -0.11746626813892072083
                  0.00572676361563924201
                  0.17586795578923417049
                 -0.24780340766375200112
                  0.36805511257635586952
                  0.27083944680022253859
                 -0.16460105380753201065
                  0.07308781272610886948
                 -0.10759876237018112244
                 -0.05393485447343041028
                  0.28214451739328844093
                 -0.15897188596638076041
                 -0.27582499575213559329
                  0.02122441065350615108
                  0.14837159600367588741
                 -0.06005985273492292498
                  0.08648572478647013895
                 -0.14919984143208028793
                 -0.44692077021565029815
                  0.07329521573929970168
                 -0.04786658489020965968
                 -0.20138455679034181212
                 -0.11900226754902504256
                 -0.03607247532739647766
                 -0.30795694586447358576
                 -0.08041218278028783306
                  0.47199222882841052051
                 -0.12236665280461170302
                  0.29267733600502537916
                 -0.08453274835393893849
                  0.21851367226740514571
                 -0.34945828154140734512
                 -0.11269131937119263032
                  0.51432402639263985478
                 -0.00441008237651760449
                  0.21648943275708718015
                  0.22495034057047474940
                 -0.01163999569312323609
                  0.09181910271352884678
                 -0.19575134494370044491
                  0.14614414215788887330
                 -0.05748390598472270796
                 -0.12463231626004836472
                  0.22483642136994197447
                  0.18997625964859204961
                  0.07638591851928502874
                 -0.12571939204874629792
                 -0.05316680969564189368
                 -0.44768489710649111979
                 -0.20144616377913837635
                 -0.33044993378458414890
                 -0.12710442752942308076
                  0.00293782998643178552
                 -0.15469141514064432830
                  0.05790509466379813869
                  0.37440873714053735100
                  0.24230324265326871891
                  0.08689859802642817266
                 -0.16221357000294100992
                  0.31642809328016097137
                  0.21131666043378766195
                  0.13948293327246474860
                 -0.16947912539966528134
                  0.25946287790764488435
                 -0.27116841165423488658
                  0.09740075277558168931
                 -0.28444400524750651504
                 -0.26650420099804256191
                  0.27168412889450549441
                  0.24144810927045493032
                  0.21745450388436696199
                  0.13866095957187468679
                  0.06170360070976587535
                 -0.31268949485814806488
                 -0.08484890798723508654
                  0.19642586701589109799
                 -0.20535395751678303666
                  0.49122852114875309448
                  0.18414645018581368707
                  0.00173585934013314211
                 -0.02538475286827579155
                 -0.29206493045578552081
                  0.04946303564713118439
                 -0.11370733448797415432
                  0.42578864447748832056
                 -0.37483863547126816673
                  0.34823388541526395512
                  0.36236813138812062896
                 -0.18231956719717681836
                 -0.18089995051416865590
                 -0.10246797175671723545
                  0.36641868965574531103
                  0.04099492101191317545
                 -0.16761678906642971110
                 -0.22742215642726160141
                  0.05966359972459022581
                 -0.16963694994947273176
                 -0.16391173305976319829
                  0.06535445145616387841
                  0.07508187874580832255
                  0.12396591677257143282
                 -0.06231707024246468940
                 -0.37357020137405116955
                  0.22884407205887608017
                 -0.24835731255648776927
                 -0.38291425874253959272
                  0.48419301463053376899
                  0.10386697465691756281
                 -0.14691065592691004982
                  0.28446335497766550571
                 -0.14289742547560388419
                 -0.21975075875947869264
                  0.38724581228499010965
                  0.05149023408840444627
                  0.02595616932468333693
                 -0.20717442787723253095
                 -0.11733251054941520874
                  0.03439633144412868049
                 -0.21356963893901770302
                  0.31737837333577900711
                 -0.12737275024812899638
                 -0.46936464040923275842
                 -0.59014024133283049522
                 -0.04879194043494595318
                 -0.37465659978653242934
                 -0.12265982029865279967
                  0.41950838370103266106
                  0.18072679093126667316
                 -0.25984449370558798664
                  0.29121363809209932505
                 -0.33817699886600749437
                  0.07273071266804255475
                 -0.14447419697650032422
                  0.16380761289366393973
                  0.00075076975007521470
                 -0.25836866521632817495
                  0.02117546501712109369
                 -0.31114998086854622761
                 -0.07246686262007562274
                  0.22110358117688858060
                  0.11255901253415800944
                  0.26298108134002234904
                 -0.13896712189023849304
                 -0.07560504308836014931
                  0.18807756843567779992
                  0.10488684180466202600
                  0.48881089089344925691
                 -0.11626935041748429067
                  0.06327413585801908158
                  0.26207829776098168217
                  0.03409112761578497741
                 -0.22287192929168023192
                  0.28880835226516160530
                  0.21724200913643998412
                  0.08273450248718293432
                  0.47958971484172074895
                  0.16493882448307317645
                 -0.05769821557201508522
                 -0.27477696172100801730
                  0.20259122143498681234
                 -0.00812874613025080239
                 -0.26725000788318031830
                  0.00604462813945402713
                  0.08170232792848033943
                 -0.39644204808689265107
                 -0.10785153898755626967
                 -0.37416738549037775741
                 -0.46696658941772839491
                  0.08595868276085977255
                  0.13095844634312236998
                 -0.11880431814780810507
                  0.28864036265030479367
                  0.01696670163608805099
                  0.24874093404750713399
                  0.03531713132295999369
                 -0.12168180531657624144
                  0.04004821043243581014
                 -0.34999955089523621110
                 -0.04856342494205774518
                 -0.17394499866196003190
                  0.41599159585979328391
                 -0.28609104153034381479
                  0.00339644404909754307
                 -0.02167658755313648863
                  0.14386686164278372768
                 -0.28736965601774933088
                  0.00528777217127751348
                 -0.08915234743906605419
                 -0.13187204795031576277
                  0.34450629336529264846
                 -0.54762289078268644449
                 -0.09458189884806772474
                 -0.10514289516915766021
                 -0.04306662036275486771
                 -0.48295575231990695020
                 -0.00178533085640428116
                  0.00182335309669962725
                 -0.30093309246227961662
                  0.20177685789578039821
                  0.36873654672409911237
                 -0.05877669944051398115
                 -0.05433763459272776541
                 -0.12401680419114217979
                  0.00991118327346804037
                  0.18472993104160481681
                  0.35145757171552999276
                  0.19361214855907601939
                  0.32262874122390461373
                 -0.23246264116315804027
                  0.22762285936648152251
                 -0.17584113922189195667
                  0.24256230911025383756
                  0.03920648740677672855
                  0.28951811376333136394
                  0.02469115559098456619
                  0.29283417882796031195
                 -0.09268178168658922078
                 -0.01486741769525814875
                  0.02277540768126054202
                 -0.19880285635446828807
                 -0.09621897351935784770
                 -0.08131814181830128441
                 -0.12779898378484844113
                  0.05893886393380819155
                  0.27064264908731161530
                  0.22695540691151561141
                  0.20421045467554671538
                 -0.17749752780983044098
                 -0.30881171301404031215
                 -0.25770915602725846805
                 -0.18242333277070424402
                  0.15906551316131403717
                 -0.24780853157372229045
                 -0.11686672156592478600
                 -0.16136544210221698270
                 -0.19378322572294243153
                  0.26641692182864673555
                  0.19272656620535261185
                  0.28101517832802297425
                  0.02741949852060957676
                  0.24994707533967142066
                 -0.28194020125681612532
                 -0.25094168380725684342
                 -0.23015511743407651712
                 -0.29789100252328248875
                 -0.03587862349439407961
                  0.30717542614615350738
                  0.11830417449310921818
                  0.23703451178658657694
                  0.32072263197051481542
                  0.07933392457980636969
                  0.31095853337104761849
                  0.17100025435265645002
                  0.01753999120301209108
                  0.06162235738972993843
                 -0.21464920207234125527
                  0.08647559939026093490
                 -0.10402191034013921755
                 -0.07985998483486407562
                 -0.18399391044717264276
                 -0.33628445631383346859
                 -0.02588008637205552881
                  0.02116579169972538157
                 -0.34787766056247643176
                  0.02110633625976585798
                 -0.33823245501224286080
                  0.28851030438205349515
                  0.32054819723150096422
                 -0.32156601608517354496
                  0.28924067417191207108
                  0.25531842759227474371
                 -0.48073830476302992221
                 -0.20087877293169026371
                 -0.14075420183838427413
                  0.27180547118717029997
                  0.38131580490639743752
                 -0.29535581730599114181
                 -0.37432102886486995352
                  0.23214023650927126385
                 -0.07406015564927642680
                  0.06846362421117650754
                 -0.17607575384301815680
                  0.03910525583371814856
                  0.32700779881366470736
                  0.19207482572895820394
                  0.08861510690512285071
                 -0.37762032445293480798
                 -0.21982530565301938719
                  0.03228713404982332114
                  0.23552156008775565477
                  0.25579630354473165132
                  0.19942342710360638769
                  0.25052640715735680077
                 -0.02513287214199631109
                  0.13081185614873214185
                  0.18817223333714097611
                  0.24696723443788903829
                  0.16806445954596432868
                  0.16244578992541175433
                 -0.16669527398419323183
                  0.05490338750253990346
                 -0.05364667170945206648
                 -0.14682840958899073813
                 -0.11363045731383436543
                 -0.06620450578375704220
                 -0.12069535960658424323
                  0.25790979183471857139
                  0.15194799853805637802
                  0.15631872068103955242
                  0.23930359281917432113
                  0.29893109410844664886
                 -0.43083259399921403077
                  0.38018039151753962868
                 -0.15298166124149764622
                  0.40722147041562134495
                  1.16045650574895220508
                 -0.69461529574482572258
                  0.29857631646853416418
                 -0.31510726383997922362
                 -0.44954823931054310737
                  0.03181318088500359464
                  0.71426030639570503578
                 -0.49375669356571794122
                  0.17742736278275136885
                 -0.31548230571392166244
                 -0.68333012853290231448
                 -0.14750511415679964933
                  0.23659629174844801214
                  0.50211356183257649377
                 -0.48104112204843657574
                 -0.27753395586809359585
                  0.37382269095623882338
                  0.04998987265869855173
                  0.28488456129396677596
                 -0.69813086227750609236
                  0.06434674424317579633
                  0.87959258495146863677
                  0.26384759596822349170
                  0.00015110129530187567
                  0.30830389015940512509
                  0.72436732742673970442
                  0.06859533184762844904
                 -0.28807139768847916939
                  0.16467272831828627666
                  0.90772155989001790388
                 -0.07986004389481132781
                  0.57482549174902197731
                  0.61177672527047177731
                 -0.38098626283026965078
                 -0.46868897126908409811
                 -0.39306965186120718103
                  0.10186703893834064827
                  0.90401233461479069131
                  0.09883058504713790327
                  0.40238061843891648195
                 -0.04291392312242684609
                  0.51228897212864210609
                  0.45074504925276620559
                  0.24493640325301904714
                 -0.09825871365526750445
                  0.00171100791324810264
                  0.03333318283386596526
                  0.24308964290644105577
                 -0.77862257001924195521
                  0.39404982391944542996
                  0.28262540793905471803
                  0.60271555161844414528
                 -0.67001055352045613134
                 -0.06601023201638048232
                 -0.11982010707076072575
                  0.48274062131948763943
                  0.31429514458626339746
                  0.03235287593371475451
                 -0.48473557077563256268
                 -0.53827077704994030771
                 -0.49703778707042151064
                 -0.60744524165684588013
                 -0.66226215750008032845
                  0.12620996715232579710
                  0.15965846157892127355
                 -0.66146327457465048383
                 -0.05681680836643996507
                 -0.45605041304383281409
                 -0.38244118308687569119
                  0.19998867733081079900
                 -0.57084042609105256627
                  0.59683790026596217348
                 -0.21169515676981479069
                 -0.17647994247853149297
                  0.01035273702819250463
                 -0.26926203751983401879
                  0.58734943088497471031
                 -0.34212632487306798845
                  0.58220278650993140257
                 -0.30678801572145758536
                  0.55119132923466140905
                  0.08912813554180826214
                 -0.62524948341320496503
                 -0.31466208287828500989
                 -0.41280245429391043688
                  0.04804495773203042164
                  0.14689373413632911269
                  0.27280990647977171326
                 -0.61093349457813317382
                 -0.14437756058290635020
                 -0.26626439857155842494
                  0.43917051736684192820
                 -0.00255212506571433906
                 -0.65825302405289820573
                 -0.44177946172370058386
                  0.11779524723484643967
                 -0.51750758896223092442
                 -0.84673625430007137815
                 -0.52481335539478035646
                  0.37715117788940388799
                  0.52052623716405344023
                  0.09510942773051297983
                 -0.63183274221299923212
                  0.10364790095487344534
                  0.33416229657828416810
                  0.00336502895346857834
                 -0.06341496024853360280
                  0.89207192895651821196
                 -0.46256478509951970413
                 -0.82701629834887602222
                 -1.14659602372485047717
                 -0.82487720474368919632
                  0.79105518202591529331
                 -0.74870051196241149682
                  0.14840443591675658852
                 -0.60520099594966170198
                  0.23420719038163967385
                  0.53608437956218724096
                  0.04669675633492657851
                  0.14613818298215672242
                 -0.18729661082873214073
                 -0.65392922403063036274
                 -0.64220539336270388020
                 -0.49126877283583375577
                 -0.50607881613100291762
                 -0.25851810384582185609
                  0.29907968621452163394
                  0.01092920070700072015
                 -0.48652485151000218755
                 -0.55907064418580199039
                  0.31695081335157765379
                 -0.52739034846423060721
                  0.44831907369618206882
                  0.29147857676958865980
                  0.02212273121637078205
                  0.62438642226600116203
                  0.69697306443029372058
                  0.68523279233943767963
                  0.30025461763913813273
                  0.13531923070605789139
                 -0.72852331001950443312
                 -0.75478709068907334778
                  0.23007224939550421916
                  0.66898521247425823955
                 -0.05988368371672302126
                  0.33973564603145056662
                  0.67923023444423380468
                 -0.56364270948474748391
                 -0.19986558820998073793
                 -0.63420315006586214235
                  0.23283156510523131399
                 -0.75923312025147504656
                  0.08817427572962917293
                  0.18743995406705463158
                  0.34667201026441035738
                 -0.15761217881290864873
                 -0.52196607793993210489
                  0.64779660016979989656
                  0.03008925813967604918
                  0.69261842641698390111
                 -0.50651487178775744802
                 -0.60831685519461142775
                  0.61229100762782662226
                 -0.11167756441998316630
                  0.09534039188861831438
                 -0.16704917095564561502
                  0.32939553372761420924
                  0.07085706548630124613
                 -0.59887995427310602992
                 -0.58132339533320165348
                 -0.00678498180030081676
                  0.09275847134437123498
                 -0.62558207274849131352
                  0.48586734330794595360
                  0.49204118875769942143
                 -0.11005499293924481119
                 -0.59860395350451789387
                  0.45484633623563031080
                  0.03969601836326631245
                 -0.69275667070156199401
                  0.49214338983107153158
                 -0.47752728700125712802
                 -0.59881226732664050161
                 -0.27924169966803746856
                  0.01654284903531836465
                  0.47845946278913714655
                  0.66405828904584207617
                  0.29258792670887545651
                  0.61515973713324811900
                 -0.60631761145064222429
                 -0.31033279685542092263
                  0.56677582833361039860
                 -0.71910375440192653151
                  0.37484276314384173956
                 -0.11559523507853393387
                  0.00920160493517061667
                  0.23760766446581899070
                 -0.06548421684549847466
                 -0.60745253944005439539
                  0.43138557848697711705
                 -0.08893737666509346496
                 -0.82465065456150055123
                 -0.16441032573118885551
                  0.56828672971012106352
                 -0.43788576874604140388
                 -0.56438051940082178959
                  0.31314524613387711982
                 -0.19948769344427372263
                 -0.29186244539858047231
                 -0.44378007272817865392
                  0.45707617507350395414
                 -0.07000588638080507131
                  0.32091285167454991489
                  0.57679480754215406435
                 -0.09383474934918779875
                  0.69819880449425408830
                 -0.63012587941238562550
                  0.26033491731424746041
                  0.62106847623996719321
                 -0.10445931961730954562
                 -0.78401039443927056372
                 -1.05678150486025357324
                  0.67721154633648406040
                  0.52213497471597658528
                  0.05318892277013666237
                 -0.11474065347369266643
                  0.39554949941801309521
                  1.48716124658197434982
                 -0.02690908914684334366
                  0.93798704374825747632
                 -0.49563143052876973416
                  0.11483613210995957665
                 -0.53184066122952544653
                 -0.73625760540719087377
                 -0.64657993755648490719
