49	2	1
15	15	
1	1006
  0.0509196552000692	  0.1345711188415454	  0.0917197832121609	  0.0810803382432456	  0.0117280451946236	  0.0090713026159049	  0.0401661478336543	  0.0526118715173350	  0.0340796579390860	  0.0526134885998191	  0.0128659847729998	  0.0349100416129903	  0.0764698231390293	  0.0051989153520747	  0.0203860418256658	  0.0681309741312083	  0.0363743161063826	  0.0007897724327095	  0.0045851554252880	  0.0079545833900597	  0.0045853011665022	  0.0070930819106420	  0.0205697330956954	  0.0029067946150517	  0.0022483211977909	  0.0102086664641072	  0.0139552211424603	  0.0174926268920479	  0.0139674944690803	  0.0010210765243116	  0.0015877212227064	  0.0024439626793811	  0.0040817974363677	  0.0078155116658871	  0.0078155118472001	  0.0159225623761220	  0.0205691297660476	  0.0381667713281543	  0.0205703945282406	  0.0013025081019590	  0.0044984839831357	  0.0350674249536625	  0.0032788638877362	  0.0097407715810844	  0.0315972377671333	  0.0005301334206936	  0.0037951311731091	  0.0381608932545896	  0.0127717265613683	  0.0638703753181926
  0.0510501822100672	  0.1348455706723265	  0.7429710648907740	  0.2243103377125632	  0.0117280865259778	  0.0090713201471735	  0.0402667223599968	  0.0527183302154699	  0.1400632571091266	  0.0527200606868800	  0.0128989442564909	  0.0349797871781868	  0.1781475784013639	  0.0051989323893750	  0.0203860795078622	  0.2802920076791633	  0.0568891488543633	  0.0007897724353379	  0.0045851713664937	  0.0079739571032584	  0.0045853170722022	  0.0070930955362647	  0.0206110502308636	  0.0029068050516662	  0.0022483258583042	  0.0102340626211222	  0.0139822751506277	  0.0355376195462368	  0.0139945772924125	  0.0010210765297065	  0.0015877212297443	  0.0024439626845465	  0.0040818105640599	  0.0078155262748751	  0.0078155264873079	  0.0159613102922531	  0.0206104463666066	  0.1071887261245556	  0.0206117991418104	  0.0013025124040618	  0.0044984935591917	  0.0711576110723040	  0.0032867555363000	  0.0097584957983021	  0.0461605425993989	  0.0005301334229174	  0.0037951311782856	  0.1073090834785531	  0.0157100660449747	 -0.0048081975258476
                 -0.21969802792066245312
                  0.07424294568603694022
                 -0.28965126619289716103
                  0.17576770662281906987
                  0.37227492898415726064
                  0.16826871692694067573
                  0.02843966087372283222
                 -0.13662778861916913264
                  0.00866103638100257540
                 -0.10887399290199208102
                  0.05027349799114776835
                  0.11234623696758487543
                 -0.16615635833596914539
                  0.48247352337027521463
                 -0.02278118616751191594
                  0.35668405962272847765
                 -0.28340129792739937598
                 -0.33981450114434802456
                  0.20852574945049417998
                  0.08018870031138951304
                 -0.02680432876223682800
                  0.16606981674321366627
                  0.39666028966906491382
                  0.38247508902898996741
                 -0.32468727632947880224
                 -0.38150935941690644615
                 -0.30220716885444703914
                 -0.18306788195529560825
                 -0.08995700848988254228
                 -0.53080241279713191727
                 -0.28668456480245918527
                  0.25777998893111547796
                  0.39735287472206182180
                  0.64822686058676359799
                  0.19936365614335707641
                 -0.07177855001912410160
                 -0.20205738664816308425
                  0.05250834314199256947
                  0.00392234991956713890
                  0.02649293914248833717
                  0.50779206932181042422
                 -0.20949838881670074242
                 -0.28654577415218596137
                 -0.05072637108387759858
                  0.04406950420355943560
                 -0.14942589609716550036
                 -0.13283247217273769225
                  0.14488208153479675833
                  0.00164529245146823153
                  0.62375630136110749024
                  0.08370253326747477407
                  0.25277856799828096745
                 -0.02852623857941420649
                  0.26435539342584651878
                  0.30173848089900379144
                  0.36478446490775989774
                 -0.13722402435653077712
                 -0.31235258772227397772
                 -0.18422098569978218041
                  0.26076349270179055573
                 -0.09638041507326393365
                  0.18923071066932428685
                 -0.43449211621632533031
                 -0.21387025379414004167
                  0.14390151898267347641
                  0.05305127049492123353
                 -0.04967678868052825131
                 -0.27775236351195031759
                  0.28637089380338226485
                 -0.08127562960214920751
                  0.46599824524976951601
                  0.36503797284250449895
                  0.09417112766243360134
                 -0.04816174574548405529
                 -0.24632339708200984285
                 -0.21312576950753980842
                 -0.11358102497407540632
                 -0.30629243939418526743
                 -0.08927347341928836000
                 -0.66165328488301167198
                  0.09388755513980727441
                 -0.19525723240358294763
                 -0.16902162420916236329
                 -0.41628156867795029772
                 -0.12614939800429172956
                  0.08369639691971587914
                 -0.04824573958592169587
                 -0.08841193719530535122
                  0.01375714690225439754
                  0.18432424403567362892
                 -0.11170104962841427565
                  0.16752859857788399145
                 -0.18455347499350902019
                  0.07826102012255287121
                  0.03858921323141700777
                  0.06082170048684983760
                 -0.06793631841244353320
                  0.31280062830072274949
                  0.04687715592203019199
                 -0.10899802852889961535
                  0.03203334094753346878
                  0.24696133487665355988
                 -0.16477419514544408563
                 -0.55491336159860960020
                  0.08054851868981598162
                 -0.15670946070200700295
                  0.30983453281789452571
                 -0.18129802533760971950
                  0.00272595197803708958
                  0.31403828513217446616
                 -0.04702887829959787047
                  0.08084045656662404433
                  0.42248903344401050886
                  0.32141145607838045306
                 -0.14475720142410691826
                 -0.04256424140531311212
                  0.22306540121653067876
                 -0.32850818529398562173
                 -0.31207190214213925694
                  0.00883930049041116786
                 -0.10509371441519521628
                  0.16630890953956661837
                 -0.53934783519379314587
                  0.05877717402149393311
                 -0.10853968875060267252
                 -0.04728654455672875317
                  0.04211282387015605200
                 -0.24794286794265310570
                  0.18118908169810113429
                 -0.44347607727722199167
                  0.25144116852084952285
                 -0.21010806963424294436
                  0.19562953372293392929
                 -0.45226914032717691061
                 -0.10864888877659206745
                  0.32804134566160070285
                  0.04547164091379977957
                  0.23693904701953519276
                  0.26749229443837774234
                 -0.35088373268122108328
                  0.02515487519871391006
                 -0.21373716932483205477
                 -0.00626526754632458684
                 -0.07316264115803455814
                 -0.26061628840218165060
                 -0.02774341121927625942
                  0.05525797483330188720
                 -0.14923667761752965055
                  0.36732587831741464468
                 -0.19444586467362034998
                 -0.72799970624083654158
                 -0.22078385267517508517
                 -0.12983189305392378587
                  0.29693805645893917022
                  0.14963884330531135314
                  0.53426336628995307887
                  0.14368764949432519251
                  0.22972310146290148003
                 -0.00844465284480193368
                 -0.47210385494662621131
                  0.13962826196651792476
                 -0.20614310592291346103
                  0.10431461104632090697
                  0.25303997497867219968
                 -0.16419162922532093418
                  0.12969820857719632778
                 -0.35775117577446885475
                  0.07273758901522282827
                 -0.12926254849730942076
                  0.33551878513111199620
                  0.25616194472812481298
                  0.14650878757923185836
                  0.20738480560872374348
                  0.05801700589539996594
                 -0.37397016915507741430
                  0.15276266672147492676
                  0.01270718555469917826
                 -0.46438042308726040774
                  0.16150403758164577628
                  0.30212657347022181531
                  0.03947139659059659134
                  0.33191469993797795279
                 -0.36806659580912531871
                  0.15686531746055518144
                  0.40942787148600473524
                 -0.12992005787111518544
                 -0.09676749634929805721
                  0.13408610356333688918
                 -0.05782202431241080520
                  0.44710774195927760477
                  0.19103732792112762540
                 -0.20523217853704614488
                 -0.02280788426007738720
                 -0.07630046942690224543
                  0.00521412695186486592
                  0.10813769050002060290
                  0.02204425768870824781
                  0.10572609933784653247
                  0.33376410666739098065
                  0.26021608214997216102
                 -0.11968732108017854365
                  0.42318705267778433665
                 -0.29692193643098663269
                  0.21967021262898556166
                  0.00336689718568344495
                  0.27994175385866709727
                 -0.13664897541707110573
                  0.35624973486685951318
                 -0.25605019778053966784
                 -0.04655338414764619015
                  0.27724558327242970757
                  0.21114038930200274002
                 -0.36979866016042189925
                  0.19757799409118437239
                  0.22086936975160886831
                 -0.38700761987986304069
                  0.19232618393388367650
                 -0.09587199444440216989
                 -0.23283445991302592626
                 -0.20997958427514229474
                  0.25323074468861594966
                 -0.33356425486707635963
                  0.22425255198553151192
                  0.13948422486621370187
                 -0.12681886258390442923
                  0.17116094941833501220
                 -0.62670936058480586350
                 -0.10796753437797682040
                 -0.08255461173670305963
                 -0.38408848039790433049
                 -0.02632781223420527922
                  0.06649058314426972705
                 -0.21562189836184017522
                  0.08161253968957705995
                  0.12870155563285232136
                  0.25321394781531453289
                  0.01326262933195604399
                  0.04102898129118570658
                 -0.16054737018116199687
                  0.22538619630496559143
                  0.37351576064287067558
                 -0.00627063654380689318
                 -0.02984053835185974599
                 -0.33051198004613868697
                 -0.28988555885385686173
                 -0.03281607509922407351
                  0.07780594928411853350
                 -0.02646049046599445106
                  0.43860506379178321179
                  0.31755969688486418434
                 -0.03236753861347065053
                 -0.10025084445834522850
                 -0.17757216259971309036
                 -0.52241945175486348418
                  0.10733299068530875731
                  0.41946896884025414165
                 -0.46118235588739592279
                  0.31692470206371997632
                 -0.01273729518036313332
                  0.24610086919171036968
                 -0.03613519351489161147
                  0.29387607409937382963
                 -0.31164919407568814069
                  0.02013492517773638260
                  0.00952616565782878066
                 -0.02845958731022794896
                 -0.19282724347494839545
                 -0.00003374670902423394
                  0.18288755208046611478
                 -0.25324834679146351890
                 -0.22234557896391182741
                 -0.30019762728075222169
                  0.48035053760431500880
                  0.01379195683575300084
                  0.22896109562121455538
                  0.28573587119144860935
                  0.19102168827746712765
                  0.24005093592418172421
                  0.03983023728493273463
                 -0.09472437246898163243
                 -0.20437949528989668435
                 -0.25434762180726350200
                 -0.23662559272820146705
                  0.00983612242036100044
                 -0.00291981480762205448
                 -0.15477795095819746329
                  0.33362998901325863210
                 -0.20401418145009703187
                 -0.41701402744020887869
                  0.16674530514761332078
                 -0.42991228302720163601
                 -0.00109389979759198569
                 -0.33694083791119694427
                  0.13046124633373282209
                 -0.39891398927694554644
                  0.17856942151369678551
                 -0.14728401598489651581
                 -0.02658574115926973236
                  0.34921626006127387543
                  0.10581150249876733471
                  0.24441138777069312815
                 -0.16151321152127257053
                 -0.46681086675021526977
                 -0.15308363426964446963
                  0.02738847303002023975
                 -0.09248386733879930544
                  0.12922612005974778993
                 -0.08897917787331226236
                  0.06309163347665998345
                  0.35644148870205133450
                 -0.04953899649525439486
                  0.24768521660724177047
                 -0.17178918737581305720
                  0.14471313841375896270
                  0.03108258110617260345
                 -0.13996178768291828165
                  0.19699827214130749553
                  0.28216083062830038530
                  0.29578473537213340050
                  0.13017094481483049151
                  0.10778605540018663944
                  0.20145123205755446905
                  0.04920291100574079174
                 -0.19710345827197281454
                 -0.09070517863353541599
                 -0.25508793301577575852
                 -0.25387431676679533821
                  0.09121150664153414300
                 -0.18276873994587583550
                 -0.13797059933206787252
                  0.40743620633116661711
                  0.01578894801618528285
                  0.04450248528683947019
                  0.18053446179718313225
                  0.13604635557758223974
                 -0.14026466227822675936
                 -0.26839713292230860109
                  0.44667376862696478446
                 -0.48147447644694357782
                 -0.02525796314008371679
                 -0.22423425910923625026
                  0.00804391208305481852
                 -0.21967741236361026935
                  0.01463400566332594133
                 -0.23126434933674619443
                  0.26956465966577453086
                 -0.12912042721131977707
                 -0.11950820356834614133
                  0.19173296006042067630
                  0.29435507431260138356
                 -0.08156915948423075491
                  0.28666331137293371567
                  0.26748099103010081201
                  0.05874214089001075778
                 -0.36781653752915233202
                 -0.41536317606100392474
                 -0.10699762667644159564
                  0.40424710331238361549
                 -0.14026327034029051344
                  0.06894598102587827515
                 -0.13404012590880690081
                 -0.08648349494933901815
                  0.09632395883355952815
                 -0.20042509933741478600
                  0.00421684959843238085
                  0.37392350961722775615
                  0.19761349247585785482
                 -0.18807594924936732461
                  0.20663176303032376735
                  0.11273766244118818558
                  0.21608547794260049568
                  0.03673894482395125699
                 -0.37481682423234025103
                  0.13495132066347292898
                  0.12801314669091126697
                  0.03870363824079780385
                 -0.11229526586163625368
                  0.33022172600272381437
                  0.12762169296397049556
                  0.12860739691643369165
                 -0.00073870084393357505
                  0.35445716925887760240
                  0.01579888001068062084
                  0.10513550910618568723
                 -0.17143733196244739792
                  0.04208867823372949152
                 -0.41643006440603647089
                 -0.10682777868106831110
                  0.30970996430974101488
                 -0.03420402526058876486
                  0.21943076776496381330
                 -0.31041843150331582812
                 -0.07544248655731328190
                 -0.22551827111291519734
                 -0.04505011104782846720
                 -0.01543780240744272586
                  0.19989739468374834175
                  0.38066775351410875317
                  0.13322225324646738698
                 -0.30756687083182027154
                 -0.06217746684578925875
                  0.11713289623724441879
                 -0.45517951217263480368
                 -0.23182682826254524810
                  0.44158654940676278500
                 -0.27555740770945352791
                 -0.34183191559202752430
                 -0.24770830398054533017
                 -0.15261136349927567624
                 -0.20012754964620149689
                  0.28709709885686884867
                 -0.19898206643740157240
                 -0.23635666033762070537
                 -0.14638002795811624890
                  0.13608880663502079256
                  0.14310458529301808839
                 -0.11469066906300480480
                  0.23809084448650574828
                 -0.36554062604445386464
                  0.46427414238517189515
                  0.28143962116873916246
                 -0.07259604304639760697
                  0.06283157868219911568
                 -0.16881435420754548060
                 -0.20607922715435655903
                 -0.35972780612211519013
                  0.11742376264861495438
                  0.38082766301661563624
                  0.10752055223142013840
                  0.22184502150997997827
                 -0.13996622351214293989
                  0.15884660092835525824
                  0.16017437584129090578
                  0.25891234832333004379
                  0.15168919601791214236
                 -0.13775486590076271853
                 -0.17282701179671849934
                  0.18514858643780604530
                  0.34052665478752391914
                 -0.41795823522216163370
                 -0.05381624599640714990
                  0.12425930485132129222
                  0.13050416153552218956
                  0.01163178905613598303
                  0.52184488213296531534
                  0.29707897055462506586
                 -0.46825008147010799275
                  0.28992998602904213046
                  0.20972715160054358763
                 -0.37961335800823509112
                  0.01424832712693779174
                 -0.23843006718357781515
                  0.14325623247748722755
                  0.34064200755263890352
                  0.03741568953620572763
                 -0.04733603703516296723
                 -0.17098737054360890752
                 -0.03661363093552789244
                  0.02845643991152048413
                  0.29430643945397610972
                  0.17333430394689469667
                  0.09364773143999130522
                 -0.11499259006367019975
                  0.27823307616989012558
                 -0.11045465275036445152
                  0.02852255464991838851
                 -0.20084016402210097541
                 -0.26516579701836845429
                  0.09058159464413716166
                  0.30127272293875367870
                  0.29806896158386736451
                 -0.01499056652110165172
                 -0.34935100645326316871
                  0.12987039049623871900
                  0.09276519350322375013
                  0.09352579215879308627
                  0.22363017473525290124
                  0.13869531229283238449
                 -0.23883776044653001747
                  0.31521055824116933630
                 -0.20030760076871689801
                  0.33582045530437693026
                 -0.13595266501778574542
                 -0.18267375856863296568
                 -0.27643038255847673934
                 -0.16042272922615444242
                 -0.52709153060930258317
                 -0.40685515884059864078
                  0.32368503603918036271
                 -0.00932483360543934561
                 -0.10277119607909457333
                 -0.29296101809531316373
                  0.03148769252946762714
                 -0.10974280059391770814
                 -0.05875469746833381773
                  0.23088460472224928144
                  0.04284528190668575320
                 -0.04318296637447423952
                  0.77402036374411764541
                 -0.11438750322988225361
                  0.14050761707976472392
                  0.00838118665578159797
                 -0.45675886983905655825
                  0.18234983805355450825
                 -0.22519518454862672008
                 -0.42776654261359009501
                  0.26164690605189117045
                  0.02593901206750291386
                  0.01507741504722412418
                 -0.02608478188905043529
                  0.44342782210835207657
                  0.01136019300686188192
                 -0.16941618264827257301
                  0.30330317289208946763
                 -0.32670093349802481475
                 -0.01171749125566032453
                  0.11153938637949553647
                 -0.11835973534364734039
                 -0.32401639961546585544
                 -0.23609504949899576265
                  0.15301510699723475106
                  0.01150693141248861247
                 -0.13532475781108305180
                  0.55377786864466249650
                  0.14924086025025670721
                 -0.27621423522977622822
                 -0.10611060636566521653
                  0.03892245043036576119
                  0.05061258468713217273
                 -0.35354257361746116439
                 -0.11528222136487929761
                 -0.54853415489761814250
                  0.37496144451065088754
                  0.04380405525551647750
                  0.15322256473629938811
                 -0.22101735531977040328
                  0.13946875057738061798
                 -0.20796113876108451857
                  0.14497459333568429862
                 -0.30278909901654488257
                  0.10349578330440584173
                  0.30056573712638345874
                 -0.02804643607505477240
                 -0.09338627991233397485
                 -0.32246078164014047029
                  0.24658669011272282834
                 -0.05464147258445799238
                  0.14810334104266784094
                  0.19003392949599104411
                 -0.32118204048097881431
                  0.01192954482728605242
                  0.12847467773954709958
                  0.11922406465279528076
                 -0.30364237216458789259
                  0.04144061583275086141
                 -0.31194753988738321837
                  0.00641744396204728049
                  0.24850868136000175967
                 -0.01844278791576333190
                 -0.32615628992394274377
                  0.27786200168093089236
                 -0.05025765265304180107
                 -0.34820090775271422823
                  0.06438492120574307309
                  0.29754218549636263225
                 -0.14473683214806368214
                 -0.05559243870341995519
                 -0.22829073827117682405
                  0.14971906718720373597
                  0.21267907860426935041
                  0.07887650116917462040
                  0.13048084267201318087
                 -0.25783935469801616547
                 -0.33018612915416178932
                  0.47183586610297634234
                  0.17350925640443901066
                  0.50310872853095967017
                 -0.34925308480956113177
                  0.01536376383518483178
                  0.25551274186082140183
                 -0.17025434340733663907
                 -0.01827511187682990396
                 -0.15796525810125044975
                 -0.13324078434486491540
                 -0.42587333691681178438
                 -0.09215706289464510592
                 -0.16534457206160901865
                  0.09197017161138705543
                  0.27164249760293268654
                  0.21092524719048824644
                  0.13953050668195057793
                  0.08598898495253928798
                 -0.26048604220395404907
                 -0.50756965641651707877
                 -0.17906209502191983152
                  0.00053703130588207736
                  0.33743533951930831938
                  0.12200596159503428184
                 -0.20994248808493426450
                 -0.03298096140386331393
                 -0.12234671890331305644
                 -0.33199229066572139013
                 -0.04917760041685051431
                 -0.02568125061323711655
                 -0.33041249115707505002
                 -0.24589756036636448155
                 -0.28087552593860209971
                 -0.04342712061370645332
                 -0.34974377080094976034
                 -0.37405589399198818645
                 -0.04829586453445793709
                  0.30306473459703148210
                  0.10272771351894581515
                  0.07308247427505279448
                 -0.05659141306571109642
                  0.13694190432458022699
                 -0.24366164595784495228
                  0.12435509521059598392
                 -0.04569293447115185813
                  0.24429787700035315856
                  0.16080729261838655475
                 -0.07981601717816881603
                  0.02579213904293270812
                 -0.02133527210113410691
                  0.42243524010341859665
                 -0.27390374679889067933
                 -0.15310015924748451854
                  0.00539157729381002995
                  0.05843890996222324968
                  0.26687901942025404889
                  0.12812369026461151167
                  0.04754232341844649018
                  0.27513298772858940655
                  0.40265282560444015658
                  0.16210164022599252154
                 -0.06130187734806276378
                 -0.23078800669597249184
                  0.29082980051329088145
                  0.21313711844202376522
                  0.21071362374468982637
                 -0.07606769944393991512
                 -0.43457666577890519122
                 -0.30467103801493627957
                  0.09058884733203229067
                  0.43143579376849394702
                 -0.35262788718612142480
                 -0.10176066198896718817
                  0.09095884383041129284
                  0.42385156886064029313
                 -0.13237730198775701784
                 -0.48507617835743699342
                 -0.35647137731037470409
                  0.11158545208610005928
                  0.14286882859070390572
                  0.03465564390797405692
                 -0.07168732179673283078
                  0.08069921369005483847
                 -0.21075875483298656121
                 -0.02162463682339975379
                  0.35053377606934543742
                 -0.15552720366810288133
                  0.34221665704236675642
                  0.16048164445909868236
                 -0.22218060127676814153
                  0.00819716751622636547
                  0.03104093551283199082
                  0.36894898187471680817
                  0.15362945379731288154
                  0.37031384199436906401
                 -0.23514719680439291616
                 -0.10543859156030256641
                 -0.16066251944446841016
                  0.12705417291044390771
                  0.13052930342620414073
                 -0.18924390782962063895
                  0.46836539110631214555
                 -0.60153044785463061217
                 -0.22416168781366571650
                 -0.02060458170515453227
                  0.34995957283471912369
                 -0.31834557197280122232
                 -0.05320329560804069879
                  0.02569304964490719961
                 -0.19428453559292671593
                  0.27634855020237447665
                  0.04774592194812715684
                  0.06955932252224483747
                  0.05458085272690969131
                 -0.29465147884810660717
                  0.04667694997500872883
                 -0.04761987007371207975
                  0.22497724258948612053
                 -0.02356943665123724038
                  0.02060709979456582311
                 -0.03761089040584548321
                  0.25224650830458333894
                 -0.29023815828010923745
                 -0.27461815376575449132
                  0.14476073901549010858
                  0.19009673430183479659
                 -0.18770662990108258339
                 -0.02949017164994185286
                  0.14588569459557357288
                 -0.13874121427919869354
                  0.31642620022843354066
                  0.37714047182498461330
                  0.37668899680804185381
                  0.39807821297418555240
                 -0.10153735846079227356
                  0.25882247361845517331
                  0.10988259777854847421
                 -0.02797235231958377158
                  0.27722841682646304218
                 -0.42582085667096436499
                 -0.31827037353308584855
                 -0.10003085741078025783
                 -0.34360642659286977363
                 -0.07311602713835417544
                  0.27777257768104895996
                 -0.32346632120735985261
                 -0.35767499429238658326
                 -0.07643798077562734272
                 -0.05419264143345416812
                  0.04803818469901786903
                 -0.29217895149171685398
                 -0.11819625238910361209
                 -0.00955230562823006397
                  0.00327354705131617171
                 -0.06113810735290907405
                  0.33434645444213362264
                  0.16745896015350067443
                 -0.00523861286361767403
                 -0.25314505684512650374
                  0.21585048331808556754
                 -0.18719760813944777422
                 -0.60951603829287281933
                  0.53045896249848123460
                  0.18378823211687900230
                 -0.58110054744578409913
                  0.16242189970627818330
                  0.20091823914791315242
                  0.61829279416819515891
                  0.47341942739261227979
                  0.29786915469739910778
                  0.10505788577175874388
                 -0.61032535263730725017
                  0.66521006422703365946
                 -0.42993630038213326294
                 -0.46874263189385534378
                  0.11174718192793690885
                  0.34851898040097467613
                  0.60784081863839167781
                 -0.04988017400236399029
                  0.11936548885323386426
                 -0.45122191845137704647
                  0.46653045310526519707
                 -0.61010835854808187495
                  0.68984058883062693290
                 -0.17003325662355925352
                  0.34699587598724196402
                  0.10921545163549910284
                  0.20958533028873088666
                 -0.05313641738439590922
                 -0.53182411471728385788
                  0.55041337560827385822
                 -0.71310757172684280381
                  0.26221050412954965969
                 -0.57256890644437685722
                 -0.53267560039614114675
                  0.32198654633102302691
                 -0.25997927127317232987
                  0.33899791659914563224
                  0.61707361532734184006
                  0.34748523921111623691
                 -0.67909851580789337699
                  0.32970091526252959246
                  0.70775239477156071111
                 -0.25136695680622744842
                  0.35590942071526543433
                 -0.55784936753437230905
                 -0.46694149656028643980
                 -0.25096773143263856332
                  0.15775723956746687260
                  0.09338981207793138617
                  0.19945578767854940661
                  1.00546688680347173772
                 -0.27943516932690376509
                  0.65900131902894554248
                 -0.45898829518980754916
                 -0.47857140197392872283
                  0.64734824382458355796
                  0.46301545993592702066
                  0.52469219062797045616
                 -0.15915922090405490441
                  0.37232898949409659606
                  0.00951755519189490147
                  0.83951181760917636954
                 -0.78251568386920333786
                 -0.08493729866399195305
                  0.66961436638451343750
                 -0.40366855923285321905
                  0.53847694114368516161
                 -0.28008990239839548497
                  0.14926260634414334483
                  0.55877631376370229255
                  0.26382105773383168756
                  0.39941957107227110679
                  0.07845919427524203349
                  0.47986628861279240210
                 -0.38576529323105029912
                 -0.48387015380053127744
                 -0.09207581344068137275
                  0.64937623172059233401
                 -0.07336739139066585091
                  0.22056616780103821540
                  0.68696400947576685692
                  0.65897052666538247223
                  0.74991731464501087956
                  0.47288212003999502420
                  0.12548306238436018889
                 -0.51551206606566879476
                 -0.02903274321521648327
                 -0.17180712367981182398
                 -0.84637076629203578104
                  0.41199553733537747080
                 -0.67034471155821817590
                 -0.44870237418271347041
                  0.27880098252760648903
                 -0.21498718857141441152
                 -0.78850072551305783186
                 -0.16429965821903877443
                  0.61444165808091533165
                 -0.40150110821259565874
                  0.88753353263357148695
                 -0.04843106873711691684
                 -0.96268035143502050932
                  0.50585256417701829346
                 -0.00268988207804751051
                 -0.51716217918088425165
                 -0.33050238440336254797
                 -0.00622690993661793955
                  0.46726192420180262532
                  0.22917526522454900739
                  0.80619781209060326077
                  0.01308809295737712979
                 -0.76420190152424050112
                 -0.10999923690390667197
                 -0.03745119905853507708
                  0.32803778671065153549
                 -0.29760831195379733316
                  0.98416718570425298918
                 -0.10369435291951678568
                 -0.35850346597599652698
                  0.71808231979148173796
                  0.64399002931944104855
                 -0.37125567947914117628
                  0.63350125022577163936
                 -0.28779688523438540226
                  0.37176569325848884962
                  0.44579675607248991920
                 -0.35143496677157692876
                  0.46918707008570514905
                  0.38934550042786553181
                  0.71874321485899739237
                  0.29438583198884737957
                 -0.33596355578102610195
                 -0.62975505928723685134
                 -0.76320085389131808729
                  0.48819064109509185956
                 -0.20284746596431091348
                 -0.74850202793363351805
                  0.45409059211684882351
                 -0.19770154616846977169
                  0.94109273964168127513
                  0.06557904937166311732
                 -0.50009093985008723493
                 -0.34798020282547764692
                 -0.58273212801941065564
                  0.51969616401649354476
                 -0.42802570411871715406
                  0.57778365032674339208
                  0.60059751641249137233
                  0.44437391868479397816
                 -0.15290762971482438348
                 -0.30118317404695826855
                 -0.51099022076565958628
                 -0.65350768726747254789
                 -0.47981088469637306337
                  0.92830333375289808551
                 -0.59947990572156095723
                  0.43023925491574521729
                 -0.73538639837403985133
                 -0.23389631982436659419
                  0.55121057411940332926
                 -0.00367586395196135146
                 -0.55260554696471519964
                 -0.12259481688725250292
                  0.12485582170627067267
                  0.11048535306026288638
                 -0.33344397083110410840
                 -0.18230261285250831671
                  0.47198128908308500939
                  0.48315993210740959540
                 -0.05030565914266337674
                  0.54901328485229083931
                  0.60316446282096181086
                 -0.46831827870751790988
                  0.53369490297284172264
                 -0.27160125276203422873
                 -0.20973815844207163717
                  0.35853771745156992612
                 -0.88169537856152646604
                 -0.37603605958171026913
                  0.50440902207594484619
                 -0.01123757563294214799
                 -0.33642779434058328603
                  0.49872732663675573006
                  0.27269320596906648779
                  0.14218250783061928133
                 -0.29884699797617703121
                 -0.40968332955842251542
                 -0.12949397533630824242
                 -0.16481163052543676417
                  0.52465948489469538263
                 -0.85219948508906928630
                 -0.54472956549858442266
                  0.19429648011900751969
                  0.32735553517895782383
                  0.80798864341433473957
                  0.40135213949459425109
                 -0.12038856709416421997
                 -0.37700643977808900864
                 -0.20032050751214147688
                  0.51768096456428736030
                  0.23807088931216843775
                  0.43502178934021196177
                 -0.16839589486983519429
                 -0.29059931946416722726
                 -0.55509342509123438258
                  0.66328240240511560089
                 -0.62885494411678066751
                  0.08762875648950095575
                 -0.48531801751491404628
                 -0.52232927736189005419
                 -0.47507778659769711593
                  0.10465563767602013845
                 -0.25056041362608061362
                  0.57048102609432504995
                  0.08738949032656175009
                  0.60990274434622160360
                  0.26272142453759883551
                 -0.65418657706305205490
                 -0.24667189366730724043
                  0.54201530996123514772
                 -0.56568637560203893777
                  0.64383244346883539144
                  0.33856263007914610963
                  0.55664420427197469632
                 -0.30899266490893706472
                 -0.11753027140207669698
                 -0.33440988076703898058
                  0.43662491697106275979
                 -0.64353136235901742257
                  1.13683568791470812620
                  0.60474851198996959489
                 -1.05275577897179783982
                 -1.67516204475901231419
                 -0.71056009981964440847
                 -0.82178329170000574688
                  0.81589966155199866726
                 -1.02496181791115392734
                  0.36382576000034044794
                  0.54054539448713612160
                 -0.42473700011583725988
                  0.13764289372706489667
