49	2	1
15	15	
1	1006
  0.0541881623882446	  0.1350382824641063	  0.1028140005708283	  0.0927346680398666	  0.0117280532552035	  0.0090713076749631	  0.0408470470171072	  0.0526260938033361	  0.0385319098194729	  0.0526277675808892	  0.0128726918757860	  0.0349225647065768	  0.0828150393329164	  0.0058852994691477	  0.0215461304773807	  0.0770850245846771	  0.0439354400157636	  0.0007897724335645	  0.0045851585634036	  0.0079565401676183	  0.0045853042868650	  0.0070930858814314	  0.0205754373056020	  0.0029067970645120	  0.0022483227138577	  0.0102142303224282	  0.0139601798201338	  0.0186773398381833	  0.0139724675544693	  0.0010210765254475	  0.0017686151791450	  0.0024439626812095	  0.0044361902037443	  0.0082370923970868	  0.0082371203982217	  0.0159264523651613	  0.0205748337084173	  0.0436011329309125	  0.0205761424775803	  0.0013025091181282	  0.0047254956612206	  0.0373787366494818	  0.0034168931598526	  0.0097447243369872	  0.0364003753869738	  0.0006385113086149	  0.0042037414877297	  0.0436197306075463	  0.0164091526951952	  0.0649165442743262
  0.0543042909167231	  0.1352417751153107	  0.7496490914067200	  0.2368878917907797	  0.0117280784653980	  0.0090713150881153	  0.0409318231451866	  0.0527041079294688	  0.1431295510618842	  0.0527057817058099	  0.0128922371537048	  0.0349672640846003	  0.1809736878476134	  0.0058853129549829	  0.0215461570603354	  0.2862853768365308	  0.0647155919335444	  0.0007897724344829	  0.0045851682283781	  0.0079720003256998	  0.0045853139518394	  0.0070930915654753	  0.0206053460209570	  0.0029068026022059	  0.0022483243422374	  0.0102284987628012	  0.0139773164729541	  0.0351689983123529	  0.0139896042070235	  0.0010210765285707	  0.0017686151824383	  0.0024439626827181	  0.0044362000486713	  0.0082371025883442	  0.0082371305894789	  0.0159574203032138	  0.0206047424242369	  0.1112585577051676	  0.0206060511924706	  0.0013025113878926	  0.0047255015004563	  0.0703823295716962	  0.0034201827726112	  0.0097545430423993	  0.0505503401207404	  0.0006385113101810	  0.0042037414916306	  0.1112804346850194	  0.0194046785841770	 -0.0045776354522802
                 -0.33140393467459089427
                  0.33484655574712818282
                 -0.40581407326571528049
                  1.50911185993122165527
                  0.04333959852514841088
                  0.02775822932913372953
                  0.28219133716839384096
                  0.33627738438612569949
                 -0.50540127220101016547
                 -0.27637658505034784495
                  0.33342077932451547051
                  0.28533887549608938361
                  0.73053426105089458442
                  0.30004735024310991154
                 -0.24677825320904023254
                 -0.07337727401287985618
                  0.00190816932586890167
                 -0.40184633057222340913
                 -0.33164684198965549422
                  0.06121546952550666748
                  0.22862331368455013347
                 -0.17254423762566017952
                 -0.17597224084253548781
                 -0.23427336867753462135
                 -0.13040188730712995446
                  0.32390180427461084944
                  0.33967250078378807832
                  0.33969127153247502537
                  0.03020888643287151371
                  0.00479467439007269600
                 -0.38262867872643901990
                  0.19849206424945281535
                  0.22581181531618302327
                  0.21705852997648800162
                 -0.05080847449568795526
                 -0.05268390069971305711
                 -0.13518372091305580485
                 -0.60911354475675538733
                  0.09741638846156877585
                 -0.31300079247719753139
                  0.18702500011561862259
                  0.55167162765868649199
                 -0.06642404792585065998
                 -0.33651739785401407756
                 -0.07030968898239675635
                 -0.27895891220826346535
                  0.14954051591959161005
                 -0.22684795837333146529
                 -0.78288457377642095558
                  0.09973197961082609642
                 -0.23320391013442032246
                 -0.06137275693781675534
                  0.15233667378990525809
                 -0.20876044543792671160
                  0.17846560686136539453
                 -0.13544894769304488547
                 -0.15225929414204439349
                 -0.39009772177177726160
                  0.18632224430401334025
                  0.26029057362478930093
                  0.11072093731246868131
                  0.22034572759598106129
                  0.17835222481058204957
                  0.11167106617925610934
                  0.20957108120570883125
                  0.06626337822073827266
                  0.21807269233273662845
                 -0.24678438370862779139
                  0.11835739794533743641
                  0.04005855697031267260
                  0.30557235497675444558
                  0.20518879665211239849
                  0.15975740179623065806
                  0.23007354193743623227
                 -0.06420619495071552829
                  0.15817042835849015603
                 -0.04375188217181642109
                  0.25253662426428935550
                  0.11591867869792886470
                  0.13638681576760183778
                  0.17736652226417395917
                  0.09699981899135746988
                 -0.05008667535789081138
                 -0.34942559783895227321
                  0.20938176093089180818
                 -0.15293430390147194631
                  0.16041116621284651211
                 -0.14739866523812047983
                 -0.07581112949721230398
                 -0.21214978023431743659
                 -0.29525562771890351277
                  0.17191855129583366590
                  0.06453643443653639400
                  0.03684027098229201991
                 -0.29847833119967537296
                 -0.20450341786450990100
                  0.24193163186897509442
                 -0.31023164833679806041
                 -0.04555736698656915468
                  0.23657555408986649659
                 -0.27204366615741693014
                  0.03601200571278673213
                  0.07992907091860819435
                 -0.05447680239761527876
                  0.41469950431481999997
                 -0.11065235027422112846
                 -0.06661721046032140214
                 -0.05530923273600110018
                 -0.26942843099219909719
                  0.38060374659169188272
                 -0.28909147329529638615
                  0.07826802283863834586
                 -0.42633457019493986584
                 -0.00250020291284933430
                 -0.15289281103017998698
                 -0.33617878315100557796
                 -0.53580043634226326432
                 -0.02056371715728713689
                  0.01558209737543891395
                  0.28802509113976554334
                  0.53164224852722674619
                  0.06543625210205634979
                  0.00964949678680988333
                 -0.08506805792993417381
                  0.13277706751619439141
                  0.14553712266355148253
                 -0.19904851544266660701
                  0.21165701241644274688
                  0.13390495012983730239
                 -0.07869815945957409076
                  0.20532051103962434269
                 -0.30346372611898969618
                 -0.05436972280240862793
                  0.27845189307284401448
                  0.32988257726904235412
                  0.23568732826097438249
                  0.28686919551030409803
                 -0.34364297977071078805
                 -0.27033166782289130836
                 -0.18178663415562365535
                  0.09358088914517638524
                 -0.14746793490945744876
                 -0.11384130090613431285
                  0.12216433609364953095
                  0.35839125561867246628
                  0.01856518153881571431
                  0.29933482675335471024
                 -0.25551516549918379395
                  0.02616990597562301318
                 -0.24317912536644778476
                 -0.10134580673502059656
                 -0.04782980701242285637
                  0.05972613859297738748
                  0.16546142924123014017
                  0.07560336274890123998
                  0.10059413047167091448
                 -0.12314956938943492915
                 -0.25807155052701175046
                 -0.10206265805417111259
                  0.01310562233176507628
                  0.20505086031122182755
                 -0.17657880481039550657
                  0.06662572426523849511
                  0.05610763363020294936
                  0.29200034866510982123
                 -0.37904563501265248204
                  0.17578236735059440954
                  0.49625902191868592750
                  0.26532288659881064774
                  0.15448607911207098975
                 -0.09017275996047240116
                  0.11618378255398605081
                 -0.11445182226658390245
                  0.04219610990407639955
                 -0.35049284065164287849
                  0.25591591062116025856
                 -0.06665961851755367040
                  0.17686994734785238537
                 -0.26826588500158088380
                 -0.57205109544198684546
                  0.39273145002200005038
                 -0.73434719120265945502
                  0.22996766364269874416
                 -0.11928682857524294803
                 -0.25522285417469159352
                  0.07018864004160353665
                  0.07751085678760957776
                 -0.02838295692489059552
                 -0.28905486916993283764
                 -0.00872111666531257337
                 -0.10171144747118653073
                  0.33147439701066261364
                  0.18734201483549187128
                  0.15673825452819942217
                  0.37344030653172088918
                  0.02945799011790454711
                  0.02826939938240201344
                  0.20330954309554688519
                 -0.08684866028138155114
                  0.46866386848912527929
                  0.23943352997474257049
                  0.65025001558521988709
                 -0.53216446633802227950
                  0.08597133028093410789
                 -0.09082050410963475595
                  0.11774761555626507559
                 -0.37019523106924129285
                 -0.29211219403962040975
                  0.27380860195891359998
                 -0.24032223602577135191
                 -0.00156967043735739813
                  0.29368042275539157915
                 -0.26034137536060275586
                  0.21900129191852024668
                  0.00337738305141804330
                 -0.45528437279189887255
                  0.53270331585754759907
                  0.55747354726967435212
                  0.05415319728924925663
                  0.04019117678384071662
                  0.08816814954712862140
                 -0.01650858878491743426
                  0.08042997098916578047
                  0.13731945657243851966
                 -0.03336064868252221205
                  0.21600385202759406211
                 -0.45128873207321368310
                 -0.59564736768614634510
                 -0.28009027017989657216
                 -0.18901188109289851491
                  0.01073798330530683666
                 -0.01238604895254152502
                 -0.16624389090449681605
                  0.09117658542541337563
                  0.27639907040773226132
                 -0.14124276911821534441
                 -0.28172863785881868681
                 -0.22031216274627313245
                  0.36197574933293241717
                 -0.18855105481625072938
                 -0.21098800928600403015
                  0.21543495289882755306
                 -0.14622362067326913349
                  0.02693596786079641842
                 -0.21956161919065658727
                 -0.18233802748253186143
                 -0.02426802633558111655
                  0.27020310966536176256
                 -0.34890689310654604549
                  0.27018783441200150408
                  0.28605799497322620395
                  0.04952130353906750854
                  0.03856714716269059318
                  0.53551020904984047988
                  0.01768972535042154931
                 -0.14525202771145825920
                 -0.34662656767909827416
                 -0.08641471009426592020
                 -0.01050520453301852404
                  0.25023774520826130852
                  0.22032134540625772368
                 -0.08789947345967499825
                 -0.48841917195581519007
                 -0.34892498018042483743
                  0.14198245031839884511
                  0.36612350517468861266
                  0.13677863732302672495
                  0.16130824506900620641
                  0.20853649202421239983
                 -0.13522802520866097908
                  0.09204638798668429711
                 -0.07891139719906826999
                  0.07160605072444428676
                 -0.14160108839559115701
                 -0.29696713129875629278
                 -0.39929127067354119873
                 -0.11667800605343860154
                  0.39303561206406101292
                  0.10221474568154355345
                 -0.19609589863323678705
                 -0.00545447084336946140
                 -0.33459310738301900612
                 -0.12834057280134006374
                  0.05234090335595822235
                 -0.15891866097538709379
                  0.17662639232199026096
                  0.22888452360201086422
                  0.03759894263302826500
                 -0.19137436584898129266
                 -0.22848731178707790135
                  0.01591216027636312494
                  0.38420504120020254613
                 -0.17449078322545943931
                  0.08339824360657038804
                 -0.10625881832313922859
                  0.14065031755504769917
                  0.15774042380194552848
                  0.02149938744652494377
                  0.15985803913339233229
                  0.60981836427152280589
                  0.04733451269021145269
                 -0.02144050362488103892
                  0.07658073073557200572
                  0.41385086749506216908
                 -0.16261768828103756457
                  0.07160906282247252175
                 -0.21563136894152884482
                  0.26529023473902624275
                 -0.34820415185782643830
                  0.02194540019027684669
                 -0.06080480520650666937
                  0.27994666600611900487
                 -0.40663965100794002838
                  0.06794747237527845596
                  0.15890055764893548651
                 -0.00590791031478193375
                  0.07767578987050509365
                  0.24395055666023313101
                  0.34446089632608883901
                  0.02472140140800332259
                 -0.14764749082001102365
                 -0.11978677515146597676
                  0.08539790529380410222
                 -0.34834271585740106403
                 -0.23225419171847258570
                 -0.12827399114132589930
                 -0.33546485601625403161
                 -0.46937305748269186889
                 -0.05032476351619358940
                 -0.14732238399093816605
                  0.15985102771796627641
                  0.18166927237691760100
                  0.10204786107921479110
                  0.37008053279893243781
                 -0.87834934088760874271
                 -0.03663685579319709423
                  0.10570859299923741903
                  0.14984592757006653940
                 -0.15084712899632224392
                 -0.06087470345318017617
                  0.42340678941724457784
                 -0.36555620069915362169
                  0.48926344151573314400
                 -0.35950432375019880649
                 -0.42643532177223786306
                 -0.37359463444752072370
                  0.04084274046701720506
                  0.17335307177419970182
                 -0.06555464495487690890
                 -0.16536660290460516998
                 -0.01420481899904049543
                  0.16053522751513002453
                 -0.03861040159857874465
                  0.12576083422400557987
                  0.11638823373023704510
                  0.17487007681419100558
                  0.13028274572434717093
                  0.04312804073909642238
                 -0.42169770566265513123
                 -0.08945782494177628719
                  0.20434585076873099108
                  0.34279103130422844403
                  0.39580682284297452611
                  0.18336185257727541376
                  0.41085756299151487969
                  0.15128481981175045945
                 -0.02100920355737677034
                 -0.23500822896740378165
                  0.01256509898702979841
                 -0.33468974313070198878
                  0.32390326601866081813
                 -0.06713215083674613226
                 -0.21738846920810200869
                 -0.50234132149217913810
                 -0.00960468981120461002
                  0.19206619262927399072
                 -0.08896821350111730475
                 -0.11248047126720378541
                 -0.10994844373260037607
                  0.03024104736173317820
                  0.33240463576152923242
                  0.23383469385860589096
                  0.12778569592110705644
                  0.28580086304445673218
                 -0.29473632034120789136
                 -0.37000490389361212484
                 -0.12921157645586600626
                  0.27763357405377386833
                  0.08274375701296157737
                  0.15153903214529973464
                 -0.49052383905371482742
                  0.18110639196254690875
                  0.01586634000162957803
                 -0.49154969584981988984
                 -0.18740610642170121847
                 -0.15351131313639643228
                  0.25214323160325424755
                 -0.20405402828193916487
                 -0.26442441804743482825
                  0.16687961703465536978
                 -0.53822629061870641554
                  0.11862345586728907654
                 -0.10568419034575535220
                 -0.24561113770509163112
                 -0.02160143915274794282
                 -0.16376015677803645865
                 -0.24107161103508115141
                  0.27030259515640608914
                 -0.15585506010887212325
                 -0.09955655419381798099
                  0.33456223828044556745
                 -0.30128905717553694510
                 -0.05240170588871111840
                  0.07910325288515655806
                 -0.34446348370402690708
                  0.03956473111318718067
                  0.00068132296877643477
                 -0.19902089764716870968
                 -0.12770399907181750887
                  0.28562254803573944306
                  0.47620753476792748726
                  0.02976717132984535788
                  0.01972210055259572201
                  0.16541487472556370975
                  0.15567030149015426144
                 -0.07153920827854097497
                  0.33117578688652016261
                 -0.09061607839586829916
                  0.20233683944140121169
                 -0.47879587275564250426
                  0.20711086410230994392
                  0.08939278587097493345
                  0.32316906101801512463
                  0.21555195276524624637
                  0.15523246207562985122
                 -0.13130749820980347486
                  0.41308145222815634279
                  0.13686710059083334601
                 -0.36383887788702229393
                  0.05747196777093706299
                 -0.10475792096445121770
                 -0.02728969942170976146
                 -0.27449380640510906426
                  0.28148876092049557318
                  0.04824725877807668761
                 -0.16353570808618750343
                  0.41800064736846925806
                 -0.14686570710590890476
                 -0.19118696554670691623
                 -0.03665620651458189466
                 -0.18588532068049884449
                  0.27078608198571818555
                  0.04819092012127092206
                  0.04135558492742959918
                 -0.24052624461994795424
                 -0.26973020799847680085
                  0.14987064326198309971
                 -0.19879711858347073883
                  0.30304885798963471233
                  0.03787981317726667879
                  0.18499337458601156081
                  0.29279163020585746713
                  0.25736935802021815300
                  0.26235727316675194754
                 -0.04455659151014992186
                 -0.25429694991473872356
                  0.06223239027054101868
                 -0.09198045485850221692
                  0.03175461387728794466
                  0.07661624172015148171
                  0.07810020818944228560
                 -0.50402625978214810054
                  0.15166845502975886961
                 -0.23911066492636703917
                 -0.22667920391759532883
                 -0.22368857427114510750
                  0.22174402150264432843
                 -0.06957088144043582778
                 -0.28921957088796168556
                  0.20451739272966762417
                  0.07187095250183773987
                  0.23736825908876710289
                 -0.05469432560284866879
                 -0.03285939079573593768
                 -0.23314740517312185220
                  0.11390683117425388915
                 -0.00976215879022995781
                  0.33198958517913507160
                 -0.17885857555254996987
                  0.41201120267422491894
                  0.12927637094414812235
                  0.05624883918107952824
                 -0.21265860659762730878
                 -0.07727615505013622765
                  0.12941055203724860512
                  0.02299389562891041711
                 -0.04442799588035997033
                  0.28799046538807687723
                  0.21319154756772323855
                  0.04902915450433285860
                  0.05514335004066026058
                  0.33720755154784615160
                  0.12996503621788929594
                  0.10915940793508388529
                  0.08133618325843164354
                  0.02419713221312183929
                  0.00632551085912280188
                  0.06577443080444152212
                  0.07760313714105313010
                 -0.12812399172625493771
                  0.01055234917447537245
                 -0.12354479828771947059
                  0.22495894919729195194
                  0.38051095301136117488
                 -0.02622038160480020391
                  0.17740388971355697256
                  0.30827285555232181169
                  0.09889667266045396032
                 -0.16362114854424883448
                 -0.09866893378153937522
                 -0.26298350490053479245
                 -0.00697311880454391624
                 -0.42539731471253006134
                  0.21783098172976927964
                 -0.41412199075325423214
                  0.00050936300437432413
                  0.18837100303852011285
                  0.36225297301298031716
                  0.15938501696549742248
                 -0.26681817583221328904
                 -0.08176422118253036386
                 -0.18705943867202023956
                 -0.19286433313904405296
                  0.20499819567593829950
                  0.14360794794894113369
                  0.23765372490638941860
                 -0.31990664354310466289
                 -0.35108069876255110220
                  0.06604763673270028224
                 -0.25785813698483389667
                  0.17177419577930766459
                 -0.16436216324052940752
                 -0.19999189501423206283
                  0.13990304048310606144
                 -0.05376285275883259385
                  0.03792577795691655373
                  0.19062337271640775183
                  0.00451739937960597433
                  0.29409201778880866840
                  0.15468378105241489817
                 -0.13225110111054794171
                  0.11448693937259894760
                 -0.07090037328198300903
                  0.46000808506164542200
                 -0.01979694622080808639
                 -0.24435839913086249142
                  0.07091395241267819949
                  0.07908031641636308062
                 -0.37320796790122146014
                 -0.22832072963488808659
                 -0.42497214503244939987
                  0.08289754232582055571
                  0.53540459118666927640
                 -0.14494991670359644309
                 -0.23239950539692486031
                  0.35721600264671576896
                 -0.29329599076191392726
                 -0.00771623148017713638
                 -0.06589380974178293826
                  0.04893209444980311379
                  0.15077438350608418638
                 -0.12780288579571708052
                 -0.12649261539340728167
                 -0.05353519273566637038
                 -0.13718675958259923808
                 -0.47236829355989218282
                  0.51304406932703683353
                  0.23923405880590112305
                 -0.16278105600778738915
                 -0.35439788699459101595
                  0.13181193710290292631
                  0.05328796263680557477
                  0.20075494701358556626
                 -0.23570928439072769134
                 -0.10124441375864892678
                 -0.11521456288993435491
                 -0.01773211344943656509
                  0.16446478068031245012
                  0.34164506246031262071
                 -0.21454471802900687560
                  0.18052534531091629644
                  0.44513132522360754351
                 -0.33873234625128084696
                 -0.07071091158028702806
                  0.06414400883080076388
                  0.00102043061290046965
                  0.04091018446090678717
                  0.37921260358369457411
                  0.55288373575125704384
                 -0.26548593410741411214
                 -0.20793147577826492922
                  0.23181464328487397242
                  0.07314325965227513882
                 -0.19456377275247857539
                 -0.06333064317606688920
                  0.10513108004976029486
                 -0.01447750588207967481
                  0.47295002328726809537
                  0.22574437745529324362
                 -0.42778915928873273433
                 -0.03227407636226802684
                 -0.50273956840100286758
                  0.01411950132242009368
                  0.57719259373541076386
                  0.04381009648096901438
                 -0.19333020230630390546
                  0.14115955629973528374
                 -0.15738739739266546791
                 -0.14685780873482484621
                  0.12085618333677347613
                 -0.44116015966013627514
                 -0.14296683396799506061
                 -0.02076501141130301237
                  0.16790883000640396960
                 -0.08327622947739748982
                  0.11137936632159843586
                  0.00875446280922319298
                 -0.00425009747716329801
                 -0.11198156645688400745
                  0.30887554355527629957
                  0.21077517558558925281
                 -0.23992866481827063163
                  0.07331681200538700538
                 -0.05508220735002861135
                  0.27008735814809370357
                 -0.20528026564608470306
                 -0.15314307955034711650
                  0.14310917063696754203
                 -0.26411167809215668756
                 -0.12591376957822400517
                 -0.36385031708238241288
                  0.11437276391120795860
                 -0.01059523149747107484
                  0.18114842798309696570
                  0.28685758491188967367
                  0.25454678864139762551
                  0.06533930121718442563
                  0.12933643956812598819
                  0.19518434561357539403
                 -0.38082703085871444371
                  0.13844181032966962341
                  0.10783752059542378587
                  0.21408422521389849913
                  0.32258262697562206656
                 -0.60089182066226876078
                 -0.17018322941222252531
                  0.01708247186628603087
                 -0.24135468099749304849
                  0.20213839126841509630
                  0.14610404380906089061
                 -0.14005915869915280814
                 -0.18973320395045045750
                  0.00356811748764713403
                 -0.10808042994951357063
                  0.20388427859826374622
                 -0.11248059539523855288
                  0.26368874521380258891
                  0.57741634061273372502
                  0.24341209656670487194
                 -0.28237340310123493214
                  0.22314607113119086512
                  0.13105455290753545428
                  0.12638299146628695357
                 -0.25149535092356717358
                 -0.15961760418119461113
                  0.19360435618648869083
                  0.22001563162973797327
                 -0.01977138103719133094
                  0.23751535319233191279
                 -0.19883370414802203907
                  0.02898598368704406736
                  0.00602022232899630978
                  0.14729428441564706986
                  0.20923807050742498914
                 -0.10387744762399360454
                  0.00740056982897979287
                  0.04391147049421913195
                  0.00291577035025758231
                 -0.26090505323144397298
                  0.06958745686820318188
                 -0.28753637368418993869
                 -0.02989407777697669633
                  0.13906372089595001040
                 -0.35558017899420840680
                 -0.04922383294164155154
                  0.01410327582089366052
                  0.19763296592354545611
                  0.01687670794012765402
                 -0.21112379837261965876
                 -0.16208083899598926814
                 -0.06465193538591273992
                  0.42001193692400662361
                  0.23108690174344914681
                  0.28859836729301524549
                  0.11819917222895785780
                 -0.41304130350210604972
                 -0.14747797346850155531
                 -0.11356717269326592479
                 -0.06212444547864603983
                 -0.10948574835539351402
                  0.35929993928525782998
                 -0.12878689893728542670
                 -0.39342010717560538247
                  0.19098242473235321759
                  0.04278034147434818524
                  0.04454916155398575689
                 -0.05438995649089801987
                  0.23171964861634336552
                  0.41687869451629105955
                  0.32463652785771629494
                 -0.22508154507694097535
                  0.17352148605643114010
                  0.16737824821645186368
                  0.01935659571157345021
                  0.04274967810380737865
                  0.07974604635366942806
                  0.29544328796571417417
                  0.29794231165084977819
                 -0.05252930161696890005
                 -0.11822030801722570315
                 -0.15237562155815109755
                 -0.14857773229775986246
                 -0.22626704123813939917
                  0.37827165710982912916
                 -0.06738773604836482967
                 -0.49671990803290788641
                 -0.57933578055011480945
                 -0.76643966553294551325
                 -0.35261286503798927594
                  0.04640324459028014048
                  0.23367360448855611921
                 -0.60281775299438966620
                  0.67382173842743764425
                  0.07772506069389169270
                  0.25696844481524871995
                  0.73942225698568542214
                 -0.37606469375064233152
                  0.10213193763623880372
                 -0.65221727650671712517
                 -0.75451201521536215289
                 -0.41650682512621872711
                  0.38901657261822919498
                 -0.28040375668373618279
                  0.64224048294687186011
                 -0.39243226891171445470
                  0.44779503944614146294
                  0.08391519841930601686
                 -0.11801586187154662622
                  0.31075362539039957932
                  0.40821671323922747998
                 -0.64932355236022798461
                  0.63599026551755144521
                  0.39799731995067494372
                  0.14570430289654343059
                 -0.83757084188671393488
                 -0.02070792383112772528
                 -0.14282409012293584283
                 -0.07095371652214571556
                  0.58091113919416348388
                 -0.08947094841422761902
                 -0.71859891979475631896
                  0.63031901466273199119
                  0.51723050314222707158
                 -0.29308473763811826451
                  0.47711772518453393621
                  0.30019410181982475461
                  0.20582776477101474844
                  0.42460678217024755421
                  0.44635939662231871594
                 -0.46871851165773431580
                 -0.44788244854095016212
                  0.86919030088693638447
                 -0.41165164750509430913
                  0.18491239745227505686
                  0.67159873164386374444
                  0.34169008175144571782
                 -0.56813820037756779247
                  0.54734222245542862861
                  0.42380158793748329282
                  0.21614813080668618395
                 -0.49992627236386905087
                  0.04734558888409914901
                  0.53490679530010420972
                  0.01358253296098440449
                  0.02058306374456795457
                 -0.18242866386429193448
                  0.72885895680082191106
                 -0.32737372595579444789
                  0.25075214269063372807
                 -0.06123889216066687874
                 -0.92967932250361084989
                 -0.22854595777656364075
                 -0.66818084378251463296
                  0.95384194428511004382
                 -0.50218222343261442742
                 -0.41280068439596784291
                 -0.03541468760379656161
                  0.08459998419115172252
                  0.11856638499694192868
                 -0.36711366785654586664
                  0.22317525903016574573
                  0.67216963474342794616
                 -0.34876253645610472143
                  0.84529716941051513679
                 -0.32574386224796147982
                  0.07800587966584456023
                  0.60976523055449627364
                 -0.20722740607479622765
                  0.24012210580127860138
                 -0.60207289158266674711
                  0.37654645362271560449
                  0.45406125642874967108
                  0.35490560115293201537
                 -0.42711708000069809055
                 -0.37172794910000694912
                  0.48962880719319523681
                 -0.41293042297210003078
                  0.21357556507240563204
                  0.70595393488378754832
                  0.87035071155888088512
                 -0.26186172395838197557
                 -0.26476191559307582502
                  0.69446034130639888726
                 -0.28668589764176122259
                 -0.18044678690108131858
                  0.44677321632116023808
                 -0.57460617248404499691
                 -0.74804804203220476300
                  0.60935395959843041691
                  0.68543201493284666714
                 -0.25502585393022642046
                  0.64450602465300044219
                  0.54035447908830491759
                 -0.43324839379541424389
                  0.03376275870361705039
                  0.13606101505861251111
                  0.38697500913557364433
                 -0.07827303937231080977
                 -0.30105330794054024901
                  0.46109220055802474514
                 -0.77101754973920955116
                 -0.20100387566132546513
                  0.95713685436304940524
                  0.04267741859157259815
                 -0.88767553818707112256
                 -0.32914929532022985104
                  0.32726069917206573878
                 -0.22975339902616928600
                 -0.59075942604698106209
                  0.41532564368679297795
                 -0.59807234606151982170
                  0.43798030856003616895
                  0.44383306291546831268
                 -0.00788036685223964667
                  0.33215838698332023071
                 -0.42812858461419711631
                  0.54590136930519261860
                  0.64774084633737205596
                  0.39531986708160188337
                  0.32444189630284675507
                 -0.19228091677014313987
                 -0.52126166256217409956
                  0.31550101263409913166
                  0.19216143447840869363
                  0.56755741872455045538
                  0.17446571729771692683
                  0.33421645005867783862
                  0.08995534193491037944
                 -0.40127134330192182343
                  0.30414753717603681960
                 -0.54380285150060814203
                  0.60316730238617344284
                  0.73305009355596351117
                 -0.74186844230258497390
                 -0.66749227605757543991
                  0.39736849095960774525
                 -0.56041577852107826718
                  0.59158347330438898481
                  0.23364186986109511390
                 -0.52780753636980126675
                 -0.13947793456627630149
                 -0.04411496863352518810
                  0.62026169642663742110
                  0.39340383925655703079
                 -0.64987774956517130320
                 -0.06929012720510133172
                 -0.64848722628084309871
                 -0.25958770058042590634
                  0.12563243613588714886
                  0.38055820177078003574
                 -0.92700125244069719876
                 -0.29806782586826813253
                  0.04601395783164335257
                  0.67087133751543437388
                 -0.58010989957430303399
                 -0.95389464192296036238
                  0.36226622034876665435
                 -0.83246729424957632837
                 -0.74025798951962329397
                 -0.69296378562296734316
                  0.44196871417135985549
                  0.04443421223017603172
                 -0.63353752555674969216
                  0.63213279699329050221
                 -0.55091980903485915366
                  1.03326692673433129244
                  0.14818716390267144822
                 -0.06810493021024408011
                 -0.16797379117049479613
                  1.06226894495086088277
                 -0.29712273631971669596
                 -0.71590307526191643284
                 -0.54852747798050871531
                 -0.01312203051324276754
                  0.19202886097985832903
                  0.42212332258244916749
                  0.80145847639759748571
                  0.11251538385815189336
                  0.38837791557287781874
                  0.11753737195468594301
                  0.13022801731748304133
                 -0.68764652003844639605
                  0.79004378325648560999
                 -0.38907622615094661356
                  0.75969967300390850440
                  0.36200652918301284844
                  0.23268313999603451592
                 -0.19600205933207734410
                  0.07424915156838869656
                  0.22712636025390275929
                  0.06872242443427863112
                  0.30638697246882523606
                 -0.47543084956619652282
                 -0.58935891949439167536
                 -0.13407955649900871187
                 -0.58704404354907935293
                 -0.04231622092692925718
                  0.03498945349523426701
                 -0.73951725349615093918
                 -0.80458975406114141560
                 -0.11494315912365409005
                 -0.46336257342920578184
                  0.16824899026292911008
                 -0.40841717046086611909
                  0.69542746652784404038
                 -0.42861952029121769270
                 -0.42655475138541354418
                 -0.05839081255902919820
                  0.17378905141585554439
                 -0.09437604261275793494
                  0.42715436066547785021
                  0.75513715779551482399
                 -0.03310804675361750382
                  0.44442452936458876067
                 -0.77072264093501741122
                  1.53438365407621302161
                 -0.95826376727273077094
                 -0.84115312835411149006
                 -0.00706658830867402422
                  0.44610742659915836317
                  0.31349445266784298214
                  1.54322518609055747696
                 -1.03909698088217039569
                  0.17721825723478620840
                 -1.10924451679609958887
