49	2	1
15	15	
1	1006
  0.0487528288817763	  0.1346465419535583	  0.0990346470846311	  0.0831638741461670	  0.0117280596704378	  0.0090713096834258	  0.0367480166643926	  0.0526414071771774	  0.0372143147152041	  0.0526430809538946	  0.0107785028933253	  0.0333738727706075	  0.0755886020589717	  0.0047632039647006	  0.0215461395259119	  0.0744512562921099	  0.0392213196584394	  0.0007897724338536	  0.0045851610228482	  0.0069248100995391	  0.0045853067463095	  0.0070930874214227	  0.0205813080799490	  0.0029067984736881	  0.0022483231550384	  0.0084281479605946	  0.0130478348794484	  0.0177688492114597	  0.0130482497248301	  0.0010210765263891	  0.0017686151803667	  0.0024439626817539	  0.0035903827409100	  0.0082370958660733	  0.0082371238672081	  0.0138496201990781	  0.0205807044830848	  0.0422028000713560	  0.0205820132516068	  0.0010187093638241	  0.0047254976488291	  0.0355373440919335	  0.0028215120799091	  0.0082720933791643	  0.0330663151366958	  0.0004649052156602	  0.0042037414893656	  0.0422225081144981	  0.0144481986445384	  0.0567915236646918
  0.0488505392810251	  0.1347701475603136	  0.7516555574499668	  0.2358074347853546	  0.0117280720501637	  0.0090713130796527	  0.0368229362382165	  0.0526887945556274	  0.1436916676930239	  0.0526904683328045	  0.0107999660471394	  0.0334010240888958	  0.1856734801344554	  0.0047632135120227	  0.0215461480118042	  0.2874106029825498	  0.0625213762630488	  0.0007897724341938	  0.0045851657689335	  0.0069391712693457	  0.0045853114923949	  0.0070930900254840	  0.0205994752466100	  0.0029068011930298	  0.0022483239010567	  0.0084446048612832	  0.0130582440334416	  0.0357295768470512	  0.0130586588789244	  0.0010210765276290	  0.0017686151812166	  0.0024439626821737	  0.0035903900613315	  0.0082370991193576	  0.0082371271204925	  0.0138783425386914	  0.0205988716495695	  0.1116921471050319	  0.0206001804184441	  0.0010187114609975	  0.0047254995128478	  0.0714595821678298	  0.0028262266954996	  0.0082780574620579	  0.0502687931947165	  0.0004649052165930	  0.0042037414899947	  0.1117148837887441	  0.0180048022477605	  0.0006634680192409
                 -0.12315212043040779655
                 -0.30551638583245432912
                 -0.08914742363582547902
                 -0.20872822777552915707
                 -0.23853232750339944945
                 -0.25581446070842867035
                 -0.07851169811682394417
                  0.04239969636659290247
                 -0.08464382468036026064
                  0.21291580180163405256
                  0.13554822737854096970
                 -0.13455214596218603718
                 -0.22358414826453176794
                  0.00755829044340074110
                  0.19632314726566083007
                  0.20063903659117390821
                  0.21133539727214933901
                  0.40215751143393246858
                  0.32211434016567069838
                  0.11351996968415084543
                  0.40518998213263390795
                 -0.35695777368765374549
                  0.07633059190506011338
                  0.39643320674014692617
                  0.02676515637862448074
                 -0.28445266738290181374
                 -0.04181151744318886004
                 -0.39203963835930943915
                  0.27596521980906463245
                 -0.18393199949425406703
                 -0.31496427259274278887
                 -0.21646716692682493877
                  0.15215467105159768968
                  0.09477672965031139207
                  0.04238009432951127947
                 -0.16789949488681288337
                  0.15291133879104523707
                  0.00494703426591945779
                 -0.17435842133489534711
                 -0.40105645257228472733
                 -0.06469722775521757896
                  0.20173806320873305387
                  0.09089439001841533028
                  0.16976985781719994284
                 -0.30338827317352062840
                  0.00973012755681429246
                 -0.35975539795758793016
                 -0.17644176528119911995
                  0.18826248373228496313
                 -0.24115511502515449282
                  0.08076669783229530053
                 -0.11723914924181841335
                  0.36538971538658820970
                  0.01272803046559419296
                 -0.20562381663845338831
                 -0.08515966186663531667
                  0.08941650365875240813
                 -0.49680527926054163235
                  0.04401287661706430876
                  0.32802289889294561354
                  0.18104468908462326149
                  0.27121672118376810579
                  0.18926193807212310372
                 -0.12251309382078377774
                 -0.05354650653382981434
                 -0.06619721228669885049
                 -0.15218754148708252272
                 -0.11820109223845837176
                  0.47302040502707776159
                  0.27393888506751162826
                 -0.31962150210639367343
                  0.16490529481250212895
                 -0.24395265020560508162
                  0.15613152151976689153
                  0.42986861420497618491
                  0.21561565430175275160
                 -0.10127573348208065984
                  0.14677159877618953243
                 -0.01002460884571105930
                 -0.31798917044583840941
                  0.04335623508344323834
                 -0.26649821686447772162
                 -0.12542946877648777915
                 -0.19797250675986788337
                 -0.06983764669854063134
                 -0.04478327929866700308
                 -0.06115589374587989541
                 -0.00414154033672245372
                  0.23746333564334787258
                 -0.31278485913300735355
                 -0.04578399821083128235
                  0.33833228952052635252
                 -0.02093784844996597963
                 -0.13653600535892598811
                  0.27643529419256313018
                  0.27906217397158600280
                  0.27759043570567482062
                  0.01796993064654723096
                 -0.02396138044994677169
                 -0.06169588579113771676
                 -0.15686521637152295305
                  0.10401151259165555829
                  0.14858509473836820081
                 -0.10814094890479634958
                 -0.46032451638250931891
                  0.16099589474260633803
                 -0.59618142443109178874
                 -0.26090316426735665756
                  0.06745262793543180257
                  0.24322052917022626839
                  0.24616780167621818420
                 -0.25943520175011813844
                 -0.26327597770113947417
                  0.34045890838652265176
                 -0.02159652044575195370
                 -0.34194354270148524799
                 -0.16889544368479370018
                  0.09290156920596893964
                 -0.11855394340489552873
                 -0.05213891649624005642
                 -0.01244944410556473799
                 -0.25361211066568672967
                 -0.21819670375027674925
                  0.15286463018767845745
                  0.30982968672605565308
                  0.09721405560006876612
                  0.31593399546465850136
                 -0.16333426615816545868
                 -0.10303733517203185477
                  0.27701650491242801877
                  0.22647986295781979971
                 -0.32409508150391186376
                 -0.06626529516917865903
                 -0.29938423945934838910
                 -0.18212433787750950676
                 -0.61818783761048412551
                  0.27993026474430143802
                  0.20329645256634229500
                 -0.11451717155342140686
                  0.11512353667157952664
                  0.22704314060610941706
                 -0.05707930087405790887
                  0.01948508783827975280
                  0.23829523101926311512
                  0.25994295518872806428
                  0.59193317426976743700
                 -0.26894786899140721292
                  0.36834362615380861206
                 -0.21926729120670249151
                 -0.12591343169110294498
                  0.00847351217497721056
                  0.01816890154877255290
                 -0.23076121463401541578
                 -0.02586970140105777569
                  0.10277757069732837425
                  0.05660997577560893806
                 -0.05542868118900762253
                  0.37668213746788697938
                  0.17204437143169459823
                 -0.29778986762959180901
                 -0.31389535960291786720
                  0.31251346159893311771
                 -0.28894197715316277675
                  0.00782339169954774684
                  0.11479549881372051734
                 -0.09065279070975049147
                 -0.26453638291457093334
                 -0.38797670533276734650
                  0.09579445242382578218
                 -0.38404016163799187256
                  0.04113935569877811421
                 -0.23691795362696579930
                  0.05400080061244631052
                 -0.13765140896327834885
                  0.05279067846974260653
                  0.21606496711915190723
                  0.03903996505120924804
                  0.07185130238218639942
                  0.09049428896808980882
                  0.29320459393757186684
                  0.43863333349804412009
                 -0.14303100270039573183
                  0.24987563290892803036
                 -0.15656575508840436806
                 -0.09947419464278314805
                  0.01470208480689583729
                 -0.24685539299774328370
                 -0.18281380061369165158
                  0.27676154647563516731
                  0.10394005814285722789
                 -0.18978745765527604838
                  0.07578916472332632159
                  0.37976632881146837883
                 -0.19088624889756486414
                  0.23460343667949648538
                 -0.47018397598354177980
                  0.00808448350774226832
                 -0.23887325169014886339
                  0.49795150571582119658
                 -0.02099782383223904730
                 -0.48278987592845695742
                 -0.09334209825770189983
                 -0.03389134400054943236
                 -0.05130619235427860692
                  0.31724641518446705657
                  0.11209196402576046547
                 -0.07575801069194418313
                  0.15191120210190289797
                 -0.16161723920260490095
                  0.36815328313092221535
                 -0.20683328850854992842
                 -0.15449741692388885284
                  0.21375526849780507321
                 -0.23811406632822021412
                 -0.01444846796759340947
                 -0.26625479438596083570
                 -0.26214776811671619550
                 -0.37471877170408501856
                  0.50990846055487015764
                 -0.51845157238847161540
                 -0.01845695286460544149
                  0.19774784506008283302
                 -0.04153056804615460479
                 -0.25185770669216017703
                  0.26542472798551447477
                 -0.35102901574786982142
                  0.11612282155187422794
                  0.14911245872778969290
                 -0.17015561378748059185
                  0.30592594544275403257
                  0.25392137645355372655
                  0.15018647879718213800
                  0.26174039911347990461
                  0.30833947754551527254
                  0.32452906361622846365
                  0.35199090493051543582
                  0.18286262638482120302
                 -0.37170656086748549152
                 -0.07332116812055732014
                 -0.09213763074331117464
                  0.21021099440668492009
                 -0.15258327502026799993
                  0.01437365091229540238
                 -0.55729504593983403282
                  0.09134669643027373831
                 -0.34102554211557511987
                 -0.02131327450210108651
                 -0.39400753013156908366
                  0.19172734059444088150
                 -0.24966712181980146856
                 -0.02707410542371641374
                 -0.23209959421876213970
                  0.13605579377944926334
                 -0.21284719034053409259
                 -0.12313049526917888010
                 -0.17220964243489014778
                  0.15533845263407677906
                 -0.03571604510878391425
                  0.12242066269776469278
                  0.18921129982936890634
                 -0.29587011542289409771
                  0.15283767025180747257
                 -0.07318173518436980884
                 -0.19997280760574095981
                 -0.02298516824521514360
                 -0.20647718421459929083
                 -0.16856294732385207480
                  0.20169952650290334795
                 -0.27918745306854780841
                 -0.01148040553808961015
                 -0.44524693708846990736
                 -0.04401707499655971301
                  0.07669011103994764766
                  0.33232209467102530320
                 -0.18441526689870132993
                 -0.15241278834897456496
                  0.03893993013037116979
                 -0.14547045515310710884
                  0.21522970801711799327
                  0.55718043337785483349
                  0.09308295534561435158
                 -0.10905481060072963473
                  0.24800248955686199359
                  0.14247144600296013373
                  0.05498712410893998037
                  0.33119477868202107373
                  0.06644953281744847562
                  0.15051479747855811553
                 -0.24444449347839367070
                 -0.13266619286098119135
                 -0.04746577899762742525
                  0.26264303370602037901
                  0.27922036332513144874
                  0.31626378393751819473
                  0.17209019349890461448
                 -0.04585710926683849581
                  0.20334641972755163053
                  0.26523764932038190745
                 -0.10741769581308800718
                 -0.03996294776218737438
                  0.17945116009015887881
                  0.01724649086209568624
                 -0.20948325067799145049
                 -0.27029932080969409913
                 -0.02575402802293558918
                 -0.16825965984738230907
                 -0.35684995548756281991
                 -0.32773480074917882288
                  0.37913717166227678401
                  0.36959571316501937943
                  0.23406172627976581935
                 -0.29290373678343761821
                 -0.12545182398808904511
                 -0.19682763777149020479
                 -0.17013527146987908467
                 -0.33718558280296423435
                  0.24020595377782319457
                  0.20456651282761451061
                  0.02226679858231006212
                 -0.17999168004147311772
                 -0.26751265338997382015
                  0.18489199530323849330
                 -0.23630331940282534031
                 -0.13913741298475468255
                  0.19468192018791508069
                 -0.16516885210808063267
                 -0.21001028820335004843
                  0.61965602756527193851
                 -0.14096040500440723542
                 -0.26665647041274359585
                 -0.03831117006651498652
                 -0.05743355292768244358
                 -0.31139138347573946941
                  0.50642140805283486493
                  0.49597766076437915794
                 -0.17128231245755293211
                 -0.00032536600497026693
                  0.07422756400860930359
                 -0.28275422731885835326
                  0.24348018259819745324
                 -0.31377775246896766337
                  0.17341417370505049500
                  0.01718563289659569282
                 -0.26676565735879048669
                  0.52218847496447673429
                 -0.01810103734110584880
                 -0.14860064478805753985
                 -0.10873102807402995618
                 -0.09186215817141324402
                  0.15330445728637753788
                  0.17817760381274830306
                  0.51594278217471967185
                  0.00729417684019956561
                  0.11607777653220753555
                  0.26273519764583386227
                 -0.32483509811434962966
                 -0.09647259255893421426
                 -0.18253589784186902145
                  0.06621212514290149287
                 -0.09044014975958997171
                  0.26030965829795066346
                 -0.16148492455945787083
                 -0.12847618762888846078
                  0.28605071511560914432
                  0.14119749052234395470
                 -0.09704662048821280362
                 -0.25468079424283524004
                 -0.34213911097659449601
                  0.30528963506329381827
                  0.30270712034203678398
                 -0.43777782462629294402
                 -0.18539577944929319653
                 -0.16832995044371990012
                 -0.01380571408996419773
                  0.28866165185552689065
                 -0.09191110294707667550
                  0.07574856807704881401
                 -0.20027769889390154012
                 -0.07826770572630538381
                 -0.22295193178606395601
                  0.28328320003328372190
                  0.22291934166384544391
                 -0.10251141896105396556
                 -0.04408429037880051693
                 -0.34656794536963958508
                  0.22821615452534771418
                 -0.03475065674344770400
                  0.00058282394374361082
                 -0.21823264544082321414
                  0.22509239860102248088
                 -0.26102133428090706913
                  0.42831961656490574741
                  0.09723596982624055363
                 -0.20538006460269050968
                 -0.21956625945726149229
                 -0.15623256809235683273
                  0.15718013872392122554
                  0.40547951422038497338
                 -0.20905973882718645318
                 -0.08239452053188439651
                  0.02271103431531800582
                  0.20164408127874841603
                 -0.00502058770976197312
                 -0.00781219770264653893
                  0.28904559136047425216
                  0.00237470045701144430
                 -0.07373119691368788808
                  0.04668113344878854071
                 -0.05405739297452433895
                 -0.07859372708621154002
                 -0.29731411926200013163
                 -0.16436318088134302395
                 -0.44812180561606967943
                  0.08282664474703615998
                 -0.33930777489207497588
                  0.09368847974094490771
                 -0.28269054924745085078
                 -0.09150807760363931231
                  0.09182572736883806708
                  0.47694356610281735120
                 -0.12292002560164742853
                 -0.03060699585166551384
                  0.26229924058377585006
                 -0.14843572492615617064
                 -0.10467278116263399601
                 -0.39108493259446863721
                  0.18212863731029821368
                  0.10048858281304158535
                 -0.15150263347419820614
                  0.11053223642655661541
                 -0.51128090867296693833
                  0.24975946421772382555
                  0.01361218360083015985
                  0.15262113105674399161
                  0.05974944432400255273
                 -0.33042637556061726922
                  0.25156054715923603649
                  0.48870296486281095127
                  0.28044307343654545361
                 -0.40877238173470598070
                 -0.12300640510399220295
                  0.25326140371137512153
                  0.28139852740460585823
                  0.08235486537117367445
                  0.23066250071397584320
                  0.28342381645194425488
                  0.30406117635203644411
                  0.19726943474224387098
                  0.34407430415305517712
                  0.20745936197460163042
                  0.11333518282120197407
                  0.05908312360546834341
                  0.36002355766070970322
                 -0.29159648646257785298
                 -0.42571343254567084458
                  0.31837584334345792048
                 -0.36858018139084258724
                  0.07874962946066774161
                  0.01459098046763672267
                  0.11931673635712287951
                 -0.05853296769099804869
                 -0.09327321780537341234
                 -0.14935105014043217886
                 -0.02762022228851818487
                  0.08113382038982706879
                 -0.26395390421300218842
                  0.23207587089063319574
                 -0.14021537724106175604
                 -0.00651949342427111857
                 -0.08035430997808735987
                  0.08921522723145888789
                 -0.46428144775535173938
                  0.01441326984566090180
                 -0.03811942623842699829
                  0.20992579302612585090
                 -0.08047851322418339559
                  0.15026812586666238314
                 -0.18729099845711039141
                  0.02250317279575244495
                  0.13113636707441000961
                  0.09462162510043549413
                  0.35426053861306272541
                  0.16545883193665986144
                 -0.05237363689072278145
                 -0.14812861064251281462
                  0.10582536625346751491
                 -0.20836609407870854138
                 -0.14804073691055946727
                  0.02658215927829632452
                  0.05409273403439845279
                 -0.16618891094733251323
                  0.17234905933587457705
                  0.04499993967134523210
                  0.06460754773948312879
                 -0.14498408374128113341
                 -0.33989864766433136589
                  0.05203724899240173146
                 -0.05738346123887548555
                 -0.16033231265828135070
                 -0.32385770174363420759
                 -0.13697851892621329406
                  0.13838247843198084319
                 -0.10678854227288583911
                 -0.08401750754240258634
                  0.22672870182089632785
                 -0.16147809874639057481
                  0.15883543426882493210
                 -0.33022216263153009175
                 -0.00012113959591973601
                  0.11214047311445396460
                 -0.34540952351134274201
                  0.21791494504255151665
                  0.03143892958939319138
                 -0.24623216101613359941
                 -0.07688929906515465373
                  0.14731926619641205756
                 -0.03168832856080360666
                  0.09245323932269192135
                 -0.29664924892453981009
                  0.09530978246108133545
                 -0.07499153451157564154
                  0.09849963229109644225
                  0.21255199339532859781
                  0.20780642415319330873
                 -0.46849218803573805525
                  0.18816727960576032364
                 -0.37471609798773430899
                  0.21751599627605358589
                 -0.27827953898020929557
                 -0.43073561275692073824
                  0.21282243355210703206
                  0.06765295823119274465
                  0.02393400785155182925
                 -0.19909230029134089568
                  0.02060434785649717382
                  0.30683766546249391372
                  0.45698684233658942722
                 -0.04754137673911759676
                  0.01180246976770438563
                 -0.69428645953222700715
                  0.06065685417927294681
                  0.02867671957317447645
                  0.15381678154085559607
                 -0.31174478489789503310
                 -0.41097375555193282892
                 -0.59372013536865786421
                 -0.07549341677474173673
                 -0.19453798769952784786
                 -0.03292643122047080734
                 -0.13231164754630533875
                  0.21198753301837688912
                  0.05881010987521047978
                 -0.22200231133214226587
                  0.22161252887707519332
                  0.15194197340946419272
                  0.12289843308404502231
                  0.23847372010671705200
                 -0.12000885228961141737
                 -0.36110750382299094952
                  0.03352813668853440315
                 -0.39112965715122177679
                 -0.22823960137389850966
                 -0.19128098356646569544
                 -0.27002112279082679525
                  0.17388505445968310825
                 -0.02955673091490823925
                 -0.45025132724354505198
                 -0.18886825565485582112
                  0.18052281769195838157
                  0.13329379580297603947
                  0.56065964747555740999
                  0.11993585802204041746
                  0.30390581155432472293
                  0.20160295690690863135
                 -0.25802950095903454120
                  0.48911758605686311840
                  0.28976975986723829681
                  0.11472018687025875572
                 -0.14031897297483214571
                  0.47784865195531228688
                  0.15726406148366176008
                  0.19714745928030522060
                 -0.10498999890781418598
                  0.08566953596409608573
                  0.01925648927777502337
                 -0.24060288441640240165
                 -0.23790784573883855257
                 -0.21602996851012934432
                 -0.07529467918752187627
                  0.20478384016454165284
                  0.17751941900764553472
                 -0.17541164022938277034
                  0.13622338697125266349
                 -0.12437032818464084649
                  0.40300225678445628086
                  0.12008106474029539568
                  0.19566280287474346888
                 -0.17866799216628012625
                 -0.19307263216903303160
                 -0.14145870816148431448
                 -0.22468815494193039584
                 -0.36354661106960745043
                  0.08719724032578517192
                  0.17157332824078191935
                 -0.30200262318049742039
                  0.49424499853089187695
                 -0.12030799253905521962
                  0.02268405424174016125
                  0.44803190511553075970
                 -0.16990486491843309613
                  0.07634616511126415817
                 -0.16971155141821939183
                  0.30774327706160781171
                 -0.03562145057338125809
                  0.17563659889401819769
                  0.54326326485384979215
                 -0.09983946448412212016
                 -0.15753941773029078721
                  0.13562286597643347097
                 -0.22009167295766202121
                  0.01089533257957274112
                 -0.18903451372694080046
                 -0.00864560840047693888
                  0.32363807107691117126
                  0.13087298506395925179
                 -0.19603056789574452301
                  0.14570363890716728217
                  0.07801190499333209016
                 -0.36649491413556484209
                 -0.22022098366153455840
                 -0.09145214387969755054
                  0.13673407237783802293
                 -0.00852993998574840678
                 -0.09780172784319811352
                 -0.21090048947439524185
                 -0.56468214753243772819
                  0.24741221834958906922
                 -0.40061014897700508719
                 -0.24322325863931967826
                  0.23706632981152417350
                 -1.41190479144062219774
                 -0.27068782702141774843
                 -0.30539794033128248030
                 -0.13995624162641281951
                  0.15568868727373508243
                  0.30873858576783258512
                 -0.23564891357783401826
                 -0.12165277141390201665
                  0.03541736693230642524
                 -0.44875445149438841774
                  0.16648975462803297654
                  0.13428206137721784841
                  0.12215260852445329609
                 -0.34165624215691703380
                 -0.16378607529146180233
                  0.22259337397743800269
                  0.10912759182564121807
                  0.29317792886291754728
                  0.15530042012762787507
                 -0.02892560630166457827
                  0.47823176189536520386
                  0.23764333830969172623
                  0.23814000249836445033
                 -0.27324170027001731809
                  0.01576506283965223645
                 -0.16479527468262628043
                 -0.05204427578201596682
                 -0.00473329512551529542
                 -0.22478384115601920956
                  0.19457686239193314193
                 -0.46854967731828311983
                  0.18263967538133829560
                  0.07060300171642788780
                  0.00722555986261418613
                  0.18817159683792561431
                  0.45947715258515919867
                  0.45339136563519810696
                 -0.01315348470857038640
                 -0.50660023187321567839
                 -0.04446298311049193264
                  0.20319427081127366952
                  0.08169474661922311587
                 -0.07634451966813300683
                  0.05634546218736220802
                 -0.00853265933583077958
                  0.58623965829329383048
                 -0.11795749900333925286
                 -0.01120174775102426856
                 -0.27014592178467600192
                 -0.04305406352059231584
                 -0.03281845980324856610
                 -0.46517805283135588157
                  0.34533848988922255518
                  0.19723654083435496198
                  0.11417699682424457819
                 -0.00513283190868906759
                 -0.01136902057746119049
                  0.24738904256070493037
                 -0.12505444793405279258
                 -0.20773825571351287045
                  0.18120768420368560392
                 -0.32244005405527720320
                  0.28850576481118617167
                 -0.09754976973212985125
                  0.17412415631887279144
                  0.49208355166754191856
                 -0.15558915873723563883
                  0.17948380168914820909
                 -0.31048462190031528296
                  0.33163906956004363114
                 -0.10750523367131624430
                  0.16962523374588078795
                  0.33237698827882544705
                 -0.01329373438499744167
                 -0.17753343878904628839
                  0.19243246969036237326
                  0.00634352671099608703
                 -0.07461449244562373684
                 -0.46202430250065545936
                  0.22001220880915134392
                 -0.27835048193393407967
                  0.41669133854534340378
                 -0.24113436037752214447
                  0.14452679969687248773
                  0.11278881940608294354
                 -0.20947827989925146830
                 -0.03898491302914931095
                 -0.01744931517222838083
                 -0.26132439576410365634
                 -0.07569875983149511323
                 -0.13283115704956263703
                 -0.20606399824978971491
                 -0.26210719136403054508
                  0.03278607016985623374
                 -0.12376423191620700148
                 -0.64941491037300047573
                 -0.28718529845302620540
                  0.32040797992511088621
                  0.39335087316817118896
                 -0.29607171456797015674
                  0.19809594662099411222
                  0.09952065437258111880
                  0.28915675487135555910
                  0.21724922227625997895
                 -0.53548981121641237024
                 -0.55931780160172828165
                  0.04178368175888915598
                 -0.50549546215529850279
                  0.83747523607237683851
                 -0.60534917487624539945
                 -0.62874617461023973863
                  0.35785195709081146775
                  0.56211824589276992992
                  0.42105467249350897463
                  0.16433479886867891073
                  0.24475920564868680618
                 -0.51439252989240547009
                 -0.96004746765166826261
                  0.44851540462399219766
                 -0.30836124763011829586
                 -0.13989728904170495305
                  0.11877520105889041724
                  0.72492032363566083486
                 -1.19706572197030491900
                 -0.35314387877632352764
                  0.54857920518555103317
                  0.35430782872758137536
                  0.11364881204617771626
                 -0.47574681493650583519
                 -0.49231696469297375751
                  0.41720842703279797936
                  0.48498058415537009802
                 -0.74063424981350634013
                 -0.06754808269676489119
                  0.32885465574499722630
                 -0.17508352352703185351
                 -0.46979590843964741387
                  0.12392116214087423032
                  0.40803879043723878528
                 -0.71357490975693838031
                 -0.27526031471625722613
                  0.01771370965725741625
                  0.71374304551698664056
                 -0.39614571377522084239
                 -0.13017959134606851834
                 -0.85533284253180319467
                  0.30168139162117640906
                  0.51821090682880466272
                 -0.48804759173985784448
                  0.63361869939978565647
                 -0.59827506568025135003
                 -0.00648774154331105933
                 -0.01382446881810463560
                  0.47676355351581639619
                  0.49171992330889791045
                 -0.47837249775906681704
                 -0.32564508116384266456
                 -0.80667663087960395085
                 -0.39872891322813369674
                 -0.01806251000025987583
                  0.76074646624946784534
                  0.28715812347641928026
                 -0.14064572406572858898
                 -0.71470528019338608328
                  0.32238398123480277446
                 -0.14022863576893820903
                  0.76104676312779717673
                 -0.53317337964486155588
                 -0.85680326470935985750
                 -0.20688131209462193305
                 -0.20538909898233823070
                  0.14246949522536236921
                 -0.22867965872475110034
                  0.42050600376892377508
                 -0.21730742006490860740
                 -0.32362169238439586483
                 -0.55368807188768720540
                 -0.25272837853501534111
                 -0.81368137605321688710
                  0.52263830146361145434
                  0.07626322687650982646
                 -0.22595889970447471939
                 -0.77145632937620489677
                  0.35861242110834612440
                 -0.59311561677679480731
                  0.52734535958983030923
                  0.02114130835059956429
                  0.55934284354298069442
                  0.61677486632562450453
                 -0.15261182892526731214
                  0.15955859394457377887
                 -0.06537759181608424064
                  0.77807313957845758434
                 -0.08857691409244286551
                  0.57442259619986768548
                  0.36925711753344014898
                  0.38026696055609887637
                 -1.13415277438840123025
                 -0.35856362568342348141
                  0.24256375377815003747
                 -0.35367669752841623954
                  0.63328693400754876297
                  0.66935253747340828223
                  0.52340876685515436151
                 -0.97480834720305598040
                  0.44616671192402596047
                 -0.51735492946073446952
                 -0.47166900407115369687
                 -0.70722573513836373138
                 -0.54573792129639575599
                 -0.00472513396026303083
                  0.13719657473004631676
                 -0.07446944410570199846
                 -0.22224369610280989007
                  0.28967350817295739462
                 -0.06414164638726388423
                  0.40324006026570902161
                  0.22177569513216044417
                  0.78098435905786078859
                  1.09831949053053024024
                 -0.33897688905073841692
                  0.50851371755738261626
                 -0.50011619474285817777
                  0.17382143965490154391
                  0.35527552648468679886
                  0.20471755346972586587
                 -0.39672306954108660371
                 -0.26456808091506545111
                  0.64710619992732099082
                  1.03543449285324928866
                 -0.22552351921171248650
                  0.84881430503491250850
                  0.29652104433727261013
                  0.85490014852318263472
                 -0.19033583179434371280
                 -0.26052132443931580452
                  0.24467130137059955874
                  0.17603045195666025546
                 -0.63787559058209952756
                  0.62845729321429399938
                 -0.14988163463538359266
                  0.52196006658205296169
                 -0.62599592785220559144
                 -0.41328425283837749715
                  0.11765074798517265176
                 -0.30882270884946022571
                  0.67678421287937817752
                 -0.14100620211966702344
                  0.71836594320849467277
                 -0.70353291324240452287
                 -0.35331199663992146620
                  0.18910402583099478191
                 -0.55768375393584068700
                  0.06364554819281544040
                  0.43110427684114976943
                 -0.27042355127775080659
                  0.06419975099960359421
                  0.59123971144300402347
                  0.03226686984457609320
                  0.19936962628870449898
                  0.01475557828863342802
                 -0.02213877923604046574
                 -0.78508879761581751300
                  0.31254460122888616525
                 -0.36998341137609613849
                 -0.20239896255897524280
                 -0.09857332511000045649
                 -0.26776211905077607067
                  0.22746005022760301673
                  0.40202730332929237367
                  0.29451690126505192246
                  0.88232162665010660518
                  0.69756862244987649646
                  0.87021164544458062817
                  0.27818986567494247142
                  0.57615523751132113883
                  0.49606260409060526362
                  0.50584551598526128480
                 -0.02242015297022455916
                  0.21758756014023566960
                  0.63310819445166166552
                  0.55300449981252264298
                 -0.02576719486495699860
                 -0.06987998482908383546
                 -0.20015496947386512971
                 -0.46096009134224513737
                 -0.00512056807874871310
                 -0.49799179710016427958
                  0.42632205254892174828
                 -0.64376400074023298892
                 -0.52213556428238538931
                  0.52000408982012358283
                  0.20453245359478414156
                 -0.46516398278220288942
                 -0.47832563866911864681
                  0.45362372481845009142
                 -0.61958233097997506000
                 -0.10549965175110040394
                  0.45200839254823116375
                 -0.14400631324290291690
                 -0.41251898653394847294
                 -0.35249005163005497909
                  0.48092041824459286214
                  0.11723268560997066046
                 -0.01751602447476235253
                  0.14966468648348030257
                 -0.31748094989597691606
                  0.38376460104138310214
                 -0.17437330700083805701
                  0.20380997917927515251
                  0.64616643085823843862
                  0.07490072130266536843
                 -0.48104372575822257341
                 -0.23215342389701265624
                  0.66213895826408986078
                  0.10388133745870400948
                 -0.24535409333571009394
                  0.83919066209938320000
                 -0.97684713440414916441
                 -0.27152681523668170671
                 -0.42654257516358290436
                 -1.56774401648002315035
                 -0.62121067469172186470
                  0.17786889373139064263
                 -0.71413266867405822413
                  0.76428406004410753827
                  1.36882693159266044525
                  0.84049018398560793042
                 -1.24694806484165998661
                 -0.87520748440682560876
                 -0.11580548934054249455
                  0.90941598056729944233
                  0.58053400527821819033
                 -1.19359632022451056521
                 -0.59670241928036749091
