49	2	1
15	15	
1	1006
  0.0434495492417311	  0.1344993389443975	  0.0873871826029650	  0.0591469980694024	  0.0117280255291583	  0.0090712945716636	  0.0339755467936885	  0.0525799832772304	  0.0322656629126083	  0.0525840289881312	  0.0107712712170550	  0.0333365081495983	  0.0534453412110265	  0.0037899393886754	  0.0203860079758017	  0.0645637428862792	  0.0258398645959017	  0.0007897724303149	  0.0045851479339134	  0.0066418153594685	  0.0045852936573746	  0.0070930758344596	  0.0205567194127676	  0.0029067909741841	  0.0022483198355752	  0.0084226030635482	  0.0130335101937311	  0.0123403464608970	  0.0130339250395119	  0.0010210765204127	  0.0015877212149134	  0.0024439626747163	  0.0029634500515716	  0.0078154973152314	  0.0078154985036003	  0.0132836635430765	  0.0205557035122736	  0.0359138732131377	  0.0205583118230553	  0.0009393364376088	  0.0044984743703327	  0.0248095887110144	  0.0026701647523224	  0.0082638858330475	  0.0215740675821658	  0.0003299633397291	  0.0037951311609194	  0.0359575892496774	  0.0086735175550032	  0.0540937460147559
  0.0436131036433782	  0.1349173505694744	  0.7386384642815781	  0.2184376675007369	  0.0117281061914432	  0.0090713281914148	  0.0341009523407195	  0.0527502184555745	  0.1382492620826489	  0.0527495202985678	  0.0108071977234097	  0.0334383887099050	  0.1678288583053753	  0.0037899661387177	  0.0203861133577263	  0.2767247764342342	  0.0512133819637844	  0.0007897724377325	  0.0045851788578684	  0.0066658540754367	  0.0045853245813299	  0.0070931016124470	  0.0206240639137914	  0.0029068086925338	  0.0022483272205199	  0.0084501497583296	  0.0130725687191589	  0.0316913283214157	  0.0130729835642425	  0.0010210765336054	  0.0015877212375374	  0.0024439626892113	  0.0029634705622008	  0.0078155406255308	  0.0078155398309077	  0.0133317409750129	  0.0206238726203807	  0.1049358280095390	  0.0206238818469956	  0.0009393423135470	  0.0044985031719948	  0.0635469437720411	  0.0026780564008862	  0.0082862650081747	  0.0398482570898948	  0.0003299633441042	  0.0037951311904753	  0.1051057794736409	  0.0127152821223608	 -0.0009704532733915
                  0.15407528205807391464
                  0.24117572145056537236
                  0.28791369060895627419
                 -0.27727404908144676066
                  0.05994955359579989124
                 -0.20022752807218896498
                  0.09743358833408034825
                 -0.33765968172812360626
                 -0.32277078703976530560
                 -0.05750987681602442309
                 -0.30788993279288423555
                 -0.18719880479241801652
                  0.16717868642246300204
                  0.07025119017735172167
                  0.08233148598687471675
                 -0.08999476056263777668
                  0.34855937259951413898
                  0.11416378930250849211
                  0.13864713951465373887
                 -0.11540370678310853114
                 -0.04247333236785966887
                  0.07452757583253769025
                 -0.32628310491216461209
                  0.12429093856940318097
                 -0.22284968950890474138
                  0.04331181856288361665
                  0.10180578269784330836
                  0.34209309313343211345
                  0.18495951241665486986
                 -0.33404039126604523346
                 -0.17371514315455255373
                 -0.18269031680177413857
                 -0.25551071365431787807
                 -0.30187775507909075934
                 -0.09674285289690126577
                 -0.25789966401391289930
                 -0.02901197360022204907
                  0.24779444445866855018
                  0.34883369769215394340
                  0.08791392004081746703
                  0.23625549393402692222
                 -0.01708707015307501728
                  0.13417147486325767258
                 -0.08412378498278008654
                 -0.06076953579827690938
                 -0.21677290184302447362
                 -0.27025776065209267118
                 -0.31938002251954822341
                 -0.11034691588057556066
                  0.27109308456659053643
                 -0.23880646902185626024
                 -0.05810288160757028780
                 -0.28425069554593024312
                  0.16958751212550923770
                 -0.24883145103954548705
                 -0.01913654499180728399
                 -0.10561458328887646241
                  0.00638672321757121752
                 -0.37858745554381650900
                 -0.14436981208385740727
                  0.19292272445250666091
                  0.11563451896240728445
                  0.01771076420685795474
                 -0.01422208311725329383
                 -0.22962271731107025685
                 -0.28880226432951450199
                  0.23664934775964202585
                  0.39582672098530724547
                 -0.22375988867654872383
                  0.08468092906967028544
                 -0.11244588827904802852
                  0.30649173300889759330
                  0.05752453523340482489
                 -0.12248832951913854461
                 -0.13487345475499515346
                 -0.24828850821446740715
                 -0.02481339797318356938
                 -0.28437778301820076932
                  0.27492790578202491725
                  0.02858559702375127951
                 -0.19297847739207552031
                  0.22336503716246078333
                 -0.32519195146589618961
                 -0.11366821424565527743
                  0.06796027838405768740
                 -0.06162712298451389348
                  0.05501350570435906834
                 -0.10321220119655281910
                 -0.15352127816758623369
                  0.16852915887369504522
                 -0.03377101516488321964
                  0.13474087494519823571
                  0.00772915165888743427
                  0.40083321843903996218
                  0.24139163352044049060
                  0.42156526792820492311
                  0.12448577457984402739
                 -0.35269026785719748140
                  0.33006032414919511675
                 -0.02326176412798526202
                  0.25601100330030029939
                  0.05148955604053104956
                 -0.18227882006875395504
                  0.12009765450294415667
                  0.25438476528486075878
                  0.09301805756990055851
                 -0.35560256322605804380
                  0.16527434542319854871
                 -0.15019898803028483569
                  0.02167231544524050174
                 -0.04799342437409571949
                  0.32390848192986532172
                  0.24781152439432566070
                  0.15159070860282405913
                 -0.32930913593822874752
                 -0.29854101180205561139
                  0.12216035502231416265
                 -0.31185128937568368235
                 -0.21158059549093169438
                 -0.17316442657704564367
                  0.13289184912090673540
                  0.14771192410302155795
                  0.19500030646692695369
                  0.09627905814344540902
                 -0.01503814930158114613
                 -0.12816839789408079886
                 -0.23083627909794832145
                  0.12048806433647706038
                 -0.19429787984937010870
                  0.18199930935662658738
                  0.33652964850048233680
                 -0.23183010409512258554
                 -0.11159428996404131829
                  0.22989035513264988175
                  0.34889267247186883658
                  0.08510056311934180440
                 -0.06466813966218716569
                 -0.24915593947652953100
                 -0.10674758517527965784
                  0.32854988516927846609
                  0.01171341863489478059
                  0.19179980176153382798
                  0.01378630726186978739
                  0.36501107400625265598
                 -0.26303127846594392958
                 -0.12784655516768703154
                 -0.28203420395215078598
                 -0.17387324032432155407
                  0.36577348918972807379
                  0.25603443083929999791
                  0.29608082596904938821
                  0.26587755374342908476
                  0.03851788976043733076
                  0.36983953193169366580
                 -0.24385772872159369729
                 -0.01017960726383905501
                 -0.22909137131157158995
                 -0.15586834409517799638
                 -0.12322445127098972939
                 -0.15202137410531116335
                 -0.21575878703861542385
                 -0.23956204028144370555
                 -0.08512977931034294843
                 -0.09959070348897711145
                 -0.09926168721083185320
                 -0.29741782108228176362
                  0.07476581161640975803
                  0.39522738714888577816
                  0.09732745818713416097
                  0.03604448423471735830
                 -0.32170289051113187817
                  0.19430797997865978388
                  0.36244673728689597025
                 -0.11124898232661693809
                 -0.11778785028533603207
                 -0.08240703585367364914
                 -0.37416333658329037348
                  0.32694732725289893382
                  0.11562751667315247783
                 -0.17888452284970116080
                  0.05871911441231493500
                 -0.09572690386375008742
                  0.15672434012458266728
                 -0.25819551462752682314
                 -0.18982458398338347694
                 -0.20115363620977494419
                  0.09165982027259825249
                 -0.23680822224414660448
                 -0.29347424306070868383
                  0.13103316639239825925
                 -0.04021447683003832180
                 -0.03772723423026547174
                  0.13074943376288034047
                 -0.29894002567295013817
                 -0.18503229311862462447
                 -0.05576872147438520499
                  0.31117992751053186185
                  0.11110763768989109779
                  0.13235897800139773128
                  0.25999777335025853198
                 -0.08202607917526114067
                 -0.13258255939731156126
                 -0.35787103478985654581
                  0.11290886200135670514
                 -0.01025478227970237459
                  0.00319678290386665211
                 -0.19794322362435556872
                  0.25116988761355352189
                  0.26398555772866511004
                 -0.20422087024067717143
                 -0.19884391644330137727
                 -0.32603404266151309043
                 -0.25469082886346472439
                  0.09899162849012549392
                 -0.09233034148049025502
                 -0.29838509118037942480
                 -0.36080149477376494138
                 -0.06675465379787452747
                  0.24915091716016685153
                  0.11566553310651053743
                  0.11310649230823661970
                 -0.11234143140486679835
                  0.06995400887701994086
                 -0.18039369630411000722
                  0.14930807363562376144
                  0.13009325829497458971
                 -0.29137198588283585998
                 -0.33149029128220441898
                  0.20054905195252528682
                  0.07610043225661164423
                 -0.10147964412859886152
                 -0.17652122029117767177
                 -0.05178518246423827881
                  0.28882752855586857343
                 -0.22807049349609190281
                  0.31688862542290635593
                  0.29947196654325952681
                 -0.31804266913352391422
                 -0.09420854629955961734
                 -0.33648669754688170785
                  0.08282547672568049690
                  0.24624217887120977699
                 -0.24373710469456660865
                 -0.10491006115480128180
                 -0.17085872786726649664
                 -0.00111622361814343570
                 -0.20702056482584618724
                 -0.14094763179278174681
                 -0.20602250686648510003
                 -0.23316838228164232794
                 -0.39546162308080118342
                  0.27190735734680426816
                  0.21820527681420656685
                  0.36174963343580462949
                 -0.11535080421036665588
                 -0.17770314126341632543
                 -0.05210385013807172089
                 -0.01859206532360231298
                  0.04761880435507338111
                  0.06320315083399286049
                 -0.12938360003920437724
                 -0.37429699164268170897
                  0.09416542827831143880
                  0.33830883298022368377
                  0.07774932014112923007
                  0.17735754809052811654
                 -0.24007872023648685333
                  0.33713254770029765783
                 -0.33484817987964277108
                  0.11472926855443388305
                  0.14406960598189952338
                 -0.31360667399730085547
                  0.31571233322358438489
                  0.36259858601318639693
                  0.24821472673129582609
                 -0.26066283778218274358
                  0.26009551178753187450
                  0.16738961530065521455
                  0.06838389680534011361
                 -0.04944757609181073266
                 -0.01776927771233179770
                  0.09231709965173760801
                 -0.00122176973016510215
                 -0.33516202149735885296
                  0.22946961075501584593
                 -0.07830427760602592935
                  0.12854422701174356147
                  0.31171669718971622975
                 -0.00172816396913773318
                 -0.02099919680229209509
                 -0.02670589614923259483
                 -0.33042452472562128252
                 -0.04878261716576623441
                  0.11736355677405523046
                  0.29605979470400045628
                 -0.17636781230333187231
                  0.12431873118537942191
                 -0.00967333134581213269
                 -0.01417074230110177205
                 -0.01826609159477624034
                  0.14535526342613694362
                  0.00757230152475521587
                 -0.02785114099346232275
                  0.07345605741833537150
                  0.19672575309037251823
                  0.09344288582592520653
                 -0.00608566832972133164
                 -0.09174171032245204138
                 -0.29078834172656126134
                 -0.17993319835156645903
                  0.05574985140794576355
                 -0.26856634384424948880
                  0.29675335084582227241
                 -0.28783010486337851086
                 -0.14730238229668693450
                 -0.31260312524693484315
                  0.32475287759874910121
                  0.24417981825725346146
                 -0.07251070229322370553
                  0.33089904044482443268
                  0.30167124157947067253
                  0.21035358739472445611
                 -0.32686121794203132351
                  0.23828347803333660426
                  0.09517406674476122652
                 -0.29880102998988672391
                 -0.30717691864965740445
                 -0.09238485800989706953
                  0.22636384101154574666
                 -0.29670686265506324153
                 -0.10064014849095846704
                  0.22934728976119247990
                 -0.22618837578118686227
                  0.35148130431043805855
                  0.17900728034500523744
                  0.33977482104622069858
                  0.26837720823790733871
                 -0.30622843203351840513
                 -0.00342033536978359441
                 -0.15096944114461710584
                 -0.14877746776436084897
                  0.04249070090009755135
                 -0.20805994397709834387
                 -0.25419815712811266728
                  0.12263652863564056261
                  0.30010767270132543416
                  0.10821988129020203295
                 -0.14739740081365118596
                  0.09029177481740620348
                  0.08943762288301936036
                  0.07102927457287515345
                 -0.01492518778005178827
                 -0.26996062745357751744
                  0.13037122117189217652
                  0.24348506305500539071
                  0.15147754858061310279
                  0.25661729160473734090
                  0.18136000982484642985
                 -0.08377816663146817056
                  0.24009403196609166442
                 -0.26209630142175888157
                  0.00299522510861433564
                  0.17338115799199996236
                  0.14852391792299687867
                  0.34894861499812823702
                  0.19314196217494125629
                  0.01530832371549450087
                  0.19604986248477093702
                 -0.30284699164755979339
                 -0.27726372431031875987
                  0.17402632887788996308
                 -0.15312439872068475677
                  0.28822104095635053822
                 -0.13743212200217627683
                  0.09195705031834229548
                  0.26572142429272010977
                 -0.21385672989853707349
                 -0.29976542450352744451
                  0.20743533271179045996
                 -0.18473496742092521128
                  0.28246538089725820031
                  0.31227889662534152881
                  0.09800922582409711536
                  0.20812729207286992383
                  0.28032829263112568619
                 -0.07960398886116301642
                  0.12517146088420622041
                 -0.25947611878100734772
                  0.09603471288688616991
                  0.35723693557038338486
                  0.22304093975869340727
                  0.31481177350145361782
                  0.23928638577753413852
                  0.31434903983364081981
                 -0.23373225112053463981
                 -0.12643210478780544936
                  0.19088890832692925748
                 -0.10704249587893943652
                 -0.17545304317485138634
                  0.19180980198688055149
                  0.01417606938812069652
                  0.02437168232650996358
                  0.31067967403491447698
                 -0.15808590205125566674
                  0.05976743855448263254
                  0.10335022194460023737
                 -0.31581202154877774380
                 -0.26566296376598003137
                  0.13264807630234648483
                 -0.24181275761772319521
                 -0.25245881952875171006
                 -0.18774740321427749179
                 -0.11271362537734934406
                 -0.13603464479475091409
                  0.31552318214407959474
                  0.17208797458752617127
                 -0.31578514161635723445
                 -0.15054928968353425978
                  0.22738316485021753399
                 -0.25765648812827823821
                  0.31928661583797407486
                 -0.29613939152852808423
                  0.04526927807051119024
                  0.22242290575359865978
                  0.31405580620479878196
                  0.09730240215883553812
                  0.19090184617527886091
                 -0.21884083422413083686
                 -0.31553045751738667546
                 -0.29647614353918427810
                  0.28454628238908996618
                 -0.10378553999471216984
                 -0.15184708791724979560
                  0.12905298984244992222
                  0.05934270234387281628
                  0.07913848150555488625
                  0.21998276325221724492
                  0.08892446712810228582
                  0.27022079878565996580
                  0.21183718128910880574
                 -0.12720170627971880140
                 -0.05780141210153881548
                 -0.20227490392141350695
                 -0.08468552071909860035
                 -0.05545188421535338086
                  0.35391678337180182412
                 -0.01908178380034354291
                  0.09741159956202447012
                 -0.14880450324540306362
                  0.21121909841210503855
                  0.20853510461849691926
                  0.13175346777797081188
                 -0.08561358412182250299
                  0.30820032945023739801
                 -0.02670628103795756256
                  0.19912389021015655666
                 -0.25196438271497856309
                  0.36506184313446093936
                  0.23051550346396257329
                 -0.24301856527823822995
                  0.16597286695588098215
                  0.06721986647626795874
                  0.24270657991245789264
                 -0.36286638732764942006
                 -0.32912780690934345662
                 -0.04710884615464528552
                 -0.00532680409564183482
                  0.23678307698798650716
                 -0.28604712796062720104
                  0.11036539220000915473
                 -0.25399831083344670546
                  0.06499867226140675081
                  0.24933278343024142809
                 -0.25029045484800566124
                 -0.17436936323302856811
                 -0.27666473371223987421
                 -0.33696385369273179622
                 -0.07641849691728459792
                  0.02202532851651743326
                  0.09035471480000054068
                 -0.07891626564737398708
                  0.28874347868857536126
                  0.09560763856275389383
                 -0.09060695486306076518
                  0.35869326172436322153
                  0.24763524992334276509
                 -0.07254763200998939898
                  0.30890516407046919589
                 -0.12822516755744967076
                 -0.27639073878618786173
                 -0.20262059220249944991
                  0.20511805767437990555
                  0.01314167618220567560
                 -0.11698234276651675589
                  0.13340993194922953768
                  0.30958360280840296896
                 -0.09451046092686909983
                 -0.21749332054432984895
                  0.01732111955079829527
                  0.21790276693399132646
                  0.05383768011935581577
                 -0.42600449111503407851
                 -0.16043901712527475212
                 -0.38237258149898550874
                  0.01528979196605156562
                  0.26294280850137979888
                  0.30082589890951422218
                 -0.03908842867656800446
                 -0.43029715177235061674
                 -0.20095691261056591870
                 -0.24900452428120606330
                 -0.28698011341527601692
                 -0.13835923856384463315
                  0.14885741197157575932
                 -0.03453552495720731835
                  0.04424071907917537239
                 -0.08054387485461964036
                  0.02768999183072905906
                  0.07659630528321334508
                  0.04301653466221811578
                 -0.07152596100463359807
                  0.16788108277967808690
                  0.20129823288162776440
                 -0.11358336910164851252
                 -0.11867096318934285126
                  0.00186812797344191911
                  0.07415064043867951316
                 -0.33141894944143346358
                  0.33096119294916259701
                 -0.25663627661036941818
                 -0.21126242738435532798
                 -0.34290273178677499466
                  0.09513829849412044903
                  0.34030592804677134433
                 -0.03807788786988165058
                  0.30021865769371897104
                  0.02889460233173689330
                  0.13314757633722631991
                 -0.25746219368002676298
                 -0.30130853855980416212
                 -0.16293910532505717637
                 -0.18280807440891819193
                 -0.16773848066155611081
                  0.02377885695193066723
                 -0.11079698615903101067
                 -0.28052668856001689024
                  0.32516027488147192237
                 -0.36068268689552351880
                 -0.26034137128891104984
                  0.26919063848369995107
                  0.32485761252219219619
                  0.22443938288411116599
                  0.10885755941809462100
                 -0.08197604315605849790
                  0.36480656951644058195
                 -0.30042086422030395143
                  0.09335543501581049231
                  0.21689132927676740836
                 -0.17386871624591895835
                  0.23068991947133710152
                 -0.01255156253540998940
                 -0.33113159555967069947
                  0.09253696238581633760
                  0.01002761533268741248
                  0.08793237485302832224
                 -0.05245590577830794993
                 -0.36626958051075969580
                  0.15817304428993420040
                  0.07034556159662785912
                  0.27329177134894616641
                  0.27261821082061327148
                 -0.04490272775667192989
                 -0.20247105680731070088
                  0.32626886754918632549
                  0.14686139697804587168
                  0.04222699526160501871
                  0.02904564046103349367
                 -0.07470637967487608888
                 -0.15893070758036356716
                 -0.20411202790695920362
                  0.01937471752605121264
                 -0.14384534350837255290
                  0.27703698847615421119
                 -0.19729961948524388227
                 -0.35287625998901422930
                  0.12800062550498464420
                  0.15714695933948100159
                  0.05821181568797078459
                 -0.20452750610488815153
                 -0.07447093437297812313
                  0.19144249367323942779
                 -0.33717212808383167921
                 -0.25428707987156073944
                 -0.33479795743644213957
                  0.19930033808564132092
                  0.13034873905364599556
                  0.18285520112640565871
                  0.28550402801874252834
                  0.29656651729831534636
                 -0.09019363108719435917
                  0.24743848131875770258
                 -0.44632456294603883862
                 -0.10299989193675504473
                 -0.14051939195045831665
                 -0.19789060406083480714
                 -0.00652929308517654402
                  0.35245905335175986561
                 -0.19379610475459121965
                 -0.06725479456234285947
                 -0.05314891194581099210
                  0.18615677952848641574
                 -0.03756295635822345935
                 -0.16362841849566878150
                 -0.00031746223483082912
                  0.20808813036629772442
                 -0.21226272828554765271
                 -0.03440690260261360101
                 -0.06022001085088860006
                  0.32118956526830511056
                 -0.25481386138680173215
                 -0.36029758982692899894
                 -0.14045931475510622932
                  0.26052251069452098120
                  0.18452790611164460177
                 -0.06864588986122929781
                 -0.08437269608534600507
                 -0.30992332206791545213
                 -0.24047986633070392304
                  0.18032494881789515317
                  0.24337516000103670555
                 -0.13494608389491527523
                  0.24365391616964698907
                 -0.37322895206665157586
                  0.14810566785169945736
                  0.04737524589814365999
                 -0.14855134270353956283
                  0.17993981198522024378
                 -0.28456039148310879883
                 -0.27623307222339105182
                 -0.16236171343501548670
                  0.13400092813705319350
                 -0.18270096262534418763
                 -0.25965570942666532650
                 -0.31838985563377425470
                 -0.23918780009317322510
                  0.06495618012883454251
                 -0.25670077853773071164
                 -0.23274611691257454660
                 -0.16337353080203004252
                 -0.35996419102268567558
                 -0.24795284039835524537
                  0.29506132639461885026
                 -0.30587562866991629962
                 -0.05483549657337039029
                  0.06672513585176267914
                  0.04926516377984448136
                  0.32733629047127515976
                 -0.13133451407640686637
                 -0.16251384850861674836
                  0.05160465884667055775
                  0.28240107735312991455
                 -0.13100855700677238591
                 -0.36189884350670686874
                 -0.24980203050030319600
                 -0.17500212397113715235
                 -0.24761746585571370316
                 -0.20404949724413290468
                 -0.17125605241518709887
                  0.00297479336863045070
                  0.13093503963943486923
                  0.11535246589427845809
                  0.08966902321665472242
                  0.12023445211703709390
                 -0.18446092999598057149
                 -0.30755158287450345966
                  0.34514659518750384626
                  0.17604542027527234072
                  0.10838963828598097150
                 -0.32883570532464589942
                  0.17373936319402155659
                 -0.11376667632420192633
                  0.06435673766736257906
                 -0.07628078193167184273
                  0.01864532681092252384
                 -0.23314938254782005544
                  0.17120544974364571011
                 -0.24529737171416843289
                 -0.20850141959972023908
                 -0.19277617689178458416
                  0.18064355999887210524
                  0.00901084565773408244
                 -0.14674287770956828680
                 -0.08892882855405766229
                  0.08222382820158502525
                 -0.00973263127905589845
                 -0.09981191036055196697
                 -0.25599385557549292347
                 -0.22765194553471593264
                 -0.00971883538448720455
                  0.18927134149584459721
                 -0.10130176506114639545
                 -0.10167580920854839277
                 -0.05024249496561247752
                  0.24402594399979990469
                  0.20223562832746802553
                  0.19028952194862275293
                  0.10269191513932862669
                 -0.10942260189039740292
                  0.35530904529107321110
                  0.15980708365069129506
                  0.01468432586338113202
                 -0.08829015818916591263
                 -0.00102612801239975880
                 -0.28317202031100313642
                  0.23118014488488836111
                  0.28880189418396584600
                 -0.34253992155622603466
                 -0.30332337152869848218
                  0.29081723471333853492
                 -0.28146212161731964940
                  0.26602127257307695007
                  0.11766807031697250341
                  0.36264090912524926669
                  0.14203500616340783425
                  0.25263403064808193088
                 -0.22675304833986920094
                  0.23052028424497758574
                 -0.25244623695769335958
                  0.29938200010602933343
                 -0.34827662464740583026
                 -0.03657589452645581413
                  0.11020177854694480912
                 -0.24366083753043116245
                 -0.20949467194375043233
                 -0.30134242616937317871
                  0.62489799477566931873
                  0.24881747551371893867
                 -0.32052357939664088970
                  0.09847021158097717108
                 -0.41181222805445005797
                 -0.64057229040529006792
                 -0.54571860910287717239
                 -0.26856307637705528757
                  0.33195310057947652327
                  0.51732896480593371091
                  0.60440878576097201158
                  0.06365670898794034693
                 -0.61245759156560786174
                 -0.42231817306949193114
                 -0.05386883993593302028
                  0.26352451043715130474
                  0.55950149242471014510
                 -0.05534455231364061867
                  0.61430300050749675478
                 -0.72617269908082826557
                 -0.51384629326629083224
                  0.20768746764029510921
                  0.36819034776513875906
                  0.69131042968842837393
                  0.16826704942958664590
                 -0.37163670078555149923
                 -0.05254435122618291570
                  0.17335503392272974543
                  0.49172871691837505281
                 -0.41213878030367923078
                  0.44753091420614210527
                 -0.40321713088840888117
                 -0.54727201089330079764
                  0.20491830720198220273
                  0.57042149003075337532
                  0.46557277334868335528
                  0.34962244681988252637
                  0.18978213974053600999
                  0.56673641292273257974
                 -0.51833727298738885292
                  0.49725319928981276396
                 -0.43281643618475851287
                  0.19669395331670319615
                 -0.21435765347874097264
                  0.52435440190844684327
                  0.36320428118743031121
                  0.24613709150077389687
                 -0.41057183256118323644
                 -0.10458120308209024885
                  0.43082006594383059905
                 -0.37198411484876608979
                  0.58550431270659786254
                 -0.15225363122558879803
                 -0.40770964940044712721
                 -0.53550436173094917436
                  0.38044799573339010967
                 -0.64299181165619490042
                  0.66047087774229007451
                  0.51247844776990347793
                 -0.21069664507428884082
                  0.32547172384773181975
                 -0.50854114029841801514
                 -0.81426601694073730275
                  0.26992752853067303320
                  0.59736019280245633567
                  0.17848347269729117337
                 -0.14822109639506370060
                  0.77644056771573066733
                 -0.09596177866361163544
                 -0.09541233791405008546
                  0.59915386742566767442
                  0.36584493755584046593
                  0.35124876316003789123
                 -0.05159391550049626657
                  0.27574444139407394694
                 -0.32362929590813527270
                  0.30847916089922400307
                  0.56608004594424621292
                  0.15871624841324294408
                 -0.35546195623055215629
                  0.21317770266666938306
                 -0.31604543861587797160
                 -0.32657163046461695766
                 -0.42982738187259711404
                  0.23635129873372642817
                 -0.47325282694192261079
                  0.46190753981711429876
                  0.64123380909683302953
                  0.69063471533156950422
                 -0.44584601809958951391
                 -0.75526165291079550013
                 -0.71698138877501782495
                 -0.31519402340702268317
                 -0.58666896988304229055
                 -0.61226966275464411726
                  0.29053930381507309111
                  0.65498139691507484272
                  0.11436963912314120073
                 -0.25759418244910403661
                 -0.51425285289388922294
                 -0.00465527310827140457
                  0.19159057608071855539
                  0.11125329547234649730
                  0.07440032720942081623
                  0.13749390468809280508
                  0.65120926571510318048
                 -0.25688363338795705548
                  0.33228471153155514362
                 -0.03777616315998866270
                 -0.12137865851782589366
                  0.27500743692934259688
                  0.47791770731912464054
                  0.55768905848557037697
                  0.66882383765805009102
                  0.63994226157470002203
                 -0.13549068588980928141
                  0.49699978073491679620
                  0.19560824618495856186
                  0.30371117796350299844
                 -0.54092658061251919221
                 -0.48837610756389071565
                  0.21784886675308046122
                 -0.56106282200163293261
                 -0.34522342493209678960
                  0.30984318369554753048
                 -0.51324441124687947280
                 -0.24036900736229091513
                  0.59623094130872733576
                 -0.30063348077948714998
                  0.16868743921251083684
                 -0.30227717567306805480
                 -0.01990806109706457633
                 -0.63884024925622651114
                  0.68570678001094564902
                  0.46992041714904631000
                 -0.00270770877533817698
                 -0.30866113468385292240
                  0.74167674153807994220
                  0.70292994532609243130
                 -0.55875481032457252617
                  0.05618480963008330026
                  0.42001351922666313454
                 -0.19783184360399533319
                  0.78314541208030929997
                 -0.37876325098754592968
                  0.36346785016875210461
                  0.20177197734482549274
                  0.26717855595137657287
                 -0.40131795532863229203
                 -0.07637694692559295062
                 -0.35753718392124339553
                 -0.18109820329107426118
                 -0.57738667673319654661
                 -0.40550603123913858683
                  0.33565412313981979331
                 -0.45925496165002605009
                 -0.58539923533972959557
                 -0.44638121654195977994
                  0.28743792056277628344
                 -0.61932992487322069408
                 -0.45003328819035243180
                 -0.06472427239206683669
                 -0.34791579771222802542
                 -0.67245844204355509355
                 -0.09067455044737135483
                 -0.12915446335259631039
                  0.13936248653009555842
                  0.61313684299174986414
                  0.63590113663578451408
                 -0.67533014027868454310
                 -0.35068267322039048395
                 -0.06445137661712461996
                  0.21483947402193884213
                  0.19540963626133242559
                  0.75870520569522315046
                  0.60663347932982203403
                  0.30300820063854277953
                 -0.40992159919036041948
                 -0.05293315588882204631
                 -0.29777470392992089199
                 -0.44557615290345664594
                 -0.07383921395037645885
                  0.54637115590954155042
                 -0.08327307462700517249
                 -0.38696898273631874510
                 -0.38423560067618983682
                  0.55209667189626465689
                 -0.56870703485960483192
                  0.15155038043991697627
                  0.18182763775815380392
                 -0.12596644825473909957
                  0.43527802957461919631
                 -0.64701838654056420541
                 -0.52138013137980177003
                  0.65019621124183701877
                 -0.57012000329812484445
                  0.00474067486331459197
                 -0.64310593781562097604
                 -0.69158317109161893121
                 -0.14069491942261730388
                  0.28578888622540526976
                  0.30166777690680512958
                 -0.37529931521248727222
                 -0.41382294782438178160
                  0.63159034375528799732
                 -0.27498878733827120113
                 -0.38088803590806080690
                  0.60375107704114028273
                  0.08833202330111314393
                 -0.31754703568817055359
                  0.09821077425964908070
                  0.58439591782950450760
                  0.13274194029586716681
                 -0.27048636339447768018
                  0.55053395436811480845
                 -0.56174822378460853578
                  0.17347959981777594241
                  0.48215263774487887583
                  0.23210727418557680624
                  0.45048933913612992930
                 -0.20400522924444980388
                 -0.37078319697978517899
                  0.64810665464817229786
                  0.36913129063828636900
                  0.61151652767254183196
                  0.16321926257583421749
                  0.88484839455893316007
                 -0.35491020284427210463
                  0.02790745346810019276
                  0.53328205432571151867
                  0.59872184149544360743
                  0.30515664000031805791
                 -0.69454544583927557699
                  0.36014978864363211830
                  0.92567347861238202800
                  0.34290121144122331920
                 -1.00688036615934972673
                 -0.31004415579741645415
                  0.02453872363731661108
                  0.50535272552682863889
