49	2	1
15	15	
1	1006
  0.0541809631474849	  0.1345711188415454	  0.0975888965426801	  0.0931962801806644	  0.0117280451946236	  0.0090713026159049	  0.0408391478179756	  0.0526118715173350	  0.0365634344949215	  0.0526134885998191	  0.0128659847729998	  0.0349100416129903	  0.0810554859590976	  0.0058852976934151	  0.0203860418256658	  0.0730301043690369	  0.0440680996006637	  0.0007897724327095	  0.0045851554252880	  0.0079545833900597	  0.0045853011665022	  0.0070930819106420	  0.0205697330956954	  0.0029067946150517	  0.0022483211977909	  0.0102086664641072	  0.0139552211424603	  0.0177267167021610	  0.0139674944690803	  0.0010210765243116	  0.0015877212227064	  0.0024439626793811	  0.0044361885623617	  0.0078155116658871	  0.0078155118472001	  0.0159225623761220	  0.0205691297660476	  0.0412911765243555	  0.0205703945282406	  0.0013025081019590	  0.0044984839831357	  0.0354533700705609	  0.0032788638877362	  0.0097407715810844	  0.0361937053377243	  0.0006385113082860	  0.0037951311731091	  0.0412281882999443	  0.0164377458978829	  0.0638703753181926
  0.0543114901574829	  0.1348455706723265	  0.7488401782212932	  0.2364262796499819	  0.0117280865259778	  0.0090713201471735	  0.0409397223443181	  0.0527183302154699	  0.1425470336649621	  0.0527200606868800	  0.0128989442564909	  0.0349797871781868	  0.1827332412214323	  0.0058853147307155	  0.0203860795078622	  0.2851911379169919	  0.0645829323486444	  0.0007897724353379	  0.0045851713664937	  0.0079739571032584	  0.0045853170722022	  0.0070930955362647	  0.0206110502308636	  0.0029068050516662	  0.0022483258583042	  0.0102340626211222	  0.0139822751506277	  0.0357717093563499	  0.0139945772924125	  0.0010210765297065	  0.0015877212297443	  0.0024439626845465	  0.0044362016900539	  0.0078155262748751	  0.0078155264873079	  0.0159613102922531	  0.0206104463666066	  0.1103131313207568	  0.0206117991418104	  0.0013025124040618	  0.0044984935591917	  0.0715435561892024	  0.0032867555363000	  0.0097584957983021	  0.0507570101699899	  0.0006385113105098	  0.0037951311782856	  0.1103763785239078	  0.0193760853814893	 -0.0048081975258476
                  0.24800380289470994044
                 -0.15321097147763584889
                 -0.20612159729002912933
                 -0.41107017952423413609
                 -0.18269931392044169716
                  0.12572427352745829676
                  0.03578279830757367247
                  0.29584824177582974558
                  0.21583790892340448675
                  0.03543759927572000951
                 -0.22586920329395623885
                  0.15284433372476891044
                 -0.24747662926162089514
                  0.39560583773176732914
                 -0.20592244462908168567
                 -0.03983404440983396438
                  0.23980528882959115111
                  0.01909134638680239429
                 -0.29860986722947957528
                 -0.09223157773848895957
                 -0.08123139470866908018
                 -0.31398645294746235779
                  0.26903267869209057661
                 -0.11088402558446386337
                  0.25920049131357009164
                  0.06638941204324687317
                  0.29708668275351685084
                  0.14154240417762745108
                  0.11320293853754065383
                 -0.08836012816676780401
                 -0.09081603570469283515
                 -0.02284578251279593963
                 -0.14219594275781155535
                 -0.17063985665092065713
                  0.28398351299346591414
                  0.03495372095132676799
                  0.15601568666482598657
                  0.05552240335775436575
                  0.11705186811920248457
                 -0.27390589291207168010
                  0.05166550929961100103
                 -0.23601832913203743547
                 -0.07832929127079736598
                 -0.14483327202907908537
                 -0.32392913668522177462
                 -0.01038807503336627337
                  0.13789031127156461953
                  0.22080783684067098460
                 -0.05438333227171692624
                  0.19248041038519209112
                 -0.13812459173140742563
                  0.03555307146247951855
                  0.55921529942704018001
                 -0.24709770048728976755
                  0.05095235131923284838
                 -0.06399866916530490280
                  0.16483160761255127857
                 -0.58352373265489809739
                  0.15879077651884010436
                 -0.08492537398684989192
                  0.04280729365249415913
                 -0.01821771808216219452
                 -0.03841233846708153044
                 -0.43383833030857738011
                  0.20602183266972301512
                  0.43748959693756056533
                 -0.05679348877330551298
                 -0.09360478830521873350
                  0.35350424775798655608
                  0.37520632105435020032
                 -0.32394942804054960295
                 -0.00595788730354656140
                  0.00646448697308160767
                  0.18747600386040338960
                  0.07277018813819584320
                  0.37464803897909471075
                  0.13969233846988560188
                  0.07341066677955485065
                 -0.17580684049898490096
                 -0.14847298823382110156
                  0.02289779773548894504
                 -0.33631454589714743220
                 -0.18814660854866827044
                 -0.07849929524310737816
                 -0.31081852172911078602
                 -0.01705936100116639195
                 -0.46851200379925156403
                 -0.41956840408683232502
                  0.02512605830464954490
                 -0.05193308568465258152
                  0.36791889372722041962
                 -0.07229788331215475372
                 -0.19869235169018126252
                 -0.35752884515659383302
                 -0.17346152096242636875
                 -0.10056641561598039791
                  0.20521027421741580565
                 -0.03146188339822691277
                  0.25354367376946335133
                  0.17697969400401900031
                 -0.20796307925694695884
                 -0.15865702147837679181
                 -0.03913221980329485011
                 -0.32604536729102678860
                  0.04090642193061552745
                  0.24663892914137000578
                 -0.33182225028785394816
                 -0.15277724450775514997
                 -0.16060654644542751712
                 -0.26874729967347954496
                 -0.36078783947242631935
                 -0.06517838067012136916
                 -0.29460531721303656605
                  0.06160952977814293519
                 -0.35867095584578345679
                  0.02540546020254180401
                 -0.07335688304699058970
                 -0.06199464932850517335
                  0.31307705251095119259
                  0.24076743396933658614
                  0.23098968062235791798
                  0.23465851234331044917
                  0.13437643075198968390
                  0.32751260235424800582
                 -0.04673701417968527394
                  0.30474416990194097554
                  0.01491630816216018597
                 -0.10604273229886455876
                  0.18805635745314916440
                  0.08759077469953328865
                  0.16184355639774197777
                 -0.11586061255593613217
                  0.16460669307105829651
                 -0.21303202908890625511
                 -0.02358408926430832081
                  0.14437861169194238231
                 -0.22535651554351732173
                  0.27230841461877824949
                  0.02024521886161147893
                  0.10998492632549369818
                  0.02628462868979700509
                  0.18864052540919840073
                 -0.10236268889346454569
                 -0.18454674994507838659
                 -0.23003426611666055734
                  0.27137515345210388995
                  0.22724417400935623124
                 -0.02992555003434865454
                  0.17831088161134400760
                  0.17392527739685967325
                  0.17041268822158123220
                  0.19161573458906022704
                  0.11686294611992473214
                 -0.22153821503651049962
                  0.13632835366583950787
                 -0.27433308628774849547
                  0.17347436714092132060
                 -0.26659217132926271709
                 -0.25802834010523412189
                  0.07828265180580686045
                  0.01140137059383975089
                  0.01962130287558919856
                 -0.14434926558209912328
                 -0.21660678619678613854
                  0.44895304558595072741
                  0.14977720236514519003
                 -0.25781890975820437317
                  0.18731560453720744186
                  0.43803482165993551378
                  0.27230680366274900850
                 -0.26951025749895740624
                  0.07436124792307920173
                  0.16964685172938212543
                 -0.07009646752892158272
                  0.19232700252701501187
                  0.20352783187073344995
                  0.33057624299913834776
                 -0.14357131826581340239
                 -0.06428169905878294843
                  0.00447252449520884471
                 -0.19366836111423721412
                 -0.45249458331317210513
                 -0.20679600010529125553
                  0.08940324558473818073
                  0.25278765255420726499
                  0.18562120242820379090
                 -0.00829205913874126940
                 -0.49711835157740835722
                 -0.26077604133597731551
                 -0.29054356506071032928
                  0.21682733663475520225
                  0.20303828691020286978
                 -0.16282548470559929377
                  0.20718659440055206544
                 -0.07662432799411506013
                  0.06426112574558201507
                 -0.15119991101509050457
                  0.32824165517840636630
                 -0.25884942155274914821
                  0.10353027099555946189
                 -0.04462718016293890089
                  0.28461456944514129663
                 -0.43676398933939075686
                 -0.15282505131825896427
                  0.18174059250467364257
                  0.25574675966075827160
                 -0.20911055534407441137
                  0.11960948763507300852
                 -0.16807446571858752904
                  0.05661017483097101344
                 -0.27715342412182025766
                  0.01739547678096881045
                  0.10150018369185462297
                  0.06011191470141156318
                 -0.19674672340234938828
                 -0.32911432735472717637
                 -0.17085424081503891580
                 -0.14760336744623453464
                 -0.18569620874450978865
                  0.08121343621025423065
                  0.19591215767582559337
                  0.25180272267350523041
                 -0.30279507643221198476
                  0.09907683661728758362
                 -0.03481050610600614631
                  0.42517347782174286230
                 -0.39765955260250085423
                  0.11258565901256599451
                  0.21968558543038585462
                 -0.30985159843193754714
                 -0.00931554395661869650
                 -0.23686794173477829228
                  0.06832904457221222749
                 -0.25458445105464694302
                 -0.35111849394867161722
                 -0.24102387641734343560
                 -0.28394201967777449314
                  0.27129349921572581961
                  0.06932646590805029152
                  0.05282581010588235926
                 -0.18412411709268949878
                 -0.20218109796187075378
                  0.55382192769106097785
                 -0.10490430344915380179
                  0.03973909605321540583
                  0.02925906586114505187
                 -0.18487481916962958395
                 -0.36943761556352694431
                  0.50016366246083165947
                 -0.32866981600913608430
                 -0.04581956202237392334
                  0.27647190723021741743
                  0.06259577495630548605
                 -0.36129334778257826688
                 -0.08544233981972007563
                 -0.25736527220593263809
                  0.08392200790659853915
                  0.12547153184555698280
                  0.19788060972173504570
                  0.02868920819299481534
                  0.09154278754567521381
                  0.25586539825712545371
                  0.00644511084787958294
                  0.29922929580474705302
                 -0.08953741372467159676
                 -0.04425718583835843573
                 -0.19742797874457340690
                  0.10896697660812944275
                  0.08782114963043410882
                 -0.05889387638326626373
                 -0.18819464012996178770
                  0.06598133132301257919
                  0.48003278528127457658
                  0.02837616741318629496
                 -0.30166108154624710069
                  0.03855831911053124450
                 -0.11462576644171812434
                 -0.18670798378688074903
                 -0.33288858293848699876
                  0.09225916980051902805
                 -0.03221877863875469844
                  0.23882551803475013386
                 -0.57135919513869781738
                  0.16211761311704361854
                  0.25211953731843145254
                 -0.23481139928686978191
                  0.23152429566253610038
                 -0.34323629282190887269
                 -0.09937076451333605454
                 -0.04904826349485272297
                 -0.29874330608511590057
                 -0.44255047088474963601
                  0.12368839401785111654
                  0.02588856806833155291
                 -0.25594259250480866363
                 -0.28071935903937839107
                  0.13489915111221625899
                 -0.04101600328000659657
                  0.27062173260236038752
                 -0.26292376132492945029
                 -0.32246693210622856540
                  0.38269992564061910967
                  0.19056417765728514424
                 -0.04317118197099504423
                  0.21575619570116588708
                 -0.05256045309538172339
                 -0.14151994241074788983
                  0.15301572120138454136
                 -0.21673713760504872972
                 -0.04284839022656730667
                  0.20957437476952281430
                 -0.08109898443111153432
                  0.04957394251886886732
                  0.00034468487812967666
                  0.11059944174801278338
                 -0.20352732988513436152
                 -0.23565169131336741182
                  0.25203470181535897465
                  0.07952342894747919944
                 -0.06159877934123183379
                 -0.36559306130908592047
                 -0.16665373978327482907
                 -0.18680743993197435060
                 -0.12298051077970686973
                  0.47169820883051255533
                  0.44210217953765335031
                 -0.35927241995226472104
                  0.18866434412391630548
                 -0.01392371192549304512
                  0.03074315867869525237
                  0.02373343087629515430
                 -0.08734475384406277521
                 -0.15805916905931377547
                 -0.44355721530295222355
                 -0.15481247809283307793
                  0.16761819474915920503
                 -0.31607798838498857297
                  0.13012839856466329458
                  0.02664376784214604957
                 -0.14437747391172495171
                  0.32092836120918322163
                 -0.09384670962535049399
                  0.30857068733363912649
                  0.25530248242541120351
                 -0.10873213885183283245
                 -0.45729915579997693076
                  0.34018626714143102019
                  0.24010476129886731966
                  0.07937152752290839441
                 -0.06715829112696000691
                 -0.11830591041962326693
                 -0.21498301427989369161
                  0.25427461841911597196
                 -0.00948671307675306823
                 -0.05657522444223335445
                 -0.14123914732379691528
                  0.03002090478772957011
                  0.02361235413278418502
                  0.24139974973711564310
                 -0.29390487550797450567
                  0.28582330856700111088
                  0.04150578147953622177
                 -0.22042855889336329667
                  0.27111391938231194088
                 -0.29276614725316946197
                  0.05066956076744295878
                  0.07797678184464615359
                  0.22196251160075447517
                 -0.07508653803540353555
                 -0.31144444681782146311
                 -0.16152996636648850326
                  0.30667115269734207539
                  0.11603874548148188084
                  0.31120067905866882763
                 -0.23428355599837902279
                  0.11533506306862688351
                 -0.15498230962180317705
                 -0.25030142105161873323
                 -0.20886091533793998964
                  0.00491816750578184629
                 -0.36469603312431536635
                  0.22475446845445828936
                 -0.37161636146614213105
                  0.26799110172759688098
                 -0.06526185928896634236
                  0.27826830711947642127
                  0.07059973569457828058
                  0.07060810090793726013
                 -0.20117718738051465488
                 -0.51315197172463222763
                  0.68251251810152968602
                  0.06728117835143737624
                  0.00790785894994913002
                  0.24184347199316016952
                  0.41471662938332276571
                  0.22873603572396947192
                  0.01213856306371656306
                  0.23079425919352092311
                  0.15334479045596396962
                 -0.37201327111808729642
                 -0.14363921160193493520
                 -0.16270544799253233714
                  0.11528332883391291530
                  0.03819611262477008023
                  0.38772048463323233181
                 -0.14005481733188071547
                 -0.28999676747189651049
                  0.19085591944103774686
                 -0.28998557657881268712
                  0.21097670750739996870
                  0.13554893857581457040
                  0.04506223481769648653
                  0.00052857347065911591
                  0.08974786264079419318
                 -0.08045156921159234142
                  0.03228737968022291766
                  0.12839311205388317938
                  0.00798806418989424574
                 -0.15801746778569994434
                  0.14428721105166031347
                 -0.22469220900519737416
                 -0.19072623330323382196
                 -0.38619972796407986415
                 -0.12024136415012008638
                 -0.39446196119068188679
                 -0.16457678447796283971
                 -0.15474488629944227469
                 -0.16749919702099716479
                 -0.21946940433696779382
                 -0.23178930240745207469
                  0.14369540346493792082
                 -0.03962932954451976741
                  0.36863503600681923889
                  0.30007291305852096253
                  0.18933996579002362881
                 -0.18130074218035610589
                 -0.11088918623960559995
                  0.24501485684350812755
                  0.43279593838875057843
                 -0.11985072765603171918
                 -0.15872191203790106395
                  0.04670704350186859893
                 -0.20543912115960349940
                  0.02823868016565089095
                  0.19460740172595125674
                 -0.00527655309911072463
                  0.31689015854315288889
                 -0.05827864546216461605
                  0.11310698783582634475
                 -0.21889436021405073163
                  0.16683433869736488675
                  0.18249027425383726464
                 -0.32777589583723848454
                 -0.21722927614800430218
                 -0.09381351852579498940
                 -0.14827069062662984189
                  0.41272629327756893414
                 -0.00599390253708456666
                 -0.23399819639155297613
                  0.17129706812253123194
                 -0.05110956282946128165
                  0.29305411714474149942
                 -0.20114396468089323911
                  0.32909637548529602213
                 -0.10649656796652405555
                 -0.14817595904887648217
                  0.22789281334058913986
                  0.18337541593626194292
                  0.36214567761036603466
                 -0.33045219013844034928
                  0.09199057414355943374
                  0.04419753295965036383
                 -0.24632434738654374051
                  0.38619815966274939623
                 -0.12185721239935061455
                 -0.14258789529756429881
                 -0.10128247853866759187
                 -0.01810144683918204003
                  0.22495983574729946919
                  0.23019772178203520840
                  0.10886541858238713010
                 -0.50280961138386881526
                 -0.23583579243613136955
                 -0.24651136897762174205
                 -0.21614556472199678017
                  0.01046104671918489382
                  0.20097709642819808207
                 -0.04644459586283314345
                  0.04194992684049159148
                 -0.03519768937460222846
                  0.12999376297199119468
                  0.33536909872234310637
                  0.15923359794059899208
                  0.02851740963109972160
                 -0.24989897198078042662
                 -0.04111583893058924633
                 -0.20364262986576570080
                 -0.07514937535658031131
                  0.27881693378745575629
                 -0.25457600153328524550
                 -0.23890736190503697456
                 -0.19640045819494497681
                 -0.34446565461523231955
                  0.10722231809925465706
                 -0.33586433103038887404
                 -0.16407894179570442494
                 -0.02654385668089087949
                  0.18730051479102324818
                 -0.13589527400983325567
                 -0.18206776663809229322
                  0.24672342929514948229
                 -0.05491230619778928596
                 -0.08616890865653160925
                 -0.24277150392397167655
                 -0.31400254262913568359
                  0.13707009647902174132
                 -0.24665954134205100856
                  0.31268933273788129812
                 -0.09443654769825150785
                 -0.18186252069709274437
                  0.06092995867941911753
                 -0.08718396458728142062
                  0.13172668548756436002
                 -0.15171123245183373851
                 -0.32142833777662593864
                  0.31495913921401796909
                 -0.05204981813272393371
                 -0.19280229272583204736
                  0.28788707488325898654
                 -0.23219599739154100915
                  0.16140352594441650935
                  0.32131849831408731966
                  0.04220550080445380908
                  0.10198282810468194126
                  0.31956548641089022045
                 -0.20939076599326300610
                  0.10501662860182660320
                 -0.08133087320997287040
                 -0.26738625401555510264
                  0.22955881255678664554
                 -0.33290012364204185635
                 -0.12890499184506726271
                 -0.03027934299533643209
                 -0.27144430569278010790
                 -0.04010460030248570729
                 -0.31351498267834226885
                 -0.32967710212387191238
                 -0.18815393358561313675
                 -0.40440674100887719078
                  0.15733212440134397569
                 -0.05785363706221237357
                  0.11771487773874401983
                  0.47663365394142220843
                  0.30825493660490183023
                 -0.12503878470045168281
                  0.03744320984373085415
                 -0.44551236707047536800
                  0.04917526382262934342
                 -0.14111912281238311873
                  0.08388568270594555509
                 -0.42231588032170541691
                  0.24506158072662734271
                 -0.27207157360253919620
                  0.11177138541389004811
                  0.15881958848544214247
                  0.33564595375853772952
                  0.16820413002335962704
                 -0.35707677917416885682
                 -0.06982356863220098853
                  0.30829364099842160307
                  0.16564835563006186092
                  0.13745443625370037943
                  0.55597771500813686352
                  0.17499037792408872471
                 -0.10182306710176289299
                  0.00735305084358929724
                  0.23151785780876163456
                 -0.21090366307587937733
                  0.44817222513429588737
                 -0.20884850214955752445
                 -0.03722790986870883750
                 -0.31618371654167387597
                 -0.09868584405426998607
                 -0.21994301415918537934
                 -0.01285234610127099913
                 -0.06842690344632992860
                  0.23789935293729186361
                  0.14095506442052291307
                 -0.09509542041564685022
                 -0.10757939135653439566
                 -0.14075631657402731811
                 -0.01866393580123032123
                  0.18688664139539648557
                 -0.07714142584208903697
                 -0.05285331756935141012
                 -0.09550981815206729952
                  0.39248891885736530982
                  0.15390378803623289139
                 -0.01723015707731935867
                 -0.24824733531321541147
                 -0.17526810907335332868
                 -0.45546484763302830245
                 -0.04569816521995063996
                 -0.21577543509375998743
                 -0.05475374796293461938
                 -0.12806264116070850689
                  0.17446666593626888875
                 -0.17221320277278950872
                  0.01975691641856083466
                  0.01491320164776717243
                 -0.12853888978340491378
                 -0.07666496518281763761
                  0.05354418406568519501
                  0.22480558943912021252
                  0.35130225241095275335
                 -0.32327377404585222465
                 -0.17734427214345613311
                  0.41394932867224509820
                 -0.26273845310930210584
                  0.26278219558752213825
                  0.17397004929790158001
                  0.01538444713556864560
                 -0.28494017880190453118
                  0.01207886524829287350
                  0.23204741966353464866
                  0.58449516052722427784
                 -0.23932608913463490619
                 -0.25279322386673641621
                  0.31828451622571046764
                 -0.00062770940844871816
                 -0.03520453313599858358
                 -0.01542052471561236593
                 -0.35502793182466702016
                 -0.23237121776822838859
                 -0.16915252249311638066
                 -0.30386593725625110629
                  0.19948916330913044059
                  0.35549404801569611800
                 -0.28929034974831441263
                  0.08189580843022326029
                 -0.40349791952137609163
                 -0.21223992386276593902
                 -0.26804753101657685654
                  0.27057118574180538673
                 -0.15485598689349500123
                 -0.06427630168696031598
                  0.22129001896456587661
                 -0.06358719056745583409
                  0.28465596233793888370
                  0.12097388465884749420
                  0.15732586230519160497
                  0.17742161124579086673
                  0.11661033377805192501
                 -0.10725551288965697039
                 -0.24705032484886610411
                  0.15223736032993881451
                  0.14935157459739747954
                  0.08332584026562385449
                  0.13734752441303771375
                 -0.07449930554997576115
                 -0.27757290448737542699
                  0.19613621607200718011
                  0.27597668544876452490
                  0.12007535677003720875
                 -0.22436791962669402900
                  0.08395921211639585657
                  0.22842915868947477609
                  0.18145887369545787848
                  0.32105358549320972550
                  0.29650410991776493530
                 -0.18195142731715546747
                 -0.19560923946037730992
                 -0.11189165824123221971
                  0.02782200354461289785
                 -0.09212596966682103095
                  0.24517648485663942615
                  0.24465868478119698337
                  0.20359473229402838546
                 -0.20984478671969125640
                  0.01000735869371832676
                 -0.11913733990703463672
                 -0.17854791576873091374
                  0.00945423100721360515
                 -0.11981513360305745541
                  0.12763460085684424916
                  0.24445949193272942246
                  0.02528628724549369933
                 -0.01835969701170169985
                  0.25446040925940771604
                 -0.19843034229579178951
                 -0.18666880092002779978
                 -0.20253868500539970454
                 -0.21184899277281765695
                  0.05773717187575053145
                  0.11479844729230402611
                  0.03678240791571233542
                  0.24815806744096186032
                  0.18004118479654257490
                 -0.60384831214333101190
                  0.39607903732525157059
                 -0.23690356434962314691
                  0.24697925465950426593
                  0.25738867257841835379
                 -0.01433271531958609478
                 -0.46749781446528620998
                 -0.10193388672358996705
                  0.07737687158407308141
                  0.33256319863935362990
                  0.37048726344111632125
                  0.27234788637747653350
                  0.08469531241766051211
                  0.36119335618313996861
                  0.15318969019365977213
                 -0.31838301417491871037
                  0.11854746282680818370
                 -0.03394364560962469940
                 -0.53474988488304286971
                 -0.37555997924196155013
                 -0.16532147581167366823
                 -0.22076251445927394523
                  0.12149897550987313888
                  0.29887245192822098350
                 -0.42983028723917299230
                  0.04517057198881013064
                  0.31686435685158298448
                 -0.03084945329248328649
                 -0.11373968534398284924
                 -0.45456724979944745924
                 -0.04451820937954466262
                  0.26335156378557916801
                 -0.28460947545006520798
                  0.26954426702205797062
                  0.13259693932502231162
                  0.10112532989213246504
                 -0.12509783277760591624
                 -0.38903462302227026504
                  0.38450753435627910148
                 -0.34992635211696887509
                  0.44583740471595251220
                 -0.21598214924511921486
                 -0.76353396779979265663
                 -0.40411247482001433351
                 -0.51100275208344891897
                  0.01796764856029000462
                  0.17232090672958397248
                 -0.58674055071386732596
                  0.20333606954112054543
                 -0.02394145832051847861
                  0.45488088242848223608
                  0.54165053303528298834
                 -0.62434651345774072606
                 -0.23311210871877752204
                  0.46323753925589084002
                  0.25546343681924393865
                  0.24502201394728348460
                 -0.13418302356691277910
                 -0.24918814940439384942
                 -0.42563180979480885746
                  0.63436430757428330374
                  0.75851658445155656363
                  0.08727180663645973946
                 -0.41159164065292286327
                 -0.69264513384707826482
                 -0.45234180046879612913
                  0.37228996743746561870
                  0.19382139110149143590
                 -0.44356831183014600040
                 -0.66917448650971722568
                  0.00712889054164668294
                 -0.63273984814668648990
                 -0.16814453611297225377
                  0.53124082625125401691
                  0.62538063098490825897
                 -0.29514089213631755637
                  0.14790699696852790956
                 -0.06932226767108626286
                 -0.20293017813094171853
                  0.37739879371123602469
                 -0.37216636801257318989
                 -0.49962739873451089689
                 -0.81390678133954763585
                  0.82872367039744032624
                  0.16765165087246344799
                  0.04849984987704693967
                 -0.50169261388984720540
                  0.92299209447882357704
                 -0.76993916352127100833
                  0.04250567929444236392
                  0.43743797870135869843
                 -0.21496532625634034996
                  0.19056286069647965231
                 -0.20037269330605173012
                 -0.97144003440220805246
                 -0.41953111114782049018
                 -1.09360019789423357217
                  0.38733477849393782577
                  0.07203975133919919560
                  0.04607965076235550489
                 -0.49066367703988350568
                  0.33180580356998845559
                  0.68559226390469585333
                  0.00706113936161923382
                  0.96019885519981584832
                 -0.65491127057504161524
                 -0.51278241138179325720
                 -0.06188242735009334694
                  0.39636576222074798581
                  0.01014472347676788344
                 -0.53251997100239678584
                  0.34026456150941031265
                  0.36542826318568943922
                 -0.01453029603588091093
                 -0.64732370826152751953
                  0.26531190721369724006
                 -0.65342265257987364180
                  0.23892522275350730476
                 -0.36581740791754996378
                  0.09855205957457262300
                  0.19452254334149349235
                 -0.50547795893225522246
                  0.10667745219641582011
                  0.39731806467197527954
                  0.64238134661552726001
                 -0.55878849655858930934
                 -0.34230126402513028072
                 -0.21647420104738682167
                 -0.06707087556968080455
                 -0.48261523092495811627
                  0.28960473032368327928
                  0.20981775578853478770
                 -0.54127160595412526778
                 -0.41675136938670681586
                  0.14041973826795134395
                  0.43034978475487067895
                 -0.69768956908950297002
                 -0.72489854556320532097
                  0.58979707102660394735
                 -0.33960591385318161795
                  0.37314242136060293831
                  0.71128909576309529150
                 -0.18392031418624679717
                  0.46311142968996404923
                 -0.58834941931357453981
                 -0.15206068468476385824
                  0.28742270569562433646
                  0.38511797763328264876
                  1.03633281410419120228
                 -0.10357332736856061928
                 -0.18283775394441836859
                  0.73438575966758312674
                  0.25381747124075254574
                 -0.38212842510691319431
                  0.09353128074168003125
                  0.55048588764404193796
                  0.56441634912927574064
                 -0.39388695268623558077
                 -0.36304897027887217398
                 -0.01824533225746812620
                 -0.27387508217739253702
                 -0.40343059849778356574
                  0.11981657555900858403
                  0.71313092473686101602
                  0.43752519729631106360
                 -0.47284676826360788615
                  0.77431267172340811911
                  0.16698624112230872618
                 -1.03188963214271889335
                 -0.50334504983427519331
                 -0.24099687280450379778
                 -0.65736133109815386710
                 -0.48593058484919759987
                 -0.55119845046487558893
                  0.54568561505848467430
                  0.32444848068316578527
                 -0.37675199204002152165
                  0.41831832138863572768
                  0.34277936363401745323
                 -0.82777958102652959838
                  0.57226248212079577904
                 -0.12860655979578422548
                 -0.41746550880645844073
                 -0.09065601065810616199
                  0.07990939839525294797
                 -0.19222917728460300890
                  0.48830063120397521059
                  0.59615790831070436528
                 -0.57956157536851315992
                  0.69074393147975243767
                  0.69881998283060409172
                  0.14880649469341661328
                  0.37328052184055526830
                  0.33472682005165366181
                 -0.12138057345160933875
                  0.48180907263786099115
                  0.33359816799563585255
                  0.11064667383226808872
                  0.58690287658576956176
                  0.30994013646024826114
                 -0.39702662802965565936
                 -0.13485790680267473185
                 -0.25437067447396832787
                  0.29411057289662523306
                  0.73451918269104010673
                 -0.25392159826756321994
                 -0.14512102081092484451
                 -0.62197542126018456887
                  0.47909548254480299745
                 -0.20852362554291711816
                  0.43013103369421756828
                 -0.40033119499495545268
                 -0.62241376356782818213
                  0.00842061663213384583
                  0.13801002795768529952
                 -0.12164398219208408247
                  0.75732334555836211543
                  0.67036834734758710130
                  0.36739256598691139022
                 -0.50840212723745137335
                 -0.28232408308531320440
                 -0.25138779607003597372
                 -0.52728831653921626188
                  0.35325497391498711375
                 -0.53177037105815472273
                  0.31381217626513713270
                  0.51562360915343097290
                 -0.45070544345782836970
                 -0.12273985690848272789
                  0.14056790566579083213
                 -0.61196316333468891990
                  0.26853014244233625041
                 -0.70705773224687362699
                 -0.41564755861340046961
                  0.52335522824674884923
                 -0.00771493854614857186
                 -0.44607879872078098904
                  0.35015135118761181454
                 -0.30199276524108104036
                 -0.33358160773016271028
                  0.31593640320308802316
                 -0.39548410440462439253
                  0.20651854624095242197
                 -0.59084888733413043482
                  0.52468079693983493694
                  0.52756382313138072693
                  0.43322673832380148573
                 -0.01841942986200494070
                  0.65181730464562226413
                 -0.60690403961370642527
                 -0.59874402051905117883
                 -0.50234163653816910067
                  0.52079206220700180463
                  0.23640124973761877936
                  0.36625986288063283602
                 -0.37651458087572603484
                 -0.07673110737518520907
                 -0.38245228942350995016
                  0.46770983582220643227
                  0.73043709536771450619
                  0.00612569660009477587
                 -0.14460635576156416482
                 -0.49987748730876119252
                 -0.35559495644731264896
                  0.98387695406860020686
                 -0.95297156093271540023
                 -0.64247459182222310670
                  0.59829120652964618010
                  1.03869058235402178525
                  1.09178184048474413714
                 -1.17725621360896592904
                 -1.18281909836851117923
                  0.93465637130686640699
                 -0.93746087061163263510
                 -0.63116344136484492378
                 -0.31695834895080399196
                 -0.58837613769369856431
