49	2	1
15	15	
1	1006
  0.0507241256210289	  0.1350892126924690	  0.1024340671507752	  0.0870047225365756	  0.0117280622359771	  0.0090713102024883	  0.0401981780626327	  0.0526456192124833	  0.0390688495714044	  0.0526472929895978	  0.0128772518734194	  0.0349337520861550	  0.0787178325347746	  0.0051507095527377	  0.0201501525478115	  0.0770870604694952	  0.0406043632751707	  0.0007897724339362	  0.0045851620069163	  0.0079607739028485	  0.0045853077319956	  0.0070930878194145	  0.0205829228717591	  0.0029067990406772	  0.0022483232690562	  0.0102173715165808	  0.0139644687889952	  0.0175438674774621	  0.0139767565232344	  0.0010210765268363	  0.0016708903707123	  0.0024439626818440	  0.0040818031299596	  0.0077092279890534	  0.0077092281877158	  0.0159349436335430	  0.0205823192747425	  0.0445448000876842	  0.0205836280435692	  0.0013025100045405	  0.0044984881546965	  0.0350776327372242	  0.0034173979008577	  0.0097471817668055	  0.0340705222415964	  0.0005227761098339	  0.0037430942999043	  0.0438567660680756	  0.0148708932256350	  0.0651476641831463
  0.0507717924131391	  0.1351908448869480	  0.7576813258026003	  0.2333457431468803	  0.0117280694846243	  0.0090713125605901	  0.0402346921310185	  0.0526845825203215	  0.1458798109113945	  0.0526862562971013	  0.0128876771560713	  0.0349560767050221	  0.1825442496586525	  0.0051507118248608	  0.0201501581607107	  0.2928141077602466	  0.0620200575884364	  0.0007897724341112	  0.0045851647848654	  0.0079677665904696	  0.0045853105067088	  0.0070930896274921	  0.0205978604547999	  0.0029068006260407	  0.0022483237870389	  0.0102253575686486	  0.0139730275040927	  0.0359545585810488	  0.0139853152382584	  0.0010210765271818	  0.0016708903711891	  0.0024439626820836	  0.0040818048704681	  0.0077092301409023	  0.0077092303395646	  0.0159489290348321	  0.0205972568579117	  0.1145323896996788	  0.0205985656264817	  0.0013025105014803	  0.0044984893876310	  0.0719192935225391	  0.0034196780316062	  0.0097520856125810	  0.0492645860898159	  0.0005227761099422	  0.0037430943002351	  0.1152237328103985	  0.0180048877885165	 -0.0043465155434602
                  0.12141408694782532263
                 -0.19707394094201521884
                  0.09535219584796368608
                 -0.09919582494259693295
                  0.17559597048001510111
                  0.41516746442665014571
                  0.34514633682576367768
                  0.08397456222244607804
                  0.14612179985796813764
                  0.19341831046854973675
                  0.01006554253564847894
                  0.18136715358377095142
                 -0.04820439835070017970
                  0.13967831218075285604
                 -0.01591280556919303854
                  0.43677224001571784973
                 -0.02133401123367463514
                 -0.03481222669385614088
                 -0.06116847169387418931
                  0.39174006570444347419
                  0.16168369978922714214
                  0.14963012747377119060
                 -0.08042566716920165892
                 -0.01206098775605666043
                  0.38415317058915432469
                  0.22325016462969943243
                 -0.02159435978062822226
                 -0.05459330871717411188
                 -0.07729430608149787107
                  0.04341827453693268557
                 -0.20038020710820264592
                  0.03178640599508617687
                 -0.39145342625451096108
                 -0.05103324755116497857
                 -0.56101744598773728434
                  0.17341828277985288365
                 -0.40984437866390516225
                 -0.12712203060105869978
                 -0.43892351290672898534
                 -0.39913252576348884348
                 -0.22600805032910628589
                  0.06630929977472900527
                  0.35322581338039210630
                 -0.27620303580444238722
                  0.11074146325188956308
                 -0.31619874771753914144
                 -0.34003625874766074677
                 -0.20499482279176864385
                  0.02412393584088228654
                 -0.24003150201922582307
                  0.29164039019411430731
                  0.13135549606222843289
                  0.08908242960797010945
                 -0.03410201563622537735
                  0.14032450587041667145
                 -0.21047552997488172544
                 -0.05735822028522255533
                  0.25161937908946241382
                 -0.32598749350351796661
                  0.33493320631239203999
                 -0.31014958613785659214
                  0.04113996462979808283
                  0.30688083718625763785
                  0.10193445548604389284
                  0.22821166757241886924
                 -0.07370398389196430866
                  0.28447132588496742978
                  0.28860856840374116139
                 -0.31431609247493424997
                  0.12606467364561027567
                 -0.13796460742719052206
                 -0.01668862023323965799
                 -0.00325694744380447369
                 -0.09249338277217239446
                  0.13712443539608457077
                 -0.06891699727351903448
                  0.16775884575618024708
                 -0.03943486294444081830
                 -0.34112053047087081969
                  0.14927297566200478651
                 -0.18963270210333171839
                 -0.11138066243601037197
                 -0.03436188953586217371
                 -0.23443835098081297619
                 -0.43289185385444245435
                 -0.37804000430721002024
                 -0.33234093973344591699
                 -0.13726310693597812418
                 -0.20932788843378682953
                  0.18407499750230951752
                 -0.11485920543661408411
                  0.21953676211377390337
                 -0.13174445558626207697
                  0.07677050300540193273
                  0.19877374825484445120
                 -0.00111609331249984856
                 -0.16581532582741076443
                 -0.21022243080942276672
                 -0.00140259486391862420
                  0.04708351989177513713
                  0.08933722841915849033
                  0.59292572270059828998
                  0.07030705542069859426
                  0.07225070225654102452
                 -0.18542540875790566868
                  0.05040122152866721023
                  0.34617510563319064953
                  0.30044277645016570499
                  0.32418306551623188305
                 -0.07983233259705040108
                 -0.29252642227030101196
                  0.04210955544866294697
                  0.30582542878061541591
                 -0.01833090686919240306
                 -0.27786191485560979286
                  0.14302405907247436878
                 -0.20765704880413823896
                  0.09375573168196379981
                 -0.02619526972676645277
                 -0.16740926123762853162
                  0.04428965989684945093
                 -0.17171098604113815833
                  0.06345010229900639731
                  0.13567283455876899545
                 -0.04247997947858345169
                  0.09559002671803842888
                 -0.16488886705488933759
                 -0.25566011657433512783
                 -0.03585792327282441572
                 -0.11456780247321345090
                  0.15749201527421696767
                  0.19639097384923409617
                 -0.24119718874425458144
                 -0.13064527908350409557
                 -0.05962817507275401663
                  0.18251000263888023101
                 -0.27830957687012330970
                 -0.04455487129229979831
                  0.06720851640714246844
                 -0.05464548724388799267
                 -0.20294302063999641872
                  0.08896592584335140386
                  0.20844147589453640435
                  0.18204208042599320794
                  0.28001556961117513023
                 -0.35724732766167244247
                 -0.03451773424664437290
                  0.31656227301388728534
                 -0.48233719674677022482
                 -0.08486203713794970849
                  0.00763664417531857362
                  0.43985215775375424707
                 -0.18583569423190018921
                 -0.15208059262134834833
                 -0.15877093951208395839
                  0.21292498939465526187
                  0.12157057470552844192
                  0.08963742330352628129
                  0.08335529686556017448
                 -0.35342449838381267968
                 -0.38006089361912714919
                  0.14503289248842515802
                  0.42399018762487833412
                 -0.04006682218513111376
                 -0.03037651342181509062
                  0.38489834399035777190
                 -0.01797221531716917259
                  0.18816775295117335598
                 -0.17019766860837523548
                 -0.17959909504095297739
                  0.03076016318277878525
                 -0.39661593894426688811
                  0.26869225846821598314
                 -0.28371086479706919548
                 -0.26381138777884677316
                 -0.21663412410289115129
                  0.05528394536340570931
                 -0.32810651986248967615
                  0.16599478296207434425
                 -0.07501178282408586806
                 -0.22564782544806386011
                  0.50048030150465971921
                 -0.11441673556777530452
                 -0.24219786806892892872
                  0.71853351395372100363
                  0.07587509223817770487
                  0.44788232843351216683
                  0.21568072688462255893
                 -0.35807163215784632015
                  0.17597517744892354763
                 -0.06201150488022438845
                 -0.28169348633429008855
                 -0.30145942824918031677
                 -0.55838851542323564292
                 -0.16118466559680991179
                  0.30588554379646698544
                 -0.08857208064305170658
                  0.31772112980887201594
                  0.16794573815706034803
                  0.65904313643494982777
                  0.03437825635569473348
                 -0.27089822945183106295
                  0.01506092635993261028
                 -0.05894207313309349217
                 -0.59694063397959551409
                  0.12919536149106783385
                  0.15444855627591672076
                 -0.32588521075337678612
                  0.74260628141779394529
                  0.13212138535252271332
                 -0.17187437587182188836
                 -0.08192484582729477050
                  0.27556487447123395595
                 -0.31267802703308411605
                 -0.22993753840546593548
                 -0.14835771894349011890
                  0.22213789615383017217
                 -0.11134938764536099487
                 -0.04521583632420569238
                 -0.17646190640055578469
                 -0.20774322819750865032
                  0.21505213526723659934
                 -0.10227730309766615291
                  0.25348157325505144000
                 -0.12291636911185965797
                  0.23952023464100083427
                  0.18762084112993537843
                  0.31160862377851106242
                 -0.39545386933756937475
                  0.33792386889222914004
                  0.22373618760310659548
                  0.01449786185234942792
                 -0.25789754426851635438
                 -0.55312352226672478750
                  0.15120287009527891287
                  0.12729041659800141573
                  0.17761692962800421092
                  0.47585228660857886718
                 -0.37163081872231584768
                 -0.58619813409970833451
                  0.12590899681500231089
                 -0.04108711935903379409
                 -0.53108451764252462279
                  0.26097351010575992047
                 -0.18857056528293794639
                  0.04839082153200362918
                  0.45705446513881659021
                 -0.26583811720160732683
                  0.11998871248192023720
                  0.26484737644325745398
                 -0.23970675028538374063
                  0.40125701397900637168
                  0.06048045960186010372
                  0.39090146269393011291
                  0.41733991518736962556
                 -0.05551461365314049046
                  0.04460267533735663009
                 -0.21574873677173933562
                  0.13411088641041521430
                 -0.47892411908131837794
                 -0.00573219667524773983
                 -0.07121911833285560212
                 -0.02404783862035691708
                 -0.37587040519399156357
                  0.39712818632986796041
                  0.20081050458011243109
                  0.21211428434995452386
                  0.39742277412397952752
                 -0.01874940127255913386
                 -0.13576517741511259785
                  0.18335108137091860048
                 -0.15091575624973341263
                 -0.41168124401653821698
                  0.02655083183737718885
                  0.04270514070046721455
                  0.24105209917590700308
                  0.07144528757770511607
                 -0.26578970628598103110
                 -0.44142328906696615132
                 -0.31795627725669317609
                  0.28546073505905544820
                  0.35711395744359958337
                  0.16306583402531130145
                  0.34841642721376359093
                 -0.01421810666736571770
                 -0.35602594012121224765
                 -0.03285402239206067915
                 -0.22691027803052726819
                  0.10171237880720927771
                  0.18413807093432685291
                  0.07900369260761404278
                  0.14172373850642427939
                  0.00961923357365810847
                  0.19445980011103158880
                  0.24345630475450191765
                  0.07779305310642933846
                 -0.10131856623239950121
                 -0.01982784181244997418
                 -0.50344219440372373064
                 -0.35160784175612974645
                  0.11990530892934393725
                 -0.39881274850449194291
                 -0.16516986708089190228
                 -0.08800369424471203572
                  0.00848921324297209970
                  0.26378628310045471039
                 -0.19586427511638723753
                 -0.07945157320479831475
                  0.39609806863747293315
                 -0.17863501298914311044
                  0.02042163164344271489
                 -0.20551200980701958554
                 -0.00535949510770892049
                  0.22333781227052926233
                 -0.71152140014404163804
                 -0.67920108718014704507
                 -0.50769710167498549591
                 -0.21500642808394515582
                 -0.15438951782125076573
                  0.20510106690865811951
                 -0.02278744465934239016
                 -0.00912253094652295572
                 -0.01875138157441762904
                  0.05935806321027278093
                  0.71868638724637223802
                  0.80385262750298880352
                  0.19143366219660512551
                  0.64451411564518257258
                  0.05846976196963264011
                  0.41655492265350824166
                 -0.09394396335012467070
                  0.22404283919398118585
                 -0.35456593318548434990
                 -0.07144949740789942327
                  0.19810814234904380871
                  0.22535681278932814808
                 -0.25821416246522654880
                 -0.00858093137188652155
                  0.35181657795469456484
                  0.06717800269961389514
                 -0.25022322045799105794
                  0.07084240024568015659
                 -0.06318437063691226263
                  0.08356241878763499831
                  0.28791030145877355428
                  0.44088786944025160075
                  0.04981746599200270742
                 -0.06367443705121332564
                  0.14187794132025460803
                 -0.05078490003949175796
                  0.20975336791545029502
                 -0.13123710574837865739
                  0.30400128003907878060
                 -0.19825912310123272597
                 -0.23789051886056364338
                  0.23995217826190681776
                  0.21828846301580601130
                  0.01199003993083727973
                 -0.07686912447465146792
                 -0.11113160081915739175
                  0.07666323283571292724
                  0.13970123895848995943
                  0.19040506618275343520
                  0.15411955222442869085
                 -0.05873464620168775824
                 -0.27056538880812325276
                 -0.31830919085473385888
                 -0.10113912876670227980
                 -0.14139035215279185942
                 -0.39208273823490719101
                 -0.17794770674706550384
                  0.27670199759578040233
                  0.24467415040666276593
                 -0.20106771694140973539
                  0.13325183247138971954
                  0.30924335999321028723
                  0.31864875674956943952
                  0.15324469534399892678
                  0.42536986954280958662
                 -0.15673916722650099720
                 -0.06054855051689671946
                  0.15333723274219576704
                 -0.12460524547322700262
                 -0.18593221985731528401
                 -0.15611715698152445198
                  0.20468877438510252320
                 -0.11702129032244906748
                  0.03499443246718390854
                 -0.00652234866859232720
                 -0.04497204450093231221
                 -0.23029222497925710966
                 -0.09482220941711629048
                 -0.01320747337116993242
                  0.04964953546721811994
                 -0.07756049077643302481
                  0.09996076082824367770
                  0.28043801314643945766
                 -0.46626474378654675368
                 -0.17941216533212564488
                 -0.12403276535592011598
                 -0.06742992973023165248
                  0.40621113457633678534
                  0.30246699899919965437
                  0.30940032842391890222
                 -0.43919353046134701479
                 -0.03525239543051747471
                  0.17076674679108463928
                  0.41140724310325760271
                 -0.07297168376165313886
                  0.20105078308384555230
                 -0.05303648638688092387
                 -0.41730641194285394979
                  0.26040851923255625699
                 -0.20430282073400668486
                 -0.01367230968122435004
                  0.24531368488857627219
                 -0.16084991104486351388
                 -0.29032705512527962055
                 -0.01731016238387353412
                 -0.02135599915978048796
                  0.29051492402312223406
                  0.05538537361118828217
                 -0.19192082455408576713
                  0.41343846072396844837
                  0.08042455975880537233
                  0.08852319274697532936
                 -0.17547361853155790667
                 -0.05469423141330336663
                  0.55278542496053117983
                  0.46654114416530467757
                  0.24316712568927625893
                 -0.20633414340109995644
                 -0.24047160674303538763
                 -0.16138954030294161424
                  0.11802921679681296907
                  0.06836410096213123289
                 -0.03953982766484050171
                 -0.16504657956555107701
                 -0.57271039735883066957
                 -0.20651472917280433439
                  0.19856720948786599212
                 -0.17774941356425358330
                 -0.17067900617464693003
                 -0.02820421368627240577
                  0.13196952984025539513
                  0.33466072547310504737
                  0.18445007844285396525
                  0.24670261757240039002
                 -0.20547202048357618431
                  0.13663585984462439660
                  0.03578479834079788952
                  0.31868784661835314331
                 -0.34033161258407607086
                 -0.29871872006169430946
                  0.14996366312546818844
                  0.31428823190407578769
                 -0.62010363328775530700
                 -0.12675063814145917651
                 -0.07306922756136410846
                 -0.23655845461897184734
                  0.31507010564599063906
                 -0.09386262979183868094
                 -0.14293690101530984182
                  0.08843377728035431429
                  0.14670862334467743571
                  0.09625448397537308964
                  0.25150306295975755067
                 -0.06364457601399250986
                  0.20053448912892063438
                 -0.09358436757447972931
                 -0.19426665325386846539
                  0.14089139943892881046
                  0.28367034448575378924
                  0.08108904570990847771
                  0.04208982601286635761
                  0.22602858883771073661
                  0.13911518091276037223
                 -0.46525296086660583583
                 -0.43737557479443583963
                 -0.12686753458216901147
                 -0.16045194216954200561
                  0.41740651027673475459
                  0.16550357029173459744
                 -0.19646539186441147606
                 -0.13958818045329327018
                  0.17151733689717563180
                 -0.22887651375177514579
                 -0.26777968526361312085
                  0.12784394831987805352
                 -0.06706177873002382162
                 -0.00237066574729303441
                 -0.02394805096125464730
                  0.03143779653807578928
                 -0.41717997596723982445
                 -0.08177972979271304343
                 -0.12784140057560527959
                  0.18055143379830509986
                  0.00405089706578343894
                  0.00559274659300953558
                  0.26568381234317500761
                  0.28124140008109221878
                 -0.06686773668563181228
                 -0.38095283524087980576
                 -0.16338431525412885903
                  0.19402479986148110647
                  0.27214445733774045300
                  0.20220329435665965190
                  0.31394317029170232258
                 -0.03085348309873631178
                 -0.01587296037407900234
                 -0.20241480413046977760
                  0.15710295633970131068
                  0.03992416403267631114
                  0.09157157013703957904
                  0.31014607502812324702
                  0.22264281199388757937
                  0.13839753926402262318
                 -0.44692839929301131363
                 -0.13916020803993009447
                  0.25420441617407280033
                  0.12976831223536125504
                  0.00420246427026296429
                 -0.03610297015875525706
                  0.29177996077607282199
                  0.00780108755776893516
                 -0.18355141206265099263
                  0.20471648941025674673
                 -0.13317916232910073648
                 -0.24125279842765925964
                  0.04715608056889965954
                 -0.32942812731128107151
                 -0.36754787555204715410
                  0.22224780301274918437
                 -0.16423889056619617177
                  0.03371092119731274039
                  0.05406563381844646521
                 -0.24514591893188697469
                  0.53329409225547774742
                 -0.04929355869944116592
                 -0.08987120842295447110
                  0.26492885418387035479
                 -0.06175402642294346156
                 -0.03637132884552671946
                  0.39644634638733849963
                  0.03458401468226921655
                 -0.10037413216379133252
                  0.01270149825826268758
                  0.17916141964710372014
                 -0.00098153244004106047
                  0.03818181966377884318
                  0.16513210550247953146
                  0.23086029222131532190
                 -0.32679882808704180386
                  0.08542205483862173876
                  0.31709714464462507300
                 -0.42028035715759548552
                 -0.02362537508908222825
                  0.06323257293934074486
                  0.20483109794413734139
                  0.32785423489934173436
                 -0.22144951969989953855
                 -0.10146048583091663020
                  0.35412206685582647836
                 -0.35195202033492878346
                 -0.05914363720399568036
                  0.05482176292611843499
                  0.06518409319227322363
                 -0.10329683456181244783
                 -0.02096882222979616628
                 -0.11777088932234756891
                 -0.00406145682727397910
                 -0.50930932448819454805
                  0.26317175174826490380
                 -0.73673351379773976966
                 -0.35166291825451839737
                 -0.01849778510415095445
                 -0.34285201767336431766
                 -0.11978562678462625901
                 -0.11920124284580578544
                  0.35354834289830061600
                  0.27475232677066113718
                 -0.15635012126262995413
                  0.08604282518807690461
                 -0.30608526964050225549
                  0.26673478768382113957
                 -0.03292645690991528179
                 -0.20110895059444391930
                  0.38510525174590209962
                  0.14591309575799293885
                 -0.10362059888359378967
                  0.07546808540108805585
                 -0.25791629321551778897
                  0.10994977723111297452
                 -0.15296267858921222538
                 -0.04177123071493885065
                 -0.13085803684910313205
                  0.88335147381328305016
                  0.27334698821802905222
                 -0.04484020833621463892
                  0.32364437411822927215
                  0.08933211649156660994
                  0.30028230979552350544
                 -0.17541001530254249352
                 -0.43097359139427704466
                 -0.05152657405105965510
                 -0.00451856678878703906
                 -0.36271958958263955664
                  0.05242811943357593429
                 -0.50641543290230617291
                 -0.03020467647386137003
                 -0.26276150367147349529
                 -0.19979153217706749346
                  0.13815426229921806689
                 -0.13310750260722045701
                 -0.10054044993246073758
                  0.59230398989745836058
                  0.09887607854099826621
                 -0.10663921979279207541
                  0.02308575727017595641
                 -0.29228779199133536615
                  0.13844585386089897083
                  0.27872193692824936972
                 -0.40765514952320819342
                  0.12944685281135098753
                 -0.06642255965858231970
                  0.69810444811534522191
                 -0.03792387968435700224
                  0.15027186412080198452
                 -0.19082051856791598654
                 -0.23313563543219706364
                 -0.18233700768784460999
                  0.13035379623500623070
                  0.26319394033184950743
                 -0.05142070809771960571
                  0.44722968372602095455
                 -0.20223055830023115020
                 -0.15657072046725217795
                  0.70220043872167781096
                 -0.01935366330696495357
                  0.31460184575258892670
                  0.36363971418642832001
                  0.19132694835652536147
                 -0.07039405237810024418
                 -0.19809048068473694704
                  0.20922050386782090059
                  0.06428572531821494240
                 -0.09199106606443357981
                  0.13835674253658297728
                 -0.27490194978914184176
                 -0.02505847393735497960
                  0.27435649284533175640
                 -0.26094720017631967135
                  0.55933404853601742523
                  0.30437446160121744976
                  0.36360863706901697112
                 -0.36102012731521493372
                  0.00620111836858691298
                 -0.16596137052661302791
                 -0.17236650439295059245
                 -0.26512832066743341475
                 -0.03947489032034039169
                  0.14876002193312939936
                 -0.14969407520378438803
                 -0.18785844432160775375
                  0.09698528294797836846
                 -0.05765382401309410154
                 -0.10558176140674301047
                  0.04659831648539136673
                  0.14145488020899904535
                  0.29370745530634745357
                 -0.20124563323794356084
                 -0.17881228656509939867
                 -0.05364349177132007873
                 -0.02143125788060124340
                 -0.24873944355547134011
                 -0.09297747658338215149
                  0.28513109955057514000
                 -0.11872475322845542356
                 -0.24251030104551377087
                  0.08730856927157104597
                 -0.09451304668392390695
                  0.21438116570744755740
                 -0.36509628520216586001
                  0.07031291794191056599
                 -0.25659737625190748300
                  0.03313430143024245073
                 -0.21986807899098831376
                  0.20640965137894209946
                  0.08480235595974060236
                  0.13752977462337453995
                  0.33525397830642517105
                  0.06219551151517403037
                 -0.18875960506044184295
                  0.15908464358908117053
                 -0.06975717253494106984
                  0.41046147827296741717
                 -0.13485188996252325810
                  0.45069604713941341378
                 -0.24019640069288367146
                 -0.16952467532027631902
                 -0.20500100288343689470
                 -0.13440132346788327689
                 -0.07369862598699797318
                  0.06041600014815344533
                  0.00518386459068958909
                  0.20131548603641452599
                 -0.25440301364812861751
                 -0.48357352077778570365
                  0.22903346771945617966
                 -0.18159037162819205435
                  0.13544549551546306021
                  0.27066962687253448561
                 -0.13556106738708667558
                 -0.00743047244787192057
                 -0.01660041569936152039
                  0.27445343558863211086
                  0.68927885374327368950
                  0.09684775937039019622
                  0.30988182876244180219
                 -0.21748943884086652245
                  0.11345931671346412561
                 -0.36174273574538151621
                 -0.09092632818353049706
                  0.54065614310711562762
                  0.00408789401080744338
                 -0.17997190151136477354
                 -0.19056922453337377110
                 -0.19378817215121868500
                  0.16770857127543178922
                 -0.00036888386223171612
                 -0.12342970893165369772
                  0.98655398727052778796
                  0.08410135606497180782
                 -0.05569839441747991005
                  0.00928674671175458433
                 -0.15718991689405431567
                 -0.63708175710943582004
                 -0.08069415212518839253
                  0.26458319654296141854
                 -0.26794857290374729519
                 -1.10083172107418869601
                 -1.29193850718353031581
                  0.15342161535373477488
                 -0.71262716667310121998
                 -0.19646345436523923733
                 -0.48952717001985790457
                  0.49575375552853062633
                 -0.26645948750039982755
                  0.17437196662695453320
                 -0.65165911596469905387
                 -0.24652372417940224270
                  0.16669908471664973693
                 -0.61120059874785104270
                 -0.58975019327125266511
                 -0.64662772234248200309
                 -0.41567288623712178586
                 -0.14720284170608355367
                 -0.20826316607535180769
                 -0.05913842534302291704
                 -0.02756235392012764199
                 -0.37700966747864178563
                 -0.64392781866707815563
                  0.70513444974778116681
                  0.35193224407117901231
                  0.45627905265637447307
                 -0.57288243559284834916
                  0.62898278355495751413
                 -0.71273067356393771110
                  0.50041791342299857259
                  0.49917007728279083612
                 -0.20197969078962541012
                  0.92345174635460369750
                 -0.40479828795324401813
                 -0.65623201783081941407
                  0.15145850209100064632
                  0.02350754911502705644
                 -0.14139457981419112365
                 -0.47782324416063159944
                 -0.40043821589995026722
                  0.10896599732073353195
                  0.17288555743698771905
                 -0.21174329858331428222
                 -0.47573376411264517438
                 -0.27901659770624814838
                 -0.07700530036233252384
                  0.31385794725995802557
                 -0.23561812625861006110
                 -0.08021172923708379254
                  0.68992342244256277262
                 -0.42965777692116724484
                 -0.15886142191553748182
                  1.09070851884318842373
                 -0.25936320403763102327
                 -0.56524353218360456896
                 -0.06168485173291417267
                  0.38568461774725870672
                 -0.70612982963927917179
                  0.56034384877411347325
                  0.58574199333323873073
                  0.96120089146154041870
                  0.05938068341394810851
                 -0.49573037951539411505
                 -0.54466724901025520555
                  0.08840083840664871018
                 -0.04382407976177293829
                 -0.30406897780027891676
                 -0.17846662764170642679
                 -0.24971471087249602627
                 -0.03957374841462627663
                 -0.59546802335288584462
                 -0.60803587416469573323
                  0.24448950220479115369
                 -0.65174050715208520224
                 -0.11830327513100045989
                  0.03870947237065752722
                 -0.03428878403656619028
                 -0.03677335021733133674
                  0.61884231861966021437
                 -0.50837271133598671558
                  0.03395386771347290444
                  0.49866156165914038434
                  0.46387877157539098016
                 -0.55602109309884051314
                  0.61330293758949849803
                  0.37919033126371853859
                 -0.07369506255544627793
                 -0.01985188882188018353
                 -0.61610647691195696840
                 -0.07037443003645584005
                  0.55295480992509904450
                  0.44664126940588277925
                 -0.26003999995283699764
                  0.41078064233294542262
                 -0.35925462747415881637
                  0.63854752807605230647
                  0.22420388617840383838
                  1.25720753144196017992
                  0.65205281246953505914
                 -0.44851842498477495491
                  0.24552671393968786284
                 -0.14041488258207027173
                  0.18119401511798721716
                  0.15562086649162398810
                 -0.38260490904203781071
                  0.81718400945300850857
                  0.49165107977163613473
                  1.05208923777106710951
                  0.38495165836573502771
                 -0.17517584251484974445
                  0.08770219553912275701
                  0.34204975822595207191
                 -0.22717078444260208059
                 -0.05243135837825301654
                 -0.60012294418180112121
                  0.39884827567470182430
                 -0.20726539683413863768
                  0.19375317120052160114
                  0.32613415891537550495
                 -0.56381942852095678909
                 -0.34356854611289483481
                 -0.42113816691434158290
                 -0.56117293896929210106
                  0.21590060793979254372
                 -0.31380251255297325619
                  0.40887349428039648780
                  0.32327306119345045055
                 -0.46679118275597947241
                  0.68208621365268595760
                  0.51271785947894521485
                 -0.62205884408427047916
                 -0.21717281835783436295
                  0.30836385009538819224
                 -0.01665840580300092383
                 -1.19108475563743310133
                  1.60188766221499734321
                  0.01507041737634181797
                  0.07846325996136517544
                  0.56483752125247921327
                 -0.03037188610847309927
                 -0.30214890124003712657
                  0.08083694274686677173
                 -0.26558316916407853636
                 -0.29706267028241439832
                  0.71700763382610466223
                 -0.84932773659943949784
                  0.17374834372721603692
                 -0.05546967587487278833
                  0.41907221275226169688
                 -0.38634614870881683890
                 -0.12610147659166662248
                 -0.14547228005669354811
                  0.32197834859477886260
                  0.96355774472271282782
                  0.96974313227569597373
                 -0.95554757590369987508
                 -0.41561115547103127943
                  0.33078619918007506895
                 -0.90649722025241852297
                  0.28409659620782212741
                 -0.06073665206928757082
                 -0.82705867299105850776
                 -0.15396233995123956295
                 -0.68718913860572494734
                  0.11219328623873167650
                  0.21199520987020320506
                 -0.33762455291655907308
                  0.13085882058491904445
                 -0.10487560406824440740
                 -0.71432370813106893515
                 -0.19929896271088889947
                  0.63291412494754140106
                  1.01146826005631429446
                 -0.26987922905096767279
                 -0.11749079860241509743
                  0.82475124301940283544
                 -0.48705687824526705532
                  0.01978340185018349559
                  0.26270070382956278721
                 -0.26531604650699180947
                  0.51094582218772144344
                 -0.40446099727562406789
                  1.02965055024611462642
                  0.08675816067655228725
                  0.43726721519603772848
                  0.29830608758133808633
                  0.39415660198162272287
                 -0.88083406405855690924
                 -0.20597243329638148523
                  0.29688160332544044628
                  0.48968160485119982539
                  0.52488692317580531999
                 -0.19260846912241441631
                 -0.25665061097434982429
                  0.64105119629504259127
                  0.60182559202669871912
                 -0.49013030133573820546
                  0.63593082697016589666
                 -0.05280313980415020370
                  0.71185328726239882613
                  0.61906115039241971232
                  0.39488789960388998024
                 -0.18251275640906053366
                  0.27501331707759213430
                 -0.05552237062146828106
                 -0.27167385589492876186
                 -0.55729961120845716849
                  0.94641586401573163378
                  0.68956467011102862141
                  0.59302231981196662502
                  0.48318849777116246180
                 -0.34412710109716443396
                  0.00281503427780102795
                 -0.42118452343517037706
                 -0.30655244998400510426
                 -0.12242391348868615630
                 -0.06995867540220523928
                 -0.29875062865992879635
                  0.18028952102906092847
                  0.29923556220246877446
                  0.44247208291537221125
                 -1.54753066502882274946
                 -0.73910364342034062801
                  0.79735864697956526648
                 -0.47206555202542027638
                 -0.86728037681229108724
                 -0.10946938929075002156
                  1.12823997968804357050
                 -0.39019725061617521744
                  0.01904651030235438025
                 -1.90518250097760288853
                 -1.31789504479348273946
                  1.30746343082478966302
                 -1.02890982411096154614
                  0.10486795389987026150
                 -0.61582766431958679831
