49	2	1
15	15	
1	1006
  0.0541809631474849	  0.1350028028743179	  0.1009364928437518	  0.0931962801806644	  0.0117280451946236	  0.0090713026159049	  0.0408391478179756	  0.0526118715173350	  0.0379842073505440	  0.0526134885998191	  0.0128659847729998	  0.0349129539349532	  0.0825621678476344	  0.0058852976934151	  0.0203860418256658	  0.0758779771393806	  0.0440680996006637	  0.0007897724327095	  0.0045851554252880	  0.0079545833900597	  0.0045853011665022	  0.0070930819106420	  0.0205697330956954	  0.0029067946150517	  0.0022483212685346	  0.0102086664641072	  0.0139561211776694	  0.0183609800691860	  0.0139684043933779	  0.0010210765243116	  0.0016708903674318	  0.0024439626793811	  0.0044361885623617	  0.0078155116658871	  0.0078155118472001	  0.0159225623761220	  0.0205691297660476	  0.0431028618665974	  0.0205703945282406	  0.0013025081019590	  0.0044984839831357	  0.0366508387676925	  0.0034150382289968	  0.0097431015471225	  0.0363341644234265	  0.0006385113082860	  0.0037951311731091	  0.0430452724340958	  0.0164377458978829	  0.0644996250176064
  0.0543114901574829	  0.1352772547050991	  0.7521877745223650	  0.2364262796499819	  0.0117280865259778	  0.0090713201471735	  0.0409397223443181	  0.0527183302154699	  0.1439678065205846	  0.0527200606868800	  0.0128989442564909	  0.0349768748562239	  0.1812265593328955	  0.0058853147307155	  0.0203860795078622	  0.2880390106873356	  0.0645829323486444	  0.0007897724353379	  0.0045851713664937	  0.0079739571032584	  0.0045853170722022	  0.0070930955362647	  0.0206110502308636	  0.0029068050516662	  0.0022483257875605	  0.0102340626211222	  0.0139813751154185	  0.0351374459893249	  0.0139936673681149	  0.0010210765297065	  0.0016708903744696	  0.0024439626845465	  0.0044362016900539	  0.0078155262748751	  0.0078155264873079	  0.0159613102922531	  0.0206104463666066	  0.1121248166629988	  0.0206117991418104	  0.0013025124040618	  0.0044984935591917	  0.0703460874920708	  0.0034220377034671	  0.0097561658322640	  0.0506165510842878	  0.0006385113105098	  0.0037951311782856	  0.1121934626580594	  0.0193760853814893	 -0.0041789478264338
                  0.25361784352950011989
                  0.07533933198202062698
                  0.06136157343182500890
                 -0.17701937847889154254
                 -0.17984199745793616465
                 -0.08031373533040649104
                  0.12437993957120001276
                 -0.05786966363510226419
                 -0.07268675986425270075
                 -0.24910608866435485220
                 -0.05915442878686531097
                 -0.05724670678180789757
                  0.14204664706256142637
                  0.14256254671808163415
                  0.48713984315168951111
                  0.24681297664820794902
                  0.26727115667651291098
                 -0.26795390706995597663
                  0.13135473835096139750
                  0.03961146180798299360
                 -0.03126481662346226181
                 -0.26796123146883177313
                  0.39405256961279128136
                  0.19174978771216791285
                  0.02117824659660263314
                 -0.36955549792602754300
                  0.06649785603378424725
                 -0.39700629065830184139
                  0.23663900437814100464
                 -0.04028834865252855363
                 -0.14599537269571002951
                 -0.23637743048354653563
                 -0.02716284102898245539
                 -0.13447771430561655803
                  0.19603039019436485635
                 -0.23215020522519660973
                 -0.26073789384616513631
                 -0.21827231667243701674
                 -0.30750149532082504678
                  0.13228423625407392805
                  0.15284106848638961962
                 -0.18092721392661267887
                  0.15208146231627311940
                  0.22529144034488154946
                 -0.22948913546533988850
                  0.26419296540148179409
                  0.07638230425856375183
                  0.07496636112956227282
                 -0.12938633337231059128
                 -0.30170323375588248282
                  0.16279377942811015800
                 -0.00659650473099736116
                  0.02914926965256695035
                 -0.13612591561563275322
                 -0.07551862464416309040
                  0.17143675746909531332
                 -0.12072534128286560584
                  0.58999650754087595850
                 -0.19626373629465052040
                 -0.26852056205862018246
                  0.13307616976773017914
                 -0.18690010058573688911
                  0.27993923656912261810
                  0.16922161795840318099
                 -0.06219349844911572361
                 -0.08149056976643617722
                 -0.43638524492091357310
                  0.24167215449219905943
                 -0.10310165151676890793
                  0.33398038354124642835
                 -0.14715310852401677910
                 -0.03501687184515507589
                 -0.42333940685236265411
                 -0.25247756048335440182
                 -0.34422099362928632038
                  0.10843472335916358451
                  0.12453190099583766326
                  0.34738353463566074009
                 -0.21738675272952365236
                  0.23769405495498391323
                 -0.11588265715996175220
                 -0.03314822548965876137
                  0.39585662272400123918
                  0.34113302567693709610
                 -0.25135144639242262832
                  0.23805174230583528439
                  0.10069657479662884325
                  0.00471325957514505574
                  0.13135686932774789937
                  0.29846997453866969119
                 -0.23576280293226348217
                  0.28905058019561791216
                  0.18201607277330589252
                  0.29171707201318164415
                  0.53429595883837899262
                  0.05898466046257806739
                 -0.32658220119736092180
                 -0.17689681750928348825
                  0.22361634043242684111
                  0.02271897284434145833
                 -0.11997945908050221264
                 -0.10150345084126825845
                 -0.06245488477737536764
                  0.14530216490620426195
                 -0.24880705800268723693
                 -0.22922599985745231721
                 -0.63309496723317160161
                  0.06881748415829105903
                 -0.00900649402363610900
                  0.14033715526013418318
                  0.26061958537161472593
                 -0.45061858675571470068
                 -0.07307061040687894138
                  0.47503012078681827735
                  0.05797220375630020989
                  0.24305666261900987779
                  0.21012520894017192030
                 -0.00430018651729831194
                 -0.03612232697720581948
                  0.20531025218892079431
                  0.02293212581545712309
                  0.21612982432733493510
                 -0.09414374087153000448
                  0.21033245698641481192
                  0.15405439160035014345
                 -0.41650553659382133498
                 -0.08016395685514153546
                 -0.34328393334865942021
                  0.22873442516144276704
                  0.14027538317462237560
                  0.18693063487358177466
                 -0.17734567965026601377
                  0.35161937209918692204
                 -0.03839358038446470667
                 -0.24712682425704132760
                 -0.52794537871556834752
                 -0.16930852856502862092
                  0.06420094768134997076
                 -0.19658518060417332074
                  0.27614862182696309212
                 -0.30919215322272419755
                  0.04599506002605104060
                 -0.11963275170901174760
                  0.02620185162583787281
                 -0.08526021342322651075
                  0.01251123335003328195
                  0.16634061794341806206
                 -0.27065993094097151594
                 -0.23937630224619310670
                 -0.16563872077814073558
                  0.40793735778460443742
                 -0.17309964890424811568
                 -0.24630664298999657702
                  0.00719420463478727661
                 -0.25362690019512434958
                 -0.19242438436851858063
                 -0.28226000042426568903
                 -0.15602172980955222870
                 -0.19049641675482256731
                  0.16422228795692617176
                 -0.09270760457604268479
                  0.18593698917824172390
                 -0.24366307866898631596
                 -0.02153557668516669840
                 -0.09447357257947652798
                  0.34346578369599467528
                  0.36546452677421514821
                  0.14818161289566356142
                 -0.59776652520208028996
                 -0.16465768674786271375
                 -0.27230960017161898179
                 -0.35112385263160927895
                  0.34464496749972395317
                 -0.17904734047354300963
                  0.40941611920431747462
                  0.32014956649406467459
                  0.00085370793482146719
                  0.45074245650465133428
                  0.26848482279933949535
                  0.20269506387448626983
                  0.60522074819025084569
                  0.12218992451965698942
                 -0.05871961715075739441
                  0.00684544082894831228
                 -0.25939744481878673765
                 -0.15709437635313847070
                 -0.05586724717987670563
                  0.40072571730234313181
                  0.25894099710529777658
                 -0.39427633977824311229
                  0.17944739239267756825
                  0.17353614894403363023
                 -0.12619453042108141894
                 -0.14438343340762443967
                 -0.20372004756735437314
                 -0.10058023633265067431
                  0.06998459181421948228
                  0.20262154533041110138
                 -0.09165866429551004779
                  0.11609038644960041620
                  0.28895021255476149857
                  0.04949506417019133159
                 -0.37526554070791151574
                 -0.21433834638759224900
                 -0.46255976731721304418
                  0.06933547412783853947
                  0.33052326669408205184
                 -0.20193272419031185749
                 -0.18808662051664021275
                  0.03149808647342386414
                 -0.14025231281349401224
                  0.17947214710919234815
                 -0.07162392866508861256
                 -0.21560084070643592558
                  0.02157981648081017459
                 -0.00933279149637473125
                 -0.23570472203282749613
                  0.01890354442216124475
                 -0.17619205904574034016
                  0.41387231975741767265
                 -0.17133845367240149726
                 -0.00146954418685719089
                 -0.09003255543257401849
                 -0.14135776036300509717
                 -0.30995841506814775235
                  0.22017597332207683447
                 -0.07123204340864816575
                  0.11298780181564596625
                 -0.26124201843789912614
                  0.29501413673201470900
                 -0.17846858996352057969
                  0.11654037342152871737
                 -0.21117085932275064808
                  0.10637926889931252628
                 -0.37168571144143358609
                 -0.01752758965440266020
                  0.29612163966505150592
                  0.08947451776697251669
                  0.19164257809480125805
                 -0.35074356081378416095
                 -0.06549319772277628626
                 -0.20178789083469636512
                  0.02468511981141257444
                 -0.00871098748776398708
                  0.24902624585794841394
                  0.37845172672377319634
                  0.33187302638287524692
                  0.02945188208472241179
                 -0.19069746970864445701
                 -0.06176828627548161532
                  0.22430559690337106837
                 -0.19679969531686986040
                 -0.05311748339547616576
                 -0.17678655097911116778
                  0.37424043146796659443
                  0.55912302125391022400
                 -0.01495783113336273534
                  0.15723276503897556933
                 -0.07109139571810506320
                 -0.32003609052290460379
                  0.09173937840723077330
                 -0.41446030139272915793
                  0.04460075169839335107
                 -0.29443891583793513345
                 -0.09316433053744588300
                 -0.38868288255155652999
                 -0.22104615164214908019
                 -0.24712600076335869415
                 -0.28689708595720625484
                 -0.04887802813702132876
                  0.50472580291075663794
                 -0.04538704644105697600
                  0.17719778871635685769
                  0.34504080328813979683
                  0.16493125786837128932
                 -0.09742261323514728177
                 -0.04247372490324993061
                 -0.18331127382411926963
                 -0.27587570324432703073
                 -0.29402979056893857601
                  0.22052459064771176567
                  0.21419412398395831776
                  0.10367008122963797256
                 -0.08946469556016162228
                  0.21029359105362843696
                 -0.35817512175574905964
                  0.32416402567478386221
                  0.35836345325458651701
                 -0.14528702632267934125
                 -0.16130237148755896537
                 -0.20697988416836704539
                 -0.09245282398221701947
                 -0.28748649729483605197
                  0.03591653300548995620
                 -0.13179445423251520686
                  0.13667255967715441489
                 -0.08023949665454149782
                  0.50136470626191165234
                  0.42259984485917173602
                  0.11667567785467464203
                 -0.33550770543786145872
                  0.18400333681844044387
                 -0.36897341897914665010
                  0.15878828690093232945
                 -0.22341838475963438082
                 -0.15070187766366113791
                  0.19072667838237780669
                 -0.12694052354956963935
                  0.39214521501084448341
                 -0.08705351748546560908
                  0.10480709388455483611
                  0.37433906886184165064
                  0.06459032353783167313
                 -0.03168164002640479204
                 -0.22377301082385558928
                 -0.19445784801196913660
                 -0.11399599080179072252
                 -0.27812034139974350921
                  0.12151626458162630151
                  0.30757649318679164407
                 -0.11778780532865854025
                  0.01545424753836232082
                 -0.14927868892776352538
                 -0.18663969448076664359
                 -0.43026002718376588074
                  0.28688081719987351681
                  0.11973423958141726775
                  0.18046219306186681020
                  0.19529102394620737049
                 -0.42351687477248439739
                 -0.13023852684245737499
                 -0.22901102690197419620
                  0.20202834724530588373
                  0.20392428905894710578
                 -0.17286822327927511833
                  0.34461988349895394945
                 -0.12638443452669498313
                  0.00312964842069776965
                 -0.14368311179235312980
                 -0.04899352864111444772
                 -0.47544224937566087474
                  0.15189028014312272452
                 -0.37091889869883837294
                  0.19465410291538243204
                 -0.03166559274719656092
                  0.22669196659659524018
                 -0.28219529890315880882
                  0.39905940493963587556
                 -0.16236979698522874260
                 -0.05750745663010221886
                  0.02487024229800753258
                  0.03349282359898100858
                  0.13707829828587361765
                  0.02266402531542457618
                  0.11988158142916485738
                 -0.27117405170998643005
                  0.16399172979502013581
                  0.30990244367371194700
                 -0.04978442247503436086
                  0.15644528124177090045
                  0.19785122601953913923
                 -0.09867208816290157225
                  0.10298996320043178609
                  0.23590394833470237912
                 -0.01350585672498924930
                 -0.29388256611860119616
                 -0.19068707077106028525
                 -0.38053295187989205628
                 -0.11221702496715270370
                 -0.30958397894923855853
                  0.21122657677015957423
                 -0.13255247067247338810
                 -0.31036818584095782203
                  0.03544752648150145680
                 -0.17437856934266568465
                 -0.26469962407402231053
                  0.35695787890048130686
                 -0.02902393173888945938
                 -0.18238639657319719034
                 -0.15755601155144030590
                  0.53567297028858151808
                  0.10311587453995411934
                 -0.23171257652863158638
                  0.35923396671106000433
                 -0.38552312425140594643
                  0.29991389374160432046
                  0.15548027393298369248
                 -0.01768644855416202227
                  0.07797280192438403590
                 -0.03855380242108092520
                 -0.57460672635607634717
                  0.30781946689622552427
                  0.00145360845062086647
                 -0.15802014117800494697
                  0.19680686738015099047
                  0.11671647456121776731
                  0.21836164321160339563
                  0.29819181250484144696
                  0.01498431510280561277
                 -0.34651672856361820374
                  0.26792943426693022202
                  0.12387347582194112305
                  0.06065565473082652759
                  0.24341177279892003971
                  0.29402137519768278828
                 -0.12334225779270145684
                 -0.21768675746926921533
                 -0.29964138655850863779
                 -0.05384485264493928114
                  0.05068904515975709152
                  0.34612430474676253445
                  0.07446401106835884298
                  0.37565875221871203316
                  0.22149650307942592153
                 -0.26417284966559567705
                  0.28930301486707604708
                  0.11399785953361198099
                 -0.01461308616305556293
                 -0.29050582180616651984
                  0.06102501630311287645
                  0.04078246075030778073
                  0.12649665358188263986
                 -0.02408264513438302182
                 -0.45944368272304431100
                 -0.14827826338251448579
                  0.11190489900418533475
                  0.04290801689494329330
                  0.07926221538383652898
                  0.03084241246454033289
                  0.37881369743619452972
                 -0.10250880402033336891
                 -0.19553489179765218275
                 -0.20244931336000798749
                  0.02042711986666800525
                  0.06910723201917934322
                  0.09959424062000316047
                 -0.23963428159930980077
                  0.04768319606928875243
                 -0.25061416550210352527
                 -0.15425661670079676702
                 -0.13247996641762471715
                  0.45420359580055919002
                 -0.12431986885388530972
                  0.06914009692450678868
                 -0.35582951685190211677
                  0.12532875279098695809
                 -0.27451808696093488171
                 -0.05307817921470787265
                 -0.12521468508045857648
                 -0.36247595452607667132
                  0.62729306139897456074
                  0.19978115245497155006
                 -0.12865258303200519108
                  0.24362030721175720327
                  0.17310721739088386073
                 -0.30225299968253027671
                 -0.08421191628570356968
                  0.04831333643261054994
                 -0.24323103824611100321
                 -0.75479538994122830076
                  0.03225857638673491901
                 -0.20681572204894071998
                  0.15757433192704728420
                  0.35264345308293643111
                 -0.16802358741542278153
                 -0.17436182721194937173
                  0.20005584032005993556
                  0.06741075508120132620
                  0.14852649646266008476
                  0.15504428524268071277
                  0.05035673503599184808
                  0.39356207141548521511
                 -0.01652838957871381048
                 -0.06986764639129075527
                 -0.35259181393634364543
                  0.02484009349467625888
                 -0.01268538150279984247
                  0.31383056343037979419
                  0.06221070165177099154
                  0.07741276207467268078
                  0.17585550771197250297
                  0.21432661623097551407
                  0.16850091875846004430
                 -0.00953586741629220032
                 -0.24768179647080348915
                  0.37005799994474386505
                  0.30820054867143231725
                  0.01055970982356162040
                 -0.17842623768902560188
                 -0.19867489994897910566
                 -0.25924306208063990775
                  0.14092014365711197366
                  0.01369501521605912334
                  0.11796047489064391545
                  0.21611770826309981142
                 -0.05519795510100321267
                 -0.25077289325840473877
                 -0.36159914134900933425
                 -0.21834955149205867442
                  0.27781229693253239876
                  0.23477136295736303340
                  0.23270251208230621764
                  0.04488045109942615657
                  0.15900893502166976723
                  0.04683388558079963626
                  0.34686471871777008191
                 -0.48629726738437473177
                 -0.15006073183996249121
                  0.27446719145168546605
                 -0.24511592629163170276
                 -0.33893814839241404036
                  0.04712850136810940727
                  0.04494812097791887895
                  0.15796051038778166631
                 -0.20341434852235099062
                  0.35288697790301021273
                 -0.07663233919360395996
                 -0.11913525649804737605
                 -0.00822248263606993948
                  0.01871144759799527046
                  0.33847010894945733783
                  0.27963451204595390909
                  0.19515955245589552969
                  0.04041203872190184815
                  0.07271929148310832258
                 -0.19192839135806316619
                  0.11648164772892614927
                 -0.32981006066261103760
                  0.09497150646011297270
                  0.03401613349619968946
                  0.01655382056467119556
                 -0.09067335005936860703
                  0.12477604342831415118
                 -0.04710996444146661744
                 -0.01010181783345292031
                 -0.53996006951251762640
                  0.19149773425659757931
                 -0.01088983219105786951
                 -0.07277016848749558176
                  0.21618310821877737005
                  0.15202187865585206628
                  0.16396523057138484569
                  0.00305380874085236891
                 -0.06755588659830172316
                  0.42084605287646875693
                 -0.12408031385751505660
                  0.11386449315394316095
                 -0.28920169327936373627
                 -0.07142143834917066836
                  0.26030177491107564514
                 -0.15241014192049628928
                  0.45436298804499325454
                 -0.00488992579979668010
                 -0.32798540320020858063
                 -0.26162903369854051405
                 -0.29717235397784574902
                  0.30040200912727765825
                  0.09336367827107701356
                 -0.04299834112898204275
                  0.28249028619289234809
                  0.26508057356551323336
                  0.30814395452967530131
                 -0.25236919794379181203
                  0.18901353004181908890
                  0.13138799077400564741
                 -0.01847309896991508604
                 -0.10065174164220055952
                  0.49206168116761267450
                  0.12855419498552866919
                  0.03951025650612568357
                  0.06765570697211378826
                 -0.17296313213683076060
                 -0.36341329531592875268
                  0.00287670646987785335
                  0.13152331804729225362
                 -0.02758508557810940287
                 -0.15046803592367191671
                  0.34381138325059229510
                 -0.27578412058752604930
                 -0.13727535424544518028
                  0.21636386992076725444
                 -0.21360291867242045538
                 -0.21367794378339649564
                 -0.09332537190669862315
                  0.03350554463588321930
                  0.11463286576219042234
                  0.15445321931106545388
                  0.08399119064849212835
                  0.30023562223078403832
                  0.15369243807144503111
                 -0.40866489403704603367
                  0.11261571663041242131
                 -0.03432734052205036607
                 -0.29093439394360676165
                 -0.08611341031061479911
                  0.19987910352150617399
                 -0.51679078273830425516
                  0.23922593610919062890
                  0.33635943045122751460
                 -0.20099097664147194675
                  0.07572811024033791749
                 -0.19710126816743375744
                  0.01822002647809018230
                  0.05858759579361612346
                 -0.42265303546388677258
                  0.15771826229107777095
                 -0.26290106354982628600
                  0.22747296761661905951
                 -0.49236093915489370643
                  0.29372290756346269847
                 -0.19322892183473366901
                 -0.09790121581725481914
                 -0.34176032663486377583
                 -0.13211579892716640572
                 -0.06620337201455429865
                 -0.03949831339908465438
                  0.09408685397254849814
                  0.29781753334523564103
                  0.06883575445305269158
                  0.07075179728776502530
                 -0.13554301808622304382
                 -0.02300742602477346896
                 -0.12301036525399274002
                  0.39713107875951753067
                 -0.15688494268500904893
                  0.07833654962697381152
                  0.05043020856864029872
                  0.03055213960130182330
                 -0.03673148879959314828
                  0.37201097139256317226
                  0.02258228298314147661
                  0.17009027232380480310
                 -0.08478363365549240749
                  0.06139849336794561685
                  0.01181639646118181827
                  0.29969102719101403665
                  0.13525040089288076217
                 -0.33982617737532905267
                  0.09484239983647529959
                 -0.35749046122223321342
                 -0.24974276661849290071
                  0.25675829649906850571
                 -0.03540303395444981127
                 -0.06761452288147559719
                  0.16626857617919665877
                  0.24286954733655743977
                  0.01021361566215843106
                  0.35987994440317577771
                  0.31925305415985832935
                 -0.40490864567591772216
                 -0.04030154847904127841
                 -0.34764546257540918095
                 -0.12633034381969213134
                  0.01280420904596149198
                  0.03139346499802583845
                 -0.27792593740335708175
                 -0.06148222517371635526
                  0.47020390913888726603
                 -0.07616094785269469924
                  0.19863972776441063406
                  0.27689330982253823610
                 -0.16206022305388118054
                 -0.16691496305786265864
                 -0.22504778015527934776
                 -0.23828866018996980314
                 -0.20355545172373432083
                 -0.33562283480848070782
                 -0.19258951053359232852
                  0.15042723710467570397
                  0.07587165779391075171
                 -0.07339580621577491970
                  0.31012980964024122743
                  0.27175165184297017662
                 -0.29083300697932290557
                  0.31084422736840133794
                 -0.38347808281514739193
                 -0.18381765262483731882
                 -0.15063280124990169329
                 -0.42628582686124882883
                  0.30121007693874390920
                 -0.03182879162012910990
                  0.25950383066634169493
                 -0.19719074849529572013
                  0.06743768577923794916
                 -0.08366686297967466934
                  0.22949846973220380808
                 -0.11408065380349841078
                  0.28048093387961769984
                  0.37845786546420256968
                 -0.19088836928920652203
                 -0.17033977682061179904
                  0.05355483399980719150
                  0.07903216453952624510
                  0.26958920749432074837
                 -0.13479703514717644719
                 -0.27001270525354043039
                 -0.36843764972238962629
                  0.26661031504491178312
                 -0.07327202909990312985
                  0.07558323343720597942
                 -0.09194358159227712657
                  0.44850001586429677491
                 -0.13762332922141540248
                  0.15763511502237204098
                  0.37276747758144079814
                 -0.34190928573324147477
                 -0.17520149571271451117
                  0.49737462460895559557
                 -0.05748555834025334543
                  0.05693867820016246251
                  0.38824991964674354650
                  0.18999917853908099286
                 -0.12351266365373916867
                 -0.30088555677141076705
                 -0.39170168971880242603
                 -0.01514833852334028161
                 -0.02391718758717394089
                 -0.04567920109408754592
                 -0.16036780719563389908
                  0.14192482231941569437
                 -0.15991299339987277706
                  0.22068381849131396555
                  0.07141581312829921313
                  0.24707512820615168403
                 -0.07460431554431583290
                  0.08314053691964361226
                  0.30460041655283343065
                 -0.41346589268459438271
                 -0.34711562812638696585
                  0.18477623820675334598
                  0.04884267669949488022
                  0.10765512257754614178
                  0.27000593623448831959
                  0.14908916611913183847
                  0.10982651971597587326
                 -0.21568092809521946518
                 -0.37475572480152330446
                  0.05948375245463323469
                 -0.43641772387590299642
                 -0.75814415735333329227
                  0.85555401196553304555
                  0.04933391654801839998
                  0.38688783039217650161
                  0.46457589306266788842
                  0.35632014960062152742
                 -0.07187392349309207340
                 -0.11090819000821248996
                  0.06462445187721918560
                  0.50316365099889903689
                 -0.92133327190650671223
                 -0.30256459644726840796
                  0.20316841951936415178
                  0.71233061078901271923
                  0.30552094198159729377
                 -0.16214141870116460797
                 -0.55851728062905037220
                 -0.27147088824184850697
                 -0.45603993814319737643
                  0.61790384894221261902
                 -0.46500590313635847828
                 -0.85616849519542281843
                 -0.01052557008193800644
                 -0.38305433202426286687
                  0.27182352999178699404
                  0.43526519710627242787
                  0.35108453777579495814
                  0.28115278188525655301
                  0.39175302217321039677
                  0.63688705252420596548
                  0.60855378093018308583
                  0.09528732515364668476
                 -1.05836351531075956167
                 -0.26698987184980182974
                 -0.31394115691033308568
                  0.97174945546922475437
                  0.29221727569151356718
                 -0.62779741933566157730
                  0.47349944456025516715
                 -0.34311967090306388917
                 -0.12009135112238418508
                 -0.65565881260581870826
                 -0.32648650830338826756
                 -0.29188014814083518278
                 -0.73035801538312727921
                 -0.20525698501938186014
                 -0.04610628518144545274
                  0.46061634302468307256
                  0.40232926061716239863
                 -0.15222292429310776973
                  0.54982056497174724985
                 -0.76456442658559320424
                 -0.49348602219881931852
                 -0.03228051418105226666
                  0.09467426502904184582
                 -0.48707372780379248889
                  0.31992035164128179714
                  0.75122695475250422792
                 -0.49386720620950774752
                 -0.82794331357671735461
                  0.59792040873146645730
                 -0.40072401960120729303
                  0.19229729608484036341
                  0.65319093512215009589
                 -0.02797073181087634738
                 -0.28301831801772775465
                 -0.38738300420335430863
                  0.32190817610330285659
                  0.73238670178262588184
                  0.09479550677150759552
                 -0.14729285900096927842
                 -0.05310513916438718701
                 -0.42227425941404833631
                 -0.13622917471142054202
                 -0.80112449153978948502
                 -0.58318012014429798651
                 -0.17473581232989812695
                 -0.30795046187236541080
                 -0.07512594463921883070
                  0.39889025408827349928
                 -0.55069660077724291725
                  0.37130421993284085103
                  0.82619410694650541327
                 -0.53750070110029790627
                 -0.35826125570206807103
                 -0.23230037532530795064
                  0.23272251406733188150
                 -0.20254811421797747073
                  0.52642429498460097115
                  0.23874632322982214383
                 -0.23515650305801283348
                  0.18366998434918496708
                 -0.14932335668242213700
                 -0.49523977325918783210
                  0.20118653586294768520
                 -0.03644906466393982997
                  0.82678908365007586223
                 -0.63832307606468952077
                 -0.74910346117954118572
                  0.37576705210599858908
                  0.44853551696011073613
                 -0.61071576665497318004
                 -0.09853134186616385737
                 -0.55331034858920424835
                 -0.47740001412631838384
                 -0.53946698928262848405
                 -0.26972479099601859298
                 -0.00846562183525336256
                  0.80796105982337418361
                 -0.53617242912607254723
                 -0.19762043231853354541
                  0.19470327346586868700
                  0.54686639310679074910
                  0.40548345423204906757
                  0.43241753152046968900
                  0.15882054579063745181
                 -0.03339427716579521782
                 -0.19130107229196222085
                 -0.76286974370855653582
                  0.30345763539072556636
                  0.24056661090092065769
                  0.23380640030737379065
                 -0.45352430865194520715
                 -0.16220169460591893351
                 -0.36129991754903634238
                 -0.71075083519797255249
                 -0.03194560409161504438
                 -0.28638706226726801107
                  0.02361249223460935159
                  0.28708833923123133758
                  0.15287651900465595856
                 -0.79225359046721532952
                  0.04498085368683088503
                 -0.29539778072161460010
                 -0.54703827067666432882
                  0.01658084614974599316
                 -0.14827190460824521412
                 -0.47941600654855665020
                  0.63511226536799325615
                 -0.16014423926722537450
                  0.15779100598199150007
                 -0.33696254034903783126
                 -0.31265082054967324732
                 -0.82498096759209260664
                 -0.26620463419434359231
                  0.12675421651637613918
                  0.50596942540503142549
                 -0.30577014155029663689
                 -0.32355227613267778519
                 -0.39778499120254900978
                 -0.44332601349494082932
                 -0.28659753314272456981
                 -0.08393913891298360186
                 -0.37336084094974703040
                  0.33865196590514040631
                 -0.54708530645352104749
                  0.62763809792720615111
                  0.43084909372202440103
                 -0.47392808947102710304
                  0.66124614573488349478
                 -0.40788792348355723538
                  0.27623178855461782977
                 -0.55811567098677594689
                  0.26260518548758754465
                  1.45736375921691219126
                 -0.21017408709161572444
                  0.46974307867647407955
                  1.06660559990656600426
                 -1.00148515148888361814
                  0.45620310591716578541
                  0.63039797199102842740
                 -0.37564223003932800671
                  0.20622823527721662051
                  0.04178273924784214194
                 -1.29470174657086256609
                 -0.07098251973851400776
                 -0.15985093837418840046
                 -0.60063235112601809362
                 -0.45686738699408063757
                 -0.20239606198932938441
                 -0.00339861788936082852
                  0.79235623943224309240
                 -0.73787171459140121765
                 -0.42436049060121316945
                 -0.52901232425638067269
                 -0.52730159560505451832
                 -0.66101201319254920818
                  0.02184919554362700633
                  0.01035013399344652738
                  0.77215701206234632625
                 -0.50465247763200593578
                  0.38935122719866072094
                  0.65837692785515700145
                 -0.31033858672129699396
                  0.23644525223704021544
                 -0.50118589331744745063
                 -0.56496401186792777338
                  0.03881357135623766941
                 -0.18447210717982168160
                  0.43247787249529501263
                  0.49823641773661447862
                  0.64372156775835775999
                 -0.47917407034204334559
                  0.37907309495701380087
                 -0.43536191007196195502
                 -0.60218532581839834261
                 -0.04772971708052973355
                  0.35761677739593822345
                 -0.51882971565706614836
                 -0.45569805022788439919
                 -0.06497804991065093960
                  0.02413739995140520150
                  0.09295718013791104406
                 -0.54350245626120041731
                  0.60052528841996422049
                 -0.55712454121989252176
                  0.43062106537888572566
                  0.65023376917516828577
                  0.35291247310778017798
                  0.35939617627975034564
                 -0.31555723449560391103
                 -0.20774424672823230131
                  0.30152029020191567499
                 -0.60052185232012578187
                 -0.34367352595522532299
                  1.02828790905208267148
                  0.07594537892224281772
                  0.08162239202279261696
                  0.80479676619936846294
                  1.23182587975208579500
                 -0.77721816891311501507
                 -0.23332316230259536605
                 -1.37251682903799654412
                  1.11982136635288909154
                  0.79471754315979892258
                 -0.50536653975206058398
