49	2	1
15	15	
1	1006
  0.0509849176755110	  0.1347083427327912	  0.0990346470846311	  0.0884894995957294	  0.0117280658603007	  0.0090713113815392	  0.0402164343074136	  0.0526651000903969	  0.0372143147152041	  0.0526667738673440	  0.0127765962603333	  0.0349449139509635	  0.0768519245525230	  0.0051989238707248	  0.0215461437688581	  0.0744512562921099	  0.0426754876723493	  0.0007897724340237	  0.0045851633958909	  0.0079642700953389	  0.0045853091193522	  0.0070930887234533	  0.0205903913657787	  0.0029067998333590	  0.0022483235280475	  0.0101251196010524	  0.0139687479760860	  0.0177688492114597	  0.0139810357102885	  0.0010210765270091	  0.0017686151807916	  0.0024439626819638	  0.0040818040002138	  0.0082370974927155	  0.0082371254938503	  0.0159419360315471	  0.0205897877688264	  0.0422028000713560	  0.0205910965375247	  0.0012967723897481	  0.0047254985808384	  0.0355373440919335	  0.0034185379165549	  0.0097496335920266	  0.0348741187248468	  0.0005301334218055	  0.0042037414896802	  0.0422225081144981	  0.0161286138380750	  0.0630667822639864
  0.0509849197346254	  0.1347083467810807	  0.7516555574499668	  0.2411330602349169	  0.0117280658603007	  0.0090713113815392	  0.0402164358862376	  0.0526651016424080	  0.1436916676930239	  0.0526667754193551	  0.0127765967126398	  0.0349449148402136	  0.1869368026280068	  0.0051989238707248	  0.0215461437688581	  0.2874106029825498	  0.0659755442769587	  0.0007897724340237	  0.0045851633958909	  0.0079642703979793	  0.0045853091193522	  0.0070930887234533	  0.0205903919607803	  0.0029067998333590	  0.0022483235280475	  0.0101251199478579	  0.0139687483170019	  0.0357295768470512	  0.0139810360512043	  0.0010210765270091	  0.0017686151807916	  0.0024439626819638	  0.0040818040002138	  0.0082370974927155	  0.0082371254938503	  0.0159419366368280	  0.0205897883638279	  0.1116921471050319	  0.0205910971325262	  0.0012967723897481	  0.0047254985808384	  0.0714595821678298	  0.0034185380159089	  0.0097496337873599	  0.0520765967828675	  0.0005301334218055	  0.0042037414896802	  0.1117148837887441	  0.0196852174412972	 -0.0056117905800538
                  0.10220004250610900676
                  0.15795374179144699989
                  0.19975637201023643819
                 -0.17889134564232272995
                  0.21727716297979379756
                  0.07450522200091719283
                 -0.27884535981161118201
                  0.13353678169949842469
                  0.08802089671341765953
                 -0.12696484966240645376
                 -0.29702996677037013518
                 -0.28789974868573908751
                 -0.30627443407046511803
                  0.21935461520846502581
                  0.18960340826774332856
                 -0.26201439096558459818
                  0.09297852926839042520
                 -0.01612416568223555557
                 -0.12604808076374901527
                  0.29314272268056362769
                  0.39261087628531748939
                  0.24195665168892455110
                  0.31612680222330596935
                  0.00032532940618976375
                  0.05057976001096613911
                  0.05107716124234014388
                 -0.02449760562033405017
                  0.35565625733718964074
                  0.28779352115662576450
                  0.03342462388861250355
                 -0.31158802725532874778
                 -0.11570896497761759547
                  0.10297499236703809566
                 -0.43198489914184950988
                 -0.27810247310406888133
                 -0.25072558859729149328
                  0.09205591064394109957
                 -0.25427644647993596916
                  0.29013179222894108777
                 -0.26070152812962898992
                  0.16286461673118235449
                  0.07734732845134481560
                  0.17049296035932998139
                  0.18802014926425206220
                  0.14531084932517107644
                  0.08053661196994146843
                  0.10396623228802102934
                  0.25371900048134465866
                 -0.25722363460106573152
                  0.26284576326243036526
                 -0.09077130261017149482
                  0.03009656230677815875
                  0.21799164739309728756
                 -0.44705098383671176832
                  0.20725680487888006875
                 -0.18996675323680461966
                 -0.07705716579929308696
                 -0.18406070961704665279
                 -0.33343987506638672613
                  0.11460740539589810150
                 -0.17083147571761314598
                 -0.20760543180138166242
                  0.29930658259872944260
                 -0.13662231657052464895
                  0.07466085499687052929
                  0.08026071066070339377
                  0.01208290361854001335
                 -0.20132107876110369449
                  0.08325008775196991728
                  0.25629877921858218448
                 -0.43837727763776918044
                 -0.38306568285747183422
                 -0.29316474899680400323
                  0.05260951948526124827
                  0.00675656724344818847
                  0.27488226044373847978
                 -0.02184629936027633265
                 -0.06016695406730992318
                  0.15574729011654531163
                  0.25676903250629617981
                 -0.02992514242042337499
                 -0.24603936949105312260
                  0.27806639640594610352
                  0.21063959835715331814
                  0.30340197498311322066
                 -0.29671712367798441790
                 -0.36455107668829461742
                 -0.12334350397113891251
                 -0.20136164069444001390
                 -0.17775674343729433446
                  0.05967464166875670328
                  0.02655900210843552267
                 -0.20341487384181333731
                 -0.20993592457532828099
                 -0.00383430765175925628
                 -0.21747077207316645175
                  0.13257039740351722612
                  0.06185150930946577835
                  0.01095524594078080283
                 -0.03014456875720773407
                 -0.08060451898079901145
                  0.08321517719823920411
                  0.12726938796882211746
                 -0.24573473905275491913
                 -0.27852327768068257940
                 -0.18801987047261556341
                  0.02730635800469761662
                  0.12816996735663716001
                 -0.24399483133565511017
                  0.26244550654662668343
                 -0.03563395847501225899
                 -0.20048112361818093419
                 -0.01311618916469898047
                 -0.05595042373364317312
                  0.00425843381070011191
                  0.12605022118307443457
                 -0.13052396703010338275
                  0.00080532091889461577
                  0.42444952694539489491
                  0.32852930442180766635
                  0.12691801806579394718
                 -0.21041107087235785822
                  0.26601926700808226078
                  0.28114880815376819267
                 -0.30528100669883706519
                 -0.47132250629238808814
                  0.30239601337492499900
                 -0.23893504345342672646
                 -0.37972008811972429720
                  0.35544627858160271483
                  0.05630539914269606927
                  0.01060268257591952257
                  0.25147747108104073765
                  0.22754449036320203992
                  0.20726020933516473010
                 -0.19233743675921244343
                  0.08236207836423750650
                  0.29989395938334384439
                 -0.42120591320246958400
                 -0.02061002588211711950
                 -0.05940448607853673901
                  0.19415051791664689196
                  0.15366316726233103518
                 -0.14341453582895466456
                  0.07723171310797040390
                  0.10582019162401817836
                 -0.17663777656829796059
                 -0.09174859146355140993
                 -0.00142663928778979411
                  0.01846530113489751324
                 -0.37677549437048762915
                  0.33020651753870439160
                 -0.12092132514571994617
                  0.38193315878173578204
                 -0.20471454680194811626
                 -0.03382577635031870644
                 -0.06813539521553470257
                 -0.28632344507530477218
                  0.25516131318894491598
                 -0.36545322898894427865
                 -0.06425320809627856067
                  0.12105108964382024772
                  0.04281814967671637023
                  0.05467137239888146538
                  0.40942207497694593776
                  0.26829246645053284048
                 -0.23088420036615475706
                  0.11388452745117491616
                  0.09530097311185668774
                  0.37754537127673731822
                 -0.29459156189615642862
                 -0.13599662242836352277
                 -0.09674823306324756289
                  0.13584216135473317633
                 -0.01355215874685285551
                  0.10647612228529629297
                  0.36264856626403418893
                 -0.00446065525293708881
                 -0.18993908615243304538
                  0.22536823295693295122
                 -0.30372011205060633898
                  0.29263231657249033635
                  0.12978494067480372820
                 -0.48921534434795160839
                  0.24068667419371128635
                 -0.06148319767034689937
                  0.14866632040309629703
                 -0.03288709234898616607
                  0.08463081849926464006
                  0.30218738238059217327
                 -0.11654769089062774756
                  0.06998347126235050786
                 -0.19634669124384918071
                 -0.20383637684141289736
                 -0.19296103091115607286
                  0.13646335966617270663
                 -0.01016057501416061867
                 -0.32573650140967752575
                  0.23417276196436276336
                  0.15348520436925808252
                  0.00817873469409093057
                 -0.01488863837169421278
                  0.22694111396425700744
                  0.15219463589925116831
                  0.32431565831846509429
                  0.24726318153760648566
                  0.35182104081484694147
                 -0.28474262118701948454
                  0.06775851887338080193
                  0.19849361274564261692
                  0.01232628771317372494
                  0.42725576671675991047
                 -0.09828109778699710419
                  0.34615668238351049446
                  0.02028675190428455566
                  0.27129623324046492350
                 -0.07265472897259796226
                 -0.09443878613400501221
                 -0.33842258554148269001
                 -0.00340633026113087425
                 -0.00197777694751322553
                 -0.08337966208633146303
                  0.30752025140816746651
                  0.04658085897432150124
                  0.00660918055780692053
                  0.05272334713752085261
                  0.29422770164299244522
                  0.18669099582916937052
                  0.06419425346287102596
                 -0.16519057281361718137
                  0.28379600102734603428
                  0.25086036876485628966
                 -0.31505569336617023080
                 -0.06083747041153242385
                  0.09028001156059406451
                  0.09479036701881198013
                  0.18447890988744514162
                 -0.14446289697333106194
                 -0.13009587853957341186
                 -0.21006409607747578150
                 -0.20816490328472317395
                 -0.44633582485806666540
                  0.09635136103217963044
                 -0.24022074852405617129
                 -0.10892762968112119915
                 -0.23103211123698941254
                  0.17656362544543743875
                  0.28323632341715615501
                  0.13132195556580750218
                 -0.16155175045134526068
                 -0.14001225654319748859
                  0.42540609612454699517
                 -0.09986643645290331495
                 -0.18153763677537859689
                  0.45396796379373566266
                 -0.33648213094544787705
                 -0.33120416692355481025
                  0.43206295753960793915
                 -0.09512990998581438706
                  0.02494993276905917157
                 -0.21260711221561276463
                  0.12931067137304111392
                  0.58658662282761253604
                  0.11693981622810850629
                 -0.18050665343803221075
                  0.35139316434550343926
                  0.11885153084079622121
                  0.04545889854488159576
                 -0.25222488006870080746
                 -0.06700474682546067595
                  0.00657218163812506480
                  0.03031117097120285958
                 -0.21272597894502193183
                  0.18030982036695297754
                 -0.03042699539070726350
                 -0.30598536931097575220
                 -0.14600689113836634592
                  0.27907163610785029606
                  0.45789936532410208114
                 -0.37818080750271876322
                 -0.03739746160242152229
                 -0.08913415638715925515
                 -0.00576778393141944273
                 -0.10218584969715939492
                 -0.14106156139605108280
                  0.05630101218073289143
                  0.17620546558595037712
                 -0.06237693229048198174
                  0.02436964207845004893
                 -0.00088219670763573952
                 -0.37062602144300949014
                  0.37247616392599491864
                  0.06685369607317476204
                 -0.24801444041100151328
                 -0.03615996374910333822
                  0.36868397316962375765
                  0.12209795296485409510
                  0.04245381449649995864
                 -0.16848326370482602510
                  0.28782446719749116282
                  0.17956892981006497556
                 -0.27843061345397412953
                 -0.24560319515519157818
                  0.31374081622310162620
                 -0.27089413756045493953
                 -0.25384778365508409159
                  0.18330968530815627826
                  0.13368840172570276015
                 -0.30660405902882864604
                  0.20302309904556867237
                 -0.24388598714343143192
                  0.09627249377877127035
                 -0.06753735405724173302
                  0.11711545519472156551
                 -0.13155393974228127285
                  0.43568549100742881564
                  0.07319062543133084131
                  0.16079657139764519380
                 -0.07624788155618818231
                 -0.20968837241779880731
                  0.24185456339332128683
                  0.03213080129145027414
                 -0.05510757938898788039
                  0.01243556582067390989
                  0.26190543167242869016
                  0.16773512211646912640
                  0.03920387943538339998
                  0.15914024592325695662
                 -0.26942696281315942075
                 -0.20559415656118085192
                  0.31111963292325167663
                 -0.08711248397910507923
                  0.36478507261571913034
                 -0.21367072358079777783
                 -0.02879404419255447711
                 -0.38677963460517272853
                  0.15387654905820299933
                  0.40255253245112709859
                  0.04165500259527993299
                 -0.47303022499497965336
                 -0.16919624892760654067
                  0.20821367212582159167
                 -0.11281820596763234010
                  0.26347755680511569798
                 -0.04589353377967744785
                  0.47126268141872890149
                 -0.38668608743898286173
                 -0.06252618615949967484
                  0.17821917947578944097
                  0.00244007768222596205
                 -0.11863291107573485650
                 -0.09920306015631494279
                 -0.23249579134497164179
                 -0.21705766144424407105
                  0.12110331441738314551
                  0.06535164215050662251
                  0.18143851215208200989
                  0.25082796671811957712
                 -0.36630184313983044087
                  0.09447602980847993881
                  0.24443693484082051892
                 -0.11925879790666854552
                  0.33939670014034512002
                 -0.37785422938621260336
                 -0.02857898555275243183
                 -0.02220533702815753394
                  0.11866965582801732026
                  0.22464855511344578032
                  0.36360444344905135106
                  0.32780015707216242360
                 -0.31518244883067059181
                 -0.03858117150251171024
                  0.32799305712877768748
                 -0.18012856119273720767
                  0.16045768091850964865
                 -0.00921675039273428184
                 -0.26389658174169733362
                 -0.11720151758082436588
                  0.10283122716130166374
                  0.10659749451293500100
                 -0.14855311498391113312
                  0.09557269869051573941
                 -0.15419862914335272230
                 -0.00157951595968593150
                 -0.17410121452051491309
                 -0.05852913481674074797
                  0.10032542295872362570
                 -0.08805193052438443913
                 -0.07436182995196109757
                 -0.19132560043687857343
                 -0.20051165719457958447
                  0.05701077205334431630
                  0.42467277059028868402
                  0.22689702061352948204
                 -0.32413345893538547671
                  0.71076869083232574464
                  0.27815459828055616454
                 -0.46569232157751938583
                  0.12239924880183443434
                  0.08055640949893116964
                 -0.27237049973733568065
                 -0.16681694672261573875
                 -0.09033679820689051454
                  0.24698393597501436258
                  0.33816575665354514646
                  0.28476498079671186403
                 -0.17626267128184835986
                 -0.34873025194082102329
                  0.30994386259223177804
                  0.19373165026367411556
                  0.12968049107363729955
                 -0.14959692008843100686
                 -0.09330800841898999332
                  0.01028598376339885136
                 -0.06723188942998635509
                 -0.38657536485163862539
                 -0.50068471910884715381
                  0.33388152252906100337
                 -0.04143763900424249358
                  0.07779648618470208499
                  0.24781901741249220961
                 -0.18370362510139862100
                 -0.29876010390540419515
                  0.10896263141522236073
                  0.01259915780532035179
                 -0.36182943466288780554
                  0.04474352813315461003
                 -0.13810759738767069971
                  0.17619792110487467185
                 -0.56492462013907140950
                 -0.08712683268198520570
                  0.11327120621056546712
                 -0.20863477585381734469
                  0.18366627439428204194
                  0.03911920006015510987
                 -0.15264202420704781060
                  0.10841862866764692686
                 -0.30274548722366051434
                 -0.25051418413301074217
                 -0.18554586159192248962
                 -0.08625880893039228337
                 -0.10240716754691799040
                 -0.39156970712164418380
                 -0.13935271868454407462
                 -0.28223673931918458191
                  0.30694481417681418467
                 -0.22282656867681757684
                 -0.07689631346293285263
                  0.06293156340562246209
                 -0.03047522246531974427
                  0.20792112257285469412
                  0.02037696444088915940
                  0.24569891775879257323
                  0.17186044455348684079
                 -0.25703649119894123043
                  0.48020009535955704427
                  0.37239794611527449186
                 -0.47189384999744193872
                 -0.37974131204052363753
                  0.25306971893635415993
                  0.19022807248660722479
                 -0.27095104292120963940
                 -0.38344779590409944214
                 -0.30177720358674475776
                  0.00483790685960950109
                 -0.23545531181002768428
                  0.31224264212542041097
                 -0.27953858354495825234
                 -0.26590367657899843801
                 -0.02367691400856204720
                 -0.14527816691566536322
                  0.18309642495363201431
                  0.11144527834362913388
                  0.16567647436319760113
                  0.07106971833713734976
                  0.39774746159854806882
                 -0.00896270063163859265
                  0.07191173153881477709
                  0.09548062822618083589
                  0.02029913781205478635
                 -0.20765286184026437999
                 -0.07987643275078466776
                 -0.24005124465298349756
                  0.20102232038468759168
                 -0.05937490067983595271
                  0.25829114564899635642
                  0.33237432506975811419
                  0.11153531468561746209
                 -0.02277853319646002891
                 -0.16307998564260658969
                 -0.06697320790981302341
                  0.05506847057220411179
                  0.32375418321906851427
                 -0.02757616907117849472
                 -0.01328656187852320786
                  0.42080846557033868560
                  0.05441284738723736053
                 -0.15386051481374601879
                  0.20871629701550956093
                  0.06009515489754170547
                 -0.23003673824394629821
                 -0.21839834949746295134
                  0.49642472864501674401
                  0.09802343595204578153
                  0.04189624685968734025
                  0.13548683936078917411
                  0.29085338602819166276
                 -0.42368178690570129641
                  0.25088374749416847420
                  0.02556885613338039445
                 -0.21571605842104962791
                 -0.12210153019854153023
                 -0.21737705710162333328
                 -0.09104164963666035171
                 -0.02452882374816452160
                 -0.09355924166879386883
                  0.26588538472948808344
                  0.42579406246705503447
                  0.00769577782495875842
                  0.19072079297462812830
                  0.26430613406509634311
                 -0.06364405806252262932
                  0.04049605649675176722
                 -0.10134800671328705879
                  0.20739230980151934780
                 -0.13032634335534504233
                  0.12552259588468364648
                 -0.21223407539927724441
                  0.38511767907458499538
                 -0.09791155071561272183
                 -0.18664574997648655796
                 -0.25575882910879882415
                 -0.27018367803192783194
                 -0.30617522688553283627
                  0.21544531697549884619
                  0.11662886688394064061
                 -0.06713200282577716504
                 -0.51022101515029860686
                  0.09982476527715974934
                  0.28682364782754171673
                 -0.08026162390745306130
                 -0.44671327383735853767
                 -0.24114107187227840079
                 -0.06941152590446168780
                  0.13479696296533263955
                  0.25303607103846004200
                  0.12667504467746998342
                 -0.42732348977889411668
                 -0.10624408642267320346
                  0.10931907951619766750
                  0.10755980025997435856
                  0.37263108598221900136
                 -0.15255155830982641829
                  0.27474956984138881877
                  0.23790150504262644326
                 -0.15731691173635298231
                 -0.29232433448083650074
                  0.16834605692930409981
                  0.27073682324057340987
                  0.05092675212912722849
                 -0.11397931127935768958
                 -0.20134438450353747685
                  0.21085510087886932817
                  0.02209629833257154702
                 -0.22151695162889939450
                  0.27210646052105419423
                  0.10130118819044625633
                  0.23127470707820832474
                 -0.11527042033985730740
                 -0.09569728795009599387
                 -0.04988535693375074215
                  0.05394811970437411730
                  0.29441592015425327444
                  0.06127081129279777355
                 -0.12459811939582707274
                  0.24697149748751265341
                  0.07266302239427514797
                 -0.08414973286774318773
                 -0.05481104383901624216
                  0.47664126489663144470
                 -0.29285842278355722623
                 -0.14996518395916702548
                  0.21338227331415443588
                  0.03023276462662534067
                  0.03054820919687032538
                 -0.20518272103586082666
                  0.27566220178276007458
                  0.10468421924172095772
                  0.02356731563435525076
                 -0.17932961454163945381
                  0.01308597523998974999
                  0.27205396305598611439
                  0.05144072610361323517
                  0.07081764702153044155
                  0.32747207228081914865
                 -0.24664471321604880538
                 -0.22280677908906043605
                  0.20562586974304408738
                  0.08879438062248072583
                  0.33437678312334184749
                  0.32898999899230874089
                  0.05390144145528355524
                 -0.12271114792659086612
                 -0.02959526304249229453
                 -0.28203441541458945663
                 -0.10914376248919886725
                 -0.28044373948548811937
                  0.30310918550855769915
                 -0.40213856279092885515
                 -0.03073432207442029079
                  0.26114220914713243138
                 -0.08726995768641461482
                  0.15975008757186101582
                 -0.00241334008899285295
                  0.18000154455527411779
                 -0.16788908608406918899
                  0.13046044605627776791
                  0.12151712930327439321
                  0.17086085923977056833
                  0.14875731135078162914
                 -0.10403433684785969027
                  0.18454284969310794096
                 -0.24754118126855337301
                  0.07183202499300782307
                 -0.25031576234980063012
                  0.20341906767843745407
                  0.05012663341454624139
                 -0.29535315978262177694
                  0.30205857535157398797
                  0.03223944078017369763
                  0.07469732226081277071
                 -0.11087968398881022092
                 -0.07118130621577684058
                  0.33526157447331067507
                  0.26585314449129882064
                  0.08552510700551507750
                  0.08348586829685392119
                  0.25089459603657299214
                  0.08305381095071416586
                  0.27894800126419072583
                 -0.19430014256879662993
                 -0.21392085958005305213
                 -0.03049622201171058034
                  0.31812323578712786709
                  0.11936025433673888574
                 -0.05925044160000167426
                 -0.26979114998980796569
                  0.02755600314834752776
                 -0.22247196695031898339
                 -0.04407693335389727129
                  0.32594063994140604068
                 -0.30703428921448072675
                 -0.25133643301060853981
                  0.08567232623378470691
                 -0.35003835032213187484
                  0.30131588502756451176
                 -0.12995742734004669949
                  0.06585482107718478029
                  0.27983359252727746380
                  0.31753250671159327645
                  0.23631768815407167006
                 -0.29637257384778664671
                  0.00137505725048134818
                  0.06445982096220841118
                 -0.29761618364691810878
                 -0.27185054459369845103
                  0.21586667235677384213
                  0.04928835681948851716
                  0.02388122819649363821
                 -0.01659956149237412290
                 -0.22892744368691195223
                  0.00797185076128131484
                  0.14904763250348768144
                 -0.40040376673680927455
                  0.10974495082219608288
                 -0.20742461020011407347
                  0.09394821847712055141
                  0.05799785084784023215
                  0.25360008723488047799
                 -0.18319956177488230797
                 -0.23560890887465432697
                 -0.13693189851503390075
                  0.15074597209767215400
                 -0.14103394849351000295
                 -0.16580986994848631588
                 -0.21765169943488843485
                 -0.01151363419698851406
                 -0.31313591484183145308
                 -0.29794850249872928405
                 -0.31429388612256042856
                 -0.06469655428917818474
                 -0.02474285743812822125
                 -0.04964759040907734677
                  0.27317854563247023769
                  0.04442406159497376550
                 -0.04902530435472247233
                 -0.09118727243683805161
                  0.15897300847725001627
                 -0.16270368739517276913
                  0.33073759797894108914
                  0.31272004787662976977
                 -0.10627926637202637916
                  0.03648008456583961417
                 -0.21964454596593635527
                 -0.02585402752490536388
                 -0.15164410970897823638
                  0.05017660449070661388
                 -0.05416841041903879689
                 -0.24186834759722342092
                 -0.08000225423309550998
                 -0.05721402881458710621
                  0.27276001921026921115
                 -0.27349172651096415043
                 -0.08135855624909051065
                 -0.08114703488770219630
                 -0.10052269205125244356
                 -0.12559110807364093354
                  0.34411677355098979625
                 -0.36198728906517002590
                  0.01593282722723041167
                 -0.06013703531239261713
                 -0.15088368986218281265
                  0.28307197302515785253
                 -0.15891448287071316403
                  0.28189246367597459164
                 -0.22747283472497151213
                  0.08242601656863746129
                  0.37538693218206414803
                 -0.34028092164796502894
                  0.28425107913495778478
                  0.13298949812992216790
                  0.31439166964960235662
                 -0.32037413850971818707
                  0.20371294692486152655
                 -0.15261166320590893730
                  0.64766106673510903669
                 -0.37648957555822065713
                  0.12332942637073941727
                  0.57206236243564845267
                 -0.43525582573149151910
                  0.16244779730073241608
                 -0.08262782015807655644
                 -0.69329994648407200497
                 -0.32685963945081547566
                  0.34473843031524642466
                  0.76775976415865632152
                 -0.03578483834534612607
                  0.37361864179007847619
                  0.53234434960232412948
                  0.28112679945586360741
                  0.10415490649220077168
                 -0.67889089152959369855
                 -0.31074706009823849229
                 -0.02003116407850558806
                  0.54850246715958916877
                  0.35420734417276017458
                  0.34870516884278091041
                  0.66367240484907019660
                  0.01366560924434942308
                 -0.31264572210219815362
                  0.54668316417517937023
                 -0.66064071167723559252
                 -0.03652622866691744574
                  0.40693085970591158507
                  0.47497845891286355480
                  0.15819399621993818217
                  0.31304946092234675614
                 -0.11697635370505847507
                  0.49451348230047570409
                 -0.21953020911787279879
                  0.90475521917557522045
                 -0.04594562831583654666
                 -0.57229667627808200603
                  0.78037681397164826436
                 -0.05215910127669612373
                 -0.00373996647635355508
                  0.57515486142570726447
                 -0.08157329595451305593
                  0.30829038138298409111
                 -0.21317707462277121766
                 -0.32954834989724790528
                 -0.15984763679074803777
                 -0.09425402744319125170
                  0.63260319359142735962
                 -0.45918191135255254087
                 -0.74876573919980460303
                  0.27503345034001830394
                 -0.00330770831312943246
                  0.15273750564510629735
                  0.04668358881945364192
                 -0.67178719506724182686
                  0.08342216738003092880
                 -0.00616310716833706404
                 -0.48128040344058226063
                  0.59201119305154192851
                  0.46671650811317128005
                 -0.57828846199704198039
                  0.02362491621546770199
                 -0.08595736630569410230
                  0.17276051175914838853
                  0.58682958623594239089
                  0.06121742129499570945
                 -0.04094168027494558826
                  0.40871081824078914213
                  0.25478161371412128000
                 -0.28193858377040736940
                  0.56047902260323534396
                 -0.77424393149454717733
                 -0.29829890870786218704
                  0.62460419081966023214
                  0.17079416575958833446
                 -0.65179300114570437596
                 -0.50954726951231232857
                 -0.30559244074417646342
                 -0.44615680161862941722
                 -0.17524109422238676181
                  0.33163513816983358762
                  0.59678719288914128249
                  0.37683444189894271803
                  0.68302807308125490504
                  0.40090894772971619187
                  0.28208393555151917154
                  0.43499273085954520690
                 -0.24597583412818696535
                  0.44147135094579226244
                  0.15845612888711974042
                 -0.48511671883156476381
                 -0.62549966122214084585
                  0.67160926308625457093
                  0.04123904403488063558
                 -0.35080871681564135267
                  0.09825925577408783917
                  0.40844614488170943867
                 -0.07842476140631615689
                 -0.86303311043593067264
                  0.14173282180756516246
                 -0.15310033078896320702
                 -0.51197825249646555790
                 -0.61322488499889926672
                  0.64170474756092221735
                  0.49522294412242323647
                  0.42166813610020714709
                 -0.48569882738616199092
                  0.30871169026137235125
                 -0.05512676950332607434
                 -1.02015004034005030142
                  0.47007007329117628247
                 -0.37150092868521966682
                  0.37600225469824688496
                  0.22674701582384518272
                  0.31444761436489554463
                  0.65454195160267847342
                  0.06474995543209562110
                  0.36996216827686978501
                 -0.04988165860383453332
                  0.65897799120328726108
                 -0.04249740757349681347
                  0.24090405155257102465
                  0.60533891958459618010
                 -0.18593864554625083585
                 -0.17649719434714400412
                  0.68731440094018059206
                  0.44210600039073072454
                 -0.28661663683061799901
                  0.50924223905682586278
                  0.40264354852001593699
                 -0.38975406318856353760
                 -0.44087357455915071602
                 -0.36482646253924616575
                 -0.75599638434746807558
                 -0.12657170907316364628
                  0.07223300986991469663
                  0.07168315154948927403
                  0.83246033909499328463
                  0.09890976369479695385
                 -0.65076140168908513939
                 -0.60172722918048304752
                  0.69692231134493098921
                  0.13857641006136695028
                 -0.00742949267333616048
                  0.51095531890834866573
                 -0.50850194911125390362
                 -0.44956179282167119116
                 -0.50447461333943366402
                 -0.50228661539001295822
                 -0.16922044249967937990
                  0.35105635710374449854
                  0.76241783777882099482
                  0.49588023714808543430
                  0.31191852647954726452
                  0.50044577690213853938
                  0.44283748076131751459
                 -0.48674933319130736509
                 -0.01030915258155232564
                  0.23213016867811472888
                 -0.30009473653215146260
                  0.63208445119651635036
                 -0.55243060588007375511
                  0.43090477109302066649
                 -0.00558913307326911434
                 -0.84311973805663065207
                 -0.84366756829224909264
                  0.06081568519842489584
                  0.33529367137091437012
                 -0.74756923462594748742
                  0.09586544623207260418
                 -0.02977084693861137277
                  0.71666215644082875702
                 -0.59341046369543926087
                 -0.08873313527821963254
                 -0.03797739166340456662
                 -0.14480938349015312627
                  0.25943671967155323976
                  0.14209965820955969273
                 -0.52078595138987227031
                 -0.59379491843751142088
                  0.65748625497679658025
                  0.50483181964720358348
                  0.25404776124184608177
                  0.68301326273773554920
                 -0.63690326263046748156
                  0.56292865748072806742
                 -0.36790462681895186314
                 -0.26410586114822093284
                  0.20983590343083413643
                 -0.39396157306682239030
                 -0.41084728874630921380
                  0.08099060944118874339
                  0.02705559492843829725
                 -0.25790453209593022788
                  0.09864962797995260879
                 -0.41017082948840166701
                  0.28086346381183352472
                 -0.49498051676958476630
                  0.58540383524079320221
                  0.15992070904511856977
                 -0.47302225282534343664
                 -0.47873122710017412818
                  0.32526878267650732868
                 -0.17140397561365616763
                 -0.39988635650393145049
                  0.42164593833955404945
                  0.50049767532607247755
                  0.34894785156513030699
                 -0.71815542549086008872
                 -0.53871458157915219633
                 -0.49122391367901491188
                  0.39985318819471704632
                  0.45574188245954444509
                 -0.62196544210036663891
                 -0.75007322023106248743
                  0.07802707913352380231
                  0.44796891630194168865
                 -0.85216633474200154108
                  0.55864965861370530220
                 -0.84437858743928040361
                 -0.44030241428699196105
                  0.26500030165444399266
                 -0.21422106215301395249
                 -0.15034113347850569520
                 -0.33087208758713937407
                  0.04461250697101842855
                  0.36667575339459251849
                  0.41991622938441858226
                  1.01297782069603492516
                 -0.67665724779545788348
                 -0.77112431594184582817
                 -1.04534203412427029178
                 -0.56889077009031763232
                  0.73380334615284315003
                  0.00296414254287064027
                  0.65633811828785793008
                  0.18667013070606824909
                 -0.68395084853597110097
                  1.04972905281139183842
