49	2	1
15	15	
1	1006
  0.0541809631474849	  0.1345711188415454	  0.0975888965426801	  0.0931962801806644	  0.0117280451946236	  0.0090713026159049	  0.0408391478179756	  0.0526118715173350	  0.0365634344949215	  0.0526134885998191	  0.0128659847729998	  0.0349129539349532	  0.0810554859590976	  0.0058852976934151	  0.0203860418256658	  0.0730301043690369	  0.0440680996006637	  0.0007897724327095	  0.0045851554252880	  0.0079545833900597	  0.0045853011665022	  0.0070930819106420	  0.0205697330956954	  0.0029067946150517	  0.0022483212685346	  0.0102086664641072	  0.0139561211776694	  0.0177267167021610	  0.0139684043933779	  0.0010210765243116	  0.0015877212227064	  0.0024439626793811	  0.0044361885623617	  0.0078155116658871	  0.0078155118472001	  0.0159225623761220	  0.0205691297660476	  0.0412911765243555	  0.0205703945282406	  0.0013025081019590	  0.0044984839831357	  0.0354533700705609	  0.0032793099747830	  0.0097431015471225	  0.0361937053377243	  0.0006385113082860	  0.0037951311731091	  0.0412281882999443	  0.0164377458978829	  0.0638703753181926
  0.0543114901574829	  0.1348455706723265	  0.7488401782212932	  0.2364262796499819	  0.0117280865259778	  0.0090713201471735	  0.0409397223443181	  0.0527183302154699	  0.1425470336649621	  0.0527200606868800	  0.0128989442564909	  0.0349768748562239	  0.1827332412214323	  0.0058853147307155	  0.0203860795078622	  0.2851911379169919	  0.0645829323486444	  0.0007897724353379	  0.0045851713664937	  0.0079739571032584	  0.0045853170722022	  0.0070930955362647	  0.0206110502308636	  0.0029068050516662	  0.0022483257875605	  0.0102340626211222	  0.0139813751154185	  0.0357717093563499	  0.0139936673681149	  0.0010210765297065	  0.0015877212297443	  0.0024439626845465	  0.0044362016900539	  0.0078155262748751	  0.0078155264873079	  0.0159613102922531	  0.0206104463666066	  0.1103131313207568	  0.0206117991418104	  0.0013025124040618	  0.0044984935591917	  0.0715435561892024	  0.0032863094492533	  0.0097561658322640	  0.0507570101699899	  0.0006385113105098	  0.0037951311782856	  0.1103763785239078	  0.0193760853814893	 -0.0048081975258476
                  0.39930801060007220515
                  0.39342335240622411385
                  0.03296482455975478787
                  0.11975824048482111572
                 -0.22750670521839574945
                 -0.14711165108364457343
                  0.06390371319110546566
                  0.36346311024417615743
                 -0.03105113144890312218
                  0.19485352683651405159
                 -0.14693390226216093697
                  0.27170471801902412734
                 -0.30096442866284067730
                 -0.36911823868685489369
                 -0.02835074554977206132
                 -0.04133327288060274080
                  0.21494349481314042882
                 -0.09377551189755774230
                 -0.04871470540072654620
                  0.01826051021287564136
                  0.18429209987587416575
                 -0.20541504256864703826
                  0.01113292014170508964
                  0.19078100752826129827
                 -0.01514645757303621429
                  0.34232471987539758729
                  0.29455418547666195606
                  0.21868896612257249235
                  0.05443441080480998506
                 -0.23200107862307503548
                  0.13018948698043839030
                  0.25430978729399339455
                 -0.13036157735762834986
                  0.07211321970170725404
                 -0.13097763306242843351
                  0.12190365522324227154
                 -0.17879590548204052358
                 -0.35453655895163166401
                  0.01828864987639641435
                 -0.34267779173579804297
                 -0.01203411804061683271
                  0.10368191061723369684
                  0.09755434922044142754
                  0.09643887898440238471
                 -0.08351295967669829234
                 -0.29643106713118266837
                 -0.28411100996911942129
                 -0.41243355066376152784
                 -0.02817421191528192426
                  0.18276082679041777412
                  0.31076461185524301145
                 -0.12325786702878012424
                  0.08104131842186168555
                  0.39412012276179086978
                  0.22247205907882727782
                  0.11597937912381170444
                  0.17879512787177187505
                  0.44842212780946782980
                  0.23838885894144437594
                 -0.09863180747817243410
                 -0.23646546331766410409
                  0.01631390278040003097
                 -0.20372996097840656571
                 -0.10322000074507127476
                 -0.16929560970354556870
                 -0.20511699463506147256
                  0.24599046185828740696
                  0.16832462529165920229
                  0.05792194392615347687
                  0.31493760158439770835
                  0.35588309014764646365
                  0.11132869552886341669
                 -0.19118912241900076765
                  0.07042294286351481747
                 -0.04540971388703244488
                  0.23361663425595341481
                 -0.48341628434601258135
                 -0.00453148103764908650
                 -0.42787372912193893937
                 -0.40600127664100121860
                  0.23154024173086260041
                  0.07941884995512969725
                 -0.20621849841600251030
                  0.05337530257041769866
                  0.55074709921150510894
                  0.18605520123454977188
                 -0.06803816500153057889
                  0.04637109326918905511
                  0.24104886901837555002
                 -0.16774951808310092916
                 -0.54300192798601798483
                 -0.04937193182578234613
                 -0.02058422072281038823
                  0.07123492817724109971
                 -0.04007417753026430718
                 -0.10918603782844604755
                  0.12081356266447121350
                  0.30350341877907732746
                 -0.43067084375566644372
                  0.06177499849252198610
                  0.29814235478335626706
                 -0.19856961156837960036
                  0.22968168021366508480
                  0.25814371644343969692
                 -0.12542416314943755085
                  0.09114306985168130204
                  0.11169448952698769750
                  0.28339829116099701789
                  0.05314391881539660273
                 -0.03302999169534083512
                 -0.09095758454557958950
                 -0.13753266587335585824
                 -0.37062238015241927291
                  0.01277109539342442118
                 -0.01109957428040804321
                 -0.22455885397680513949
                  0.00589075684769064471
                 -0.28403946348855108051
                  0.19203154404161654201
                  0.27792077241348517314
                 -0.06704750787924260158
                 -0.19593612006442007178
                  0.10427824269057310580
                 -0.34685483062448319025
                 -0.08700802794245050820
                 -0.14214663934292665060
                  0.18558683539798681572
                  0.10793322522551528075
                 -0.23075841787040801689
                  0.09237757954469330568
                 -0.02067207995728903222
                 -0.40112215032938303150
                 -0.18888996515258413278
                 -0.21127685150446384732
                  0.20156410860737544732
                  0.19436560818192852307
                  0.54065158569812199474
                 -0.09025650698926009075
                 -0.13323482387287727269
                  0.35233542586572880184
                  0.25590785338912086511
                  0.08427533465491683640
                  0.00718932716788424180
                  0.12162147334090678275
                  0.21011181672245138330
                 -0.35874217031038047043
                 -0.14591813874150938446
                  0.19988136086075114495
                  0.13697999939971214345
                 -0.06596446806172404087
                 -0.17118864143053552640
                 -0.06375036768972833223
                  0.34291618927191880317
                 -0.10325423980076373076
                 -0.23263511741358255946
                 -0.62114182487217317608
                  0.22370482558364315762
                 -0.17817277517983046153
                 -0.02721637032305299075
                 -0.02145596265156227839
                 -0.15012742986064031570
                 -0.21718558206017254952
                  0.02252681356333614826
                  0.17829548957910690277
                 -0.19455836287737651724
                  0.33194466295481900309
                 -0.43425594023147395806
                 -0.19073680096820935792
                 -0.07449475282265174969
                  0.13771597450787068095
                  0.31652757133304526560
                  0.06622033260171590607
                 -0.08736769191409972379
                 -0.06029836891273081256
                  0.10747562057398353519
                 -0.12954367354234719301
                  0.15783651699001685631
                  0.06233344058516313707
                 -0.09412960516825528978
                 -0.36516892970902359306
                  0.04008337759869580463
                  0.19429351223151286598
                 -0.31018356629663945689
                 -0.10045057414009145313
                 -0.26446663796845421013
                 -0.06299216131601934054
                  0.25938820219164404612
                 -0.29928705304403235843
                  0.46271815768319751738
                  0.16019595888687154783
                  0.06404549253486924165
                  0.02396611189266079078
                 -0.25009465151222343149
                 -0.14879231844081186598
                  0.54352823705832187251
                  0.33030885483469596409
                  0.39275792028429951097
                 -0.27001277852780702915
                 -0.33988127531579997997
                  0.26624345740242411074
                  0.08783069339665579289
                 -0.14125935818901599883
                 -0.12780532717865014658
                  0.05214698823674943085
                 -0.02052430819030665737
                  0.32034798692478033688
                 -0.07608419767300463044
                  0.03244922753446499025
                 -0.21561579069874145520
                  0.02958391558166872243
                 -0.32330660904872887684
                  0.36151958311091098031
                 -0.25163068523593462578
                  0.04955947911566773584
                 -0.13999976061293489815
                  0.54317099328995133156
                 -0.12476904163614209453
                  0.19804046495487848123
                  0.43515236069496887605
                 -0.35234371491081217798
                  0.10471679817476312047
                 -0.12912501764133710314
                 -0.01795281777441817828
                  0.28195884674398430381
                 -0.17841481133157088834
                  0.58310239423967125116
                 -0.07781396972831131076
                 -0.08792503148379926525
                 -0.35616717043653950414
                 -0.45150969167499621637
                  0.31304695316442315844
                 -0.38229003073691558701
                  0.19503313571905295243
                  0.08229141340909748581
                 -0.11192898877511207878
                 -0.04934102147371529495
                  0.01173753883450253180
                 -0.23614270595855557655
                  0.25302370096803972199
                  0.11681038943592908508
                  0.20101947366549199891
                 -0.01797086803048513620
                  0.23147884047494346471
                 -0.09237248936233768970
                 -0.22304549230286049855
                  0.33762469180753251763
                  0.42428387543318135666
                  0.03651504965374369194
                  0.65759403880895905825
                  0.03949186901125725097
                 -0.21917799380021699140
                 -0.05822428504884766959
                 -0.01374071911432875152
                 -0.38539694087922288235
                 -0.00912914568060415460
                  0.11759492607860280722
                 -0.17308163640189092036
                  0.43070543457116472474
                  0.16800056123007520159
                 -0.02912033295964451887
                  0.16838652695947745053
                  0.39254605736885445078
                 -0.29539560446913976088
                 -0.31012035945894061983
                  0.20988550840534297981
                 -0.20970661454538497281
                  0.14867916697943564519
                  0.23063259479736980539
                  0.17396581511332384617
                 -0.37434142742294912454
                 -0.35121693709016338358
                 -0.08127442933174373885
                  0.08486010903425196539
                 -0.36781689989038518496
                 -0.03244241282118683067
                 -0.25416264131622845479
                 -0.31479678619597556422
                  0.11885916004686127023
                 -0.18069151293563667782
                  0.21531019934243197933
                 -0.24092389445836287498
                 -0.08111429505377096283
                 -0.08545258615057349516
                 -0.40236892944286528628
                 -0.03266220063170563459
                  0.33282544005558067912
                  0.29937107455642242293
                  0.02609203293974131019
                 -0.11549363749280232294
                  0.27750887152416064962
                 -0.34359956906996097503
                 -0.04932122811692282033
                 -0.33235749956170190789
                  0.06933103046626235000
                  0.05009539795739949980
                  0.22436491524389412522
                 -0.08460830987726190855
                 -0.17110425935176054590
                  0.21339498320698443989
                  0.48659969440690670206
                 -0.23166746825939821264
                 -0.06513927399571722843
                 -0.08509590109414612302
                 -0.15442089347709508917
                 -0.16939537033515064679
                  0.02939596134014349493
                  0.31269711085208223844
                 -0.02806771245498156098
                 -0.44147130564805237007
                 -0.13153596638451692247
                  0.31467367861460499023
                  0.57671561739092580545
                 -0.28587997391552705251
                 -0.17925122259768111466
                 -0.00985294258306153997
                  0.13170739676939285934
                  0.04709697113664786106
                  0.07496509397716835665
                  0.09883042081926657341
                  0.39565398435745008365
                 -0.07577067582706176196
                 -0.02838830733384166763
                  0.03975749905600114986
                  0.13447709445569583364
                 -0.12176318396187574278
                  0.15346562097037297345
                 -0.15153871160363799331
                 -0.61754078910330190144
                  0.17707238115507037413
                  0.22732326524017593128
                 -0.30766091035294662603
                 -0.60326026734379090133
                 -0.10275612549214110936
                 -0.29761323038358294957
                 -0.11194647592979525830
                  0.56408139723259498322
                 -0.24914373529696851040
                 -0.33089625800554212098
                  0.01996108881233955509
                  0.05401297019396411603
                 -0.24208567086609722452
                  0.46696942730643908881
                  0.02998682700386810784
                  0.09726565096550331135
                 -0.02561954356987679662
                  0.25453996465117062487
                 -0.35755258512039361785
                  0.09905177595311701055
                  0.11551995453708534256
                 -0.20268713167375812523
                 -0.18750126666243877027
                  0.49659340427099352144
                  0.25549744216477571213
                 -0.01878938201643232109
                 -0.19018967934314742751
                 -0.10151352896516564750
                  0.26842542256630286257
                 -0.30529863677984064863
                 -0.44226836547482001327
                 -0.07816710016941456896
                  0.03599470127452156915
                  0.04911062695334273559
                 -0.02198428313119256058
                  0.24560439649617155089
                  0.04233595129984152328
                 -0.14158735494249929943
                  0.04599564784603412532
                 -0.23383312779138396009
                  0.29751760390478781959
                 -0.21378014271789352874
                 -0.38858671678971623553
                 -0.11092518013357142992
                  0.15943327075989763286
                  0.12198450228186732969
                  0.18336358365125610126
                 -0.09481406070676244580
                 -0.19578420824882852846
                  0.07756728389127899581
                  0.12733728617839773500
                 -0.11087207775047198954
                  0.00469084825987241272
                  0.21335331395493917217
                 -0.18119880591842799089
                 -0.22336062424553254635
                 -0.15840454926537969604
                  0.17321312145471240429
                  0.05383907663514241049
                 -0.07312635090616197153
                  0.27405589046891576377
                  0.33000852780775247197
                 -0.27484716788392454800
                  0.67052374610965359558
                  0.12542018319854200681
                  0.02880214011920835884
                  0.10197887040663987379
                  0.08303912940907519358
                 -0.02909278605572531914
                  0.30270184585786619191
                 -0.30140222264162169763
                 -0.49998462616499761424
                  0.19362815010905531921
                  0.05652107232011573112
                 -0.09389470966697341381
                  0.10367916187543045614
                 -0.11881372113141283609
                 -0.27034430981276658112
                 -0.44785853298413025314
                 -0.18693504056899773458
                 -0.04559712462679351569
                  0.18592557371674184319
                 -0.32265090247504207843
                 -0.36733177687942053513
                 -0.06384900834153048321
                  0.04728787859434403773
                 -0.36992720387870631216
                  0.01938467295461832052
                 -0.11115992233870637673
                 -0.25825247870338163825
                  0.10097364264302259584
                  0.11211755892289591852
                 -0.10010777804789575129
                  0.23084445996326619088
                 -0.18662854797645594962
                  0.35417749623386868274
                  0.27802330943959191467
                  0.07543358929714466532
                 -0.24001583999704861894
                  0.33594115300548732517
                  0.02604882096995941171
                 -0.05812842633132239006
                 -0.21588919918147386756
                 -0.04323408978780358958
                 -0.00981532300866557600
                  0.24694206546072644537
                 -0.15081773637666121002
                 -0.36242707742564411744
                 -0.07808059683695377229
                  0.41610527483670306514
                  0.37455114710486120400
                  0.17497734157542035871
                  0.34175540302681484128
                 -0.12405555578752416879
                 -0.56444996416619608315
                 -0.29106103434350527603
                  0.22150598700734644431
                 -0.13259035411224234791
                 -0.18552518176933738281
                  0.17011720190964652044
                 -0.16533984706377474749
                  0.09461019956779395668
                  0.00720157973094132878
                  0.25648106843860218884
                 -0.12968614899385380590
                 -0.25509181336942216012
                 -0.13568366846876339649
                 -0.03807511738913373772
                 -0.21421735357388452248
                  0.37904452406178373858
                  0.18634190842894668427
                  0.27037600719231097424
                 -0.17948180163683838395
                  0.47705098665571793459
                 -0.32033477402534965561
                 -0.25236530366321086039
                 -0.05985627229088153617
                 -0.27982617008079840870
                 -0.18757992603228831885
                  0.06279228149569959783
                 -0.46138598737219305157
                 -0.07327420077038269974
                  0.01782429648293989283
                  0.51729862026115536189
                 -0.45698113775862742036
                  0.12879144923094851261
                 -0.05961784996603493314
                 -0.16673864104879937420
                 -0.15197503766577538653
                  0.21568230935078788746
                  0.24134530596736242236
                 -0.05549655950840289703
                  0.21780818068078858230
                 -0.20130647050309344315
                 -0.15326997410842044256
                 -0.43155386622678931774
                  0.11482269478274476082
                  0.13142613173111411529
                 -0.02220207001532015570
                  0.30610444220113436353
                  0.29502859594687230738
                  0.41237454102203446871
                 -0.30772819540582979636
                  0.08069434426473744149
                  0.15184352881094603793
                 -0.14483379199762588807
                  0.06437281418336594785
                 -0.19034155716691975035
                  0.21246334450685827600
                  0.36392111006605215584
                 -0.14263893021817977691
                  0.17516531071473528947
                 -0.22139054991310214149
                 -0.11417586368636871430
                  0.24349363692057435227
                  0.10289434358354554444
                 -0.32557772003107265935
                 -0.05002880587922493155
                  0.19666106662218563184
                 -0.01266873450765214001
                  0.16098536648696373796
                  0.13196519307453061232
                  0.32067245525396737005
                  0.28794062519997098981
                 -0.32565942683981269345
                  0.14265243149469838957
                  0.03943858405229141995
                 -0.41486615072038646179
                  0.19483028076107847260
                 -0.38130900090443264894
                 -0.36179369259899762934
                 -0.13078858780464311384
                  0.00389026589456498931
                  0.09955038359798926151
                  0.26193106608142302516
                  0.01649740365268523995
                 -0.14413749156344690672
                 -0.11810246835549188804
                 -0.24903676485717179956
                  0.00900110846587146712
                 -0.18928971677096481652
                  0.16963654963475652271
                  0.23231064403708462374
                 -0.17845938595296112483
                  0.03371451612749883781
                 -0.28872906716048762910
                 -0.04692491188488832204
                 -0.17461040614849165920
                  0.10232364324234924369
                  0.47516610687254895451
                  0.06913809928236253066
                 -0.26535433908977440476
                  0.12782114554604023793
                 -0.20297287560927354533
                  0.23314015709777730079
                 -0.04791371120745700762
                 -0.49226575090503499332
                 -0.05003606657309593586
                 -0.07578554289775095432
                 -0.25331634287929677418
                 -0.37213870055592251918
                 -0.31147431975169220797
                  0.35807072890888463901
                  0.01460888032639996725
                  0.18989655337227032139
                  0.30945983982306402016
                  0.17511146177062786311
                 -0.31059853348075472379
                  0.10902065616889308752
                  0.35907891065581465373
                 -0.00284695286725457916
                 -0.54411097883850323420
                 -0.06625977271019950487
                  0.06968527934309338978
                  0.36832744665402517015
                 -0.56491386394321030373
                  0.14253730890221899541
                  0.09247265746867430747
                 -0.04209669896967412756
                  0.26995374444117398172
                  0.16928432107107163618
                 -0.04046150651576135154
                  0.43517238676410474607
                 -0.04742469093242178413
                  0.20330174820127908109
                 -0.11887198004981069932
                 -0.27680998230536935090
                 -0.14409450614124164058
                 -0.39519920516034401370
                 -0.17166479616315810652
                 -0.37725418230756257998
                  0.03775921753073967907
                  0.28958034135190657832
                  0.21087038795737714225
                 -0.23765511503461100862
                  0.17703523226106623878
                  0.17401562372682194413
                 -0.12716109139648157367
                  0.17635654350628357512
                  0.03777873910434254023
                  0.04449264929076558739
                 -0.06024085199946951213
                  0.05445643873210480324
                  0.18359881901507049684
                  0.05764510859462178283
                  0.51550488347160983160
                 -0.27224340981088718250
                  0.22051630201598340641
                 -0.14744260288460239727
                  0.28545766597302851819
                  0.07061028677508346396
                 -0.17021432473919295703
                 -0.28215333015730093003
                  0.30735924616282372934
                 -0.17025703695244992497
                 -0.03139832594754547734
                  0.02676194080675470613
                  0.60609924717951391138
                  0.12954318520915963919
                  0.05895164004098082944
                 -0.10597709497837008719
                 -0.28523090224216862687
                  0.11131097209784175661
                  0.29522373960361408818
                  0.42154973720111149627
                  0.26947640370948128252
                 -0.12224118194739336252
                 -0.08938421293385268029
                  0.17723601697084720441
                  0.15241102116179169879
                 -0.61853357935962038905
                  0.12533689464149966319
                 -0.30836601539711377962
                 -0.41248925830161076167
                  0.27333278655603793217
                  0.24646320447122344044
                  0.08910159055049726717
                 -0.04261235938797054701
                 -0.16146320799583974148
                  0.10618243965323080624
                  0.17197057694023210050
                  0.24974717641720808881
                 -0.05467308421772994892
                 -0.25521942881732606612
                 -0.13383761457068674150
                 -0.48139594380303862842
                  0.15593943205443436262
                 -0.04069661225805030341
                 -0.06438252336542803211
                 -0.26323345506121803572
                  0.01361183506380572381
                 -0.13402994156378467139
                 -0.14820076519649502678
                  0.01960584861711830648
                 -0.24806758417944016482
                 -0.10775253904153621332
                  0.16084990822391637133
                  0.33437408681533214994
                 -0.24373447303136655528
                  0.20633203484270526418
                  0.05064361140782541737
                  0.16710445093598430555
                  0.07586472227610457919
                  0.20276674247023129816
                 -0.00034646457450483942
                  0.44658884560146411280
                  0.37085260651323354031
                 -0.09503167794741490537
                  0.13924470539540742542
                 -0.10208208424906656253
                 -0.21688045532228503176
                 -0.24875525319866073626
                  0.25864284312854962655
                 -0.30613143770723144632
                 -0.28418574944585783815
                 -0.31754910537577757390
                 -0.03600814361197651747
                 -0.23122405703967052748
                 -0.14570501039023900369
                 -0.23024942040900156504
                 -0.15556597563713586707
                 -0.20959828551121428841
                  0.05447976612398931773
                 -0.01912961500668158149
                  0.33163287246077532977
                 -0.06165739649721430071
                 -0.09410079303848380150
                 -0.16004708031175285399
                 -0.23719527649889865506
                 -0.20217640188200722284
                 -0.03469388005506747474
                 -0.16137833499847081820
                  0.32802164219357282660
                  0.13285944693069984268
                  0.34748269381356289287
                  0.01031910785215705249
                 -0.13628926335305074913
                  0.04918840033997750466
                 -0.01003764691928914904
                 -0.24771943465113496763
                 -0.42163783247308761482
                  0.30655382305731204706
                 -0.02284793258647473124
                  0.13570553681117328293
                 -0.06611602992254539402
                 -0.01996165937187636963
                 -0.18463314635522928842
                 -0.00504247550487219205
                  0.18803470433619384750
                 -0.14895769270140979401
                  0.51185900300231979010
                  0.23246366206689567102
                 -0.16348129758699780911
                 -0.40936842860911426545
                  0.02772166499597206180
                 -0.01542222017689728886
                  0.05500304390252337694
                  0.39486279371185512010
                  0.21687338840691214314
                  0.24497835006076376652
                  0.19868953481747364531
                 -0.28994057499113812248
                  0.08220347262618653283
                 -0.26908482809726119722
                  0.12637806055635739111
                  0.34109723192888463661
                 -0.41663243908123098747
                 -0.41988553953425056253
                  0.13593897878487512521
                 -0.06429230833103211085
                  0.25169815985260585167
                 -0.20788170624216281701
                  0.18476663616310573524
                 -0.14533775281829622306
                  0.18621009805590679753
                 -0.13493381590831510231
                 -0.00950103957409786232
                  0.02181672902968992411
                  0.03042643919373758804
                  0.68742640287718626002
                  0.09517768255317701764
                 -0.15562536308092697612
                 -0.33111690319873121613
                 -0.00116773686668012865
                 -0.00841262841510313775
                 -0.13958374603414175352
                 -0.31334453386589261603
                 -0.10790313994048993107
                 -0.18546208010327730475
                 -0.40228636978532383850
                  0.03920058610274479438
                 -0.51732692930446777524
                  0.69429800795756979603
                  0.17573355667253026668
                 -0.42158847339292992995
                 -0.31812065903261876887
                 -0.92289201941393228523
                 -0.36289741573344846959
                  0.64687807668659724758
                 -0.30858491224867179437
                 -0.15418966707528081184
                  0.68049451821298534426
                 -0.51270532343744312787
                  0.31982970643197944360
                 -0.18870173644964363668
                 -0.10665082893098706829
                 -0.34185640152570562211
                  0.16186789634686668538
                  0.04242605257274526670
                  0.12396707589912825398
                 -0.03800938390919800236
                 -0.47006582078519221213
                  0.36040826056528546539
                  0.90785264279879729354
                  0.27058169789906821867
                 -0.33589365671700316396
                 -0.90724199108963410332
                  0.26605867080732281682
                  0.37686960477895153909
                 -0.45836036652002593028
                  0.63908224885203246401
                  0.00132325202556467583
                  0.46193255947382905191
                  0.03448445816917521806
                 -0.32223263872367252647
                 -0.01994278484811701918
                  0.49916631626663338084
                 -0.54575668930100762477
                  0.58599871659805735646
                  0.64000193230233282105
                 -0.26083224230604101779
                  0.82534258312271113756
                  0.46012741332200773892
                  0.47676516282359265864
                 -0.10024553669322890104
                 -0.28159897398189670525
                  0.00784939625287597691
                 -0.43816731390751545439
                 -0.50604427693832321200
                  0.25894841079526664807
                  0.55339329267402348478
                 -0.10606023984308719788
                  0.31872836194469650328
                  0.47824459846588240897
                  0.24360786088703617613
                 -0.61769343353083883130
                  0.59580795489430227185
                 -0.59141988888826768633
                 -0.10741683773394554435
                  0.08158460507690423746
                 -0.10576954035676462695
                 -0.70370495746624983635
                 -0.31627015510063727355
                  0.86729989321659939350
                 -0.70912429424386902443
                  0.02513232522866773108
                  0.16622654632720426648
                  0.47542032586973970165
                 -0.01892795052016578786
                 -0.67859330097200021292
                 -0.37500577263485040946
                 -0.14167785782611558298
                 -0.35578649622801800101
                 -0.42960465808555114986
                 -0.41955398662628629047
                  0.35896885774065384611
                  0.76395780198422513774
                  0.01941480939046036358
                  0.87176932305760979069
                 -0.56512572031904040326
                 -0.15633295768928059943
                 -0.75320857461093504437
                  0.11607651254563486343
                 -0.58890988875251337742
                 -0.43683540821272448529
                 -0.54226095237917792957
                  1.12011638602585295033
                 -0.04567540445520344022
                 -0.62626533714121757068
                 -0.04349264951609684710
                  1.00101244325774252353
                  0.54785405751046145628
                 -0.06361616344989842742
                  0.23016430305578366999
                 -0.79539514327040772290
                  0.06875369179260859553
                 -0.06602499656081370349
                 -0.35033430083149114109
                 -0.58688049034771860857
                 -0.48269618373999667593
                 -0.92580784998131637753
                  0.59170314409928914667
                  0.53259056317899844402
                  0.43103613529297546414
                 -0.29412714001344619774
                  0.17037409668291020326
                  0.67368781919654718848
                  0.65781696404531508904
                  0.02940579287649850229
                 -0.36276786719203102383
                 -0.20239162385054243476
                 -0.72087360951135259768
                  0.76676439531249307446
                  0.01830512827501948672
                  0.00982207752200164354
                  0.44044182026661782281
                  0.28824363371747063756
                  0.17055303726937345865
                 -0.47976852221037569191
                  0.50180348174604394451
                  0.15005271510954498737
                 -0.63855518370911767967
                  0.43040170052918441668
                  0.64819988388323634965
                  0.32895669606026023413
                  0.34986254097971014598
                  0.33018495116317647664
                 -0.28017653756559007805
                 -0.21597099406491856999
                  0.51301874078984066596
                 -0.51246481474595539929
                 -0.34004617242604828764
                  0.33335752370178189929
                  0.37584400738778900308
                  0.35799916738045567399
                 -0.01174021223835166813
                  0.16362801646574187675
                  0.49157204999182424476
                  0.61723681646835315551
                  0.06058684917702019529
                  0.64905015436646107396
                 -0.34249481311221502411
                 -0.50701351659402160710
                 -0.36446146658185657463
                 -0.36725895732788355064
                 -0.23539890211939049069
                 -0.48956361964424477407
                 -0.43212735881130270865
                 -0.18394123922455030140
                 -0.17292617527203610339
                 -0.48996295650060139870
                  0.18886411657534526998
                 -0.34779492091645936025
                  0.50945306723257777204
                  0.26442839774095294736
                 -0.42227109150956720907
                 -0.91564371664570198828
                 -0.57565391773577845314
                  0.14665545161228396576
                 -0.60302833430417401850
                 -0.21089727272379998890
                  0.10196564683914527416
                  0.18110902425015953932
                 -0.36672891125983780869
                 -0.03429774262937725082
                  0.75723937921029083054
                 -0.12003108006965627907
                  0.57797066721412126977
                 -0.45806870674241922936
                 -0.53918693462279976281
                  0.68208401154515807541
                 -0.51687774108999506861
                 -0.25217070237253702558
                  0.25904872555828395431
                 -0.43952655377007154858
                  0.34766992859008460925
                 -0.29207290438775601604
                 -0.58597377453520138602
                 -0.61002501229904726454
                 -0.15164123563424067309
                 -0.41947289904226447987
                 -0.08174714796233564784
                  0.37509382332988561171
                 -0.71832359195763961779
                 -0.39472445833705221974
                  0.17034833497569701333
                 -0.69070592907592109899
                  0.43874402330656614435
                 -0.81812846631360003347
                 -0.42516273057930159540
                  0.23708542358318823728
                  0.40424694179163656038
                  0.10091572583537362917
                 -0.07593865350728121189
                 -0.32041369759534393813
                  0.35027312404099975041
                  1.06131240953145367101
                  0.18270550915477670739
                  0.63249216724346135621
                  0.45410332715184292818
                  0.24091639631209044170
                  0.46818533124109840138
                  0.56133989932073025120
                 -0.62897008872448034733
                 -0.34953265326593624396
                  0.06295005736881648106
                  0.47084376946092432181
                 -0.86229721983959661813
                  0.19843743733676544316
                 -0.22621156942406547841
                  0.16736228142140235908
                 -0.50716084151683926695
                  0.15537826880258998052
                 -0.21559195231064406939
                 -0.22950082426965420779
                  0.12209808702726876461
                  0.23197673392166981432
                  0.06593326893657597276
                 -0.98809383669061312538
                 -0.85507530414099686134
                  0.07297538888915240662
                 -0.28266306999710155701
                 -0.99864679963525082584
                  0.74157966082112458661
                 -0.73945883725719374624
                  0.49165052598114733495
                  0.60368075488598171852
                 -1.40539709219084940628
                 -1.26185235553566066358
                 -0.42496831220739667012
                  1.13886325685954781228
                  0.85257635682503418728
                 -1.02731135088342129258
                  0.18013484479997576848
                 -0.42493457708675547169
                 -1.29423940954026361894
                 -0.78371525017107201982
