                  1.44990068316803921711
                 -1.19407068497519719408
                 -0.73472678884709829994
                 -0.88626790672008726180
                 -0.73247197279068043674
                 -0.72597907588603438622
                  0.02128222305320597030
                 -0.54607610722133137493
                 -0.04586440584105019869
                 -0.61092190943253921187
                 -0.48613783284781342253
                  0.96658876426757267541
                 -0.93230433103114507265
                 -1.57206075069765405239
                 -1.37586756643218466323
                 -1.71247111246549366115
                  1.46550828021548129598
                 -1.16273019658112430896
                  0.93525814638070658980
                 -0.85283313307582686580
                  0.38393847489800914108
                  0.23689804261607450009
                 -0.03651242257676196035
                  0.35945160377687035425
                  0.43904966562467084845
                 -0.64662274423170196247
                  0.99800440258153400030
                 -1.18203916150878751701
                 -1.43010705655906988909
                 -1.45188912911071166256
                  0.99037559890528548134
