49	2	1
15	15	
1	1006
  0.0506860152703200	  0.1350382824641063	  0.0780960218444227	  0.0776839789679633	  0.0117280532552035	  0.0090713076749631	  0.0401689396496235	  0.0526260938033361	  0.0300302051715343	  0.0526277675808892	  0.0128688578958507	  0.0349225647065768	  0.0714321042326980	  0.0051507030147437	  0.0215461304773807	  0.0600005132826076	  0.0354433206241584	  0.0007897724335645	  0.0045851585634036	  0.0079551659479091	  0.0045853042868650	  0.0070930858814314	  0.0205754373056020	  0.0029067970645120	  0.0022483227138577	  0.0102111523103878	  0.0139601798201338	  0.0161601543078027	  0.0139724675544693	  0.0010210765254475	  0.0017686151791450	  0.0024439626812095	  0.0040817981161219	  0.0082370923970868	  0.0082371203982217	  0.0159237277366876	  0.0205748337084173	  0.0346973405832977	  0.0205761424775803	  0.0013025085673205	  0.0047254956612206	  0.0323152482679392	  0.0034157670152333	  0.0097447243369872	  0.0304727560710377	  0.0005227761089374	  0.0042037414877297	  0.0346928895305791	  0.0125970703842838	  0.0649165442743262
  0.0508099027638480	  0.1352417751153107	  0.7683330529195507	  0.2281250335978228	  0.0117280784653980	  0.0090713150881153	  0.0402639305440276	  0.0527041079294688	  0.1490802629883493	  0.0527057817058099	  0.0128960711336400	  0.0349672640846003	  0.1831852973076952	  0.0051507183628548	  0.0215461570603354	  0.2982207290034211	  0.0580758315423028	  0.0007897724344829	  0.0045851682283781	  0.0079733745454090	  0.0045853139518394	  0.0070930915654753	  0.0206053460209570	  0.0029068026022059	  0.0022483243422374	  0.0102315767748416	  0.0139773164729541	  0.0368700921304820	  0.0139896042070235	  0.0010210765285707	  0.0017686151824383	  0.0024439626827181	  0.0040818098843058	  0.0082371025883442	  0.0082371305894789	  0.0159601449316874	  0.0206047424242369	  0.1169069672618147	  0.0206060511924706	  0.0013025119387003	  0.0047255015004563	  0.0739097877580272	  0.0034213089172305	  0.0097545430423993	  0.0472850242954946	  0.0005227761108388	  0.0042037414916306	  0.1169116772932730	  0.0160019291957312	 -0.0045776354522802
                  0.07128687699096102059
                 -0.27700011417403669345
                  0.11383563034142801795
                  0.04459068948925598574
                 -0.01556140311818355465
                  0.23282888925964817517
                  0.32887636600061148640
                  0.30844732426184784391
                  0.09924035322863437869
                  0.19304561530207767217
                 -0.22084951129471214193
                 -0.27076365244961192458
                  0.00107437472781976616
                  0.19324614409272095061
                 -0.18240880739019910139
                 -0.26669328960767935133
                  0.21478153960848642146
                 -0.14700617498643753223
                  0.32870010848422215322
                  0.25721834079178323984
                  0.34339299480035573309
                  0.13193452031616875741
                  0.25993884406943312815
                  0.29493694771517148245
                 -0.19882173226887700501
                  0.33864484730924249156
                 -0.21011502257901590318
                  0.23764891950670760656
                  0.31392577765052209759
                  0.24597356746454512866
                 -0.09071028448882177686
                 -0.01289993706642431764
                 -0.02910002278814196111
                 -0.08044446743661054500
                 -0.32174412126708329396
                 -0.04016280213617805933
                 -0.09995651938296237771
                 -0.11825529987299644719
                  0.11445044331663822845
                 -0.15700949448688600318
                  0.07092196510761554495
                 -0.29522264651465546237
                  0.05452357939546244314
                  0.33632302994104523730
                 -0.25120080195147387325
                  0.11331623935298545947
                  0.29985042404220635381
                 -0.14714528615442257209
                 -0.17259362085837526291
                 -0.31451826984884873051
                  0.24032256006888139122
                 -0.20439432209259922324
                  0.20305970509670057123
                 -0.05109339168461876635
                  0.10974170705323506303
                  0.11924359983198719315
                  0.19896039352035002623
                  0.15537228289587215468
                 -0.15705499185438592802
                  0.08404205663653234459
                  0.17641167938704366280
                  0.02124274169557678268
                  0.11786534420218740260
                 -0.11756463563860952704
                 -0.33432840066337610185
                  0.24161137146784106289
                  0.18594371016954003295
                 -0.20993539599930752249
                  0.37895605071945692721
                  0.19652503158726017385
                 -0.19863681146672299005
                 -0.36822669266112828534
                  0.32422282473021057925
                  0.20634511538097180527
                  0.05085660616947756951
                  0.05653382170209739904
                 -0.06455688678012440340
                  0.07949836833936500813
                 -0.22579672734442676751
                 -0.05370733376654518443
                 -0.23172392006592282265
                  0.10214389454872792318
                 -0.21616138978925469871
                  0.23058207632483704308
                 -0.03573655692027166014
                  0.06829386994352128204
                  0.29361775072342111148
                 -0.20126018476702045579
                  0.15824486528204909086
                 -0.04801000486623295538
                  0.32364992334638020832
                  0.19814644381046755961
                 -0.00489165676210436516
                  0.16920795658128712224
                  0.08548642833988677470
                 -0.44826699510492579170
                 -0.31989463502736620315
                  0.37365273298179524364
                  0.13610099767308000973
                 -0.15581956796224188944
                  0.00830212405166770931
                 -0.21269790254523632256
                 -0.04939086610194118321
                  0.29211069078455759174
                 -0.21529901112547533693
                  0.27196981751829490959
                 -0.35078149908909439514
                  0.13162735308179138172
                  0.13574535026287548600
                  0.00223903409836316092
                  0.36744605422860437960
                 -0.29928760002122645201
                 -0.07677640804792890128
                  0.23390647311538853570
                 -0.10127039159650474964
                 -0.02510666612436167344
                 -0.12427604135192356349
                 -0.07262334752047160114
                 -0.07680116581821611055
                 -0.05175512849191293840
                 -0.28484287586663958880
                  0.15081012277291067081
                 -0.12826854966008102710
                  0.11649754338399420650
                  0.25924077996692818093
                  0.03718025727329413860
                 -0.25516392049060493408
                  0.29211841653120673712
                  0.13815601884089198648
                 -0.28309650258074714468
                  0.05247243929058759138
                  0.31604483999245325254
                  0.14855782607292294939
                 -0.27545887644905808767
                  0.19888766598326673707
                 -0.19369634623389814232
                 -0.29745139871199166581
                 -0.25412085089689345763
                 -0.10222386803785851739
                 -0.31575240509260199540
                 -0.09917064625749570650
                 -0.08304379080331167340
                 -0.19232817004822022611
                  0.07214506210024908273
                  0.18383767007542903271
                  0.32288328492352796895
                  0.38769612985086443491
                  0.01949671636879475936
                  0.28781649889212412852
                  0.25557609693660499062
                 -0.14633195698700532383
                 -0.13803205977721172415
                 -0.01265270743468745185
                  0.35709752456148857735
                  0.18593362135756033582
                 -0.27647153413204000882
                 -0.03514094705252506640
                  0.09999807629260840103
                  0.13727719526999196398
                 -0.34913785812028830247
                 -0.05913126066915997542
                  0.00513531896390487328
                  0.35118714370223913512
                 -0.02222851029168132139
                  0.34530280228315113344
                  0.36122053969699663423
                 -0.32323566362985528544
                 -0.22977491979487849050
                 -0.23271318404649823930
                 -0.01802473970516531993
                  0.18518678635046245673
                  0.02254455386870686528
                  0.26647692416919210867
                 -0.14124865304955716572
                 -0.35037024671804906095
                 -0.06453334475561808836
                 -0.06278983192993874141
                  0.15479231036230475804
                 -0.21360488518277570558
                 -0.12470374882535455174
                 -0.03849798825861630580
                  0.19515582321638832997
                  0.33836771654924463482
                  0.19946539127374732225
                  0.23817453786488171352
                  0.23489449079064578241
                 -0.08750945040198419844
                  0.28133630106666923654
                  0.16384897620653665617
                  0.20880303334284805450
                 -0.25058048319753911670
                 -0.26838390291171082547
                 -0.22665495706248331431
                 -0.05348317870998196139
                  0.05178404892996145426
                  0.05403739769923451147
                  0.22038445981705254151
                  0.22718150131026612626
                 -0.10286439682131420792
                  0.23682363258266764250
                 -0.21076150511809677024
                 -0.02298600653983512432
                 -0.05468784135580854328
                  0.23127499281904581596
                 -0.16703166164622323953
                 -0.17124454734511537768
                  0.00493406245815821050
                 -0.18559437060871311620
                  0.15981860783029405715
                  0.07216217588175642683
                  0.02817889871570476018
                  0.47634134510217224223
                 -0.15689078873682471560
                 -0.09165904439245134427
                  0.28278023161138537978
                 -0.31408553904110525501
                 -0.20052418227053081523
                 -0.40517410687561422611
                  0.21041725327417906688
                 -0.17244248092583511212
                  0.22087639826840624324
                 -0.04397954336910676193
                  0.10064517244895726522
                  0.29455493467247229056
                 -0.00167165343248335549
                 -0.19517134480241868366
                  0.11728136787690086884
                 -0.05854231963054625648
                  0.13838846999745987865
                 -0.23866528095571892809
                 -0.30366598287463575367
                  0.18954012248063362156
                 -0.18602791930120107788
                 -0.13783752796921744377
                 -0.31138045819984122575
                 -0.00989000073024135125
                  0.13518180814014921221
                  0.40948320813728544820
                 -0.33257121127700001173
                 -0.09594533396239413037
                 -0.07155109121424707563
                  0.25070665403492992107
                  0.25192549808089692576
                 -0.20867910746273901634
                 -0.30268524721592343640
                 -0.23455877271604605450
                  0.28554400912364152898
                 -0.24625982629165615867
                 -0.09965300816472860701
                  0.05069853478704278854
                 -0.25751374070851684728
                 -0.13587904303266534756
                  0.16661134241198477524
                  0.08187895862047250839
                  0.13368828439189914259
                 -0.25030981690600156986
                 -0.16121520020340199264
                 -0.32257906494463872704
                  0.19712428966386338902
                  0.14941888449009235740
                 -0.14105371464968374795
                  0.26283189512499216534
                  0.23406357436539779182
                 -0.21816471796153796836
                 -0.20557626123990016542
                  0.08470580083905548952
                  0.16188896416539100276
                  0.27186677452305296754
                  0.26369712917656057405
                  0.06966478791623662015
                 -0.25761118117334869115
                  0.02893308913338733107
                 -0.29791438958599042452
                  0.09257694397672182329
                  0.00408954684772114361
                 -0.38258761442309474621
                 -0.21773821766296488911
                  0.09244551088498313696
                  0.06734755449434874641
                  0.24591031814829197866
                 -0.27986731211264670449
                  0.24758778211842619177
                  0.29917660014911640065
                 -0.14120805428711127871
                 -0.14333212255822821990
                 -0.08993828800114450628
                 -0.14467922099336541497
                  0.30219856131231509488
                 -0.09902401277170801153
                  0.34122163316549020129
                  0.16346224655549040916
                 -0.21036938872270297129
                 -0.10685017342898855963
                 -0.24542375402017987951
                  0.33337824261604231957
                  0.03608797700184881302
                  0.16539916017086631062
                  0.09827576405713267516
                 -0.26514910968565158500
                  0.01235079067800851083
                 -0.35832560846088529205
                  0.32788578301380943980
                  0.25206091402880953511
                 -0.21075028029069442503
                  0.18744821247887666349
                 -0.08481566643945349926
                  0.21652089161129925432
                  0.06750237138415927929
                  0.05764959988851353634
                 -0.03972400766028035685
                  0.03376729510534317441
                  0.02049333846244500920
                 -0.27223328780363081902
                 -0.07259567306716432911
                  0.23042558318870823286
                  0.26445649166158446963
                  0.31333270148195441207
                  0.20423375683652350565
                  0.24339210309030226420
                 -0.21988610541918840457
                 -0.09619892533306813320
                 -0.25051628973022854741
                  0.13265995881250086663
                 -0.14743143441126430049
                  0.33131401459164000478
                  0.12355553027045351744
                  0.15296769322868522534
                 -0.01531059395051653782
                  0.14096883074518545831
                  0.31153938247966544983
                 -0.12971252863372897957
                  0.13461726939274948345
                 -0.04783724051623782642
                 -0.28781571129087391014
                  0.08924422813862967208
                 -0.09272268991740802158
                 -0.16877355668241614262
                 -0.35521360234952104040
                  0.35491373821701238667
                  0.31132924789880767058
                  0.11882610567006102187
                 -0.07715378065728883961
                  0.27665971304200914771
                 -0.18671202442982920422
                 -0.01844060199791770077
                  0.06679325513718523122
                  0.14875737445111145152
                 -0.27986875238192832072
                 -0.05515957958743451794
                  0.04960592163575969910
                  0.20479730489311598340
                 -0.10681306440793593426
                 -0.24526037200049985443
                  0.26854678951035448886
                 -0.00604995059790516820
                  0.28904716489533055501
                  0.15941569221385204491
                 -0.24454868326030065884
                 -0.19341353273934866475
                  0.45785666526408941301
                 -0.12944705951446477954
                  0.01103512078609406380
                 -0.17944824537267503595
                  0.10735565498559078434
                 -0.22191754144536737781
                  0.35769264744245676813
                  0.27424751502813832227
                 -0.03237718157476141695
                 -0.22807855774256219350
                 -0.30269380978049714725
                  0.34328027584118331328
                 -0.01532479931888215338
                 -0.35330910519427671801
                  0.06253424733450786699
                 -0.01144578072614012808
                  0.08058121233946269335
                 -0.11062202623826723757
                  0.08001341786573652748
                 -0.28594142357900348417
                 -0.36109402094294390517
                 -0.01408335535496075923
                 -0.15962679967795048719
                 -0.26508437853172617249
                  0.09059498869643155261
                  0.21086485540668267746
                 -0.00026788441832843301
                  0.23282151503574985418
                 -0.25797754975734571437
                 -0.29729635254009101342
                  0.30140603024951867495
                 -0.26963814693304910541
                  0.23216785168053311050
                  0.07374401331537443205
                  0.05220108929031233580
                  0.25230126689937226736
                  0.26383248870314213175
                 -0.00146609118121383136
                  0.27537676576709779752
                 -0.12249684714584301026
                 -0.10493843473332666039
                 -0.05660138874940122411
                 -0.25651370330482919924
                  0.11803449293374783380
                 -0.29449455713114242039
                  0.14637216131294664145
                  0.03515266054631639020
                 -0.14001648679355954696
                 -0.28980077806422255282
                  0.07515962986186193462
                 -0.31828884925933564887
                 -0.07065604425427320090
                 -0.16116501797195015300
                  0.25038561247226270856
                 -0.16923212009623442298
                  0.33844562967773716977
                  0.06854013641624065456
                 -0.35487251248810425253
                  0.20943890663242678563
                  0.20251550339064958162
                  0.11171395247458547340
                  0.04072449145255082475
                 -0.04716253508075364531
                  0.27017696417260295139
                 -0.37470736991499598023
                  0.24850559271197039668
                  0.11062207513012738136
                  0.34808503241557697816
                 -0.04530304323135606048
                  0.03276150553978476182
                 -0.24548436046538021915
                  0.28430330943690240719
                  0.11310307737768528213
                  0.09992858846492766456
                  0.26425643962557743283
                  0.12763162644006179058
                  0.10782597107259304925
                 -0.34598062074328111981
                 -0.18413979706805663761
                  0.24087480487109991234
                  0.07740882282571907858
                  0.23231530464671135139
                 -0.20591101603012840204
                  0.02875254856166048478
                 -0.01037630727102808841
                 -0.36211024604005409566
                  0.35959117976605498024
                  0.13065450040184148350
                  0.14507664131862857415
                  0.22422713783000802756
                 -0.03556615903803875961
                 -0.08583842443036966696
                  0.36868258726121599933
                  0.04547561316109706431
                  0.01052070140688100841
                  0.32689363267644994115
                  0.34041784387274770518
                 -0.30816811097787738527
                  0.24438149578225579206
                  0.19309692842704448412
                 -0.16276382926298577081
                 -0.09059422069530584376
                  0.17038441247413704804
                  0.23515696543823252918
                  0.20551499544835827304
                 -0.30655240264952343665
                 -0.35849444321683920922
                 -0.31754947950311424032
                  0.03040471071722796598
                  0.00782735448906247445
                  0.22203438061491626021
                 -0.09743998143679682977
                 -0.00020083722153559037
                 -0.06106652400464084030
                  0.09790258315969982417
                 -0.05674536453377609230
                  0.26727191321939758328
                  0.23320606479188324411
                 -0.09381209478888097308
                  0.17382286333143637247
                 -0.29493030983274964862
                 -0.21907970463202516842
                 -0.02944353489233453997
                 -0.28239642296263178789
                 -0.02347604626581655668
                 -0.23444845691543209076
                 -0.02780327792274552012
                  0.30500175848864058414
                 -0.16536958391341338714
                  0.27812091092419966021
                  0.00826704670222237412
                  0.09754636057829234319
                  0.26409249838701687185
                 -0.04321477617772564311
                  0.36603297673847651206
                  0.18721276721595264680
                  0.07394177996147330290
                  0.07598217813536187193
                 -0.12792723003294440010
                 -0.09288441892248665288
                  0.37597711489688750985
                 -0.12331243184546485103
                  0.22952578560251823969
                  0.32949383574993262869
                 -0.06270961788683802884
                 -0.24054911426739156166
                 -0.30725556225298628066
                 -0.23114338612360571523
                 -0.26012289605550792393
                  0.19874964860298655056
                  0.00337560370580879728
                  0.16230162362256103648
                  0.28757702536349399880
                 -0.09987210151873565644
                 -0.33837811242843818249
                 -0.03684804146435734923
                 -0.03715814489675254434
                 -0.05477768767657111709
                  0.01107120772216672877
                  0.21387833648376516904
                 -0.10153405616043328918
                 -0.05962304772225702348
                 -0.21116221252048741897
                  0.29652633516267340452
                  0.34295592991618412126
                  0.25205839568096000125
                 -0.00249775951566361901
                 -0.11065026247370622625
                  0.19224677641997389710
                 -0.09125940286106355714
                 -0.22337321546637115000
                 -0.02204907178777264221
                  0.43391202441891230102
                 -0.18122890804654018249
                  0.37043562915580419137
                 -0.28324900061025409803
                 -0.05338197738701876832
                 -0.28344586150010675496
                  0.11538765847106649542
                 -0.05846013937408604116
                 -0.07277191008994159105
                  0.36862121421782761965
                 -0.07847350650796562632
                 -0.15805993390033964974
                  0.00800360461629685827
                  0.04223961356412730961
                  0.10315076402794472188
                 -0.17446604628448414420
                 -0.04076122197995393770
                  0.26504878622455207982
                  0.20561325309416836338
                 -0.03392928418315811767
                  0.09871820328301708636
                  0.22640442569888472035
                  0.26608417988742644189
                 -0.18508258591951640137
                  0.00775063139745881587
                  0.37643194598512197402
                  0.30892798512977448500
                  0.27607570933816194536
                  0.24218530046897626673
                 -0.25570219340405941910
                  0.01341661403488355123
                 -0.09486261557618687335
                 -0.14585181755121079394
                 -0.23672927167509727475
                  0.17338231037954926483
                 -0.10363422700288543732
                 -0.19557298349729976272
                  0.05167427802646316209
                  0.34049805399055849131
                 -0.09390044246469549105
                 -0.09441186634889767171
                  0.35123102056967581142
                  0.08679475423254920385
                 -0.36467120398353070065
                 -0.10113513164448892367
                 -0.28316120911260150850
                 -0.00986697493052529455
                  0.10352092310331090230
                  0.00951456720927653168
                 -0.24725867488359751234
                  0.25554512538317541992
                  0.03685150624857418122
                 -0.33564315814480100153
                  0.18250034398048034512
                 -0.24480745655201169297
                  0.17918089868172784596
                  0.18371313715508663655
                  0.29313102554052655746
                 -0.07106999078906857392
                  0.13828980752722613845
                  0.11643748028993597399
                 -0.26325436866392309954
                 -0.11942619021199037121
                 -0.17440828134895450252
                 -0.16166626620290386329
                  0.26930401782821167256
                 -0.22297435264568124524
                  0.20378332857320619054
                  0.19961529208514119937
                  0.26190555339588894590
                  0.28386840399405866009
                  0.19023137080549007427
                 -0.21007578866000473083
                 -0.15740928957706734614
                  0.19028470457103291436
                  0.17848975615424128582
                 -0.18852110924741885545
                 -0.24518930057627005836
                  0.07864093518787952652
                 -0.22751689975499020391
                  0.15750718568246802054
                  0.35817174809183005557
                 -0.01911110092649623629
                  0.22606895929831558045
                  0.27542361840324242062
                  0.06627034978776387419
                  0.10355741646585236992
                  0.37118727112482147179
                  0.26613055906122712324
                  0.24768123066511268937
                 -0.06664598334802739055
                  0.22814287852280992763
                  0.22252802360413409533
                  0.20864449995468786758
                 -0.02218168282756930593
                  0.19382276636330911246
                  0.14729102889754641659
                  0.22304246300029517691
                 -0.31591406042842334889
                 -0.21590144770652999751
                  0.07991184832990451403
                 -0.33807160519193957260
                  0.02593188338368183909
                 -0.35837098085723012586
                 -0.04959894638379867826
                  0.18316781985405811151
                  0.12633512734296570290
                  0.21878418387943690537
                  0.39424065104740990684
                 -0.23678080945755489162
                  0.12111402748958126352
                 -0.17640287909983129455
                  0.26690509589695110559
                 -0.06304468477745830968
                  0.36722558455836151747
                 -0.10493651291805487780
                  0.09002006394823838797
                 -0.19103494110434468545
                  0.08446985608552605440
                  0.13869157529965159270
                 -0.20586425308127709322
                 -0.28657799517503468323
                  0.03983155541622682844
                 -0.36269123318052082228
                  0.23151729182636229809
                 -0.08384658692154779713
                  0.02833468119924391349
                  0.13590535266134745607
                 -0.13824064841991851038
                 -0.25885421165849253899
                  0.34845442253948477607
                 -0.32727042670014483416
                  0.12710350227697234105
                  0.22376178373813918054
                 -0.17219240762266563305
                  0.14384452478070047787
                 -0.23205785660842351281
                 -0.36742642975636163882
                  0.15018843206631254938
                 -0.08713620993075171794
                 -0.00691025302976934312
                  0.26492443996079623192
                 -0.15773175604875266931
                  0.18550534497075490958
                 -0.28353575603589609155
                 -0.01289827294237815176
                  0.00850759787292654744
                 -0.15468234135178141053
                  0.25171031474412425277
                 -0.18568182405310149075
                 -0.22703669553201860642
                  0.31873439696119537645
                 -0.09411932535202700845
                 -0.29186789674816987494
                 -0.15619973744979445684
                  0.00777925668154926062
                 -0.03580395614592645631
                 -0.17521462322948572199
                  0.07371233537354474064
                 -0.31630327661263601957
                 -0.10410372434007164610
                 -0.16895815959813742513
                  0.12776731157344717316
                 -0.31982462879703715819
                 -0.18951881862177910598
                  0.31364122210106426536
                 -0.14182033335993859957
                  0.23884187139410467671
                  0.24361145733860736784
                 -0.24453493763297032282
                 -0.03114796330686185957
                  0.13424577470974377591
                 -0.10245269902782987159
                 -0.03604977632160186879
                 -0.36499156115641351317
                  0.25542363142202922921
                 -0.25681077008847535970
                 -0.03436881500359555142
                 -0.02223004012345394451
                 -0.30099835358807214281
                  0.26908746097730079638
                 -0.31619946582928637469
                 -0.30852575358920619752
                 -0.22335590718864217763
                 -0.15111838056850507295
                 -0.09547699878814182306
                 -0.02785191551654069703
                 -0.03424020618552330725
                  0.19134037991311605986
                  0.01171506234511991013
                 -0.36917437335162595069
                  0.11085168052873162203
                  0.10416279189668310734
                  0.14866904639084213557
                  0.09755986479286236912
                  0.18944809366422227237
                 -0.23494000126276232132
                  0.16566370174632963352
                 -0.33430488376301115139
                  0.26734797126906600928
                 -0.27388344179473173012
                 -0.11114405218424606991
                 -0.14141986900545777672
                  0.07256090148917163085
                  0.20534411958319442881
                  0.57690199725562618660
                 -0.26425227292211439512
                  0.00746479178718049714
                  0.52987216331880426790
                  0.56055124653633614518
                 -0.32943516782907117380
                 -0.76603298357535209995
                 -0.20539096778653054276
                  0.08274847406812509132
                  0.05742149421293561706
                 -0.24797961212259986286
                 -0.19350219316355674049
                 -0.89215360498686979707
                 -0.31399925807235040676
                 -0.66829377672348178052
                  0.23386310460576836823
                  0.62556256398165577259
                  0.32847597395776945151
                 -0.22234126003145865402
                  0.09575074970240489425
                 -0.34453314065477441686
                 -0.48289130726912715685
                  0.46138062372366850372
                 -0.48618391572420255331
                 -0.33879044406049740878
                  0.03518678085681690992
                  0.63304421286944045910
                 -0.52294269012554217557
                 -0.38616434250763720382
                  0.41647249195530228194
                  0.09548905045023811655
                 -0.37477666493761380151
                 -0.46142816592053320646
                  0.56815651392358390570
                 -0.33524084300199247233
                 -0.19448622559278833100
                 -0.26362935559326539092
                 -0.49990546132960161918
                  0.27166061820841913566
                 -0.73915715881764898487
                 -0.09091116123067874422
                 -0.40097586696661097205
                  0.59177124695974459012
                 -0.55706448562831334392
                  0.26720503248413829400
                 -0.54542802026470582621
                 -0.38220915083275147639
                 -0.31455007075955621065
                 -0.46986085406309641144
                  0.05404448035624125068
                 -0.75271766710053300553
                  0.34907450392066829981
                  0.58383004565226415128
                 -0.55012849038202460417
                 -0.01819216662088881525
                  0.36364241354710291620
                 -0.37701441565447807447
                  0.51921950426216612051
                  0.14447901206411753461
                  0.50067328273238176362
                 -0.00263984658985841553
                  0.09113704746640946541
                 -0.78389191753947962127
                  0.32478087658990878461
                  0.73817267427849087014
                 -0.48268627234519212443
                  0.25406518381997705847
                  0.05621208582520957620
                 -0.19091662075853996217
                 -0.06630410590232038714
                  0.44616659860842189378
                  0.46459644604481198371
                 -0.12870519226870921758
                  0.71499754186843389459
                  0.01751941745252500945
                 -0.58597643809599986309
                 -0.39411675503479148830
                 -0.59037484030844022964
                  0.79708115941661095150
                 -0.39337338857212261756
                  0.16746064417642936295
                  0.54177983947364016792
                 -0.16408479552227317466
                  0.08089668757140999755
                  0.35630331729313019506
                  0.55548545400699234076
                  0.35150140673921648204
                 -0.13967328243062729354
                 -0.55980159475647572886
                  0.38702128122623663531
                  0.72759676938065775964
                  0.24775606234114946891
                  0.65841525459795879893
                  0.24628020944617734500
                  0.09822914173960382855
                  0.73752036928056663445
                 -0.04867298129336820878
                 -0.13645232662783107758
                 -0.84600816296107594905
                  0.12042372394643889588
                  0.51128165784578971653
                 -0.08830746710078681005
                  0.04213254337861700033
                 -0.02799429356420524498
                  0.05785677033004846259
                 -0.71168828405679618321
                 -0.57546687930249573739
                 -0.25754324790631688558
                 -0.12094257758286258708
                  0.03755275399578234669
                  0.63281484844260771361
                 -0.77465401360817809362
                 -0.27021400824384189665
                  0.23133002015313555710
                 -0.58769971598632342324
                 -0.33171170748391942684
                 -0.23817043100597584671
                 -0.55375066846056730796
                 -0.28323042909133772094
                  0.05977080828707969501
                  0.26133646595474641083
                  0.69739409640888683217
                  0.25215777705896175176
                 -0.03467742958372482115
                  0.22201642691185696776
                  0.11889562269176791320
                  0.06956052929155233377
                  0.33294119060501692342
                  0.53845915378662057016
                 -0.50661761880550870707
                  0.61866748798616655325
                 -0.69083331919884960470
                 -0.41010084853483236289
                  0.67964955838629381724
                 -0.07107052913532603544
                 -0.34124660119543681613
                  0.28878775283353841363
                 -0.39329687315403272230
                  0.00506403069624496074
                 -0.43262253925152394096
                  0.62191010057689888324
                  0.48655290830998709772
                 -0.30454654049270368787
                 -0.71081788744516360978
                  0.21322080444662164234
                  0.63293634257280795286
                 -0.15033846516618876166
                 -0.49944858005179715299
                 -0.48655496369472889251
                 -0.41505418380443637183
                 -0.00554851288135748549
                 -0.00579037907927602066
                 -0.49672923279653952155
                 -0.59199431657004275564
                  0.00260417187145260036
                  0.50751211144906749340
                 -0.55259661176316865472
                 -0.26563153356632213109
                 -0.70359063484036998837
                  0.30916673137915479108
                 -0.38635408818397076747
                 -0.57345426511809538539
                 -0.48448508289384278891
                  0.52075290151709940911
                  0.41386593393638815286
                  0.39483591173758303405
                  0.55419513162172140408
                 -0.48148180593910766545
                 -0.31876179348086403076
                 -0.72840713575029625293
                  0.17130492277350703456
                  0.32832381885696476642
                 -0.60867226108847150012
                 -0.51414351438940264494
                  0.26469488661803614038
                 -0.32344109290832384618
                 -0.29371027186004855514
                 -0.31893049974686643599
                  0.17185015124461477942
                  0.16191280454066264705
                 -0.62791329956780295163
                 -0.53184344908123937223
                  0.36131884714637435563
                  0.30792421195518082655
                  0.28628633333693548346
                  0.13044964855163979078
                  0.57036786911073567019
                 -0.40956995115393379780
                 -0.02364270200979221720
                 -0.75351984845838559934
                  0.49694750968757334109
                  0.27626619660949980339
                 -0.47029672668508781808
                  0.23428659364737075554
                 -0.09100832525208993329
                  0.02072951111254706102
                 -0.54695959243968261809
                  0.08149663676353609276
                  0.20926300108696779811
                  0.16540972190812680553
                 -0.64583401200693146826
                 -0.51822153978052409862
                 -0.58988097898261293572
                 -0.10612077119555334004
                 -0.53236122430321275445
                  0.55287710833339320793
                  0.49836023920311600666
                 -0.73247969094491038877
                 -0.06856017155650505346
                  0.64252398011265321465
                 -0.64079016688903789323
                  0.19998706695407236777
                  0.37854877658112440209
                 -0.26950709208393536231
                  0.61140512404752789255
                  0.22530073514740828200
                  0.18058901243594094321
                  0.49087199654415702987
                 -0.63103819732772903350
                  0.26160249175742555927
                  0.32895026388494758018
                 -0.39816905104654931602
                  0.59433067965713493042
                  0.08690717083565564771
                 -0.88783268734024201052
                  0.03649025984878915413
                 -0.23673951015618666105
                  0.45813043297689615141
                  0.13741692766222032840
                 -0.62621181841111650535
                 -0.05614400786093627638
                  0.59390821634903934179
                  0.37780971329494494881
                  0.88557125528209235110
                  0.69027195521468276418
                 -0.59023225084693464737
                  0.40937388333694646469
                 -0.15139573711629988884
                 -0.66620934138045739825
