49	2	1
15	15	
1	1006
  0.0509849176755110	  0.1347083427327912	  0.0990346470846311	  0.0831638741461670	  0.0117280658603007	  0.0090713113815392	  0.0402164343074136	  0.0526651000903969	  0.0372143147152041	  0.0526667738673440	  0.0127765962603333	  0.0349449139509635	  0.0755886020589717	  0.0051989238707248	  0.0215461437688581	  0.0744512562921099	  0.0392213196584394	  0.0007897724340237	  0.0045851633958909	  0.0079642700953389	  0.0045853091193522	  0.0070930887234533	  0.0205903913657787	  0.0029067998333590	  0.0022483235280475	  0.0101251196010524	  0.0139687479760860	  0.0177688492114597	  0.0139810357102885	  0.0010210765270091	  0.0017686151807916	  0.0024439626819638	  0.0040818040002138	  0.0082370974927155	  0.0082371254938503	  0.0159419360315471	  0.0205897877688264	  0.0422028000713560	  0.0205910965375247	  0.0012967723897481	  0.0047254985808384	  0.0355373440919335	  0.0034185379165549	  0.0097496335920266	  0.0330663151366958	  0.0005301334218055	  0.0042037414896802	  0.0422225081144981	  0.0144481986445384	  0.0630667822639864
  0.0509849197346254	  0.1347083467810807	  0.7516555574499668	  0.2358074347853546	  0.0117280658603007	  0.0090713113815392	  0.0402164358862376	  0.0526651016424080	  0.1436916676930239	  0.0526667754193551	  0.0127765967126398	  0.0349449148402136	  0.1856734801344554	  0.0051989238707248	  0.0215461437688581	  0.2874106029825498	  0.0625213762630488	  0.0007897724340237	  0.0045851633958909	  0.0079642703979793	  0.0045853091193522	  0.0070930887234533	  0.0205903919607803	  0.0029067998333590	  0.0022483235280475	  0.0101251199478579	  0.0139687483170019	  0.0357295768470512	  0.0139810360512043	  0.0010210765270091	  0.0017686151807916	  0.0024439626819638	  0.0040818040002138	  0.0082370974927155	  0.0082371254938503	  0.0159419366368280	  0.0205897883638279	  0.1116921471050319	  0.0205910971325262	  0.0012967723897481	  0.0047254985808384	  0.0714595821678298	  0.0034185380159089	  0.0097496337873599	  0.0502687931947165	  0.0005301334218055	  0.0042037414896802	  0.1117148837887441	  0.0180048022477605	 -0.0056117905800538
                  0.28035125785847131441
                 -0.08178346934623881292
                 -0.11553116317592183881
                  0.16861168846606694460
                  0.16949520720878949454
                 -0.15849675763748233281
                 -0.19823526939559715787
                 -0.07372014858780087665
                  0.18392762050878599944
                  0.10303481286254538574
                  0.23737675533506741310
                 -0.25162947846399674745
                 -0.05289310003266635418
                 -0.08529976530578589622
                 -0.02074430658283539855
                  0.15810380718716812720
                  0.06185904761161643839
                 -0.09397992940641043680
                  0.18665961682209428196
                 -0.21831444598313096139
                 -0.12034202786751244107
                 -0.09574577565262966383
                 -0.04224495584224668282
                 -0.25212472158201026939
                 -0.22606569141731974737
                  0.26868532972096209610
                 -0.16283618425890247772
                  0.21440987975268910315
                 -0.44514571289304383228
                  0.14473004738433647987
                 -0.10935183027199794903
                 -0.03685411976176018733
                  0.17274467015362990341
                 -0.16982829807013577472
                  0.20815896501198163926
                  0.09992961214138754156
                 -0.01820261465435989504
                 -0.05555821285397596204
                 -0.40385889349450027064
                  0.40309602962487955935
                  0.54230996636335515593
                 -0.45758119338279751309
                  0.14228994646016998593
                 -0.03033040781197311048
                 -0.36873438755492726759
                 -0.09216565070171524321
                  0.30564806172621106217
                  0.18464113096565293315
                 -0.19850517163934897069
                  0.25665488796956331674
                 -0.09591077607929569815
                  0.54342496287165198421
                 -0.61079472140786827961
                 -0.29133976754489532279
                  0.29488038683656137007
                  0.17682611957690672067
                  0.15387250577787692229
                  0.31350472446639104929
                  0.17459149642349364173
                 -0.36128423196769621217
                 -0.10846142591250847176
                 -0.31791763372852138714
                  0.09793251405410070831
                  0.33216137719881816404
                  0.00018209543670676901
                 -0.51266430326432255171
                  0.21333003348893780915
                  0.24803377785100302888
                 -0.17658040551796497231
                 -0.07512956723048502816
                  0.08064700111993676479
                 -0.15534882326361024174
                 -0.22875594100029658651
                  0.25368922861646875377
                 -0.31430067226825381121
                  0.29328992933667602516
                 -0.18114851216846525328
                  0.31933573130693737596
                 -0.00749575836899359603
                  0.18767303971385501660
                 -0.19186647442766610605
                 -0.29099530637956716461
                 -0.22435013049361493542
                  0.25731412661702590672
                  0.06310973499255274899
                  0.05137855090304094263
                  0.17445107162321732419
                 -0.17069685642252790947
                 -0.13911798012355330867
                  0.24874075098061773637
                 -0.66056806847890015000
                 -0.05096500108006379870
                 -0.14707445662187210167
                 -0.25619723625366419562
                  0.08609977450087970274
                  0.16326585988502428926
                  0.39968774300990694837
                  0.02894282521310755432
                 -0.00874572975280817760
                 -0.32956043510405086394
                  0.21448675802818586988
                 -0.04826198199332084465
                 -0.21108666973606093897
                 -0.04526641796330475864
                 -0.00378357621719841060
                  0.22235521015797768407
                  0.03081266545521276282
                  0.24222415923593426657
                 -0.01393665067275492997
                  0.07187768146060501129
                 -0.44540337254435424796
                 -0.16848758067040348063
                  0.31492944309113318768
                  0.30588207699101466197
                 -0.30085217111919504429
                 -0.11242158966914535256
                 -0.12658859469804678577
                 -0.11735868622183046051
                 -0.09845104220250927574
                  0.04810154353067498667
                  0.00967261947172626084
                  0.33095642441706768500
                 -0.08399674321727330917
                 -0.27185018725082510382
                 -0.12887801678933338834
                 -0.06292262163002519670
                 -0.04800300393028061191
                  0.00078218948798146858
                 -0.17745115307934658522
                 -0.23487206434909913000
                 -0.23829845163973309430
                  0.00363310671169852530
                 -0.15229793803491517568
                 -0.16068250775563344690
                 -0.08815191451741341555
                 -0.07225277339770157237
                  0.22005260290100850384
                 -0.11253886060655002299
                  0.20654486023324258870
                 -0.01462467663300586612
                  0.33189509556569962712
                  0.23602985801199369287
                 -0.10346447665829269780
                  0.57050931012288108590
                  0.33415390262346594819
                  0.02091520662611636577
                 -0.29178531830280535209
                  0.08915777863467452824
                 -0.02009119159071274391
                 -0.32132983184897284668
                 -0.11396377786120127917
                 -0.15189120125975721920
                 -0.08963510962415686956
                  0.40821054257031724743
                  0.36436482703332029320
                 -0.26848182834992007084
                 -0.07297864674027175480
                  0.32629952367780223899
                  0.06014906645496664178
                  0.05421331214745287591
                  0.03111767089478286591
                 -0.43640408711875661174
                  0.09921886871932671104
                  0.31901126221756009871
                 -0.36590033130376181658
                 -0.29394205392874589444
                 -0.10086098144088546935
                  0.26742234960826749557
                  0.26534011134443968860
                  0.21636950449947181530
                  0.36289345306885650855
                  0.33905816563963075971
                  0.48169661438589417291
                 -0.07045530216211300101
                  0.00989846742725813099
                  0.30659054337044816529
                 -0.14781688270387829953
                 -0.02557660128771451283
                  0.02045160699298341142
                  0.51024249139174993051
                 -0.15332784344042094116
                 -0.22340840649126691986
                 -0.17243003634750375674
                 -0.23001766331173481572
                  0.03120693327721570792
                  0.13920268783985012551
                  0.11108471899113193937
                 -0.05856772384786022162
                 -0.22828684823670220005
                 -0.20463957682017877571
                 -0.20873094785105755777
                  0.19675623713266021664
                 -0.25633761528282095199
                 -0.37514494423744093599
                  0.39175091333879080713
                  0.00935018343651694908
                  0.24852847598623467595
                 -0.15434764585344618038
                 -0.30642651210221627522
                  0.25736766977087321973
                  0.05155443236736650947
                  0.07231174820929499314
                 -0.37470809608159799664
                  0.16872345050053380588
                 -0.16810593684175539897
                 -0.10155545504731931794
                  0.29351681353040365297
                 -0.20559045029308725683
                  0.34603279884295695679
                  0.04407027407070514269
                 -0.06413796554701238495
                  0.43525613074636332334
                  0.40064773746105220020
                 -0.07361032454769773914
                 -0.01125798950499871942
                 -0.44925426068257617862
                  0.23903548844899133452
                  0.04604373321010240411
                  0.20739463070448371784
                  0.05479651815056744285
                 -0.14039991629656664585
                  0.12898751802583496850
                  0.04437809731864714169
                 -0.34705791033005389812
                 -0.01853517916512131478
                  0.33884670712667114278
                 -0.16652816337582226902
                 -0.02172614682888392504
                 -0.27945924941388000651
                 -0.37611968724303779243
                  0.15628884460802683343
                 -0.25854628624424891292
                 -0.05205579896341421681
                 -0.32286335758312484367
                  0.06799574715029710337
                 -0.11303502618477757891
                 -0.13528653541427473894
                 -0.13613412362803065103
                  0.25792283920089564830
                 -0.17581219076714751925
                 -0.30613845260809108284
                  0.11779326820639762774
                 -0.26327220049196198293
                  0.56558665584760936529
                 -0.08505363382456000709
                  0.11757134214145813222
                  0.28846427121040085773
                  0.10527586946027302217
                  0.03120859229356588022
                  0.13608424445141614756
                 -0.13258918802399438652
                  0.29796964433459666166
                 -0.23845334879178142762
                 -0.11973030637154744027
                 -0.13366722455922611101
                 -0.20840312485614465032
                 -0.01159145043462299178
                  0.17255495186624827952
                 -0.11333165510647211227
                 -0.06446280371543777754
                  0.00684794213252639533
                  0.17667766431497103352
                  0.11236984553980829127
                  0.02340199394439600178
                  0.20076612408405508647
                 -0.42693035794017203388
                  0.10017217120946628195
                  0.09169472669181297220
                 -0.02703064343831805202
                 -0.22960973102799761558
                 -0.02809978562867913518
                  0.41381887519691851196
                  0.19243014295291893667
                 -0.15287501500423786305
                 -0.09500087178414978739
                  0.29454303824243327492
                 -0.23376417052827450083
                  0.21469208783820495356
                  0.43484396488008586479
                  0.33396759692142741205
                  0.28855412702444727113
                  0.13722127496398014990
                 -0.37935985848974645984
                  0.04119077855186512732
                 -0.19516619315915395561
                  0.11091777626066952334
                  0.15335001124638927839
                 -0.00764735507620942136
                 -0.15613678232829150683
                  0.10947277258379918552
                 -0.31776651684956153110
                 -0.23699755860742943714
                 -0.34282551031931529639
                 -0.46769481298002563152
                  0.23252374864782091035
                  0.06512242198587225861
                 -0.30854140430906046300
                  0.25247527147330617314
                  0.27877809313532148083
                 -0.24641616580640857137
                 -0.12688788802749242923
                  0.22079801456312514452
                 -0.38248840337018064073
                  0.23344206454155660979
                 -0.31647867169199822568
                 -0.24433249370538806522
                  0.30602554438238710466
                 -0.21169832512133718305
                 -0.10952654675937377460
                 -0.05957292083524168974
                 -0.35174555645218791300
                 -0.05035326922589929144
                 -0.12476616380445285093
                  0.02238380087844524940
                 -0.18530709470742057210
                  0.17245115136702407477
                 -0.16468222807923693640
                 -0.23369152180076283032
                 -0.02972509562512990963
                  0.07730315978281970812
                 -0.45056313088460075988
                 -0.33892650267778062778
                  0.13134767855094489630
                 -0.14265902105902927843
                  0.33916934883769617182
                  0.17555308378955286619
                  0.02716629425614599386
                 -0.02804310494716120636
                 -0.12285184127612573668
                 -0.08362408358610581849
                  0.21030194648667627222
                 -0.40847522038469580297
                  0.39706299905568182007
                  0.10041422011657870350
                 -0.14315533325781532037
                  0.30466416892510694847
                  0.02350399675828453508
                  0.27669189768914237426
                  0.14024991039079737210
                  0.02594202670845513828
                 -0.34067167420917660037
                  0.40724466111190021911
                 -0.21804574839705881395
                  0.08085250073365421453
                  0.06340956673947933941
                  0.04670960251108024347
                 -0.00481189034115182476
                  0.04537820987869120581
                  0.35705405887445484936
                 -0.15384491087026824774
                 -0.18836368739059711208
                 -0.03320623168742135867
                  0.19726997763619091852
                 -0.19579625648720955233
                 -0.34333922158114515977
                 -0.28341087095971373433
                 -0.05570302412225132394
                  0.05806540266829088998
                 -0.49889603047961794680
                 -0.20761714038353440426
                  0.18313273914215566496
                 -0.28796816513976747354
                  0.22770430413484635257
                  0.19075211906496677972
                  0.16728141364643997480
                 -0.20714462598741756327
                 -0.30344423331731218418
                  0.40897801245717119167
                  0.25615405070272118104
                  0.00310989446079104094
                  0.21431437409965489738
                  0.10354401889291328653
                 -0.44286093147256211378
                 -0.23127652942241885836
                  0.17252311132781433800
                  0.07115713620475476453
                 -0.10052505509494953639
                 -0.13020507812231088551
                  0.31373301578026013825
                 -0.04584386324856375150
                  0.26687805350477833422
                  0.37410216145351710137
                  0.21797470554868766945
                 -0.42684731985572299529
                  0.24504377855301734401
                  0.24293944090659294610
                  0.15394144490422231875
                  0.13916055055709189436
                  0.14179866099027021997
                  0.08868379292914702061
                 -0.05957932406106324075
                 -0.19007992288710420792
                 -0.48358464851798615980
                  0.29918814790715675400
                  0.21855878018067423363
                 -0.02644426230739954295
                  0.25422411119251941969
                  0.14485083765088402341
                  0.10619759891036939514
                  0.19088119053349891785
                 -0.02088460251610717994
                  0.20746835435848831608
                 -0.33637969896940395076
                  0.41272800844360257866
                 -0.05788997645827516358
                  0.04629486789231726518
                  0.16507555347285646219
                  0.15756293096360993178
                  0.08865647911961364869
                  0.16424855093478951673
                 -0.36664155818696658740
                 -0.02401963770506960680
                  0.37702373940537547981
                  0.51071168821636325763
                  0.15579982162400787815
                 -0.00409083423664181357
                 -0.07993491037873040606
                 -0.11959111764790834875
                 -0.08635491983112711378
                  0.15564196933645693677
                  0.01221826709642174005
                 -0.00275214566821259041
                 -0.21382921802349638685
                 -0.25118699784836590050
                  0.07903078266084795356
                 -0.28986263632481212849
                 -0.53006444667299668083
                 -0.03841035818841621874
                  0.10033102073642892471
                 -0.15126929955397880323
                 -0.04797885765660526991
                  0.09578450312744585249
                 -0.23691262222642400781
                 -0.23920914390904238211
                 -0.30724184753962680006
                 -0.19158672114083177829
                  0.03906318601612009805
                 -0.03645651746320791031
                 -0.21598128098942737108
                 -0.32970856468858306121
                 -0.33178695625821985615
                  0.09924226121906208620
                 -0.03507096096184679490
                  0.27243517953716550606
                 -0.23297204837671967037
                 -0.07129924964283783362
                 -0.23704560242409986048
                  0.22140161145296277656
                  0.09345606336563112848
                  0.03584195290822056457
                 -0.08949556205136967313
                  0.22415321770083987407
                 -0.28068407770039860427
                  0.00258868389008725351
                 -0.32071173518396373092
                  0.10535912130925619012
                 -0.03886931655511602357
                  0.35395985972131888131
                  0.10521030587791908861
                  0.14775889210892845238
                 -0.21495376089490783600
                  0.18950510771759165873
                 -0.31429879294217583086
                 -0.19808023147415901311
                  0.23578644841046136893
                 -0.32698911676113318059
                  0.04348011714327763150
                  0.29626118430466502618
                 -0.05959653309695639445
                  0.10013906455850710153
                  0.19217942938674412168
                 -0.33508949841861868091
                 -0.22222857460026873566
                 -0.07538676161548668597
                  0.32841336400989823430
                 -0.16971044940415586089
                 -0.28412695689202749350
                 -0.03220028570712419463
                  0.01412846131848638498
                 -0.20209528181636615685
                  0.15312276675453845298
                 -0.23486610786842587739
                 -0.10473191147684074442
                 -0.21694500730866092542
                  0.39606522599778831717
                 -0.19279494083447004660
                  0.30751251313970368040
                 -0.07093912980842306815
                  0.03450794098414978334
                 -0.22678358339339491079
                  0.00194729523670336517
                 -0.58493002052586140493
                 -0.06326133721326290815
                 -0.32082229339931200851
                 -0.36640761921832337711
                 -0.19848189633244686658
                 -0.00020829263240354978
                 -0.26820189108960434954
                 -0.11027436852855802829
                 -0.33602837308658889404
                  0.33044686654593730113
                 -0.17737499424120922731
                 -0.29139882109919434949
                 -0.15221105048108959923
                  0.02458648220603427970
                  0.21049995253078043755
                 -0.11603014168103011061
                 -0.28961057085102026587
                  0.19387490089094810974
                  0.31403161151177949595
                 -0.03837519826173629856
                 -0.25959642564126550468
                 -0.30149814114504525087
                 -0.09632612279307178893
                 -0.37637108338358354898
                  0.20029491372570748520
                 -0.02845264530960875740
                 -0.09841647621668292434
                  0.09427715080158975691
                  0.39464255574745477073
                  0.01542122669613496012
                  0.05564068576026273694
                  0.27351109617294877552
                  0.40321596813475757415
                  0.25636938733095038234
                 -0.20838654401470868560
                  0.02817968177954759124
                  0.27810047033236712233
                  0.31390958076031733048
                 -0.08051438327662500949
                 -0.12639145373301155506
                 -0.11386750022116948200
                 -0.15956320937179419017
                  0.41793220928875879361
                  0.23682951730594625772
                  0.00553659607760072139
                 -0.21679231723362613060
                  0.01185229808601762080
                  0.26857930195331625178
                 -0.04892835983419421830
                  0.24954693731748511798
                 -0.18586938675742467608
                 -0.05877961222460092311
                  0.13222778979824562073
                 -0.41678257961420728250
                 -0.05374210131805967627
                  0.27006108302257114673
                 -0.36019677364636754069
                  0.23487235830177657925
                  0.23479076703313767061
                  0.37463740632079589599
                 -0.06669966648312365687
                 -0.21460058126394876421
                 -0.02910189677564080715
                  0.33634042621208759538
                  0.12882584815649486543
                  0.26721992880420142313
                  0.04178266857060846523
                 -0.08427917966209645673
                 -0.22966042975115538716
                  0.06686313586640782458
                 -0.03102873813964542732
                  0.29910079191976612911
                 -0.08558189083661209284
                 -0.31242532983259924118
                 -0.05412434211588816602
                  0.02220987365363193133
                  0.26171114392384753344
                 -0.04082050958015553954
                  0.10624445930158317453
                 -0.46115106970948110954
                 -0.16702409715423738312
                  0.07469667453302240856
                 -0.17440408123723868949
                  0.06359858730915707303
                  0.06222429588095447495
                  0.30029817261789198968
                  0.29021999923693070356
                  0.18198135642477453189
                  0.42255370868238223414
                 -0.17199186597231722051
                  0.23782757468845150406
                  0.17484321273586111989
                  0.11394911029494829424
                  0.32215513177194898820
                  0.07493491417622276385
                  0.01523502583937987563
                 -0.25967438238489548574
                  0.27273420063159414806
                 -0.21817792740914260241
                  0.17532411028426519994
                  0.05629845396762425680
                  0.11213846813967945359
                  0.12508363951533305047
                 -0.06409581620730921137
                 -0.21315344285122425627
                  0.23584753875029360048
                 -0.26151702280117000710
                 -0.03310220557100344851
                  0.12556158162779176846
                  0.05096466811648675543
                  0.08048355229631708185
                 -0.42848453589247170736
                 -0.21158916854425560694
                  0.33263593575930461288
                  0.24990858117716938103
                  0.10282612208696749467
                  0.17327550828575000175
                  0.06271672688185420119
                 -0.03032344390111428242
                  0.38650593371048386215
                 -0.09194129237274138722
                  0.16024822135493033137
                 -0.04920998758875495122
                 -0.13402074805726785223
                 -0.25701509731453792140
                 -0.09088601069178869896
                 -0.08763482740502034907
                  0.21749192775918982368
                 -0.30183102239537168421
                 -0.06904054721878766232
                 -0.17275533589181404914
                  0.26869730632765354006
                 -0.35800691636535919571
                 -0.24479850663502167318
                  0.04598146994034221086
                  0.40321622736856399527
                 -0.05835874627887915889
                  0.19080787738556120869
                  0.03600025599776894569
                 -0.29157438735148277775
                  0.12392452254844313342
                 -0.07900441053959258997
                  0.36927386649750087999
                 -0.09730213490852969438
                 -0.29386943520477737390
                 -0.09666899021663333258
                 -0.11313097310252046013
                 -0.23453974554666554009
                  0.02819057324285093036
                 -0.23592588425487912018
                  0.18312035435976958819
                 -0.22752484155080046624
                 -0.05189800154935538673
                 -0.13734354291814918070
                  0.41279962916162221687
                 -0.13260339984817950953
                 -0.20472006485677016197
                  0.21809346945678961815
                  0.17991476219388038982
                  0.29605676185067575368
                 -0.05458097558470099975
                 -0.14274669868498993108
                 -0.17235858454553654173
                 -0.06629397927336963536
                  0.21320352822769919610
                  0.24990961446556714254
                 -0.25378430361740877963
                 -0.13874421874182096825
                 -0.23059852708115521902
                  0.13901914138743534655
                  0.16602072909978354831
                  0.22807948745810702196
                  0.01273433263683925593
                  0.60479005692884335588
                  0.23487532603026783917
                  0.02156201871295334443
                 -0.29365856299533082963
                 -0.30069323391399555012
                 -0.17975542524745063977
                  0.41109005895292360933
                 -0.27058605555842546453
                  0.20320957893308258524
                 -0.11139618521316659028
                  0.08585686073400851381
                 -0.16447895369992682202
                 -0.12483169934068448492
                  0.32853448422947056917
                  0.09094362021471312507
                 -0.15934433282467244664
                  0.05350968468248780419
                  0.14815837730960412788
                  0.22537533155637720639
                  0.26466746120223266781
                 -0.26174549016143733304
                 -0.31548429469463457053
                 -0.46889386315484821166
                 -0.08727772356071274162
                  0.13126755654346758395
                  0.32800531580583197622
                 -0.30439640437895482128
                  0.32752809462720405831
                 -0.31927234519550595770
                 -0.04308092401436496716
                 -0.28942675900288350466
                 -0.05557714604224329308
                 -0.37841573843313991432
                 -0.40423276911697353375
                  0.11057795978723178321
                 -0.24473626107171603250
                 -0.24705068969963192571
                 -0.07383462747461665143
                 -0.12078602406137402270
                 -0.02029243670335208541
                  0.26340692994128295235
                  0.09908390131487650188
                  0.30497903169938372914
                 -0.21832040917590575524
                  0.08327130900899534782
                  0.17143544013925268721
                 -0.00365530163911429937
                 -0.16776881362826842614
                  0.08509614860649164503
                 -0.01952863315960633867
                  0.18819164945511168696
                  0.29484277920908730231
                  0.17242582650589238780
                  0.09762513904216477134
                  0.02371642510728229347
                 -0.16048907442536411438
                 -0.18593374794479095025
                 -0.35243771553636071836
                  0.09270568396833797631
                 -0.20424767305274002527
                 -0.20709004590357801834
                 -0.26716446837068669184
                 -0.20775330910377942661
                  0.12799453142176753229
                 -0.15205635159230984632
                  0.20884301754427325726
                 -0.36759635640722737593
                  0.28006351503826798499
                 -0.04151439698333912048
                  0.48812810028090219960
                  0.01504503585272018266
                  0.63527493305756488340
                 -0.63032635707864703711
                  0.44793168655533194267
                  0.69226472752930634513
                  0.65393722375411345027
                  0.46801614527360724249
                  0.35328181337232494874
                 -0.00723532510961562032
                 -0.10746567313090255036
                 -0.20250835760141619457
                  0.57859741054141000660
                  0.20700275407611351541
                 -0.14719341730983440120
                 -0.02873166451554803186
                 -0.67063981416097750987
                  0.32703154090908931328
                  0.68540227223553584768
                  0.50076105472809007146
                  0.56364711531418565382
                 -0.22207972466982323079
                 -0.50080795289370882983
                 -0.67857200321862476411
                  0.19169502353138270778
                  0.40245966258124965531
                 -0.66808802927573196495
                 -0.10661441918042798005
                 -0.28817004747655738939
                  0.31189307073814165339
                 -0.09449483252462084759
                 -0.23899568591948963658
                 -0.11056146163136934546
                  0.10743515787742151379
                 -0.66023111931007905095
                  0.01495712587031937553
                 -0.25556360243026510215
                  0.97525836570229296196
                  0.20010462453282998330
                 -0.57249093195992417638
                 -0.06571410962445499437
                 -0.73403781345593743790
                 -0.43817961399638294395
                 -0.51654592415569655639
                  0.08266385148996899246
                  0.47862635751560822506
                  0.00543711914582257344
                  0.45746767867840276711
                 -0.18986487807201163358
                  0.18720678726684106263
                 -0.26422710356931439213
                 -0.88241718000894153739
                 -0.50341448520468901062
                  0.67538843207164833693
                  0.38784818252457092802
                 -0.47717387144974104940
                  0.20493077286219171795
                  0.04726551873535021070
                  0.42186060219043214348
                  0.14541965982831572823
                 -0.62163490817827748991
                 -0.00568300792046795566
                  0.04164848179509060555
                 -1.35219993483523759359
                 -0.52121713625038190720
                  0.28589928536573538942
                  0.08408678275289967197
                  0.47674818089343484750
                 -0.09338438600575114934
                 -0.50691633397536939309
                 -0.24089159204843904605
                  0.60160296188085715663
                 -0.72556405843247306908
                  0.48511989826061219233
                 -0.24067649276828551042
                  0.06292816127390221670
                  0.21521585102534934730
                 -0.27858954612844238907
                  0.63585072936315034653
                 -0.28497948557998298291
                  0.39222214740202981931
                  0.20035031629178873258
                  0.06992243267881236013
                  0.19169918247234041253
                  0.65658640700555592762
                 -0.41698768723055251728
                  0.29665940162691734061
                  0.28026302798943392158
                 -0.78687434589520977024
                 -0.72052268301872790524
                  0.18112613543113270653
                 -0.91593101605668769682
                  0.21658080176808708339
                 -0.33331141135190278657
                 -0.26386075704506267714
                 -0.58951234325887247323
                 -0.39999381983983073319
                  0.17320772952655394405
                  0.20533421465921997129
                  0.38372869336806347818
                 -0.11436747241784905871
                 -0.09618810247333793584
                 -0.25838075216375239185
                  0.45307567307054030792
                 -0.93742123948146260926
                  0.23977981405793516445
                  0.75755179788280735398
                 -0.05055000024071402281
                  0.82936092690443219411
                 -0.04522463917522432514
                  0.31938628241199890079
                 -0.62602853067482755467
                 -0.16513804224436884338
                 -0.46199033927847343861
                 -0.42555563088450515385
                  0.50633852721849736955
                 -0.32927856598580673708
                  0.41162989910401981408
                 -0.28938024345846558028
                 -0.81339635991628067568
                 -0.14177306606653392040
                  0.25047585402526473253
                  0.06536831199748328880
                  0.67862329863268966434
                  0.41712024312412437910
                 -0.57603027686197794122
                  0.05643427973604569353
                  0.59606120988899990998
                  0.43414724306797441988
                  0.28120232140257667153
                  0.48100057654763250792
                 -0.08554090643637250746
                 -0.12661179466194463772
                  0.64684856661358691721
                 -0.35984260866641659682
                  0.75032365139954992905
                 -0.04171638928148477254
                  0.84573410592290909626
                  0.17213565086045654051
                  0.32186967761925328047
                  0.32700504071460151367
                 -0.16459574214520633628
                 -0.54975898196334271884
                  0.35491940952701434009
                  0.77869598240251591825
                  0.55880514450896656697
                  0.01892369157469794491
                 -0.84800234579008215707
                 -0.25880771902660465456
                 -0.68265028052063547737
                  0.05295582436345915717
                 -0.66977037350567858454
                 -0.28056738410274628670
                 -0.09615006490631494707
                  0.48120012194154571095
                 -0.48548639258401693475
                  0.36271717417894516755
                 -0.40874830517685223352
                 -0.20130144489425111365
                  0.79457142525936819144
                  0.54333875761274474936
                 -0.21116342589349518244
                 -0.63352763811199674926
                  0.26573624613309265730
                  0.53790823253390762648
                  0.37204617506444187525
                 -0.48895718736903459600
                  0.51758805498968718517
                 -0.43022668054772050805
                 -0.12137083469632257982
                  0.43038756688331103462
                  0.36879691489184912578
                 -0.42584944400269630904
                 -0.42745965984003747584
                 -0.18625864926723853521
                  0.71675106219133821739
                 -0.11015168733742752849
                  0.42676666445544042539
                 -0.67470672491744410060
                 -0.27169050081643913996
                  0.56339647020184380199
                  0.44371736774005449133
                 -0.09299706872494331589
                  0.13887707687906164500
                 -0.35208172780003194058
                  0.25137382349024445238
                 -0.00933747118663438326
                 -0.18675315837428937971
                 -0.49543771740470210485
                  0.27380544751417523752
                  0.54207526618188750511
                  0.16741315216729957260
                  0.00507786427776569897
                 -0.52528573262999700422
                 -0.86873373159962852252
                  0.43359269536174477322
                  0.75676141822377063217
                  0.10157472220983168598
                 -0.31402874832130794891
                  0.30543255522309514793
                  0.42902883566009453187
                 -0.31956322537859055410
                 -0.02979977661644115164
                  0.55774779583434153096
                  0.25722440559309250885
                 -0.79698942663774452466
                 -0.15233528240080568272
                  0.88752231374114232132
                  0.23050848333156159775
                 -0.15539144931202183986
                 -0.25529336282318032536
                 -0.65072911758827378659
                  0.81390265094437419524
                  0.03182043680115876488
                  0.46246680931009764848
                  0.73175846360947627289
                  0.48985664186146249399
                  0.22035476188782229801
                 -0.83159162875534564652
                 -0.36604471359429702204
                  0.55223989548723384502
                 -0.18981959531375217076
                 -0.20522732996728249022
                  0.11983044784865591603
                  0.39512885431862465602
                  0.81840940564685771275
                  0.28032647006856925564
                 -0.76590794927802752223
                 -0.71205809248960127977
                 -0.83921009735834550813
                  0.13277719605448221052
                 -0.91937638399435051006
                 -0.40216357178399175787
                  0.26233975174284285270
                  0.70866675400158951614
                 -0.14573786124555082599
                  0.92774083757646985671
                 -1.31898906258811554615
                 -0.22041962362472988790
                 -0.98736660592562652816
                 -0.63194875605411726660
                 -1.47526066167359015679
