49	2	1
15	15	
1	1006
  0.0487528288817763	  0.1346465419535583	  0.0872105336661136	  0.0831638741461670	  0.0117280596704378	  0.0090713096834258	  0.0367480166643926	  0.0526414071771774	  0.0330192156250526	  0.0526430809538946	  0.0107785028933253	  0.0333738727706075	  0.0742825191348760	  0.0047632039647006	  0.0215461395259119	  0.0653283403667587	  0.0392213196584394	  0.0007897724338536	  0.0045851610228482	  0.0069248100995391	  0.0045853067463095	  0.0070930874214227	  0.0205813080799490	  0.0029067984736881	  0.0022483231550384	  0.0084281479605946	  0.0130478348794484	  0.0165895046336116	  0.0130482497248301	  0.0010210765263891	  0.0017686151803667	  0.0024439626817539	  0.0035903827409100	  0.0082370958660733	  0.0082371238672081	  0.0138496201990781	  0.0205807044830848	  0.0373831299664736	  0.0205820132516068	  0.0010187093638241	  0.0047254976488291	  0.0331774984438038	  0.0028215120799091	  0.0082720933791643	  0.0330663151366958	  0.0004649052156602	  0.0042037414893656	  0.0369239765009420	  0.0144481986445384	  0.0567915236646918
  0.0488505392810251	  0.1347701475603136	  0.7531588564737076	  0.2358074347853546	  0.0117280720501637	  0.0090713130796527	  0.0368229362382165	  0.0526887945556274	  0.1434966025154921	  0.0526904683328045	  0.0107999660471394	  0.0334010240888958	  0.1869795630585511	  0.0047632135120227	  0.0215461480118042	  0.2878607352361269	  0.0625213762630488	  0.0007897724341938	  0.0045851657689335	  0.0069391712693457	  0.0045853114923949	  0.0070930900254840	  0.0205994752466100	  0.0029068011930298	  0.0022483239010567	  0.0084446048612832	  0.0130582440334416	  0.0369089214248993	  0.0130586588789244	  0.0010210765276290	  0.0017686151812166	  0.0024439626821737	  0.0035903900613315	  0.0082370991193576	  0.0082371271204925	  0.0138783425386914	  0.0205988716495695	  0.1109553604743275	  0.0206001804184441	  0.0010187114609975	  0.0047254995128478	  0.0738194278159595	  0.0028262266954996	  0.0082780574620579	  0.0502687931947165	  0.0004649052165930	  0.0042037414899947	  0.1115468211267011	  0.0180048022477605	  0.0006634680192409
                  0.34890873186072446366
                  0.19405230180334812062
                 -0.16416896121969359879
                  0.27105260501572209231
                 -0.01357818246556418730
                 -0.30523557129759315565
                 -0.25373765879449583505
                 -0.03936407493235017513
                 -0.14135432960672136837
                 -0.19256509971683644089
                 -0.11806600916917783795
                 -0.00898196875015430836
                 -0.18641690092792814748
                  0.31494196013893499542
                 -0.06146135775709264670
                  0.08997737988222778704
                 -0.22285415352213105988
                  0.07563431125836826696
                  0.21387955691916407663
                  0.10143647657685489483
                  0.00219315743405964223
                  0.30921967863405830368
                  0.00771870884005898886
                  0.32887968161063213524
                 -0.32664853289510659140
                  0.10654547434745258172
                 -0.12573743255256097928
                  0.41178691937905920195
                  0.08670843598403810137
                  0.14753383061273914190
                 -0.19970170084603661165
                  0.06113655990942050422
                 -0.16851136073296507645
                 -0.18453259605299224266
                 -0.10717797534409527482
                 -0.22269332808981306959
                 -0.22957698859798958413
                  0.28939401010930565494
                  0.14104023153598299611
                  0.09568938877628886674
                  0.32948502223165937464
                 -0.03964919312266165091
                  0.23466622439833731417
                 -0.25336663786638818907
                 -0.11445954094275229140
                 -0.36065648388054272200
                 -0.10884137773049276654
                  0.09665045421857337837
                  0.39974226749135621795
                  0.02831022846759456701
                  0.01322951869669267665
                 -0.13298772841715678084
                  0.32352295443399320396
                  0.26891157119650821450
                 -0.09776759240159044184
                  0.07645321679691879924
                  0.01497273184558543455
                  0.10221871764611573097
                  0.24245085610181030256
                 -0.16295145214835707326
                  0.07586572294677751405
                  0.05395623617831388913
                  0.07926722330311529452
                  0.03578043245733255467
                 -0.28050983684054808798
                  0.32746498381122673971
                 -0.28828798311479442162
                  0.20179680332980898250
                 -0.39208315445996011483
                 -0.14277566831231436328
                  0.27415720898416340301
                 -0.13836104456757555847
                 -0.10470276718603327426
                 -0.06575910323361530696
                  0.21675530446747992563
                  0.30952750369807047193
                 -0.20302868155026004837
                  0.02346657958477365788
                  0.03212571675205940641
                  0.10399142933075973538
                  0.32804185434557475709
                 -0.21673847381862557104
                 -0.16301870768969500824
                 -0.26211096204569933610
                 -0.00433482915333287342
                 -0.36579012607305955163
                  0.28688822171453559617
                  0.34724752264614588970
                  0.24448748580023929589
                  0.30230895924042422429
                  0.05612441847287763519
                  0.26336190405589554597
                 -0.18186169911221014561
                  0.07572721050692875211
                 -0.30683868742404590835
                  0.23464172700509239311
                  0.00535516503890296099
                  0.07647054386530330317
                 -0.21532643425108646817
                 -0.08316374830591073686
                  0.07339205785464253395
                  0.11612780859966682911
                  0.21451934035672762247
                  0.27070444106929308914
                  0.08368990248825852740
                 -0.31759941392412827099
                  0.28455552828379182539
                  0.11291873348890273110
                 -0.03355498964769007553
                 -0.33786401848255509517
                 -0.20502765254042543130
                  0.03234054806017908068
                 -0.25558360322559764422
                 -0.18733209752524848657
                 -0.27424970927859609882
                  0.19546719727575245784
                 -0.26445786127831566459
                 -0.03800903491075969393
                 -0.17902914166165689869
                  0.30375986090760226377
                  0.29182831271927966998
                  0.11978658925185983741
                  0.29429412223032225260
                  0.13071393684361509724
                 -0.09420174149111805451
                 -0.19107835928006544624
                 -0.22928581684463303358
                  0.26702160841896205312
                  0.14987852933669534861
                  0.25636854831361666207
                  0.01235112225530834475
                  0.33468466566842819399
                  0.11436631533810726058
                  0.27989793279716868035
                 -0.16292854245256224721
                  0.46288918571935910862
                 -0.20447339043171222639
                  0.34335003316117457262
                  0.34159668152318967138
                 -0.16893186513297417384
                 -0.05159118909426589628
                 -0.30577794906714916845
                 -0.16369831303604029382
                 -0.01563977723974515482
                 -0.10818367460589028983
                 -0.13913060846534666681
                 -0.16145925521752513276
                 -0.05671497880335658187
                  0.16480124319572031499
                 -0.30148458400814387437
                 -0.24053400259638976766
                  0.00154804527760519649
                 -0.28820780442553117773
                  0.23147053729201091943
                 -0.22726451777547701516
                  0.09956373933412671073
                  0.00382603905589186432
                  0.17233839217311064385
                  0.08478052283224485342
                  0.21320082166069115326
                 -0.30634665604675104245
                 -0.17408026419707950394
                 -0.25591120042803328083
                 -0.34929863845259234711
                 -0.32210604350198168699
                 -0.10238872392175887849
                  0.14110572874677870803
                 -0.16718689438873463038
                 -0.24166727480568309105
                  0.00551583372916057430
                 -0.01793703577110296668
                  0.10649830908195585810
                  0.26669048047118765199
                 -0.29598473735899871739
                 -0.00014105708869493094
                 -0.27775838744000286296
                 -0.13945933300949031608
                 -0.13852660772620903340
                  0.13266106350193404562
                 -0.21281490340599051869
                  0.32825023887222959385
                 -0.28720227914598267516
                  0.20687112912629590511
                 -0.27783598824938399163
                  0.10766113112715086642
                 -0.10479845538435018926
                  0.13901864638568139920
                 -0.12230792778754340233
                 -0.25115824983567280881
                 -0.09670679296187972840
                 -0.22946692687650788178
                 -0.31188895796377980041
                 -0.08081955080645945866
                  0.30439209576026332593
                 -0.26281867459879021398
                 -0.06414610928284981972
                 -0.10793953744064921363
                 -0.32190447496426582985
                 -0.26601608874961812923
                  0.33165223112375941117
                  0.03144564023060814062
                  0.17290592836073140348
                  0.24132951898616186726
                 -0.11303203186745310049
                 -0.01934720331004183280
                 -0.39328705182725809397
                  0.13248919636245504172
                  0.30012616463209718098
                 -0.06107228422802167545
                  0.15307447257462131196
                 -0.17517081163032546809
                  0.22839294448806662929
                 -0.04248850360843442475
                  0.20084809574002288057
                  0.18861781822284581778
                 -0.08368673769841193655
                 -0.07419103880707514365
                  0.16362162063603888362
                 -0.09978069105595006871
                 -0.40021120764112649848
                 -0.08642245187547731300
                 -0.11651263094103428419
                  0.04658485604469731617
                 -0.06554388229540736299
                  0.01903229700919360778
                  0.23958522034625007180
                 -0.11555609664374222323
                 -0.31219520698882802234
                  0.29132409688365762390
                  0.17826145045265576194
                  0.24350909558362146545
                 -0.16406727193463174763
                  0.13221959963186452613
                 -0.33913132779942556372
                 -0.00504459315355971702
                  0.27841512136123275356
                  0.11927770894768321974
                  0.14026005271076993908
                  0.13469710415127525427
                 -0.00222726598151111715
                  0.30324529873126254698
                 -0.27258390464939186160
                 -0.45788594551040517899
                 -0.15233958955410270564
                 -0.02169671037154099341
                 -0.02549956811820316277
                  0.22747346483558139596
                  0.01760826578671164169
                  0.07640210419636490891
                 -0.32342946941647637837
                  0.32554390634587421216
                  0.13502870581190543064
                  0.08913170120705685151
                 -0.30932272978760333437
                 -0.08043925917196839692
                 -0.26271824490993450629
                 -0.28412996882291163825
                 -0.28134276538096081310
                  0.06643489838583356566
                 -0.07163969371881266646
                 -0.26058214042928484755
                  0.00968887586789052291
                 -0.03360074633307483238
                  0.35744218817471956617
                  0.20414551201265246361
                  0.05546573505882632787
                 -0.03897194238633842900
                 -0.05272602668631073963
                 -0.20202189875696627275
                 -0.05306110341821036747
                 -0.18707812950071189828
                  0.08964167169719432227
                 -0.23811137511442242998
                  0.26544966420470689217
                 -0.17875795982719683286
                  0.33368894659746545228
                  0.18426874409931032206
                 -0.31716272984531818091
                 -0.21598459544443246449
                  0.13778018380021944678
                 -0.32048379320004560800
                  0.26662577516645347142
                  0.01180178229527126255
                  0.27349899453857229314
                 -0.24631355581146158196
                  0.05024643387242424403
                 -0.16955558340060497557
                 -0.09235442250184716650
                 -0.19175654276084591610
                 -0.24463221746584931648
                  0.32006111435238437934
                  0.06606012406621801503
                 -0.18898958200984450340
                  0.15323232153696728086
                  0.26311261306586641862
                  0.28841688533204246081
                  0.14783474501188534345
                  0.09785570513970132112
                  0.16677195444412815095
                  0.19003663526961742103
                  0.10254268661526269590
                 -0.12800635056801920597
                  0.34765501477233001770
                 -0.28902240391782380025
                  0.13722268694455461158
                 -0.32295870094426043506
                  0.04953844197942375294
                  0.03251128773742731348
                 -0.23229560054055539697
                  0.24248022433894658723
                 -0.14002004564186557034
                  0.30755502889668212552
                  0.08317357349216995821
                 -0.18372389391378496359
                  0.28537180446312765403
                 -0.02034822935448752160
                  0.31441886839395238873
                 -0.16046707062045204029
                 -0.05962335663197825680
                  0.23300606317362193565
                 -0.19415176227355257499
                  0.23080420087041916832
                  0.08994317957705959266
                 -0.21725179780904027571
                  0.31113388221723892180
                 -0.22438343345659386707
                  0.01803895672247610160
                  0.15747061455347849401
                 -0.22263902217288147889
                 -0.36884927267257500150
                  0.19837727433177743119
                 -0.17644046145089017918
                 -0.17890226545472032171
                 -0.25085174275948801670
                 -0.28495603998234975140
                  0.15104790440557344655
                  0.09333975387106642485
                  0.15691804559462282920
                  0.27913711705172705724
                 -0.06171419413113370805
                 -0.21493495406037474438
                  0.32229183395565719206
                  0.04345400307581157029
                 -0.37526753610473051470
                 -0.18289935578070093403
                 -0.01837855436738023568
                 -0.37164978644914520300
                  0.21933694396639202839
                  0.28698083277891106579
                 -0.13448660104080473188
                 -0.05937719769995614127
                  0.40828980699006983679
                 -0.11331558324846763286
                 -0.18922397072503169269
                 -0.30347185635453044483
                 -0.04035079885708760944
                 -0.14606071827285432851
                 -0.09659364089220463800
                 -0.09104812497189969378
                  0.29076338326426670600
                  0.07413490228296612528
                  0.09402800053054002904
                 -0.07418268072708460170
                  0.07915211279605938177
                 -0.13920712899914736149
                 -0.31375782856555672895
                 -0.09618456333901910515
                  0.14285676679612124840
                 -0.21003625791331725914
                 -0.14815664728300967368
                 -0.12351021427534175645
                  0.30743728571734402211
                 -0.15151380282661475185
                  0.14001958003336947844
                  0.21466814735496053679
                 -0.12346522459777492520
                  0.06385349150333563539
                 -0.11166098266156258834
                  0.23872891352597364056
                  0.12416307620069448603
                 -0.17914681422316411363
                 -0.25220962432913085483
                  0.20237207075942423296
                  0.31416913814984293030
                  0.16407124587502719404
                  0.27103854814709343879
                  0.14038737413284732569
                 -0.36605997370597004315
                 -0.22344107451508227191
                  0.46572444770325571728
                 -0.25104294303756569118
                  0.04792009164912091473
                 -0.16431924257729996208
                 -0.26167859955660965898
                 -0.31713053666135720965
                 -0.16689136235898283100
                 -0.27501556236874952210
                  0.17236368608617233522
                 -0.16964819093548408335
                 -0.20915056007063531629
                  0.08029833976943533125
                  0.19147880627200611348
                  0.12769112589315151363
                  0.18567145557580322368
                 -0.22026672651445511342
                 -0.26425647484081266070
                 -0.19798279640438282145
                 -0.16880811858481753474
                 -0.22826482377527271272
                 -0.04867805405902619204
                  0.01123230378925650641
                  0.08507827026831080164
                 -0.32683846936465776878
                 -0.28732934976548102357
                 -0.27974319291380367325
                  0.20923991441684577919
                 -0.13057234927597077823
                 -0.17341509088544115880
                  0.07743171123637367093
                  0.09280550471091655873
                 -0.09005205876027960743
                 -0.33545100870282890115
                 -0.03243436165335553817
                 -0.24602609089451549229
                 -0.23039866051369686795
                  0.35102534745700675334
                 -0.20170255761395899929
                  0.06969888080846954603
                 -0.25171438693208525450
                 -0.21171514294878357454
                  0.15333482623403524303
                 -0.08133134643619482906
                 -0.21901507097116590383
                  0.03320089953771057645
                 -0.14367961620980473914
                 -0.24545719616783129302
                  0.31159789371060858665
                 -0.31611131337362285976
                  0.00478256615244402293
                 -0.05494908639887693957
                  0.21023687146225458755
                  0.26008634544666209276
                 -0.09829483646545585096
                  0.38234764903069584641
                  0.11654232598990792169
                 -0.23951192892700229331
                  0.13587608519258384532
                  0.10943055624020366079
                 -0.26345640578260404174
                 -0.16362697066455256234
                  0.19516241238372711297
                  0.16205906189043153831
                 -0.07294901120482003010
                 -0.39624580483046634161
                  0.28617344517335474574
                  0.27921032267476825206
                 -0.10331199850146007002
                 -0.08715417635675441754
                  0.25226723383346172369
                 -0.08746217571619493980
                  0.14890672288115339161
                 -0.26225202687830057036
                 -0.22856301837502429608
                 -0.03839394790681548153
                  0.29941720313630743044
                  0.22000402786609482564
                 -0.23631170400676948518
                 -0.05148573152852366913
                 -0.15375581700778492844
                  0.19615374407409819080
                  0.17769019169564198579
                  0.22725607737254180374
                  0.28241406036713129213
                 -0.04956004251694169638
                  0.13757675075455266800
                 -0.18443420784175104665
                  0.00315289862366138936
                 -0.00505073465217767414
                 -0.13705770708571923810
                  0.20169729593444654658
                  0.13352325359825931161
                 -0.26297731253928613437
                 -0.16990831119023191986
                  0.30916088425043714016
                 -0.09095674981979931517
                  0.03540934206320112132
                  0.18965797652258467587
                 -0.20588996321187524874
                  0.34045130611234081242
                 -0.38269465044427714018
                  0.20862016731431820560
                 -0.21541047991144901541
                 -0.14006398608964629182
                 -0.05088190948020696047
                 -0.31963873866907899224
                  0.24340721925046815421
                  0.11272626866119275779
                  0.25470557045604730328
                 -0.14687655409357361358
                 -0.06989021773066522725
                  0.18942042316595009144
                  0.31901728231661119484
                 -0.38681319914529721515
                  0.23861449851926047616
                 -0.09778216783321816430
                  0.26390691736518073762
                  0.23681754004968302851
                  0.13587905699109989466
                  0.06535920887403086355
                 -0.37365282620075646047
                  0.02815098299800266463
                  0.12352955366076838473
                 -0.26604987630122733933
                  0.00752719797837322034
                  0.00088668723328741309
                  0.14535505704209944478
                 -0.07309281960690043600
                  0.26926267294799033358
                 -0.03331810138705060959
                  0.19071002903112582727
                 -0.11637810981616887596
                 -0.10446829344820737773
                  0.32941602599181407651
                  0.01814430045515250806
                 -0.20032012258401052374
                  0.29079453019141421333
                  0.00495940507485751608
                 -0.18960975680834532553
                 -0.13718745830319570289
                 -0.20772465506547943548
                  0.30115153239147490760
                 -0.18462998512900508086
                 -0.23590138749437813970
                 -0.18175662644838061488
                 -0.27973626026092895946
                 -0.12072616510436694204
                  0.29310851855878050642
                  0.20219121439353612835
                  0.25791632020677268677
                  0.11289867059519419212
                  0.25308038697951223961
                  0.20116414446840455432
                 -0.00402998758194620700
                 -0.20358710071033192524
                 -0.13961295895823705449
                 -0.15162017766513910533
                  0.14033359242991860771
                  0.12342391214347950279
                 -0.34896862030025643797
                  0.23868936081364575119
                  0.27443198574019311842
                  0.26918573274696572240
                 -0.17238816611280152746
                  0.32592288849380501858
                 -0.09839432772521203296
                 -0.14309093020665172857
                  0.19069949886162992914
                  0.30917640420059527839
                  0.10997986478405225030
                 -0.03950927068634124684
                  0.20474500548731516814
                  0.20671600829676309297
                  0.29191880948237780569
                 -0.13862797033871948615
                 -0.02285379904920241054
                 -0.36072738665654557888
                  0.37371913788513461130
                  0.19404284998380388894
                 -0.14572901920900757644
                  0.18354973292980980570
                 -0.14921807690631649912
                  0.19267122583296009131
                 -0.32630359721600599165
                 -0.10592143311003117401
                 -0.15172024013734292103
                  0.11158045318723551487
                 -0.29828553899284432349
                 -0.31701195304762691540
                 -0.28458791292070428902
                  0.04629452582797289467
                  0.31045740674971217254
                 -0.04402609101167514333
                 -0.08592228570396681642
                  0.31122067374088852043
                  0.05246343999057014040
                 -0.06747504673436641176
                 -0.13623884604285577127
                 -0.24375573529068766954
                 -0.04147260550739891027
                  0.05310475592343760765
                  0.06235719600347083141
                  0.14931963247805127293
                  0.32222024816571365191
                 -0.02951642314077270596
                  0.05566721351151821678
                 -0.18557522233024736913
                  0.23007080639275750977
                 -0.26644120690524525363
                  0.27516260371191914036
                 -0.06678771712112316350
                 -0.04357551044783301158
                  0.17882422703704345390
                 -0.24942879122688274562
                 -0.00900169116542532885
                 -0.10138952760747617365
                 -0.20801533826328455490
                 -0.06683930081786872146
                 -0.38198517685838639935
                  0.23198271541337453505
                  0.36843683813866867638
                  0.02348956901046287543
                  0.33587506033371966607
                 -0.18591360453259467289
                 -0.29504781687720083028
                  0.11246142297246028430
                  0.05026866265352610691
                 -0.06392744305226853718
                  0.02006829715216670862
                 -0.02909849369789025211
                  0.39405786932909581122
                  0.28060587551890453506
                  0.23176280449756608837
                 -0.18688693329177555325
                  0.06974297735820891853
                 -0.19079994412128917225
                 -0.25579756192017483185
                 -0.37914109319517491636
                 -0.32964414409219261470
                 -0.02732470726242739248
                 -0.17338794829166515044
                  0.18217658377069056996
                  0.30455628721516392332
                 -0.29688737966239331367
                  0.19588870639990685341
                 -0.10246419300642506389
                 -0.15375917272826752913
                 -0.11758792985867280723
                  0.04441275184159421130
                  0.15855543962688453674
                 -0.20093595189850183003
                 -0.02956594808287371992
                 -0.33555726966216459228
                 -0.30843903217061940936
                  0.13822186698772886970
                  0.10956044782551886685
                 -0.12636902819170389711
                  0.01210757844412272202
                 -0.03293168728181052746
                  0.03250541153388548932
                 -0.20891773032767793628
                  0.29401151306310902012
                 -0.26529192610611157521
                 -0.06505161542658671747
                 -0.32948196600005463797
                 -0.15703490893858876309
                 -0.23144015099068401820
                 -0.12810142026230722512
                 -0.05439138665572997716
                  0.09424498688476248831
                  0.30505734641045156863
                 -0.22772241714053656492
                 -0.29908283181354294866
                  0.33026605575849310448
                  0.28136894834078207683
                 -0.03812616998082809378
                 -0.24698360977636801827
                  0.02025401021681270605
                 -0.29311616718415012262
                 -0.32733365008492443238
                  0.16135068133725041783
                 -0.23920483446474857803
                  0.08809111132376770681
                 -0.13239697513111964300
                 -0.10752792656483306510
                 -0.03418496929728683659
                  0.12108097903829193043
                  0.15693573656366993641
                 -0.34832428250908897827
                 -0.19521629644758475841
                 -0.31049986441148230698
                  0.30551420597794953782
                 -0.20285034759807046845
                  0.15402090962565270771
                 -0.23510052279603715908
                 -0.27127042976648624295
                 -0.15892726248933528033
                 -0.14664953631031171777
                  0.27680830840154335704
                 -0.31037144174215741677
                 -0.14318334286624750940
                  0.17610827874686496575
                  0.23801225841159040497
                 -0.36678158998236365385
                 -0.27335672111692532749
                 -0.07585360735389136411
                  0.24898639118793836067
                  0.19995979643837089035
                 -0.24453838469092190055
                  0.19316271729457545892
                 -0.14237943577154243968
                 -0.24770350537656130041
                 -0.19320121594845884871
                  0.03543434982593996613
                  0.05866672461631573104
                  0.07036556775550970033
                 -0.04001872262142595199
                  0.28222741902529169256
                 -0.12222866911930879708
                 -0.35922361222930521141
                  0.05194217599319211898
                  0.30208204995334125842
                 -0.04563185683334787524
                 -0.08599219715684520982
                 -0.18502676249755248272
                  0.15649023421792002120
                 -0.17982573641583626811
                  0.20132758536921224746
                  0.31195766150541143213
                  0.24655961877074369926
                 -0.14431433625095574369
                  0.13646871570675916940
                  0.26032428717550809560
                  0.06145317733210366867
                  0.28637288731037968681
                 -0.19849105499539954067
                 -0.20149630844012572650
                  0.18657612554311156505
                  0.27989673636902007159
                  0.17387875955766790570
                  0.09465328805332325068
                  0.08865241809209740975
                  0.08712566376103719756
                  0.24890381605445027757
                 -0.32086397433343777363
                 -0.18041610615221698177
                 -0.62065120956060060298
                 -0.21853836068440110618
                  0.14686678058782601242
                  0.45053546178387071652
                  0.32649882475819280714
                  0.38690512135983046171
                 -0.68490601229304259867
                  0.01972315284498009358
                  0.21601277432572965620
                 -0.54581404633334140719
                  0.09687424783350827295
                 -0.59096076146421205877
                 -0.65680257925338192404
                  0.23950227584268748982
                  0.50200130296104794603
                  0.04287682327803736537
                 -0.03561124709183646070
                 -0.72411287099951593405
                 -0.81420362666292411813
                  0.16380253435517294625
                  0.46122346575630934762
                  0.19444657478490653957
                  0.18171343860766930867
                 -0.73615561588842082230
                  0.64490087132141415971
                  0.01748853252819875317
                 -0.28422504498287026742
                 -0.30394912420969938394
                  0.25512751574126252274
                  0.33944872274433179893
                 -0.04141943502543604660
                  0.47080519880191035176
                  0.06965430944664166568
                  0.12387925322783183146
                  0.62952693090237399343
                  0.46682579476337243696
                 -0.30966301761147779770
                 -0.62093033424203081250
                 -0.65938269388050219089
                  0.02332796982512169714
                 -0.46160303140652403364
                 -0.19573894783342807302
                  0.48430913109146034312
                  0.45207341223410607567
                  0.68065305839261114329
                  0.59018182007222408370
                  0.69220454460829328180
                  0.26437149145976468478
                  0.52038758654276895399
                  0.13589299336284244024
                 -0.48945643684182438271
                  0.26266321876655773782
                 -0.00729176282615517663
                  0.27367098268868894628
                 -0.71209243240565922584
                 -0.19368553108351710401
                  0.69476906642758007315
                 -0.02822451125665514926
                  0.15533927817280954176
                 -0.45145000598148138371
                 -0.32408582184695672312
                  0.13120851255484261566
                  0.59144822790467355134
                  0.16192857198584006961
                  0.42777899957312570667
                  0.66680295301261260921
                 -0.14209878816786478128
                  0.11176102986306575560
                  0.02051002275433140912
                 -0.43767372494453232745
                 -0.72563447482560805568
                 -0.42497652082337822321
                 -0.34488840434346279551
                  0.13848423425930592168
                  0.64346621768385758866
                 -0.46232803960617752104
                  0.25813024716354338040
                 -0.03343352120276521511
                 -0.69163707583566569337
                  0.70213545102249008689
                  0.04035899520378889715
                 -0.09314399190232762471
                  0.39862127186951962221
                 -0.41118377453336779626
                 -0.35925015290035999804
                  0.64407843933735819952
                 -0.75479811622282100281
                 -0.28885709847036000752
                 -0.17677829365752253943
                  0.04590403913293035487
                 -0.57758858610521945920
                  0.56584007076792230961
                  0.11908295172236368908
                 -0.34117135203773862884
                 -0.22417849301544259810
                  0.41078947688345496259
                  0.54355854022497540612
                  0.34095278329380190874
                 -0.71570220538137019339
                  0.38617990474406438395
                 -0.01156664171869126873
                  0.03250029276217299146
                  0.57903476173707824071
                  0.00297499646152566159
                  0.53725083627327341329
                 -0.07286966194403125818
                 -0.21462684485680424973
                  0.57904831497037834165
                  0.07325399547299474290
                 -0.26329485297582488901
                  0.44729390132934165880
                 -0.01942493513927485288
                  0.60973845498676437771
                  0.53187181776712422199
                 -0.47315146512532513245
                  0.24032795257817365919
                  0.59963983791939401424
                  0.70027045994856085276
                  0.53159416431748718335
                  0.34092927253517735231
                  0.62848331941397717060
                 -0.19183647989090288344
                  0.04323520851870943371
                 -0.50042776199247018809
                  0.43831201405051167797
                 -0.51611114176331374104
                 -0.50135146731122981478
                 -0.47304189458319478856
                 -0.57845427550729300314
                 -0.53435674332565663569
                 -0.28131602899175894850
                  0.39194667567003288466
                 -0.02612485138471203408
                  0.46300465619719827215
                 -0.19091105981736497532
                  0.77435957635293672929
                  0.08724979242910502197
                  0.50819576201249361258
                  0.00893716127374687315
                  0.41110693089645666820
                  0.25011461060078854501
                  0.53375125400672251974
                 -0.65544368520507922948
                  0.26124457642284248937
                  0.23719347183792627298
                 -0.55436702338664189949
                 -0.13062898005463199902
                 -0.13364503191103133117
                 -0.00644271015825546162
                  0.60240989114028054008
                  0.30993628700889486183
                  0.55837196084163032150
                  0.55067841908225900749
                  0.17288956512596051485
                 -0.33868035784859645831
                  0.39287552390360008792
                 -0.35466971802702107475
                 -0.46765483974708466075
                  0.69121121573028831975
                  0.42261584451509409677
                  0.52856270129358484677
                 -0.20059283055820814612
                 -0.44573359202202406104
                  0.21797145642335361004
                 -0.48714526918854073045
                  0.40494206087639589287
                 -0.03468022959376611258
                  0.68665025315162619979
                  0.37103360067346230489
                 -0.60133795363847386550
                  0.69682100443086369967
                  0.35981602852791644276
                 -0.06889855782314704968
                 -0.15649822270209037822
                  0.23445714973866946251
                 -0.69033403091889877778
                 -0.06378775313035385530
                 -0.07977737402863722960
                 -0.56201240000247876250
                 -0.53996738695524482132
                  0.82906169366689153044
                  0.58577969551548614291
                  0.59327170888514058067
                 -0.24561167455323257292
                 -0.01457223249350649355
                 -0.50857912296377638661
                 -0.22881560595641789457
                 -0.23017021878460175444
                  0.23713630999098977981
                 -0.42725026036836710741
                  0.44275098335991175391
                 -0.38382522064222523994
                 -0.41106321338809881372
                  0.35919537563512254907
                 -0.38264946831351931422
                 -0.33413828006677931404
                 -0.37781192479796482653
                  0.49098248703487284983
                  0.51926431612479240219
                  0.21800089422674090445
                 -0.24049919905134595211
                 -0.50095695873923751229
                  0.37930931752662000456
                  0.73170695901610305345
                  0.18050693885561114316
                 -0.56109383254580635914
                  0.56944128304136887309
                  0.02225241022138077507
                  0.06564325318395132502
                 -0.18708582014999397547
                  0.48295523136705376110
                 -0.10800758001040991485
                  0.44277106258622528356
                 -0.59219382652949237311
                 -0.17455860722628407933
                  0.46046533891807311933
                  0.00344451878211771145
                 -0.45096199252497148890
                 -0.59242285822492712910
                  0.66601106473397331253
                  0.03845611579638678890
                  0.03359980379687321772
                 -0.38107766386107932988
                  0.27450858678757106279
                 -0.68430298818514101455
                 -0.42913164943096487880
                  0.00985636851316072649
                 -0.90335239866585415047
                 -0.67424326733161876746
                  0.53421058157858991589
                  0.07928635318939372678
                 -0.82198044316027574219
                 -0.26830464475090509691
                 -0.85623629391470590377
                 -0.49657476803637612406
                  1.01115047160131132920
                 -0.26814575238653087785
                 -0.87905427887086617922
                 -0.66198836398111726709
                 -0.67304034320923133983
