49	2	1
15	15	
1	1006
  0.0542223932564288	  0.1350892126924690	  0.1066401510587419	  0.0916407696101708	  0.0117280622359771	  0.0090713102024883	  0.0408711780469540	  0.0526456192124833	  0.0401755096201938	  0.0526472929895978	  0.0128772518734194	  0.0349337520861550	  0.0818351236466505	  0.0058853050760038	  0.0215461409624084	  0.0803504079889441	  0.0436176688180212	  0.0007897724339362	  0.0045851620069163	  0.0079607739028485	  0.0045853077319956	  0.0070930878194145	  0.0205829228717591	  0.0029067990406772	  0.0022483232690562	  0.0102173715165808	  0.0139644687889952	  0.0185033837921706	  0.0139767565232344	  0.0010210765268363	  0.0017686151805532	  0.0024439626818440	  0.0044361942559536	  0.0082370964167910	  0.0082371244179259	  0.0159349436335430	  0.0205823192747425	  0.0457098825065539	  0.0205836280435692	  0.0013025100045405	  0.0047254979643712	  0.0369966666687744	  0.0034173979008577	  0.0097471817668055	  0.0358783258297474	  0.0006385113093438	  0.0042037414895148	  0.0457098974005005	  0.0163399183582453	  0.0651476641831463
  0.0542700600485389	  0.1351908448869480	  0.7534752418946337	  0.2379817902204755	  0.0117280694846243	  0.0090713125605901	  0.0409076921153398	  0.0526845825203215	  0.1447731508626051	  0.0526862562971013	  0.0128876771560713	  0.0349560767050221	  0.1819536035338794	  0.0058853073481268	  0.0215461465753077	  0.2895507602407977	  0.0650333631312868	  0.0007897724341112	  0.0045851647848654	  0.0079677665904696	  0.0045853105067088	  0.0070930896274921	  0.0205978604547999	  0.0029068006260407	  0.0022483237870389	  0.0102253575686486	  0.0139730275040927	  0.0349950422663402	  0.0139853152382584	  0.0010210765271818	  0.0017686151810300	  0.0024439626820836	  0.0044361959964621	  0.0082370985686399	  0.0082371265697747	  0.0159489290348321	  0.0205972568579117	  0.1133673072808091	  0.0205985656264817	  0.0013025105014803	  0.0047254991973057	  0.0700002595909889	  0.0034196780316062	  0.0097520856125810	  0.0510723896779669	  0.0006385113094521	  0.0042037414898456	  0.1133706014779736	  0.0194739129211269	 -0.0043465155434602
                  0.47239719429931853467
                 -0.43733734132962925889
                  0.58543369347278650938
                 -0.52344755443012158658
                 -0.16921879478360982163
                  0.02188648375633794538
                  0.27806999415148780930
                 -0.12710632239883767891
                  0.12564987325205886903
                  0.20474139861130583040
                 -0.03319601912654618348
                 -0.13112655490806246483
                 -0.33582860678865478210
                 -0.19693059855413988513
                  0.16703116723910868546
                  0.33854768023282338918
                  0.20114214182102232997
                  0.04329737058093399010
                 -0.04662728556383097939
                  0.06454603853032897520
                  0.53680345786775884864
                 -0.01226386544995205705
                 -0.27272050165679490030
                  0.72958691509182704849
                  0.26310118615301386624
                 -0.37806537455284094928
                  0.00528542527319860247
                 -0.10060973941764661532
                  0.17199664763314989613
                 -0.15760105610884914129
                  0.38010863564551777838
                 -0.11492492856736748197
                 -0.27295985682725243393
                 -0.24651415503796017537
                 -0.65430621099595875911
                 -0.27105001407835382921
                  0.24231775317041862050
                  0.03212371517953978989
                 -0.07600205473234311615
                 -0.23212662851277157672
                 -0.53280833660344251168
                 -0.23792010227594689864
                 -0.01233846321261675323
                 -0.19951817514992381541
                  0.36365538326825197490
                  0.01381703096458368474
                 -0.08245584944060677102
                 -0.60026580850318400628
                  0.26246099514516529894
                 -0.20084932469702010405
                 -0.09749369377122577007
                 -0.02115043674069815374
                 -0.15059383791088720717
                  0.37979975756204154003
                  0.00668910810295435861
                 -0.16421319280144575092
                  0.00825436672114280429
                 -0.51057129287277891461
                  0.05978864157433801119
                 -0.00429601225286384107
                  0.08613328477851386888
                 -0.45544795048950587057
                 -0.01550834057869479587
                  0.08329638389648219565
                  0.58125889204673319988
                  0.32032681186189015943
                  0.23558325566143309415
                  0.28346832330981791559
                 -0.07972379807748558589
                 -0.33981573724598407304
                  0.15118882858370311095
                 -0.51793547568360009947
                 -0.13660882318197428709
                  0.03526378927449951017
                 -0.12500683807160634098
                  0.09891541904757451820
                  0.46392012639276603014
                 -0.05979049638319071380
                 -0.12633153372876390619
                 -0.26270320254246848357
                 -0.24374118099027192175
                  0.22067361889549669263
                 -0.54128411406041798681
                  0.60613696501602642996
                  0.10265764256254651665
                  0.18991913315402658702
                  0.21644684150725279626
                  0.11888366164359405464
                 -0.07181263851412722499
                  0.21659746162143975190
                  0.07985043550029526094
                  0.24466750090562017217
                 -0.31714998261043214622
                  0.30683112193084660646
                 -0.04047223307267894254
                  0.16026386515543886158
                  0.13890481213805580540
                 -0.22876829811835988626
                 -0.06218591500958751961
                 -0.76594153686761146105
                  0.22136189247211657261
                  0.18197185854676772854
                 -0.20818263908803813500
                  0.22448147399997886442
                 -0.00728332549814846540
                 -0.35061516133577708132
                 -0.38828557061209950652
                 -0.09945608495781976810
                  0.33800485681896125234
                 -0.48387584134066485841
                 -0.15503028910824590003
                  0.21042251038300377464
                  0.12025842604625974763
                  0.02683493873900220233
                  0.00001965724004735631
                 -0.24171963053939551913
                 -0.52812708370640859545
                 -0.07911558918218498937
                  0.25549416986165923715
                  0.39966914172973133645
                  0.14498590591901075464
                 -0.18102754409513202583
                  0.20000300753602251458
                 -0.33099945643192490996
                 -0.17721893191762627673
                 -0.00748418862730052155
                  0.21229379764759165328
                  0.17473564465375918120
                 -0.02604142879238671368
                 -0.25565860411398511065
                  0.23581764014477143987
                  0.40846621906249475087
                  0.01847703325618152773
                 -0.08635336715648402051
                 -0.13572084582324511759
                 -0.10519412978444167561
                  0.12965169730794431913
                  0.27897597639811927417
                  0.12117349809626568047
                  0.25694020418072083256
                 -0.18160353438937262838
                  0.13979439132749418850
                  0.18618612787464727809
                 -0.30740858265000609029
                  0.31238402437079454410
                  0.17981201287726911175
                 -0.21559196580197381721
                  0.07219436182505181709
                 -0.17276240822590502311
                 -0.29382685259996904614
                 -0.19250091796965526636
                 -0.08960938714894869928
                  0.06316571961589050044
                 -0.01077262484488861714
                  0.10664103688034770601
                 -0.26859471667486900515
                  0.09429644848370141719
                 -0.35798213914480447873
                  0.18278470990209355618
                  0.24416598921702137304
                  0.15809737490625913603
                 -0.46656789505304430143
                  0.22631944950751750611
                 -0.12920875650036595106
                 -0.43834952169131297106
                 -0.12942932585003169565
                 -0.16882422658836276907
                  0.24331296552317574489
                  0.26132168054404070201
                 -0.25598242239240592832
                  0.32998326694501356471
                 -0.00048586888443049193
                  0.06982407765247708453
                 -0.15038194714541394670
                 -0.23388875989567686764
                  0.23933040117469289720
                  0.00839682308421351407
                  0.42029289943934639018
                 -0.29249625589921840474
                  0.27349378734062002039
                  0.06815847326401006101
                 -0.13711373878271593263
                 -0.27859458688323313069
                  0.00974063446819151482
                 -0.25676990430354479367
                  0.54631663500511751241
                  0.36273126789645843138
                 -0.40257498797247748268
                  0.45402127797588065494
                 -0.04222656068444678029
                 -0.10026143126539299733
                 -0.19253743640138398785
                 -0.10285068889667289826
                 -0.32508730478969927180
                  0.00950045101112315452
                 -0.25254332204207136092
                 -0.10125722751021135060
                 -0.23171952213950733346
                  0.16504114258159513495
                  0.70023610033800443020
                 -0.37406589266199274935
                  0.78463824590635711242
                  0.16499035811215381764
                 -0.10585712703260959089
                 -0.26615336526211369472
                 -0.13681334470020822813
                  0.20110672737564669332
                 -0.49672529954408872754
                  0.58125582860171143285
                 -0.04395878812019899523
                 -0.13674055536955498358
                 -0.26160766269783286564
                 -0.09801187077844754347
                 -0.37900947768018256046
                 -0.52226141996076558272
                  0.09045230010898362705
                 -0.12441426096603802609
                  0.54725018630235255923
                 -0.23051310776321370932
                 -0.21925861128568183145
                  0.77197557659680593467
                  0.11535425935313436963
                 -0.10944474264813291997
                 -0.30541315818654818370
                  0.26927696982100168821
                 -0.11474855285191763732
                 -0.11323007826649127139
                 -0.21071035192298431804
                  0.51165752676459108628
                  0.26412788538270770555
                 -0.09868336482879393190
                  0.26480924566366326189
                 -0.15923094556694905588
                 -0.14771560822271334601
                 -0.15677898980468329970
                  0.08211306987133065727
                  0.47221038985963287304
                 -0.02977437942213445946
                 -0.51024958869208636436
                 -0.27807119821658515813
                  0.08510167588507357161
                 -0.10945635340745883679
                  0.57349518066610316591
                  0.44918991126520452228
                 -0.41392483878409891407
                 -0.70874284171519130737
                 -0.01460432728006411628
                 -0.38928718402376283336
                  0.17175278420342532382
                  0.16115513192807295884
                 -0.20753498547292267840
                 -0.24678392023566481095
                  0.09281212838776942142
                 -0.09272080489364468991
                  0.22796153841235822224
                 -0.27089964277856126706
                  0.30260005868364103776
                 -0.13480894201504195484
                  0.34601734518459786871
                 -0.19783610245541966011
                  0.26400656169970920795
                 -0.41193666378546517359
                 -0.28483367664054759505
                  0.17519998700257033430
                  0.00368142748868512289
                  0.45559937612510381655
                  0.14342521033573768507
                  0.05669834927600848895
                 -0.10706067990501584586
                  0.21171330799443444093
                 -0.03975145390724263428
                 -0.44324555412180888236
                  0.30487808752185163730
                  0.17794762667182142946
                  0.26410699750707800071
                 -0.11345729985166570775
                 -0.04197173800590441040
                  0.14999774196588114283
                 -0.42166647836857412690
                  0.09338571831891695485
                 -0.08381359482788239279
                  0.03585892517494791709
                  0.35218596765076803923
                 -0.05372403791770608006
                 -0.00425900390405959620
                  0.07306220188481885036
                 -0.04197386760785610377
                  0.20581893637631551441
                 -0.23172962882086187153
                  0.08990612033369049794
                 -0.23641666919964199334
                  0.10476675602138303678
                 -0.31508410055876340250
                  0.18233601971792035012
                 -0.22888996990136026288
                  0.20871291707944281124
                  0.08316805656818739012
                  0.76405310810306248381
                  0.09436115946186587888
                 -0.13049291488459521804
                 -0.31568416220606487776
                 -0.19257466017962798777
                 -0.20410281145316136464
                 -0.14152106258376201398
                 -0.28440199069894261941
                  0.05429046139528996562
                  0.29825011279741131531
                  0.12102423299330936080
                  0.17455397881179940400
                  0.13017256639244509375
                 -0.03561433526093363278
                 -0.09431253519324281354
                  0.30086214383912313064
                  0.08813368680088873308
                 -0.42050656086757998153
                 -0.05153169235304266155
                  0.04124358921038077941
                  0.17601432584457055164
                  0.00144421414992540464
                 -0.12965227590497302446
                  0.15579056248410455554
                  0.03252514051259774303
                 -0.23121315613930834565
                  0.22552711279569856440
                  0.51886127820888960915
                  0.07508940474991523950
                  0.16664103583238787376
                 -0.07682081100109654226
                  0.07881247249572231883
                  0.08072162182785831697
                 -0.01978336427854076457
                 -0.21979559608574178453
                  0.23051662457613558699
                 -0.44517722449986923960
                 -0.15371785636479595727
                  0.30329750154365525683
                  0.35663645666283927405
                 -0.03200728418911882173
                 -0.44439301613768988908
                 -0.18835882693676814226
                 -0.51983957824513193913
                 -0.36007998391063716914
                 -0.19594647011230686973
                 -0.11787601603228985148
                 -0.38301002548437884654
                 -0.52502345917674309028
                  0.59706325753913458421
                 -0.18746152201665283732
                  0.10764733078071592187
                 -0.16658437057278127624
                 -0.20342777299851108608
                 -0.24496450351980494919
                  0.06535867368561795732
                  0.44910150689644695587
                 -0.36569915659089730076
                 -0.00903783252976032153
                  0.32359969060071336333
                  0.23147286093099531112
                  0.28403458443239210096
                  0.08761452855457120548
                  0.05850059996695036041
                 -0.10031850008663563412
                  0.37695129196989052289
                  0.50440640696182081903
                 -0.39130292467208593887
                 -0.12419496151733888656
                  0.07119739285093056036
                  0.57039417679695658681
                 -0.05412613278802494432
                 -0.09403863653446155324
                 -0.05560255365235922814
                 -0.41226298716113957132
                 -0.14859491845428729473
                 -0.01480969946347393366
                 -0.09378959495498156995
                 -0.31318556042593942434
                 -0.00155939530347137941
                  0.03722504426111243603
                  0.05257075480958030289
                 -0.06643709184393935263
                 -0.15214531085260410426
                  0.24837189995204328463
                 -0.19885969286396609768
                 -0.01620709845833685769
                  0.49627203722568008493
                 -0.22826576800809483814
                 -0.00300699193953875635
                  0.01856183966167211652
                  0.17199624320487005846
                 -0.14841103067657945846
                  0.27060170517004777935
                 -0.53022008536388753885
                  0.31562723969044265138
                 -0.35580992066788713624
                 -0.34570239787760437267
                 -0.04579023654311327463
                 -0.34838449486580791437
                 -0.73187116521005535219
                 -0.12287808651553387695
                  0.15545397826825238519
                  0.20406675195634874087
                 -0.26735070668729937760
                 -0.18389932113378451572
                 -0.16827352593277147830
                 -0.09128592452989023331
                  0.43782441578108766134
                  0.25897771488239157422
                  0.17529210244391421614
                  0.11224627682857526989
                  0.08118906106983009296
                  0.17224014387099390033
                  0.42410946838614632659
                 -0.40650746558029143829
                 -0.72349175293538603437
                  0.28934083840365443230
                  0.08041308236415987964
                  0.18601363183760996622
                  0.33552760650795826480
                  0.01231934041284329581
                  0.11173079145128293754
                  0.32057121600724097776
                 -0.63814366648298814777
                  0.70013667121827583006
                  0.59292643050459814535
                  0.18120992477043171287
                  0.15279623443528567162
                  0.12981315612569654938
                 -0.12303100213674676711
                 -0.07820682911484004574
                 -0.02497054733451943218
                 -0.08104121061506316948
                 -0.26684140075496959321
                  0.26919388659118370644
                  0.16078301556194027344
                 -0.04747282090046638092
                 -0.06517874475939361423
                 -0.19209098867353791018
                  0.11636729933723334585
                 -0.20794618804551376345
                 -0.29548194032576047263
                  0.05166124238901186744
                  0.20017459813425339532
                  0.46105902018066108328
                 -0.45567326820666576026
                  0.78029876991526248009
                 -0.19846370809264693436
                 -0.32660053095195035189
                  0.27538855913892423821
                  0.74468236905679885407
                 -0.46829714341076877915
                 -0.11607979432461171254
                  0.50533692175097355559
                  0.24648044854728226594
                 -0.00077560014305581067
                  0.17833268578253144709
                  0.06884436403087598744
                  0.17327824989611989581
                 -0.24818513403773043158
                 -0.00626896804508303429
                 -0.27614139075494353870
                  0.02308539188467299136
                  0.10416033512982461606
                  0.07443483725858547617
                  0.20583269734956002872
                 -0.13841098165246606966
                 -0.22924149741465629782
                  0.26039506191211664321
                  0.15412425023666317947
                  0.09016698686286708786
                 -0.41057935629874287020
                 -0.02755264603480850338
                 -0.08370221919499648555
                  0.21360201811586110310
                 -0.27889916953004045830
                 -0.52332700853639813054
                 -0.02689741355027485195
                 -0.16868313928410560987
                  0.46877947171243816715
                 -0.02948496020945691465
                 -0.21309528312568085107
                 -0.39565543097995431454
                 -0.00888013754787795109
                  0.05602297005712357503
                 -0.04426073328811554186
                  0.15841724258305561746
                 -0.21331622892444077055
                 -0.60353869324254083573
                  0.05851598883984700933
                  0.27761326207130188060
                 -0.17404884960466404653
                 -0.33489950050039785090
                 -0.14162755577846106170
                  0.02521309361585689218
                  0.46400150549992852378
                  0.10069605129959642575
                  0.16674721271711853698
                 -0.27139487400290740471
                  0.34023468115547189639
                 -0.26691935855429288482
                 -0.35081861206604036951
                 -0.14380116842889301143
                  0.11696328477499093323
                  0.35175330976097329838
                  0.01472793322292881811
                 -0.33617923187277493069
                 -0.20670948761147414641
                 -0.07769934481991898345
                 -0.00110322186992871558
                 -0.33501289451197968638
                  0.36377363255873995662
                 -0.26109261804657252215
                 -0.26324245724152017800
                  0.29232116438830635374
                  0.25906440639989114505
                  0.08841313641625583863
                  0.04876122150381100029
                 -0.15505164357179407331
                  0.01659282025103502381
                 -0.13555024780768032411
                 -0.22780498261414758310
                  0.16065493679621059564
                  0.17635199952817653957
                 -0.13257618113147895400
                  0.27817275273574276762
                 -0.13029584746000183459
                  0.21567189121210236791
                 -0.16325052144035567814
                 -0.00125580207440683755
                 -0.06787982607065883023
                 -0.23922528333172232706
                  0.25463148978613742157
                  0.15321483675013602976
                 -0.04761876620898496809
                  0.12288828891451947234
                 -0.33909846328399068094
                  0.22676355839087575239
                  0.53081789565604342584
                  0.46613073563930496057
                 -0.23828281253235331083
                  0.76405705734207896018
                  0.21231935356504369472
                 -0.23964000870300847246
                  0.13536385421039529020
                 -0.01966085967182451197
                  1.01312399632656147119
                  0.00073816889572052334
                  0.11211399756902061531
                  0.03661386059198089293
                  0.34721834395445166921
                  0.43297123135489229417
                 -0.10255601129916239178
                 -0.29242566366991873394
                 -0.24185706921051211560
                 -0.04390104789260034640
                 -0.06184810619231147222
                  0.32861830013418846796
                 -0.46111953755566259527
                  0.08280191078785334446
                  0.01463917503477914217
                 -0.00915798544029424594
                  0.27580522835959520034
                  0.13484090754249636324
                 -0.33315645975881008622
                  0.53187223976848552187
                  0.06496858705821709212
                 -0.14934546133044951377
                  0.15232583717666478562
                  0.05542102093754077557
                  0.19731962613156914244
                  0.21346024389504170138
                 -0.89097686908826068120
                 -0.36569968413337045066
                 -0.62420115595456038271
                 -0.88413266938936885264
                  0.16437567029324642864
                 -0.10528074958353461632
                  0.22733820774096438755
                  0.35783295210859872304
                  0.15840937897300164106
                 -0.86307492901394688989
                  0.05104735631956648645
                 -0.01344169643981269098
                  0.17304580177743925096
                 -0.13104944065341511683
                 -0.05872304101055880049
                  0.60834327202296678561
                  0.05083360882419366705
                 -0.16151246973849961441
                 -0.53648963338309341164
                 -0.73138322080133888470
                  0.00341652741038502624
                 -0.12522256691041597221
                 -0.22712540887572144066
                  0.22684973506654884656
                 -0.32245842375023769932
                 -0.19433432013929136106
                 -0.16721197433076515071
                  0.06382743199047426208
                  0.14090194717284965087
                 -0.01782934713680144057
                 -0.06719948307422322908
                 -0.46375521787412060659
                  0.32984026234485708251
                 -0.07213746935595802268
                  0.22905574115289736858
                  0.45478345214651921813
                  0.00753699802950780467
                 -0.22321319564051314566
                 -0.00075741189726161520
                  0.02238371185839685418
                  0.07209745676076294296
                 -0.09534361039250391356
                 -0.05101557921165997267
                 -0.23800611418707798284
                 -0.09497840700889093046
                 -0.01946030741170345912
                  0.03755332180584437796
                  0.41670730791600157916
                  0.00079854414140687752
                 -0.87513515543165376620
                 -0.58754214518388003796
                  0.81863472594646169433
                  0.04827411840932793741
                 -0.24591913760731229366
                  0.07772219552085424255
                  0.08898796177498757842
                 -0.18941996571749539213
                 -0.28637265884378293457
                  0.27383187396948999170
                 -0.05506466840902986964
                  0.25255350804074055970
                 -0.08186569006130008097
                  0.15163855056086980588
                  0.12071758735928400652
                  0.34047038171137539164
                  0.13135957918305762870
                 -0.07891387376079106453
                  0.30465596889719520624
                 -0.29925658752445932764
                  0.36259364298017349171
                 -0.06131169653575758993
                  0.00446164675606688151
                  0.13666336618052174479
                  0.06252865421579793803
                  0.12844153854126585945
                  0.14415667236088353098
                 -0.04648088591363812305
                  0.00287916617568427470
                  0.19996296541050825879
                 -0.06509266789779501183
                 -0.35384607880630558618
                 -0.18242245479453311763
                 -0.24121898060391730456
                 -0.22132527699868190241
                 -0.06936494223841618845
                  0.24417099733242111914
                  0.03493255477655975855
                 -0.33209234618037658526
                  0.18420949481859022479
                  0.30632342970308262808
                 -0.34510423870953416126
                  0.39841993733676767109
                  0.14872877617710553166
                 -0.32137752964622845475
                  0.14121411523880383898
                 -0.40871330738219141532
                 -0.27338896742528501216
                  0.10505847858313370480
                  0.07364659394620221011
                  0.12244183142024291089
                  0.44950084747004181995
                 -0.04812764403154477788
                 -0.16607255764313813562
                  0.07755091799298675925
                 -0.16385087262816530607
                 -0.41572024550891945038
                 -0.08096762753398059620
                  0.38984364020291184527
                 -0.15970086605215777498
                  0.32124479551898582619
                  0.16467325691178158475
                 -0.34395044237171790158
                 -0.21946665041569438093
                 -0.04231284605090822326
                  0.02645275169916017771
                  0.28222736057428055023
                 -0.34176206986635587759
                  0.02223159847437955819
                 -0.51552834496066723968
                  0.45020513786998372918
                  0.08721549758234907468
                  0.53342929175868991631
                 -0.04776536053909722496
                 -0.21843305763279158294
                 -0.23982363829759423268
                  0.14148708432301398963
                 -0.20363949333452013857
                  0.17331774987424569678
                 -0.16840805549863893664
                 -0.17695717878283540037
                 -0.30588564002604501368
                  0.16541961232629312506
                  0.22027979426418570208
                 -0.09523447422973969900
                  0.52622336759890797619
                  0.22132688728271604495
                  0.33046037394813021493
                 -0.06461780077116716092
                  0.15082331984725919072
                  0.17283704722486789573
                 -0.11944885382150086106
                 -0.33849136143328695248
                  0.35154274219874243057
                 -0.32635588494225253875
                  0.28329783458072327340
                  0.05945832185779390683
                 -0.16704724480544522192
                 -0.12504222319641331018
                  0.40594442614150910709
                 -0.42912392763375034610
                 -0.23780028522729040885
                  0.38111498781863467622
                  0.06740588065714216148
                 -0.07691663571439392999
                 -0.11122016129870464229
                  0.19818938509561068173
                 -0.17244058048994545529
                 -0.07848535598834481541
                 -0.30853819230631873705
                  0.08068234817360370181
                 -0.35705213825739068323
                 -0.30562855665859234300
                 -0.55787703206981220649
                  0.29132955996371323604
                 -0.04505897032544967096
                  0.60516970620789567459
                  0.49640349536417072152
                 -0.07306566778471296209
                  0.51914508918782076297
                  0.05399879052239497240
                 -0.06354625718657516686
                 -0.78955242277218085079
                 -0.43174974340003463569
                 -0.83487566163293491783
                  0.34106154564861163037
                 -0.23820482267281595234
                  0.70786575995810663287
                 -0.34745033487732718269
                 -0.44134595310408769597
                  0.04724003896094358668
                 -0.63021016326172984989
                 -0.06177839803563096865
                 -0.66091656879233684485
                 -0.41561540026761334410
                 -0.75527167480467460869
                  0.74413493356353921371
                 -0.25878640378674039324
                  0.12236167766985928118
                 -0.46905539816083274829
                  0.46174751212676401479
                  0.62257008382246759037
                 -0.47517556149451517511
                 -0.98340724813377144997
                  0.06289044912188865299
                 -0.70741510696499743105
                  0.34540052845489443989
                 -0.28161248838588720522
                  0.80495136399722788667
                 -0.49841558443079436724
                  0.07447081964820995159
                  0.02533912648596742950
                  0.48627370204160347278
                  0.92262415599628155860
                  0.85594333259306076833
                 -0.27476132548923348775
                  0.15703972241076774585
                 -0.96217093259311081699
                  0.36437809588771297165
                  0.46444510153371726391
                  0.17375779408166680540
                 -0.39730147381642549886
                  0.32857390377215056620
                 -0.29405112079863177099
                 -0.50004834562935729370
                 -0.41577114301639833682
                  0.89457569448968310422
                  0.51301869979582692682
                 -0.49005647300448673676
                 -0.22287617795801809017
                  0.25592441458160891665
                 -0.20693371127092810569
                 -1.54880835979230724320
                  0.66368442229939084154
                 -0.23076728162240101039
                 -0.66059033375598164017
                  0.27250114065607117242
                  0.56277440612200024805
                 -0.19041763763498817386
                 -0.57585224861507577909
                 -0.64791643594823455921
                  0.62961566627004639241
                 -1.06994116108005021815
                  0.44801826012188811221
                 -0.28712964399535267912
                 -0.22692609884879683113
                  0.32066693456146178054
                  0.64952216651304295336
                  0.09342750021222219481
                  0.92305774728389045070
                 -0.20641332976268175758
                 -0.83966130321135790116
                 -0.11195707181321591650
                  0.18870037010782045317
                 -0.02494938108650281844
                  1.46435079553291624954
                  0.67269228515584222894
                  1.66641426118836522008
                  1.16364765072068521157
                  0.13462087484092405409
                  0.84849907460320272978
                 -0.82940953068195699682
                  0.58331500484491904945
                 -0.11809821911178830511
                 -0.58353273956246920484
                  0.14663350711430209183
                 -0.49431515626784588990
                  0.21112703251465517185
                  0.25513883017042965351
                 -0.60104953677890449182
                  0.27179379866798936138
                  0.25691762653575450637
                  0.47617356904957952590
                  0.31823819973098099734
                 -0.13932352456589780498
                  0.35659513563084205279
                  0.57317849759772643292
                  0.43669170613150770643
                 -0.70575236538946950482
                  0.64456957116102409078
                  0.42884384272252967785
                  0.27483062336589419994
                 -0.32719893781855785564
                 -0.66761186607977240914
                  0.39216472997199303130
                  0.77078045948914886143
                 -0.12002645948262677389
                 -0.34166558052095691300
                  0.49975001447007461053
                 -0.35762187302308290349
                 -0.33898068826942545639
                  0.28388198585432977694
                 -0.03186215952714444716
                 -0.70692233097542966913
                 -0.74730230660390450925
                 -0.09484602714200027207
                 -0.32395545864041663808
                 -0.15145714986400987678
                  0.95813141177231575529
                  0.45512616689508000878
                  0.77645403608502816528
                  0.71853855169473257458
                 -0.11039925907298310526
                  0.29019863921045563337
                  0.10929355925284574280
                 -0.87340861019845938973
                 -0.31068904600654079218
                 -0.37588544379194210876
                  0.00907144696556925513
                 -0.81428189191239530587
                 -0.29010041529559438267
                  0.14635301188557731100
                 -1.22836021630831737639
                  0.34892404119631709181
                 -0.07493938182700798922
                 -0.05813083256149628730
                 -0.58893192953581130489
                  0.14193827427449023926
                 -0.19925778058141449534
                 -0.59122773475951495570
                 -0.41564609832006266243
                  0.09815249005093443224
                  0.34950771222079546341
                  0.79300582262330776562
                  0.03664272817444154395
                 -0.97152564505396366012
                  0.98719755281833676541
                  0.08643963510684619933
                 -0.50636317766668870188
                  0.26682803143465183560
                 -0.75737406540730201066
                 -0.27647822584879266916
                  0.43992254950846931827
                  1.26971438835302308235
                  1.12970117481937903925
                 -0.58639058670123545003
                  0.66318202221094113558
                  0.82696422749664810770
                  0.64113369556288435369
                  0.61139152638620308799
                 -0.07055498194315124039
                  0.53524913666292128767
                  0.67292383745174810805
                 -0.23737490887931256278
                 -0.60616358100228029393
                 -0.69799167659522021179
                 -0.42534019984533810721
                 -0.44833537662410738456
                 -0.76645803277579838131
                  0.41144793876373086938
                 -0.34928718254791851772
                 -0.65512235332644641606
                 -0.67557943526055175276
                  0.24350767110486568057
                 -0.32768844340970509910
                  0.79004736994675561768
                  0.72500236926139272065
                  1.34294574544208278333
                 -0.56179147512684346477
                 -0.29068094621292905888
                 -0.12519605065450248316
                 -0.56746327400231533211
                  0.67633927599257892549
                  0.28818532451732675748
                  0.16793337332498639580
                  0.61991747021356213843
                  0.25237413693152871419
                  0.35828172449146727940
                  0.24449088135124663612
                 -1.02941800705067554311
                  0.28652129467063480739
                 -0.54649250198977805670
                 -0.25266906236641384353
                  0.98796948955584262819
                 -0.32966361731662302548
                 -0.25309642856118846899
                 -0.94152565871882365478
                  0.11777252721545819480
                  0.29709835300177539485
                  0.64257305642725792705
                 -0.21141522729581291307
                 -0.66754775819963163563
                  0.00381409628068911030
                 -0.30120590708041355965
                  0.85833417205713502529
                  0.46389157367940847543
                  0.02394521076655203862
                  0.68294270366087261870
                  0.43339944908865596362
                 -0.48593976410561867674
                  0.63627722615861925792
                  0.25200636477905602462
                 -0.02155131960921803300
                  0.27200995161071173101
                 -0.11431226049055798200
                 -0.35735101625062848374
                  0.25935563844434761371
                  0.29606157164973051499
                  0.08152636634831003648
                  0.68830683018698823883
                 -0.69783095585711718556
                  0.76189725525934903771
                  1.05597503905875544916
                  1.06286492337812066289
                 -1.09676297424840796246
                 -1.03457306427499506896
                 -1.57404143481042146924
                 -0.10217557462200645146
                 -0.31852053234925459257
                  0.41707226536562830299
                  1.81611816958785055043
                 -2.09673750174555761916
                  0.55161857587637130873
                 -1.56175726967534478362
                  0.97836852555613529336
                  0.45579801808572184552
