49	2	1
15	15	
1	1006
  0.0542223932564288	  0.1350892126924690	  0.1066401510587419	  0.0916407696101708	  0.0117280622359771	  0.0090713102024883	  0.0408711780469540	  0.0526456192124833	  0.0401755096201938	  0.0526472929895978	  0.0128772518734194	  0.0349337520861550	  0.0818351236466505	  0.0058853050760038	  0.0215461409624084	  0.0803504079889441	  0.0436176688180212	  0.0007897724339362	  0.0045851620069163	  0.0079607739028485	  0.0045853077319956	  0.0070930878194145	  0.0205829228717591	  0.0029067990406772	  0.0022483232690562	  0.0102173715165808	  0.0139644687889952	  0.0185033837921706	  0.0139767565232344	  0.0010210765268363	  0.0017686151805532	  0.0024439626818440	  0.0044361942559536	  0.0082370964167910	  0.0082371244179259	  0.0159349436335430	  0.0205823192747425	  0.0457098825065539	  0.0205836280435692	  0.0013025100045405	  0.0047254979643712	  0.0369966666687744	  0.0034173979008577	  0.0097471817668055	  0.0358783258297474	  0.0006385113093438	  0.0042037414895148	  0.0457098974005005	  0.0163399183582453	  0.0651476641831463
  0.0542700600485389	  0.1351908448869480	  0.7534752418946337	  0.2379817902204755	  0.0117280694846243	  0.0090713125605901	  0.0409076921153398	  0.0526845825203215	  0.1447731508626051	  0.0526862562971013	  0.0128876771560713	  0.0349560767050221	  0.1819536035338794	  0.0058853073481268	  0.0215461465753077	  0.2895507602407977	  0.0650333631312868	  0.0007897724341112	  0.0045851647848654	  0.0079677665904696	  0.0045853105067088	  0.0070930896274921	  0.0205978604547999	  0.0029068006260407	  0.0022483237870389	  0.0102253575686486	  0.0139730275040927	  0.0349950422663402	  0.0139853152382584	  0.0010210765271818	  0.0017686151810300	  0.0024439626820836	  0.0044361959964621	  0.0082370985686399	  0.0082371265697747	  0.0159489290348321	  0.0205972568579117	  0.1133673072808091	  0.0205985656264817	  0.0013025105014803	  0.0047254991973057	  0.0700002595909889	  0.0034196780316062	  0.0097520856125810	  0.0510723896779669	  0.0006385113094521	  0.0042037414898456	  0.1133706014779736	  0.0194739129211269	 -0.0043465155434602
                 -0.25432763443159384087
                  0.17025170991501678563
                  0.10860752780609482515
                  0.04742126016096765567
                  0.05976987407515893524
                 -0.39961174461653675705
                 -0.17614457299442226601
                  0.10994678990650635919
                 -0.13237986791541425657
                  0.16241247413435322411
                 -0.14190588408214380167
                  0.31424932239611985674
                  0.19842089507910737334
                  0.02005708250469565024
                  0.52438717076366980763
                  0.05021534256997470247
                  0.08198872294773441871
                 -0.30879920027900126245
                 -0.12824408162707670589
                 -0.27016750854638282853
                 -0.09623215660774171731
                 -0.02946797053481984424
                  0.07658983076546074797
                  0.28508573256094782433
                 -0.31003762412218316413
                 -0.15086793412560850491
                  0.30556978491461161962
                 -0.26633830750745379756
                  0.03501708643979162955
                 -0.20323036332353872080
                  0.45436464322271336025
                  0.00671321970391329514
                  0.17231486327102835121
                 -0.21147285272520954802
                  0.18643059428374744724
                  0.01824587197087117543
                  0.16764810881203409676
                  0.19437512193111045056
                  0.14281678642335721152
                 -0.06342929918142797829
                  0.02135859642264132177
                  0.40744564423423912380
                  0.20854003144330945929
                 -0.11346223147865519554
                  0.12286713628243775553
                 -0.30862943445163970591
                  0.15419636618824278385
                  0.31231614730526491286
                 -0.34105740860858047014
                 -0.07241552086964278545
                 -0.64474001085314724957
                  0.01765060355287743910
                  0.11751885837528371070
                 -0.24823353694043323592
                 -0.43251332959452171156
                  0.24534720446102922797
                 -0.32509504704336589231
                  0.08369635635223518499
                 -0.63967812517222744084
                 -0.01934075662648034738
                 -0.11916591857683017652
                 -0.11666434073641837599
                  0.06218769889595664874
                  0.09656611147853381982
                 -0.10057637436253040464
                 -0.29241056725738723276
                 -0.59762442906592017078
                  0.46629952804928431753
                  0.14761165838468595646
                  0.14900559913941480161
                 -0.64611986241544705489
                 -0.20350999146259435291
                 -0.09582867169582831579
                 -0.21459652436077261695
                 -0.07847668632668854116
                  0.14160486698437027564
                 -0.06837318875759183789
                  0.06228300916477369498
                  0.32441318974751592874
                  0.45247341126010004464
                  0.19704344605734203100
                  0.24875858811752904476
                  0.20484968120489066568
                  0.32455794935141313307
                  0.07184473090589502120
                 -0.36161064379265028812
                 -0.17803126762714208131
                 -0.33510576918944984248
                  0.25463202696397907454
                  0.44786652521339737065
                 -0.26170449902760511973
                 -0.14734220819927995594
                 -0.00453564060641057851
                  0.25461283013796309760
                 -0.36099114813352900510
                 -0.16138391000985052859
                  0.43593884934767002104
                  0.41030007031747534052
                  0.00560740422301563100
                  0.26253749733291742441
                 -0.10736045256345203014
                 -0.14381943679062877961
                 -0.18358500882413536504
                 -0.32420466425949379108
                 -0.18576509638273402958
                  0.26430052394917241676
                  0.01378732685073909281
                  0.30599579280107058743
                 -0.10923003113012887122
                 -0.08344654419070995921
                  0.18039734334020113282
                 -0.24827921097282154572
                 -0.03080979881624545252
                  0.29624302347216541209
                  0.02821787579586904418
                  0.37740246159580925767
                 -0.10977068757146953015
                 -0.10834165347310981131
                  0.10623103359204773277
                  0.32551826384795684577
                  0.18825499807044226985
                 -0.17383269889488245363
                 -0.10729362787921950528
                 -0.12462493212987209301
                 -0.30156765197253665445
                 -0.08023570150043903004
                  0.17615255360030082632
                  0.14524376314189874071
                 -0.22084554777943793402
                  0.36984359356178303502
                  0.32575103231637397849
                 -0.02308063129090727125
                 -0.21156303983853083639
                 -0.12343934564907554918
                 -0.03205548978726375370
                  0.09231387907875493459
                 -0.30930819557089211935
                  0.20806346154395630177
                 -0.00360034250627336988
                  0.27657363001429247085
                  0.18305701506658608735
                 -0.04177025388332205463
                 -0.28752655491390294307
                  0.00568698855548122658
                  0.45779760978392469717
                  0.23468132075768130540
                  0.05907839156575218215
                  0.08538412594735210470
                 -0.32041134846962721072
                  0.23770923824811124314
                  0.20500728376603047365
                 -0.19566113793916120600
                  0.28897127793292537445
                  0.03309654586450531955
                  0.06533422790788294410
                  0.36943767198542432073
                 -0.07085086550919592052
                  0.14911314856516444394
                 -0.05906779097475139961
                 -0.36677782601020525455
                 -0.06021005974362915458
                  0.20061637259584488846
                  0.05431440832714563155
                 -0.06435335607636323563
                 -0.11994128721162160278
                 -0.10372489905854566372
                  0.21752324822069146748
                  0.15820930844330799436
                  0.22490220655757767187
                 -0.04781988316863671623
                 -0.17454459323684828886
                 -0.03978095692622096724
                 -0.29431321060510229337
                 -0.12123756777769000015
                  0.30964094546603770919
                 -0.03008618825875771993
                  0.17461922070631985537
                  0.28367616793354100135
                 -0.11372498966319183333
                  0.09788541695882341243
                 -0.01063057187305420891
                  0.08942896528712447612
                 -0.03592639610637039793
                 -0.00260986943430793240
                  0.33552506183829211572
                 -0.13812222795759943050
                 -0.35013914572763377153
                 -0.19447692978510081052
                 -0.17740682558978093653
                 -0.02844506925578463991
                  0.08401940034764712739
                  0.02008085145473745281
                  0.00642065447318097664
                  0.09551921592025044982
                 -0.65308224019481364575
                  0.23056810947941072665
                  0.07694046654309745492
                  0.13545983683231416217
                  0.16887984215217896611
                  0.17881664005126268746
                  0.08317594943492614967
                 -0.04720156866262402440
                  0.34049349027247238775
                 -0.36827667124915991481
                 -0.11125310229962125097
                 -0.18502805127618962566
                 -0.19204453822546141417
                  0.11503902361345649807
                  0.06913149660937190077
                  0.19806026206660440336
                  0.10631532768805566913
                  0.23150956594682756129
                 -0.27874755818417629172
                 -0.02470205184047254490
                  0.24544199928661308840
                 -0.16920939709458987510
                 -0.31405585612349201652
                 -0.14394204600828786056
                 -0.12091148823556610581
                  0.23730566420738274935
                  0.05175854828945927744
                  0.25176648500280252030
                 -0.39717143041616953525
                 -0.36989490178191675174
                  0.06397670373841733704
                  0.02686047495497625309
                  0.05374331675857477869
                  0.00049037201323126134
                  0.04888285977913405661
                  0.05502855883689289351
                 -0.03931547312918953763
                  0.21884601048932156298
                  0.21516185015676678183
                  0.00599793392650498081
                 -0.26166339209133421262
                  0.17549049801108668190
                 -0.22142543312513932041
                 -0.53724395192339446936
                  0.31144902815870834090
                 -0.03600379539417120772
                  0.28615392809350770342
                 -0.05382640809595242576
                  0.16559490278652438944
                 -0.06475186313718357678
                  0.09954829922502364536
                  0.08663834290194259713
                 -0.19450221405826553789
                  0.05836104721003632090
                 -0.18778791952243312213
                  0.12684663622084985102
                  0.03569477688746273969
                  0.24665466253685691678
                  0.18379043173314960069
                  0.10359202640522825745
                 -0.21600815995411762338
                  0.17974843784168154093
                 -0.23867609990855009894
                  0.20958863563549720577
                 -0.23430784058035603046
                 -0.11856637215295155741
                 -0.12367339302644923815
                 -0.18825558628184790866
                 -0.47001922393809858480
                  0.05204854931042135480
                  0.21072034930005098530
                 -0.45075645115920270900
                 -0.27759641296779280495
                  0.22228313461871559986
                  0.13835553857886692675
                 -0.16482753664125271431
                  0.14445485775938349260
                 -0.05101780071949489626
                  0.34355084492532134144
                  0.00097079196182859803
                 -0.00461348481897341355
                  0.49687985749637697541
                  0.37457257418865702592
                 -0.26789490639432578245
                  0.24679724358930846262
                  0.02003136674629081571
                  0.00488230815720687612
                  0.44178690172792650648
                 -0.14527868106901833944
                  0.40803493526865602936
                 -0.18591510879841513515
                 -0.25653552486106961927
                  0.24179131066783865478
                 -0.01396703591720781408
                  0.15245936048446787070
                 -0.11671631969110209115
                 -0.19769537285854352215
                  0.10542045375965601595
                 -0.21065976832112498496
                 -0.16652484429932401522
                  0.01572859454267675622
                  0.07580094857428482102
                  0.31194998885560321078
                 -0.71523653477685678048
                  0.22324774051906962069
                  0.00184111662945480106
                 -0.04034465622592271761
                 -0.07881363633940928481
                  0.34971926861324492686
                 -0.20496530194644727030
                 -0.23042660800621758699
                 -0.13312596467093756880
                 -0.61898429892286055409
                  0.05567308608837984868
                  0.08313580483731783377
                  0.07706106632288950431
                 -0.08771226614163593616
                  0.22034251492567341613
                 -0.22031151460978287693
                  0.09733504101227298533
                 -0.30651229645788263811
                  0.02447056962019518792
                 -0.22780859004360515252
                  0.24575120667127073326
                  0.18085636214783429310
                  0.13532110382415341032
                  0.26859062922521759198
                  0.05522330787315697653
                  0.05001119370217527171
                 -0.38023787869955577579
                 -0.18878376417151426780
                 -0.09922721473141540849
                  0.00292902992936822613
                  0.24756791732798047456
                  0.36925817041878533642
                  0.08303957180548841854
                  0.19959365842800208535
                  0.27358668874422059636
                  0.08547820967904760925
                 -0.05613819030974827318
                  0.13979998333136539612
                 -0.53194757730879926871
                  0.52168200451728219402
                  0.15328484269022132902
                  0.01371691346967100246
                  0.12218350850801736052
                 -0.14878271124263189873
                 -0.27416380551423813472
                  0.20065297734517406614
                  0.11791214157942388197
                 -0.23223413600112455257
                  0.15174684915227237836
                  0.21651926550026173723
                 -0.23154618197080958919
                 -0.08310213522622106330
                  0.01941654335042684518
                  0.05596472587279811839
                  0.37864111208494771743
                  0.25265300296593196094
                 -0.30018693395156514914
                 -0.07139910436205949840
                 -0.23408954636085566037
                 -0.06041126786786749775
                  0.08260206345438232678
                 -0.27113774466355916593
                 -0.28457903524251920713
                  0.00289577086186142141
                 -0.24940706725518940745
                 -0.27216346778901767678
                  0.04612078693533582657
                  0.29621727377272277781
                 -0.36770354691865647645
                 -0.10059240025551371978
                 -0.00717507958603524204
                  0.21583251009366452577
                 -0.17961167587396631440
                 -0.01800132249669784273
                  0.23086776270634734587
                  0.09188539518886118529
                  0.16990328670579982195
                 -0.24292061260906372411
                 -0.08554234587735862205
                  0.45953009223311702680
                 -0.46523740374616623372
                  0.31939502740747960363
                 -0.45058847998351453379
                  0.12442928286377187563
                 -0.00937395117183330122
                 -0.41233492539100113916
                 -0.25737344591436439600
                  0.26563892794460114422
                  0.27472274188494566483
                  0.21036661910403200992
                 -0.23878366459460889648
                  0.19398209223428969361
                  0.34980679604703512897
                 -0.13530866140732128455
                  0.19153394007335597382
                 -0.45845853660182833700
                  0.25023199204934881701
                 -0.26114361569381572270
                 -0.19083527193404789535
                  0.13304052687041220682
                 -0.10924976974063782542
                  0.14422970250833425099
                 -0.04410294266564609295
                  0.35953813779589777200
                 -0.13771671406641805557
                 -0.41990995031011568717
                  0.21593730884055026276
                 -0.05327859749274906770
                 -0.36079284507125891635
                  0.30899487917763707179
                 -0.06171423091389183907
                  0.18854578909395119934
                 -0.11318911996006542076
                  0.01933460153945494933
                  0.32766177502157717294
                  0.12636978217153316262
                  0.10203941736486435432
                 -0.23156166988643833715
                  0.34687537553229869092
                 -0.35200596322726629417
                 -0.20341985701743819925
                  0.27382590663111150420
                 -0.19830775688732116269
                  0.22426253780960778150
                 -0.01083619787778570924
                 -0.04588888017450040713
                  0.15959712225534117280
                 -0.15796850708520679407
                  0.55611062594950677607
                 -0.06194327384961137439
                  0.30124919664834498567
                  0.10460480664843493925
                  0.42723935805531709775
                 -0.23253047572535529008
                 -0.08074274956922708468
                 -0.28854608704054007795
                 -0.46707350354964677352
                  0.38806800370876570749
                 -0.20670640604108975191
                 -0.11456172295553619656
                 -0.17483350062434574457
                 -0.14339562945856096365
                 -0.07292748958970200757
                  0.13418377149021959438
                  0.04633880613034910279
                  0.19547794926382597303
                  0.20881410757220134067
                 -0.00354431251033011149
                  0.39166317657649141193
                 -0.41281614934152510710
                  0.13895963785812273650
                  0.32684687716425081527
                  0.14804701486701557500
                  0.00103467804733398225
                 -0.21619859454063150572
                  0.03343264555634135188
                 -0.07518153166281375810
                  0.21950216568537711526
                  0.11694086837620998320
                 -0.19533382649007238752
                  0.04852182215300936824
                  0.43560368808849231348
                 -0.07354987223870200486
                  0.04228312843796182274
                 -0.39625650669706935503
                 -0.51846511714957599359
                  0.38869404536425633534
                  0.05318491273415289905
                 -0.20370185094258941305
                  0.20274844736041178206
                  0.19742954092821390910
                 -0.35901391456781017730
                 -0.04463389167581136713
                  0.05676932079511605445
                 -0.40708397567387477611
                 -0.09272502812040492315
                 -0.04124398052698516337
                 -0.46731516810093248759
                  0.27839718833575077817
                 -0.44599301216588677077
                 -0.10733997390070178224
                  0.15161531712099576841
                  0.28215735352787302270
                  0.28521214605965250488
                 -0.03020925874148356824
                 -0.14212115648813067326
                  0.19399270163261569944
                  0.03135350610536993821
                 -0.19927543868515884551
                 -0.16436294138909027240
                 -0.27737054521209580926
                  0.10061608198171465012
                  0.20566226298517778504
                 -0.21775716814858120385
                 -0.21923700275443752661
                  0.15184147405021000687
                 -0.69863319727301642637
                 -0.20298521499480587371
                  0.10726196629711419461
                 -0.14865860789822799015
                 -0.32295508487159663158
                 -0.08057367721550809381
                 -0.17357241890978228338
                  0.05306532106793365039
                  0.28761107073591424266
                 -0.15859714612452688320
                 -0.46740450334451533188
                 -0.31916865483358464184
                  0.20324043827959753505
                  0.03699002149695976988
                  0.37636006915187558697
                  0.15394516999468421670
                  0.18558695891170909342
                  0.07377754600987203315
                  0.15219039142864104752
                  0.25677942741761478063
                  0.13364413345951478562
                  0.18621282009759540510
                 -0.21233103389997573518
                  0.30285502420178411764
                 -0.24300833586454054225
                  0.21241075570007111883
                  0.11074273139710312519
                  0.32974228271164202075
                 -0.15924090586838515748
                  0.12014732443775776038
                 -0.26532081926953349216
                 -0.21002923852479910005
                  0.06208670160778321373
                 -0.24323820755248568015
                  0.30387709768070064742
                 -0.31567315253162764321
                 -0.28599669322330489862
                  0.17794455268035686002
                 -0.16210236358971963355
                  0.14764524352668817464
                  0.05901986046630833260
                  0.25162398764375498716
                 -0.26471535598057094330
                  0.00006404985065280720
                  0.15687905101566407273
                  0.38698867385597773838
                 -0.03941916735702725993
                  0.45942777738653328701
                  0.46155745253697050279
                 -0.21317294021665428305
                 -0.20904505993245925399
                 -0.09891825442205796903
                  0.00180238099872239940
                 -0.14738176956282114660
                  0.10636664902464258720
                 -0.05268841371134603407
                 -0.03811607263578691007
                  0.15668865764937339735
                 -0.16570943514927105600
                  0.07784951455653174590
                  0.30503657737067735312
                 -0.47293633461185602407
                  0.07646684169940778930
                 -0.22907471237928567209
                 -0.09176839458350036227
                 -0.12224657589970629179
                  0.15840640354184917782
                  0.05753528805687082442
                  0.49596703526065055723
                  0.32722423297344249704
                 -0.39062760897635173674
                 -0.03907870570890768780
                  0.11421874346884801354
                 -0.29991058343299586975
                  0.25169685653798151703
                 -0.04523389620849030401
                  0.05450333350670028693
                 -0.36347924635430522988
                 -0.03018202707269861118
                  0.10961273952163912149
                 -0.28588738167669858203
                  0.04019005158664019917
                  0.12905494250546692414
                  0.14379719515687536258
                  0.44559281812838164027
                  0.12706664282041010838
                 -0.31252245323322325188
                 -0.47089241225616368380
                 -0.02454587864001797279
                 -0.14631227412726957593
                  0.28575420253739336474
                 -0.27769252611848027623
                  0.06047046581095745499
                 -0.04119780845080137088
                  0.24412077996820005787
                 -0.00816807587915172745
                 -0.15392890165693912108
                 -0.11410381571725231042
                 -0.28340002195924879347
                 -0.15234178783569723992
                  0.21199778241519870448
                 -0.31341453760396081885
                  0.07676549649707753442
                  0.79789152954308695254
                  0.02504333096596119204
                  0.23348225060025856736
                 -0.31145680430697519903
                  0.13434350838858391541
                  0.35014187312094802174
                 -0.19008022751368658376
                 -0.07706330709646137811
                 -0.12110053387355795840
                  0.26593050055979838842
                  0.01331277636712902522
                  0.18521039589395282832
                  0.36727775172822518801
                 -0.04936865205902486037
                 -0.22816069889781762092
                 -0.00335271546749133561
                  0.13203900898867759750
                  0.26011320073959259824
                 -0.31048196923646076417
                  0.26716722762761480059
                  0.04334033287989452754
                 -0.25339113934922785631
                  0.12493030947715620671
                 -0.04893386270319343562
                  0.31059066904116194863
                 -0.22691628709588798629
                  0.04697524454715873432
                 -0.05540628527137356207
                  0.26435420572282158913
                  0.56096963577198499795
                 -0.20835207099613950454
                  0.18715483116551312470
                  0.00679896195817250495
                 -0.07176034492280891630
                 -0.26768484727225666520
                 -0.15272227722398715177
                  0.18804522344550902990
                 -0.17518642172089310405
                  0.14853238390627951371
                 -0.61478704287089835923
                 -0.08559913882524394779
                  0.07623857147421067570
                 -0.30879193353814021750
                 -0.36300929398329068176
                  0.19259424731133548137
                  0.54052435453077440908
                  0.33322094147980263479
                  0.04461697175625257972
                  0.07596458302533372342
                  0.13689431194009582526
                 -0.11264385345568814212
                  0.08974137875867127523
                 -0.21146191900376457018
                 -0.19667555119911797612
                 -0.01103427419435312057
                  0.12877813705277185719
                  0.08901600540435668230
                  0.13699606918409626410
                  0.07613723343691336520
                  0.39117353376979246971
                 -0.23266341383818939237
                  0.15160610591925502422
                  0.34947520707260004702
                 -0.34933303863090420238
                  0.04551286781085652627
                 -0.34779259273274842901
                 -0.30789173488112031585
                 -0.17387434874910687177
                 -0.31410883535092520846
                  0.02503841241008122540
                 -0.27912000638705536382
                 -0.21680453664058907393
                 -0.05295816969212667480
                  0.45577206129479852503
                  0.05253675649732689190
                  0.26427317334776340152
                 -0.33920185607682767914
                  0.12991989080452290284
                 -0.37886158430684313547
                 -0.08029256263679276917
                  0.04428692745022742849
                 -0.02765504289186697384
                  0.13710377130016718206
                 -0.14569370562807537617
                  0.12850143565469007711
                 -0.27469367719396775573
                  0.07621776520024337032
                  0.07330245382987521374
                  0.62848954791360178707
                  0.27023213238488336119
                  0.07548590421548119489
                  0.01183381774021906134
                  0.23680570178607246445
                 -0.10027153596719365347
                  0.19023622843224408108
                 -0.31110481493128744335
                  0.23128828333282261398
                  0.09109884142354583714
                  0.19084253202129947136
                 -0.16116148991997619744
                  0.09216290270310203980
                 -0.20106803236916706568
                 -0.23117425074402525587
                  0.03279635488711307723
                 -0.10028332684505150696
                  0.15435495890548048270
                  0.00288938020645230619
                  0.22009268948132909571
                  0.02406469727854638682
                  0.13180029069020729460
                  0.06697460812809627462
                  0.41384021104762330756
                  0.05974022755682311531
                 -0.18000580949183797586
                 -0.36541485995623040894
                 -0.29411641867747256862
                 -0.02272258262733751338
                 -0.18063347819984990061
                  0.23504477852744365407
                  0.12072953156156400467
                 -0.35027968745740239997
                  0.03642923957761093345
                 -0.22530011362585974921
                  0.11639579872068983590
                  0.11691674684652940408
                  0.02462205704816922136
                  0.24873927929988107199
                 -0.25600205682073079450
                 -0.06053072012080960851
                 -0.31005080577045673884
                 -0.32505509016474587458
                 -0.17868359172141903835
                  0.21111281478818849644
                  0.17970911280635284979
                  0.39672203680859524644
                  0.26802540274668718023
                 -0.09617115646562546249
                 -0.39072875127202999490
                  0.40422857686608887340
                  0.23180216367319028681
                 -0.64419626635443105744
                 -0.06025632975291467935
                 -0.10936861330744451770
                  0.04810937919798698170
                 -0.58555994351288620514
                  0.46841480564644916162
                 -0.31712350114477899643
                 -0.19227657103489864676
                  0.45456507043035826454
                 -0.15584717769834738332
                 -0.11163371661955300007
                  0.52387370861950133261
                  0.72426467357052437546
                  0.87903409506311058763
                 -0.38309384497679416226
                 -0.85726275134779805764
                 -0.51577224075226357769
                  0.44288175298787851863
                  0.73546314319576955310
                 -0.46599031740642382626
                  0.60303526033397081285
                 -0.24786975106121053591
                 -0.71544536260859581400
                 -0.26664911780851469070
                 -0.19329457490563267674
                 -0.08871089251708921819
                  0.30860803057006030992
                 -0.16888258183895032971
                 -0.42466466455114393330
                 -0.36142425881642969987
                  0.96525985796856339505
                 -0.07967399062284147293
                  0.56005166448106502575
                  0.48063730254674952302
                  0.86754488982114841278
                 -0.13523934425488609579
                 -0.65219475777117341675
                 -0.27935593972793487660
                  0.35962022549831368368
                 -0.60633214401330148835
                  0.44966297891314727098
                 -0.21256552585208912665
                 -0.29978447209943648311
                 -0.63901767808951370764
                  0.24548538608438627562
                 -0.11985022797141751949
                  0.48582000553074550231
                 -0.46605681989754205174
                 -0.72632660917529490163
                  0.18092944736581134668
                 -0.65978691108952236544
                 -0.04194350509641212033
                  0.31451657531239668453
                  0.27021330973209017889
                  0.24077069332056105777
                  0.24808142414862716096
                  1.13521456019247812819
                  0.44440352400499133489
                  0.59509621099987042303
                  0.32404983616308202787
                 -0.24194780545771812919
                  0.04230127486553032085
                  0.13682552079348189733
                  0.54031804870882160774
                 -0.15104263324515757039
                 -0.60785194896306493639
                  0.94504993533111192328
                  0.20087303384742768997
                 -0.68466627359609255610
                  0.59905320707236497935
                 -0.32578782221657964779
                 -0.31706377638153820930
                  0.70017990768528481915
                  0.53169829657959832847
                  0.42789755688901359720
                 -0.56390868739443222868
                 -0.60391403657076370148
                 -0.00144573202239177585
                 -0.31574049302986356702
                  0.63774818337504246557
                  0.06750181337824093242
                 -0.51728784254431314782
                 -0.61327461311850495207
                 -0.21669900482666604180
                  0.51692023721606084052
                  0.01493888150872831576
                  0.48852975512922613976
                 -0.06588416801790285271
                 -0.11967631536297189399
                  0.68153678284849528168
                  0.43031862187541447540
                  0.02275566496219814244
                 -0.16292318427839402872
                  0.62160960854932667541
                  0.21911710691158259312
                 -0.25517677390256948700
                  0.64425069727172512568
                  0.52559726137962148318
                  0.28949034532377188045
                 -0.60464318622689783300
                  0.45823827520865900720
                 -0.30058268096833784533
                 -0.47362011335847492566
                  0.20371793570111607075
                  0.91658750410896028260
                 -0.38740453981904715564
                  0.34844914282439903852
                 -0.28636580580489690018
                  0.14501339992489839514
                 -0.45270326778523967137
                  0.47917392800808333853
                  0.00780056965989195904
                  0.53940404688113097187
                 -0.34262367218523115397
                 -0.64633172924493154099
                  0.39326679235298744874
                 -0.56044740285843497318
                  0.16670171901062449948
                 -0.24174126778908316959
                  0.78218032504584322773
                 -0.06104247427751611360
                  0.55417969146584700191
                  0.44131718461167041001
                 -0.52019591655094177263
                 -0.60514746335828606405
                 -0.12406669966037950359
                  0.37275192739124707320
                 -0.03727681144735047608
                  0.42915691708471764843
                  0.48853075819974078886
                 -0.62568443755042668641
                 -0.46083734545039128916
                  0.28975519308817893060
                 -0.25994927898102093700
                  0.18378623649309303034
                 -0.10252215563891207972
                 -0.47051036258562423109
                 -0.18079501697216074363
                 -0.41657422986644149221
                  0.61932176711844388883
                 -0.50946098583121057768
                 -0.48863801625308439514
                 -0.71596314948135797440
                  0.16403869961056102844
                 -0.51833237101501872246
                 -0.77352871341864659627
                  0.58460596931691677369
                 -0.71391106627350886527
                 -0.72476022371679338363
                 -0.04313052201802965863
                 -0.52040479611129786264
                  0.49140553920278351452
                  0.33010040759349801309
                 -0.09744247564208244339
                  0.50219383198431699622
                 -0.50917734338582087972
                 -0.53302451180772547623
                 -0.18690278934934786981
                 -0.44006039645589728471
                 -0.44363246652151144822
                 -0.14003789677648981193
                 -1.01410048757614501547
                 -0.61096739521097076508
                 -0.54091271602842661004
                 -0.31018983416947137899
                 -0.24628353845356840135
                 -0.13494147019959742972
                  0.67138630511349228769
                  0.79723356930186739522
                 -0.45120851693323305032
                  0.96543273105446136828
                  0.34367925046533592814
                  0.52857480145348412215
                  0.91789845105301381967
                  0.98154033131659423894
                  0.34686513671924279478
                  0.27699075757436342204
                 -0.50196785377451491605
                 -0.37192663745058945901
                 -0.48751635759551947835
                 -0.48429220420272123260
                 -0.29075784328735126971
                 -0.92785077961814110825
                 -0.26096116535181224094
                 -0.01107690746459354461
                 -0.23562640773621848500
                  0.23539637792408649175
                 -0.03638793692553852349
                 -0.41094665337630442714
                 -0.15991568190534743987
                  0.65293491553277538397
                 -0.32589483105784228245
                  0.91619660677401570936
                 -0.33631586716192196640
                 -0.55147353474266080919
                  0.43535902222557393282
                  0.70524460730958038468
                  0.36297854850105959468
                  0.31255922907891964257
                 -0.18702739334497436863
                  0.26421836319057079301
                 -0.30984583716132219067
                 -0.11634099101650331731
                 -0.87851211278848251318
                  0.34319570637697000004
                  0.54034039489988927585
                  0.05501695391976486188
                  0.38621086268206777925
                 -0.20578893201050749151
                  0.61944307461524328318
                 -0.66666263175610751546
                  0.52265652793124495190
                  0.10953087272447312173
                  0.18006034360475625666
                 -0.04766445498394307478
                 -0.80310120850146138327
                  0.17608204230550408842
                  0.03581025677995169215
                  0.31999590537652039535
                  0.62430691383544056894
                  0.37510304698002211454
                  0.09212912722880207961
                  0.36371411998300284818
                  0.45701746176828283996
                  0.58137082666787076590
                 -0.48251532110029893285
                 -1.02000048822518651903
                  1.43923954665848108370
                  1.09753116129864491946
                 -0.86032383327759920366
                  0.77139963091901109227
                 -0.60417876106822521187
                 -0.99669181543912732657
                 -0.79255045266854207142
                  0.63645840344781190456
                  1.22553311491780547726
                  1.05264652579742601368
                  0.02279159688254154409
                  0.17974282871144314777
