49	2	1
15	15	
1	1006
  0.0541881623882446	  0.1350382824641063	  0.1031445882651125	  0.0927346680398666	  0.0117280532552035	  0.0090713076749631	  0.0408470470171072	  0.0526260938033361	  0.0386771863143586	  0.0526277675808892	  0.0128726918757860	  0.0349225647065768	  0.0828150393329164	  0.0058852994691477	  0.0215461304773807	  0.0773583177874313	  0.0439354400157636	  0.0007897724335645	  0.0045851585634036	  0.0079565401676183	  0.0045853042868650	  0.0070930858814314	  0.0205754373056020	  0.0029067970645120	  0.0022483227138577	  0.0102142303224282	  0.0139601798201338	  0.0186773398381833	  0.0139724675544693	  0.0010210765254475	  0.0017686151791450	  0.0024439626812095	  0.0044361902037443	  0.0082370923970868	  0.0082371203982217	  0.0159264523651613	  0.0205748337084173	  0.0437851268776705	  0.0205761424775803	  0.0013025091181282	  0.0047254956612206	  0.0373787366494818	  0.0034168931598526	  0.0097447243369872	  0.0364003753869738	  0.0006385113086149	  0.0042037414877297	  0.0437890155073410	  0.0164091526951952	  0.0649165442743262
  0.0543042909167231	  0.1352417751153107	  0.7499796791010043	  0.2368878917907797	  0.0117280784653980	  0.0090713150881153	  0.0409318231451866	  0.0527041079294688	  0.1432748275567700	  0.0527057817058099	  0.0128922371537048	  0.0349672640846003	  0.1809736878476134	  0.0058853129549829	  0.0215461570603354	  0.2865586700392850	  0.0647155919335444	  0.0007897724344829	  0.0045851682283781	  0.0079720003256998	  0.0045853139518394	  0.0070930915654753	  0.0206053460209570	  0.0029068026022059	  0.0022483243422374	  0.0102284987628012	  0.0139773164729541	  0.0351689983123529	  0.0139896042070235	  0.0010210765285707	  0.0017686151824383	  0.0024439626827181	  0.0044362000486713	  0.0082371025883442	  0.0082371305894789	  0.0159574203032138	  0.0206047424242369	  0.1114425516519257	  0.0206060511924706	  0.0013025113878926	  0.0047255015004563	  0.0703823295716962	  0.0034201827726112	  0.0097545430423993	  0.0505503401207404	  0.0006385113101810	  0.0042037414916306	  0.1114497195848142	  0.0194046785841770	 -0.0045776354522802
                  0.14650385220125741736
                 -0.04913418738704856265
                 -0.24282824923068863088
                 -0.03845871356306261590
                 -0.30658723295298712097
                  0.45140071027769274048
                 -0.25799325478120288535
                  0.19920289961190329464
                  0.06070463262080490197
                 -0.04729603792152994868
                 -0.01548326490035144623
                 -0.07000324915634988099
                 -0.01452771647548292515
                  0.04062989546131891977
                 -0.02382419785687935748
                 -0.27892549977025388186
                 -0.12200497084388822744
                  0.20346373684558810568
                  0.22114748317195820349
                 -0.25180580379186123796
                 -0.20159976032474080654
                 -0.41092012488800311321
                 -0.18984755595708180387
                  0.47920689226830476271
                  0.02077816252388573273
                  0.25198586015043322739
                 -0.15625431904840911268
                  0.43067291566682752713
                 -0.19686994898767426476
                 -0.33000741585303616787
                  0.11396886638867734232
                  0.30383213692519500659
                 -0.09014041299597516654
                  0.20665073349083465382
                 -0.11536474950602967904
                  0.25722568059352174386
                  0.11654630142386074310
                 -0.22808303919963043849
                  0.28518279323989031981
                  0.05023387421156928073
                  0.12351931772562679823
                  0.14766986448128011089
                 -0.02208295687948106170
                 -0.33699484686353220475
                  0.01034368862181717086
                 -0.10708641358612284999
                 -0.00816306066341798177
                  0.00292311877391108858
                  0.25323302554769222539
                 -0.43528997577706413091
                 -0.90426030169994808805
                  0.04021925698156483125
                  0.12012834908516258070
                 -0.40248573432587564369
                 -0.12277643395729637144
                 -0.12547705425481983643
                 -0.01013364745696888197
                 -0.42640708470914207018
                 -0.03810494044917082934
                 -0.27105377771567573664
                 -0.56897515493385142360
                 -0.01105914337401008203
                 -0.03676675636770216499
                 -0.19119975030203256727
                  0.03316492366914237933
                  0.09220156988480249227
                 -0.32020451225667273532
                 -0.12334650939376808065
                  0.13208921729152781066
                 -0.40566812823887837824
                 -0.36922147116288622781
                  0.08272426108513505905
                  0.31793012810092086129
                 -0.15121761018226767548
                  0.10882225010189738867
                  0.34513725681934748213
                  0.48368040683826335480
                  0.45036217814627388378
                 -0.21635906646832969713
                 -0.09459999133015983830
                  0.79787846371895509989
                 -0.10433387588692254189
                 -0.52025712911573740449
                  0.22657036711046607547
                 -0.04903355092949909094
                  0.16155426816209880747
                 -0.58105803725721882902
                  0.45944497874737194598
                  0.08018784647414178846
                  0.34001513044532366559
                  0.40938086299691911485
                 -0.02272356865681488675
                 -0.07922655486236057643
                 -0.20807569849554000130
                  0.65608931664980696397
                  0.01177424527306977775
                  0.23846789844988627860
                 -0.49871071167297814641
                 -0.18995005150764990298
                 -0.11091602826938896931
                 -0.42353914318825758301
                  0.56484885841901855130
                 -0.05731244899337626514
                  0.24505225407270633808
                 -0.09596270208322567330
                  0.21100212558809755548
                 -0.22555612523440390915
                 -0.05659239592005557706
                  0.39684234141081442537
                 -0.06191097427414309073
                  0.31095868661974107594
                 -0.02746534904040703884
                  0.33680522829528258821
                  0.17617261956962168568
                 -0.57011386440120670471
                  0.12020235720382591027
                  0.10052325352374685830
                  0.42620041178995010656
                 -0.75852762533368556230
                  0.13604069773389185216
                  0.29274369022267626717
                  0.04966514335798655200
                 -0.34398428758184451670
                 -0.22745305753579697639
                 -0.07339327509390161652
                 -0.17141865172090406388
                 -0.08126147302723435439
                 -0.26667458863073145725
                 -0.26150655009681234020
                  0.30050021236983248674
                  0.20005005907859935155
                 -0.77722879197772520854
                  1.04717716457136633679
                  0.05993000948206965439
                 -0.01135795110784874710
                 -0.07297987747924374047
                 -0.11360518004861834551
                  0.29265190179425243366
                  0.42970485990093304496
                  0.13532553873234751118
                  0.04911121202995016866
                 -0.20589294913694450306
                  0.09946370940148156758
                  0.27726251473133595171
                 -0.07745017852616453702
                  0.03000118346749133455
                 -0.10195415005527873331
                 -0.22974771914465003109
                 -0.26888796546396120934
                 -0.12888741731759675857
                  0.14810479162525644337
                 -0.12275821342965763383
                  0.18057684086503689169
                  0.22243588527075844330
                 -0.30646024484404899013
                  0.60227284475839126809
                 -0.07049112776115919188
                  0.12021429469551418723
                 -0.14186576438157894042
                  0.10574970063774545570
                 -0.16985120810981277351
                 -0.17174653461976796542
                 -0.03965214862288959918
                 -0.62934835287690971128
                  0.05453800334604952393
                 -0.51367464634957282765
                  0.04409856394173166522
                  0.34766668981674531125
                  0.16400114971283066834
                 -0.12420642230620063118
                  0.62737814720350748576
                 -0.36876536731001924307
                  0.28911734133041105954
                 -0.22329443821336983356
                  0.43338300275102303871
                 -0.44896510624649615950
                 -0.08705314618303917895
                 -0.03856549904361945141
                 -0.09500966458390784630
                  0.20328382250677096144
                  0.71161629215868904552
                 -0.24865014438487575976
                 -0.18575898531926571255
                  0.32636258713936350251
                  0.05780791630780866830
                 -0.02243330037174715713
                 -0.27422201520124206420
                  0.21615720975393934444
                 -0.10905039867914631535
                 -0.11443079404593614612
                 -0.06811852218780556356
                 -0.14617596967454740686
                  0.00880138117227035124
                  0.21830685975832767043
                 -0.21826493135892463537
                  0.38489488398214000142
                 -0.02391842292699105851
                 -0.31760750602649606700
                  0.74217989037660447860
                 -0.28185439309452353651
                 -0.38133336957809976786
                 -0.06320696245452041284
                  0.29451503341718043849
                  0.39436470978564103218
                  0.26362737973390459878
                  0.20124653663870842313
                 -0.05439382162936509668
                  0.19239084820291060818
                 -0.27908175808250296202
                 -0.22014721565298409067
                  0.03204447292809131653
                 -0.17299177151940922648
                  0.20770817159676724373
                 -0.02035254607269296537
                  0.12984456850329803568
                  0.27592384132271985386
                 -0.30279349427032981046
                 -0.16445830236241162914
                  0.46659373353544125740
                 -0.35501940450820718143
                 -0.40113114393092003107
                 -0.24349699219314813181
                  0.52216842156087095450
                 -0.01440596106446437145
                  0.08901616832403741464
                  0.36965338055258772920
                 -0.09241117428209193185
                  0.19324439626117251301
                 -0.25634363549842353880
                 -0.35339943360179926213
                  0.30058972505194953007
                  0.35843877347497332675
                  0.04454199965863151617
                 -0.24068539572791711190
                 -0.05388835795306235604
                 -0.06827257839189154742
                  0.02916535300056601748
                  0.13811733379383345222
                  0.22366862102654391786
                 -0.12803684103241635972
                  0.02204606608289164799
                  0.22422940355189663331
                  0.02179858784231488572
                 -0.66679468488301218976
                  0.25840786977781471379
                 -0.73277936267840038109
                  0.26769056023664572486
                  0.01287811686797931711
                  0.10216491712098831057
                  0.56838661343833418726
                  0.32858645022685722958
                 -0.17402509580364577957
                  0.26400301677729687277
                 -0.15929767650231582699
                  0.42986529703015730064
                 -0.36395366341752272143
                 -0.02835085801951259254
                 -0.36210628781524800690
                  0.11977661860813204608
                 -0.47295625179787403880
                 -0.18697279810102510056
                  0.14951737695757352786
                 -0.10339634990466620157
                 -0.38260970993516374428
                 -0.13547681560119489985
                  0.39249324118644818293
                  0.24767117146922587589
                  0.49623495570281161982
                  0.42189966021339175839
                 -0.29608311134290155042
                  0.05234222440206656723
                 -0.37167037939694358428
                  0.36626822740424624936
                  0.10662723024962302010
                 -0.60564577340918734905
                  0.59140004125758072195
                 -0.08095958235256145441
                  0.18282608542220643577
                 -0.70913994225686372008
                 -1.01466689872509885362
                 -0.25865521137122043926
                  0.18703899859504224956
                  0.00834645251536062470
                  0.12263841993778146211
                  0.18650504275587051484
                  0.29563780520624310943
                  0.07149360666096848949
                  0.05050251302248989077
                 -0.15966680175045089296
                 -0.21303672679401819412
                  0.08346557458926169570
                  0.18067941459310229990
                  0.19135604756520080416
                 -0.03291741973031338253
                 -0.31050888764327388980
                  0.11040001509869962204
                  0.04279999374709741317
                 -0.15869658813731002400
                 -0.20201511818077808047
                 -0.14841291185403662767
                 -0.14581196923124770115
                 -0.20308637513430924382
                 -0.04124193735885236384
                 -0.25927638948835490806
                 -0.24770472952369654296
                 -0.54032563570826630528
                  0.22707039719931393362
                 -0.01290951001092800060
                 -0.34786893047116890232
                 -0.44900871942334147358
                 -0.40501185164311487297
                 -0.52413292867300054212
                 -0.19177054467528692472
                 -0.15322114497232050545
                 -0.43779472122127777167
                  0.06354435854509933590
                 -0.39152468689782743416
                  0.10577277989485171783
                  0.02475706542011477801
                  0.20183145530444426829
                 -0.03664269911307637545
                  0.30589154968380011246
                  0.36806502247595523913
                 -0.07835869123350146237
                  0.41855627731086303411
                  0.12610363700729104730
                  0.26100338590151428431
                  0.70752161733120322307
                  0.07005881604201426305
                 -0.17384361901778405679
                  0.58140256688175628863
                  0.15542267443652768577
                  0.33787324273679358866
                  0.25679094212955155818
                  0.49765388282383010710
                  0.15558537174428999084
                 -0.19261718927731738549
                 -0.03652957882034540971
                  0.13994677904000452084
                  0.46171770724757144055
                 -0.30258712617399846634
                  0.20727305317828650932
                  0.15645061296794660066
                 -0.20927983751651241251
                 -0.19655964028745526173
                  0.45913272683596406676
                 -0.39719034643271938778
                  0.17839902332461896051
                 -0.34246471638888531519
                 -0.10014238091539731657
                 -0.17556241666456928741
                 -0.04349321327034130769
                  0.18123542864353026083
                  0.06553091416496414912
                  0.19623829789240807009
                 -0.03164254227789951163
                 -0.02179081604082900789
                  0.07165969723354474741
                 -0.10419452018881698863
                  0.18094361064073050116
                 -0.27439025821882701006
                  0.34414518001727417706
                 -0.07211667933776251538
                  0.21740844527852370982
                 -0.05309894159498691063
                 -0.27209351323625680097
                  0.26743002905414603454
                 -0.36303878229122427124
                 -0.31774006686650552167
                 -0.06810753345141261350
                  0.18491125974318398106
                 -0.01179624800086499781
                  0.28397770395000326848
                  0.07949875279904690395
                 -0.03640951498824397670
                 -0.06249930261386880265
                  0.21907296889297042664
                 -0.56944604348391414383
                 -0.36003827987003450550
                 -0.10186542469439334446
                  0.04347899109660752909
                  0.60758883862129375864
                  0.01273263549437842618
                  0.08695276848916516643
                 -0.25973531559870682850
                  0.02492392824510721722
                  0.15961572117126235359
                 -0.00406693424983321263
                 -0.07373844995644808498
                 -0.12640597116719359816
                 -0.06744316472701714082
                  0.16506474234605375551
                 -0.00909336629339641510
                 -0.03365779472569727787
                 -0.19588392976834637094
                 -0.16698234041867263122
                  0.30885790735615470393
                  0.74774132255827696625
                 -0.14233857593470103375
                  0.10745991857092980493
                  0.45814244564776440694
                 -0.25783745384420764246
                  0.02169465214511405449
                  0.28838612986593969989
                 -0.11793392656479942393
                 -0.54154639427812212293
                 -0.13421910805895834184
                 -0.10462589183697051931
                 -0.05002077239602836095
                 -0.32576259693642534154
                  0.18815479558788816838
                 -0.04979966777214926005
                  0.17536610406277075569
                  0.42283849543943541338
                 -0.04400096747871012903
                  0.12449971638294654586
                 -0.27256312719845221526
                  0.04991915836466737089
                 -0.15088614722298088200
                 -0.06107524544240636871
                 -0.43960543334266838356
                 -0.13526633310766575380
                  0.19552592880989116964
                 -0.16692019615003722555
                 -0.14370315272333245016
                 -0.36826683186459180375
                 -0.06239655923987795505
                  0.20293793388617917262
                 -0.25078055809091426287
                 -0.14464461687653376587
                 -0.34314354221370463316
                  0.00661066621342861795
                  0.38920075402768156136
                 -0.14376060020153216823
                 -0.12167663811511934824
                  0.26499815492563055797
                  0.33657026542481133236
                  0.00187536716815559943
                 -0.17649614060729179599
                  0.19227807368860738713
                 -0.07583364065398583154
                 -0.13382771659286746280
                  0.30288406722687377659
                  0.13417104516206607157
                 -0.29291856063252064146
                 -0.35339731157759624036
                  0.22510734023857401076
                  0.10956561306904433195
                  0.00246399709651522539
                  0.39888988673642883365
                  0.13964226380428348961
                  0.08714906051775175855
                  0.13826866578458668622
                 -0.47979076110067842009
                 -0.67358709360399693367
                  0.16176810177428535553
                 -0.04699324847051645354
                  0.26014383317229256010
                  0.15761122911838834626
                  0.32273192143046158797
                 -0.14380344420823257257
                 -0.41598698212466184154
                  0.10226178800042859396
                 -0.09998305361590265061
                  0.03280491605124274956
                 -0.04059063449767942588
                  0.40825253024779839528
                 -0.18131736265234343897
                 -0.16740787515845523270
                 -0.00679128945377705309
                  0.00443458404210131385
                 -0.61902988151884552614
                 -0.07205425156856098967
                  0.23403375101007639625
                  0.61126616100820452271
                  0.89117405162349971892
                 -0.02649546915924045828
                 -0.15166231462503415583
                  0.26951709098691334354
                 -0.48204728780234762375
                 -0.27607690470656476300
                  0.84442997756783622076
                 -0.12982482845932608040
                 -0.13068399523009485708
                 -0.07669733485958407648
                  0.16022114684513608096
                  0.43314711984763898389
                 -0.66563154410324720800
                 -0.24879152195108791834
                  0.32655269304327511071
                  0.01654220946494388070
                 -0.36248267745399909145
                 -0.03916324533544077169
                  0.02458539987973171886
                  0.06471663938825007734
                 -0.19987705462201718620
                 -0.08029472070009210927
                 -0.21383279210013436678
                  0.04216293683528211933
                 -0.45672273047735573170
                  0.07234952844475217582
                 -0.33257687389340662154
                  0.30791466225896602094
                 -0.54740998307126254030
                  0.52109562857197955221
                  0.16315509126267357942
                 -0.22114584912726789612
                  0.00960353164860931752
                  0.31174179402952534312
                 -0.06430521603221552029
                 -0.05192132530044284849
                 -0.48241372740506682781
                 -0.34544792489620113063
                  0.57249448836599525769
                 -0.28192386538891783809
                  0.14202328195384752996
                 -0.04052474407193625699
                  0.31287342488204811231
                 -0.06241392271834537292
                  0.01329964668985386851
                 -0.28059542459049763297
                  0.25209973646346167664
                 -0.45402476873903463428
                  0.46598031261896866173
                  0.65488342041122438175
                  0.66501157444544201081
                 -0.02176502008300371799
                 -0.13155894204663190483
                 -0.31968265016712399396
                 -0.10009702846562180956
                  0.54934212560263495639
                  0.07737245882377313810
                 -0.23768697051484105609
                  0.13034484126458709130
                 -0.36545086333360932151
                  0.39029002774541843301
                 -0.66360121191968979293
                 -0.19897833270292361596
                  0.11725523440677458609
                 -0.16542249046133017387
                 -0.12761227950289535937
                  0.13455812125685939762
                 -0.74826148541756731802
                  0.05788461136679279306
                 -0.29182242906919697578
                 -0.16261731239220345024
                 -0.04857665982015377248
                  0.20984813587005896052
                  0.01817652505297162949
                 -0.24532009993540160320
                 -0.04167827443068637672
                 -0.44578749202972123289
                 -0.12028386949133161588
                 -0.44691991200570274634
                 -0.16688293153748995357
                  0.42551254011727912552
                  0.35456168285576877830
                  0.00824809983915453931
                 -0.15802643854050790750
                 -0.01973504075772307409
                  0.06282651902566074864
                  0.28916607137895050661
                 -0.10624931197234210867
                 -0.22865960371726012923
                 -0.11652470700397898895
                  0.04259446357914892234
                 -0.26782044278876632193
                  0.02750835591585898410
                  0.10256497040070494675
                  0.21213035846283997965
                  0.06725439085192221056
                  0.41089281186212323060
                  0.08565489225493520820
                 -0.13352775128083488321
                  0.15954896787529437852
                  0.02705262494620608305
                 -0.20374155699410442799
                  0.10142533286102084489
                 -0.46151146090724776139
                  0.37906585603239695281
                 -0.23440363877407410786
                 -0.35667618189206384827
                  0.37008258204814492576
                  0.51346424337565232943
                  0.05000557451393547459
                 -0.10688133610088697278
                  0.03498545514007452006
                  0.04666739506420439915
                  0.09644474943982142556
                 -0.38682880745719083748
                  0.12870857465016435905
                 -0.16516257109240994883
                 -0.04831663651599078096
                  0.07388129542983697118
                 -0.08900829395420598034
                 -0.22381510846503144263
                 -0.03789282197093927357
                 -0.20134628102470725208
                  0.04702938251413813636
                 -0.22436716840545353757
                 -0.02116621853836490180
                  0.02103946644195845567
                  0.36285616850140678391
                  0.38316624481454553131
                 -0.08798444530629240257
                  0.47293442267190205497
                 -0.26547186846457915266
                 -0.30482044892869386565
                  0.22001240211475314723
                  0.62904041861302684158
                 -0.02255721056972377625
                 -0.15131886457122159517
                  0.24940261916740094628
                  0.08166825738806768320
                  0.05877770492793366747
                 -0.07295244626281985334
                 -0.46385241459931214614
                 -0.30492270111385955111
                 -0.44668976083964151425
                 -0.52542271924349814860
                  0.24679329359074228534
                  0.06183936016861957957
                  0.10361077287574380068
                  0.46249374243476404356
                  0.13722767519338871511
                  0.08934785188086333263
                 -0.18639462947654150682
                 -0.00187207171901954714
                  0.77232897214584028678
                  0.40472993951286406755
                  0.04239608884293366575
                  0.18411755016821837461
                  0.01103097081959405687
                 -0.17315822376701639485
                  0.25278870309050011089
                 -0.40319524680573454178
                  0.04316504524448541713
                 -0.30400011979182589572
                  0.97061317645654621167
                 -0.14321239847739067330
                  0.08003302384423402471
                 -0.09863715270016756853
                 -0.13490759544328220776
                 -0.15762095857705751833
                  0.64824967181581205633
                 -0.16506256159064963684
                  0.92428845071613896511
                 -0.39239818604744614028
                 -0.07028826371881191637
                  0.26066460901549948215
                 -0.04384591294020100116
                 -0.88287631369400132453
                 -0.07394962901364056373
                 -0.15638131874040034353
                  0.30145916502059288966
                 -0.46782449326125347122
                 -0.50829486253081856972
                 -0.16547752371258062087
                 -0.18063904911421044264
                  0.37858877140190522192
                  0.08401491037611000245
                 -0.82791646325469325784
                  0.33829899165245369552
                 -0.18691547497450775039
                  0.27186191094009370950
                 -0.18260482745040496066
                  0.09210174342757529442
                  0.71324257750037067805
                  0.05266214049961118887
                  0.01799108444877626709
                 -0.73958832564454912717
                 -0.75681331880443847293
                 -0.21634623492973106829
                  0.15852552742740605440
                 -0.19525318655549148139
                  0.49377750235890882635
                  0.43402541175039460741
                 -0.37804443327307818423
                  0.18430916469752850473
                 -0.08688971484046285887
                  0.16515074991246281311
                 -0.38524821646010015685
                  0.30328961025264622453
                  0.61644350705973327553
                  0.16892541815897516022
                  0.13090608793821373323
                  0.23131974586199904875
                  0.58626461661484252641
                 -0.13385392501618220695
                  0.39836522021492182244
                 -0.36869458844462138503
                 -0.99854680754650027019
                  0.11823855215981718403
                  0.85437615249506049242
                 -0.08618793369316279929
                  0.07739422623928578215
                 -0.20824454197609670869
                  0.24629592530302604758
                 -0.51773691366401308755
                 -0.10003691033037838409
                  1.25047982972237758936
                  0.08884635208179889054
                  0.16245772108075989815
                 -0.03095999751333996380
                 -0.33865305657899646974
                 -0.26102201819954967688
                 -0.09615218886050418134
                 -1.41534361223683635700
                 -0.10488592140498614880
                 -0.30128012838389728323
                 -1.24096820220952519520
                 -0.01198186148952374956
                 -0.14557009225193229263
                 -0.08719809700715112910
                 -0.02023923953189986011
                 -0.40681792375991737698
                 -0.37477627921997036520
                  0.06504622646699236010
                  0.29240228514420746331
                  1.37752125263339975092
                  0.92883043467019077433
                 -0.17330589784923153274
                  0.76864353758110359749
                  0.45335387141311889181
                  0.32591748931572361858
                  0.48457306939965738568
                  1.20969127122558606224
                 -0.38532638925618656334
                  0.19602541856130009656
                 -0.34541156194760003206
                  0.21236052755860762575
                 -0.29479307572816260130
                 -0.27882229597660279641
                  0.04553231204960852402
                 -0.03687769157728953973
                  0.11274622180671520222
                 -0.86378837656510354392
                 -0.65965943598304432882
                  0.03101169463519381359
                  0.43233436833453658954
                 -0.91763075154189743809
                 -0.42807139553114986752
                 -0.75717558936536155656
                  0.20810891517949003937
                 -0.40915927650998079601
                 -0.21505892491335595884
                 -0.68068154905053168680
                  0.36194105817437105532
                 -0.11397317339067238040
                 -0.82039374594462965984
                  0.13996089988738144583
                  0.17320150843200082802
                 -0.39252450350858364425
                  0.16898642423809356883
                  0.52357953392189915398
                  1.12795989174091704221
                 -0.34013020239122965238
                 -0.64685831693336737214
                 -1.15578153428167396122
                  0.60115410208749764376
                  0.71695658038744891627
                  0.47204097138728784433
                 -1.01049873132458856162
                 -0.49528941387006419905
                 -0.64306835204303747222
                 -0.02213590363214886295
                 -0.22212549276429346956
                  1.10762176301135495393
                  0.54321925352491151617
                 -0.51439806022061096424
                 -0.57421152923110208022
                  0.52006058332524818244
                  0.62926701084425773480
                  0.79834779871800432005
                 -0.03548588670086688657
                 -0.83372448868047732695
                 -0.01791907501660198673
                  0.08967055833951553812
                  0.06284744986885822116
                  0.88312711654839470832
                  0.44876923654497119509
                 -0.92753179765465232354
                 -0.28491377808233581126
                 -0.33339286584578664563
                 -0.47368028571227788204
                 -0.85283728810086234517
                 -0.25178531997291059286
                  0.09924681836532640855
                  0.91761726744464644501
                 -0.48466576822719986684
                  0.15816303535508874356
                 -0.19665881677464891464
                 -0.10212003137341960080
                 -0.70007129878584584137
                 -0.32635058729401256183
                 -0.77258292624960844819
                 -0.14280345845122949244
                  0.68511407692310422046
                  0.40620781999601646151
                 -0.50295175488238619277
                  0.49480570065193957285
                  0.30491011852079324962
                  0.35295753893278181135
                 -0.01890256648330786507
                 -0.46751560921018270323
                 -0.60509321007186123165
                 -0.65910760534551005030
                  0.24757775326159797702
                 -0.06125709069731600370
                  0.01679663268273011434
                 -0.09088374140339618157
                  0.04957283042681972368
                  0.87899340009947934949
                  1.26770415561654492542
                 -0.82168382072910373104
                  0.32461006763092042915
                 -0.67336030148909509219
                  0.20439720497529509369
                  0.03175319999134980364
                  1.01059919830078337455
                 -1.19252700854262849717
                  0.12768106463606354595
                  0.80226981930261709319
                  1.18052988321153340401
                  0.15105765090922576577
                  0.07673255683228973056
                  1.04310602308918309866
                 -0.73510509151734981792
                 -0.48841123487602061681
                  0.17472521340159863357
                  0.48270237871972498933
                 -0.92590015987961149513
                 -1.15048882970398902437
                  0.76792642210457817686
                 -0.10114628949943249570
                 -0.47326346686550796461
                  0.19732476209057234207
                 -0.30916021326848486250
                 -0.19834366870248612558
                 -0.51377597414342790483
                 -0.16262769498395970857
                  0.53505238418869660588
                  0.51408995738733476166
                  0.47658494246702987063
                 -0.93877356675712719802
                 -0.64979146927085362773
                  0.82898907267009891431
                  0.10789809784222802180
                  0.37350566693971709586
                  0.77379181541790575949
                 -0.83751611214617449619
                  0.27320685551989032369
                 -1.50233320205773779321
                 -0.67085834022721624326
                 -0.03470397819158332203
                 -1.25866042568056424322
                 -0.14925316385284595477
                 -1.44273763403737920186
                 -0.49684417278109971328
                  0.19779060970932005326
                 -0.70571035415966398840
                 -0.69939933132962739393
                  0.03938078492406934389
                 -0.23835416461410030564
                  0.82283021099812891919
                 -0.95935775968025105431
                  1.68049383614996217240
                  0.78828470119542448646
                 -0.34693733977718888006
                  0.15850433869194233139
                  0.33739060998731673635
                  0.14363250881719774599
                 -0.20617312743859550483
                 -0.82271681418732089952
                  0.13126870786163341576
                 -0.02840784780351169117
                  0.01391091613194015558
                 -0.69354675068536708604
                  0.08918649746741549866
                  0.46065990880125684548
                  0.25493936877843659250
                  0.06688520468382957995
                 -0.94328595199685649764
                 -0.33717318499754250771
                  0.88748111317137667875
                 -0.16063156184881999256
                 -0.79369613905489788674
                  0.19577200103708256029
                  0.72026046483421335420
                 -0.43194444709280599426
                 -0.40071583123971782348
                 -0.16130965412702275019
                 -0.47684887134322789803
                  0.53034046376118670896
                  0.29868076659366976644
                  0.22584206397478998052
                  0.02410450849069192478
                 -0.08928101835937676811
                  0.33235998137102079619
                 -2.16118955071620311159
                  0.02047475889559282475
                  0.45775423867871811723
                 -0.35024356836273368154
                 -0.24460526718169203764
                  0.11550610939268320110
                  0.09244566609475904362
                 -0.48853554376358288014
                  1.05119011035720477665
                 -0.46203852444430892898
                 -0.01057097974800809588
                  0.76964597676741008936
                  0.52114365569260046041
                 -0.00517532868527339780
                  0.00809468721927485493
                  0.52588087155454932287
                  0.18819926623031976720
                  1.39481637646244971407
                  0.06601652368761042056
                  0.02283285145779591005
                 -0.49841884147814191630
                  0.08455979632682680824
                 -0.02910346366717278185
                  0.66852497347137562755
                  0.89158849708190746064
                  1.24131807123058957032
                  0.97450868912061228144
                  0.22837846076750900615
                  0.29009991832768494691
                  0.90330619878657569810
                 -0.11251109708088428973
                  0.41321478605324402089
                  0.55099679897331121925
                 -0.78803917819384139420
                  0.22659456582947451464
                 -0.21970807930305319422
                 -0.56117354813935582669
                  0.32875673262200655333
                 -0.43006162881132031783
                  0.37127618137898810158
                 -0.75444994695661926620
                 -0.33201654565494326254
                 -0.51429966265751703158
                  0.76623526124246199576
                 -0.72775332698341088644
                  0.26731015779700956214
                  0.50204231780993835432
                  0.68861122067701474592
                 -0.23332880562495902921
                 -1.01778216491403039612
                  0.50139059660714135891
                 -0.19067944635376321560
                 -0.22762812553134911808
                 -0.39051162880656548060
                  0.08767109934647174252
                  0.59471959109673688815
                 -0.45379294478706905247
                 -0.44336164453726445434
                 -0.64488403853812348299
                 -0.23562665564989465627
                  0.47513260823256436849
                  0.67359897287658720977
                 -1.47018207749140983331
                  1.28943482034910883449
                 -0.37786984180924715337
                 -0.62767397521245282821
                  1.74370784868948724977
                 -1.12192348998000346327
                  2.48070736199901675789
                  2.29814170364849879036
                  0.80051056548459931239
                  1.61851845900806012857
                  0.77127371355698770561
                  1.34272600736334912774
                  0.76847636923912077123
                  1.69945419029189070947
